{"learner":{"attributes":{"scikit_learn":"{\"_estimator_type\": \"regressor\"}"},"feature_names":[],"feature_types":[],"gradient_booster":{"model":{"gbtree_model_param":{"num_parallel_tree":"1","num_trees":"500"},"iteration_indptr":[0,1,2,3,4,5,6,7,8,9,10,11,12,13,14,15,16,17,18,19,20,21,22,23,24,25,26,27,28,29,30,31,32,33,34,35,36,37,38,39,40,41,42,43,44,45,46,47,48,49,50,51,52,53,54,55,56,57,58,59,60,61,62,63,64,65,66,67,68,69,70,71,72,73,74,75,76,77,78,79,80,81,82,83,84,85,86,87,88,89,90,91,92,93,94,95,96,97,98,99,100,101,102,103,104,105,106,107,108,109,110,111,112,113,114,115,116,117,118,119,120,121,122,123,124,125,126,127,128,129,130,131,132,133,134,135,136,137,138,139,140,141,142,143,144,145,146,147,148,149,150,151,152,153,154,155,156,157,158,159,160,161,162,163,164,165,166,167,168,169,170,171,172,173,174,175,176,177,178,179,180,181,182,183,184,185,186,187,188,189,190,191,192,193,194,195,196,197,198,199,200,201,202,203,204,205,206,207,208,209,210,211,212,213,214,215,216,217,218,219,220,221,222,223,224,225,226,227,228,229,230,231,232,233,234,235,236,237,238,239,240,241,242,243,244,245,246,247,248,249,250,251,252,253,254,255,256,257,258,259,260,261,262,263,264,265,266,267,268,269,270,271,272,273,274,275,276,277,278,279,280,281,282,283,284,285,286,287,288,289,290,291,292,293,294,295,296,297,298,299,300,301,302,303,304,305,306,307,308,309,310,311,312,313,314,315,316,317,318,319,320,321,322,323,324,325,326,327,328,329,330,331,332,333,334,335,336,337,338,339,340,341,342,343,344,345,346,347,348,349,350,351,352,353,354,355,356,357,358,359,360,361,362,363,364,365,366,367,368,369,370,371,372,373,374,375,376,377,378,379,380,381,382,383,384,385,386,387,388,389,390,391,392,393,394,395,396,397,398,399,400,401,402,403,404,405,406,407,408,409,410,411,412,413,414,415,416,417,418,419,420,421,422,423,424,425,426,427,428,429,430,431,432,433,434,435,436,437,438,439,440,441,442,443,444,445,446,447,448,449,450,451,452,453,454,455,456,457,458,459,460,461,462,463,464,465,466,467,468,469,470,471,472,473,474,475,476,477,478,479,480,481,482,483,484,485,486,487,488,489,490,491,492,493,494,495,496,497,498,499,500],"tree_info":[0,0,0,0,0,0,0,0,0,0,0,0,0,0,0,0,0,0,0,0,0,0,0,0,0,0,0,0,0,0,0,0,0,0,0,0,0,0,0,0,0,0,0,0,0,0,0,0,0,0,0,0,0,0,0,0,0,0,0,0,0,0,0,0,0,0,0,0,0,0,0,0,0,0,0,0,0,0,0,0,0,0,0,0,0,0,0,0,0,0,0,0,0,0,0,0,0,0,0,0,0,0,0,0,0,0,0,0,0,0,0,0,0,0,0,0,0,0,0,0,0,0,0,0,0,0,0,0,0,0,0,0,0,0,0,0,0,0,0,0,0,0,0,0,0,0,0,0,0,0,0,0,0,0,0,0,0,0,0,0,0,0,0,0,0,0,0,0,0,0,0,0,0,0,0,0,0,0,0,0,0,0,0,0,0,0,0,0,0,0,0,0,0,0,0,0,0,0,0,0,0,0,0,0,0,0,0,0,0,0,0,0,0,0,0,0,0,0,0,0,0,0,0,0,0,0,0,0,0,0,0,0,0,0,0,0,0,0,0,0,0,0,0,0,0,0,0,0,0,0,0,0,0,0,0,0,0,0,0,0,0,0,0,0,0,0,0,0,0,0,0,0,0,0,0,0,0,0,0,0,0,0,0,0,0,0,0,0,0,0,0,0,0,0,0,0,0,0,0,0,0,0,0,0,0,0,0,0,0,0,0,0,0,0,0,0,0,0,0,0,0,0,0,0,0,0,0,0,0,0,0,0,0,0,0,0,0,0,0,0,0,0,0,0,0,0,0,0,0,0,0,0,0,0,0,0,0,0,0,0,0,0,0,0,0,0,0,0,0,0,0,0,0,0,0,0,0,0,0,0,0,0,0,0,0,0,0,0,0,0,0,0,0,0,0,0,0,0,0,0,0,0,0,0,0,0,0,0,0,0,0,0,0,0,0,0,0,0,0,0,0,0,0,0,0,0,0,0,0,0,0,0,0,0,0,0,0,0,0,0,0,0,0,0,0,0,0,0,0,0,0,0,0,0,0,0,0,0,0,0,0,0,0,0,0,0,0,0,0,0,0,0,0,0,0,0,0,0,0,0,0,0,0,0,0,0,0,0,0,0,0,0,0,0,0,0,0,0,0,0],"trees":[{"base_weights":[-4.0904123E-2,9.7215724E-1,-2.4972374E0,3.0277577E-1,1.64218E0,-1.5274426E0,-3.8180673E0,6.587307E-1,-2.9281205E-1,-2.015156E0,1.8423251E0,-1.1675028E0,-2.0819774E0,-2.0516942E0,-4.1480937E0,1.0091672E0,-2.180903E-2,-7.228729E-2,-1.1642163E0,-2.4018006E0,7.5652474E-1,2.115056E0,8.9006674E-1,-1.2873886E0,-0E0,-2.1349666E0,-0E0,-0E0,-2.2876766E0,-4.702643E0,-3.4512277E0,3.70516E-2,7.9326026E-2,-3.4303136E-2,7.454286E-3,-1.9622257E-2,2.7323763E-3,-0E0,-6.338357E-2,-1.338753E-1,-0E0,-0E0,4.3952912E-2,1.0961347E-1,-3.578926E-2,4.8987564E-2,-0E0,-6.938891E-2,-0E0,2.3631519E-2,-1.32026095E-2,-0E0,-1.0963016E-1,-1.2371061E-1,-0E0,-2.3697662E-1,-0E0,-1.763656E-1,-0E0],"categories":[],"categories_nodes":[],"categories_segments":[],"categories_sizes":[],"default_left":[0,0,0,0,0,0,0,0,0,0,0,0,0,0,0,0,0,0,0,0,0,0,0,0,0,0,0,0,0,0,0,0,0,0,0,0,0,0,0,0,0,0,0,0,0,0,0,0,0,0,0,0,0,0,0,0,0,0,0],"id":0,"left_children":[1,3,5,7,9,11,13,15,17,19,21,23,25,27,29,31,33,35,37,39,41,43,45,47,49,51,-1,-1,53,55,57,-1,-1,-1,-1,-1,-1,-1,-1,-1,-1,-1,-1,-1,-1,-1,-1,-1,-1,-1,-1,-1,-1,-1,-1,-1,-1,-1,-1],"loss_changes":[1.1887425E4,1.4937432E3,1.7288975E3,3.6362015E2,1.2310088E3,1.2694946E2,2.711006E2,2.65791E2,1.0765469E2,1.09360535E2,3.823042E2,7.2385864E1,4.5809692E1,6.9976715E1,9.081738E1,8.670154E1,4.588427E1,2.4084764E1,2.140126E1,5.1878204E1,8.305669E-1,2.854038E2,3.337079E1,6.934271E1,6.2661934E0,2.2444092E1,0E0,0E0,3.3634552E1,2.3521484E1,3.3964844E1,0E0,0E0,0E0,0E0,0E0,0E0,0E0,0E0,0E0,0E0,0E0,0E0,0E0,0E0,0E0,0E0,0E0,0E0,0E0,0E0,0E0,0E0,0E0,0E0,0E0,0E0,0E0,0E0],"parents":[2147483647,0,0,1,1,2,2,3,3,4,4,5,5,6,6,7,7,8,8,9,9,10,10,11,11,12,12,13,13,14,14,15,15,16,16,17,17,18,18,19,19,20,20,21,21,22,22,23,23,24,24,25,25,28,28,29,29,30,30],"right_children":[2,4,6,8,10,12,14,16,18,20,22,24,26,28,30,32,34,36,38,40,42,44,46,48,50,52,-1,-1,54,56,58,-1,-1,-1,-1,-1,-1,-1,-1,-1,-1,-1,-1,-1,-1,-1,-1,-1,-1,-1,-1,-1,-1,-1,-1,-1,-1,-1,-1],"split_conditions":[2.9987E0,-1.7664733E0,4.75018E0,2.2181E0,1.0579428E-1,3.4955914E0,3.0133307E-1,1.975E1,3.73E2,1.0816519E0,3.4169204E0,1E0,4.987194E0,-4.825385E0,-9.64788E0,1E0,-1.0164737E1,-2.1475265E0,-9.408441E0,9.357798E-1,2.598E-1,1.0907241E1,6.1345134E0,1E0,3.5421E0,-2.0307799E-1,-0E0,-0E0,1E0,1E0,2E0,3.70516E-2,7.9326026E-2,-3.4303136E-2,7.454286E-3,-1.9622257E-2,2.7323763E-3,-0E0,-6.338357E-2,-1.338753E-1,-0E0,-0E0,4.3952912E-2,1.0961347E-1,-3.578926E-2,4.8987564E-2,-0E0,-6.938891E-2,-0E0,2.3631519E-2,-1.32026095E-2,-0E0,-1.0963016E-1,-1.2371061E-1,-0E0,-2.3697662E-1,-0E0,-1.763656E-1,-0E0],"split_indices":[4249,3819,4249,4249,2350,2292,3163,3728,2553,3379,2399,2518,2363,4129,2318,2518,2448,2217,2758,3265,2820,2748,2434,653,4249,2439,0,0,100,2107,2518,0,0,0,0,0,0,0,0,0,0,0,0,0,0,0,0,0,0,0,0,0,0,0,0,0,0,0,0],"split_type":[0,0,0,0,0,0,0,0,0,0,0,0,0,0,0,0,0,0,0,0,0,0,0,0,0,0,0,0,0,0,0,0,0,0,0,0,0,0,0,0,0,0,0,0,0,0,0,0,0,0,0,0,0,0,0,0,0,0,0],"sum_hessian":[4.769E3,3.374E3,1.395E3,1.696E3,1.678E3,8.1E2,5.85E2,1.072E3,6.24E2,8.4E1,1.594E3,5.04E2,3.06E2,9.8E1,4.87E2,7.17E2,3.55E2,5.08E2,1.16E2,7.7E1,7E0,1.23E3,3.64E2,4.58E2,4.6E1,3.01E2,5E0,6E0,9.2E1,2.6E2,2.27E2,5.03E2,2.14E2,8.4E1,2.71E2,1.66E2,3.42E2,5E0,1.11E2,6.9E1,8E0,1E0,6E0,1.201E3,2.9E1,3.35E2,2.9E1,4.3E2,2.8E1,1.8E1,2.8E1,1.1E1,2.9E2,8.4E1,8E0,2.57E2,3E0,2.2E2,7E0],"tree_param":{"num_deleted":"0","num_feature":"4336","num_nodes":"59","size_leaf_vector":"1"}},{"base_weights":[-2.8252145E-2,1.0109155E0,-2.1674879E0,3.7526503E-1,1.6034322E0,-1.3268085E0,-3.5896032E0,6.2166494E-1,-5.4640657E-1,-1.757398E0,1.7688364E0,-8.363562E-1,-1.7907892E0,-4.9152884E-1,-3.7389705E0,9.0988207E-1,-0E0,-1.4075093E-1,-1.3416587E0,-2.0843804E0,-0E0,2.127562E0,1.1697011E0,-4.857767E-1,-1.294165E0,-1.8729782E0,-0E0,-0E0,-1.0959187E0,-3.4562654E0,-5.195252E0,7.019358E-2,2.9365567E-2,9.907548E-3,-1.6338026E-2,5.515495E-3,-2.102368E-2,-0E0,-8.094128E-2,-1.13917194E-1,-0E0,1.2023411E-1,5.9458565E-2,6.3713886E-2,-4.6418037E-2,-1.0258134E-2,-6.717734E-2,-7.070838E-2,-0E0,-7.99432E-2,-1.2200184E-1,-0E0,-1.8666217E-2,-6.336963E-2,-0E0,-0E0,-1.7626292E-1,-2.6268265E-1,-0E0],"categories":[],"categories_nodes":[],"categories_segments":[],"categories_sizes":[],"default_left":[0,0,0,0,0,0,0,0,0,0,0,0,0,0,0,0,0,0,0,0,0,0,0,0,0,0,0,0,0,0,0,0,0,0,0,0,0,0,0,0,0,0,0,0,0,0,0,0,0,0,0,0,0,0,0,0,0,0,0],"id":1,"left_children":[1,3,5,7,9,11,13,15,17,19,21,23,25,27,29,31,33,35,37,39,-1,41,43,45,47,49,51,-1,53,55,57,-1,-1,-1,-1,-1,-1,-1,-1,-1,-1,-1,-1,-1,-1,-1,-1,-1,-1,-1,-1,-1,-1,-1,-1,-1,-1,-1,-1],"loss_changes":[1.0733181E4,1.2010337E3,1.8350317E3,3.5854736E2,9.3156836E2,1.9956372E2,2.2517871E2,2.2271552E2,8.950897E1,5.6368942E1,3.0734473E2,6.1500122E1,5.644568E1,1.6531136E1,1.2278662E2,1.1518628E2,2.56968E1,1.8878958E1,4.8807632E1,3.074179E1,0E0,2.176084E2,1.3848108E2,5.5485138E1,2.7978851E1,2.9543213E1,2.369308E0,0E0,3.2860737E0,9.0166504E1,2.2437988E1,0E0,0E0,0E0,0E0,0E0,0E0,0E0,0E0,0E0,0E0,0E0,0E0,0E0,0E0,0E0,0E0,0E0,0E0,0E0,0E0,0E0,0E0,0E0,0E0,0E0,0E0,0E0,0E0],"parents":[2147483647,0,0,1,1,2,2,3,3,4,4,5,5,6,6,7,7,8,8,9,9,10,10,11,11,12,12,13,13,14,14,15,15,16,16,17,17,18,18,19,19,21,21,22,22,23,23,24,24,25,25,26,26,28,28,29,29,30,30],"right_children":[2,4,6,8,10,12,14,16,18,20,22,24,26,28,30,32,34,36,38,40,-1,42,44,46,48,50,52,-1,54,56,58,-1,-1,-1,-1,-1,-1,-1,-1,-1,-1,-1,-1,-1,-1,-1,-1,-1,-1,-1,-1,-1,-1,-1,-1,-1,-1,-1,-1],"split_conditions":[2.7659E0,-1.7664733E0,4.75018E0,1.15E1,1.0579428E-1,3.5421E0,-3.6807399E0,2.1919E0,6.9282317E0,1.5068018E2,2.040231E2,6.023151E0,3.5532153E0,2.0117566E-1,2.172058E0,6.0037503E0,1.64E2,2.8998382E0,-8.9170855E-1,1.4746785E-1,-0E0,1.2133E0,9.834278E-1,7.1428573E-1,1E0,3.7314074E0,2.01E2,-0E0,7.899806E0,-3.8347886E0,1E0,7.019358E-2,2.9365567E-2,9.907548E-3,-1.6338026E-2,5.515495E-3,-2.102368E-2,-0E0,-8.094128E-2,-1.13917194E-1,-0E0,1.2023411E-1,5.9458565E-2,6.3713886E-2,-4.6418037E-2,-1.0258134E-2,-6.717734E-2,-7.070838E-2,-0E0,-7.99432E-2,-1.2200184E-1,-0E0,-1.8666217E-2,-6.336963E-2,-0E0,-0E0,-1.7626292E-1,-2.6268265E-1,-0E0],"split_indices":[4249,3819,4249,3732,2350,4249,2911,4249,3924,2739,2696,3158,2402,2220,2736,3162,2551,2224,2884,2287,0,4249,2856,3765,4259,2471,3722,0,2404,3616,513,0,0,0,0,0,0,0,0,0,0,0,0,0,0,0,0,0,0,0,0,0,0,0,0,0,0,0,0],"split_type":[0,0,0,0,0,0,0,0,0,0,0,0,0,0,0,0,0,0,0,0,0,0,0,0,0,0,0,0,0,0,0,0,0,0,0,0,0,0,0,0,0,0,0,0,0,0,0,0,0,0,0,0,0,0,0,0,0,0,0],"sum_hessian":[4.821E3,3.242E3,1.579E3,1.573E3,1.669E3,9.98E2,5.81E2,1.25E3,3.23E2,7.5E1,1.594E3,4.97E2,5.01E2,3E1,5.51E2,8.52E2,3.98E2,2.23E2,1E2,6.6E1,9E0,9.85E2,6.09E2,2.95E2,2.02E2,4.74E2,2.7E1,1.1E1,1.9E1,4.7E2,8.1E1,3.23E2,5.29E2,2.51E2,1.47E2,9.9E1,1.24E2,1.3E1,8.7E1,6.1E1,5E0,7.51E2,2.34E2,5.85E2,2.4E1,2.32E2,6.3E1,1.83E2,1.9E1,3.34E2,1.4E2,1.1E1,1.6E1,1.6E1,3E0,1.1E1,4.59E2,8E1,1E0],"tree_param":{"num_deleted":"0","num_feature":"4336","num_nodes":"59","size_leaf_vector":"1"}},{"base_weights":[-2.3457907E-2,9.7460043E-1,-2.0872371E0,1.4908068E0,3.1376365E-1,-1.3759359E0,-3.5372593E0,1.8017817E0,-7.9290606E-2,5.959457E-1,-3.98482E-1,-9.828997E-1,-2.1073012E0,-2.6893435E0,-4.123501E0,2.1622787E0,8.45427E-1,6.836795E-1,-1.6576121E0,8.157229E-1,1.1182891E-2,-9.2811114E-1,-0E0,-5.659406E-1,-1.4443253E0,-2.1863544E0,-0E0,-2.834991E0,-0E0,-4.176532E0,-0E0,1.2947243E-1,8.6320244E-2,5.035414E-2,7.524828E-3,-0E0,9.121303E-2,2.2380731E-5,-1.1054709E-1,-0E0,4.6031646E-2,-1.3148136E-2,1.0571517E-2,-0E0,-5.7630625E-2,7.6779993E-3,-1.9659761E-2,-3.2543357E-2,2.0712318E-2,-7.0289674E-4,-7.912063E-2,-1.3605015E-1,-8.834001E-2,-6.9408887E-3,-0E0,-1.4562665E-1,-0E0,-2.1049295E-1,-0E0],"categories":[],"categories_nodes":[],"categories_segments":[],"categories_sizes":[],"default_left":[0,0,0,0,0,0,0,0,0,0,0,0,0,0,0,0,0,0,0,0,0,0,0,0,0,0,0,0,0,0,0,0,0,0,0,0,0,0,0,0,0,0,0,0,0,0,0,0,0,0,0,0,0,0,0,0,0,0,0],"id":2,"left_children":[1,3,5,7,9,11,13,15,17,19,21,23,25,27,29,31,33,35,37,39,41,43,45,47,49,51,53,55,-1,57,-1,-1,-1,-1,-1,-1,-1,-1,-1,-1,-1,-1,-1,-1,-1,-1,-1,-1,-1,-1,-1,-1,-1,-1,-1,-1,-1,-1,-1],"loss_changes":[1.0056608E4,1.1017515E3,1.5890249E3,9.1332666E2,2.936374E2,2.7603857E2,1.7876855E2,4.979961E2,3.7093204E2,1.2653668E2,7.743527E1,1.15680786E2,5.25282E1,7.413928E1,6.1393555E1,1.5867236E2,3.6578644E1,1.4040616E2,1.1568619E2,5.525464E1,1.6009363E1,4.0738617E1,1.6403147E1,3.4767967E1,4.820111E1,2.9048706E1,2.1197411E-1,4.2249146E1,0E0,2.9001465E1,0E0,0E0,0E0,0E0,0E0,0E0,0E0,0E0,0E0,0E0,0E0,0E0,0E0,0E0,0E0,0E0,0E0,0E0,0E0,0E0,0E0,0E0,0E0,0E0,0E0,0E0,0E0,0E0,0E0],"parents":[2147483647,0,0,1,1,2,2,3,3,4,4,5,5,6,6,7,7,8,8,9,9,10,10,11,11,12,12,13,13,14,14,15,15,16,16,17,17,18,18,19,19,20,20,21,21,22,22,23,23,24,24,25,25,26,26,27,27,29,29],"right_children":[2,4,6,8,10,12,14,16,18,20,22,24,26,28,30,32,34,36,38,40,42,44,46,48,50,52,54,56,-1,58,-1,-1,-1,-1,-1,-1,-1,-1,-1,-1,-1,-1,-1,-1,-1,-1,-1,-1,-1,-1,-1,-1,-1,-1,-1,-1,-1,-1,-1],"split_conditions":[2.7984E0,1.35E1,5.0093E0,-1.0046781E-3,5.5019517E0,6.95637E0,2.275E1,1.4992E0,1.6441679E-1,1.8457E0,-2.4E0,3.5421E0,1E0,-2.0982315E-1,2.985013E-1,2.945085E0,6.023265E0,4.4200885E-1,-3.3580983E-1,-2.375698E-1,9.972028E-1,5.497168E0,2.15998E0,1E0,-2.9012784E-1,5.801714E-1,-1.7516664E-3,1.593291E2,-0E0,1.2577319E-1,-0E0,1.2947243E-1,8.6320244E-2,5.035414E-2,7.524828E-3,-0E0,9.121303E-2,2.2380731E-5,-1.1054709E-1,-0E0,4.6031646E-2,-1.3148136E-2,1.0571517E-2,-0E0,-5.7630625E-2,7.6779993E-3,-1.9659761E-2,-3.2543357E-2,2.0712318E-2,-7.0289674E-4,-7.912063E-2,-1.3605015E-1,-8.834001E-2,-6.9408887E-3,-0E0,-1.4562665E-1,-0E0,-2.1049295E-1,-0E0],"split_indices":[4249,3728,4249,2857,2399,2399,3728,4249,2242,4249,4167,4249,4270,2271,2958,2234,3158,3295,2438,2966,3070,3924,4249,2518,2884,4132,2858,2741,0,2984,0,0,0,0,0,0,0,0,0,0,0,0,0,0,0,0,0,0,0,0,0,0,0,0,0,0,0,0,0],"split_type":[0,0,0,0,0,0,0,0,0,0,0,0,0,0,0,0,0,0,0,0,0,0,0,0,0,0,0,0,0,0,0,0,0,0,0,0,0,0,0,0,0,0,0,0,0,0,0,0,0,0,0,0,0,0,0,0,0,0,0],"sum_hessian":[4.875E3,3.283E3,1.592E3,1.834E3,1.449E3,1.074E3,5.18E2,1.536E3,2.98E2,1.048E3,4.01E2,7.09E2,3.65E2,2.21E2,2.97E2,1.107E3,4.29E2,1.97E2,1.01E2,7.49E2,2.99E2,1.63E2,2.38E2,3.85E2,3.24E2,3.5E2,1.5E1,2.08E2,1.3E1,2.93E2,4E0,5.45E2,5.62E2,3.36E2,9.3E1,1.28E2,6.9E1,2.1E1,8E1,9.6E1,6.53E2,1.05E2,1.94E2,2.7E1,1.36E2,1.57E2,8.1E1,3.64E2,2.1E1,3.5E1,2.89E2,1.41E2,2.09E2,1E1,5E0,2.02E2,6E0,2.9E2,3E0],"tree_param":{"num_deleted":"0","num_feature":"4336","num_nodes":"59","size_leaf_vector":"1"}},{"base_weights":[3.0410083E-2,9.6929836E-1,-1.8208952E0,1.9561225E0,6.6771126E-1,-1.1938145E0,-3.399139E0,2.3628182E0,9.987993E-1,-1.8471897E0,7.354919E-1,-6.4647233E-1,-1.6634526E0,-0E0,-3.5578284E0,-2.6695687E-1,2.4249315E0,9.6731074E-2,1.2716058E0,-2.0727856E0,-0E0,1.1068779E0,2.2695117E-1,-7.5129163E-1,1.1115677E-1,-1.7986438E0,-3.130749E-1,-3.132732E-2,-0E0,-3.5947907E0,-0E0,-0E0,-4.1980892E-2,5.42624E-2,1.3239361E-1,1.6447311E-2,-0E0,6.461687E-2,-0E0,-1.092005E-1,-0E0,7.0088305E-2,2.4346218E-2,-4.8987507E-3,3.2516528E-2,-4.2633027E-2,-0E0,2.126736E-2,-0E0,-1.371769E-1,-7.73033E-2,2.031809E-2,-3.7284266E-2,-0E0,4.3013855E-4,-1.6796218E-1,-2.520536E-1],"categories":[],"categories_nodes":[],"categories_segments":[],"categories_sizes":[],"default_left":[0,0,0,0,0,0,0,0,0,0,0,0,0,0,0,0,0,0,0,0,0,0,0,0,0,0,0,0,0,0,0,0,0,0,0,0,0,0,0,0,0,0,0,0,0,0,0,0,0,0,0,0,0,0,0,0,0],"id":3,"left_children":[1,3,5,7,9,11,13,15,17,19,21,23,25,27,29,31,33,35,37,39,-1,41,43,45,47,49,51,-1,53,55,-1,-1,-1,-1,-1,-1,-1,-1,-1,-1,-1,-1,-1,-1,-1,-1,-1,-1,-1,-1,-1,-1,-1,-1,-1,-1,-1],"loss_changes":[8.367747E3,9.2511646E2,1.5513252E3,2.5252417E2,4.0974744E2,2.7503467E2,2.1118164E2,1.05859375E2,4.2794342E1,2.8165497E1,4.3987524E2,5.0083252E1,9.0776245E1,4.710725E0,6.2520996E1,3.588355E0,1.1032471E2,3.197712E0,3.9194946E0,2.1270432E1,0E0,2.319867E2,1.4673103E2,4.5422424E1,5.6402826E0,8.484082E1,2.3615345E1,0E0,8.140843E-4,4.4868164E1,0E0,0E0,0E0,0E0,0E0,0E0,0E0,0E0,0E0,0E0,0E0,0E0,0E0,0E0,0E0,0E0,0E0,0E0,0E0,0E0,0E0,0E0,0E0,0E0,0E0,0E0,0E0],"parents":[2147483647,0,0,1,1,2,2,3,3,4,4,5,5,6,6,7,7,8,8,9,9,10,10,11,11,12,12,13,13,14,14,15,15,16,16,17,17,18,18,19,19,21,21,22,22,23,23,24,24,25,25,26,26,28,28,29,29],"right_children":[2,4,6,8,10,12,14,16,18,20,22,24,26,28,30,32,34,36,38,40,-1,42,44,46,48,50,52,-1,54,56,-1,-1,-1,-1,-1,-1,-1,-1,-1,-1,-1,-1,-1,-1,-1,-1,-1,-1,-1,-1,-1,-1,-1,-1,-1,-1,-1],"split_conditions":[2.702E0,2.5476625E1,5.2109E0,1.177E0,1.0579428E-1,3.5076E0,-3.6177747E0,1.0844678E0,3.4535187E-1,1.4746785E-1,1.575E1,3.039928E-1,1E0,5.1614456E0,6.0033507E0,-7.9755545E-2,-1.24E0,1.2452116E0,1.3688672E0,1E0,-0E0,1.6623E0,-2.298517E0,1E0,4.390415E0,1.7448853E-1,-4.3104105E-2,-3.132732E-2,-7.0872173E0,8.580308E-1,-0E0,-0E0,-4.1980892E-2,5.42624E-2,1.3239361E-1,1.6447311E-2,-0E0,6.461687E-2,-0E0,-1.092005E-1,-0E0,7.0088305E-2,2.4346218E-2,-4.8987507E-3,3.2516528E-2,-4.2633027E-2,-0E0,2.126736E-2,-0E0,-1.371769E-1,-7.73033E-2,2.031809E-2,-3.7284266E-2,-0E0,4.3013855E-4,-1.6796218E-1,-2.520536E-1],"split_indices":[4249,2631,4249,4249,2350,4249,2911,3379,3295,2287,3728,3296,2518,2331,3777,2304,4167,3116,2293,259,0,4249,3819,2517,3853,3295,3023,0,2318,3374,0,0,0,0,0,0,0,0,0,0,0,0,0,0,0,0,0,0,0,0,0,0,0,0,0,0,0],"split_type":[0,0,0,0,0,0,0,0,0,0,0,0,0,0,0,0,0,0,0,0,0,0,0,0,0,0,0,0,0,0,0,0,0,0,0,0,0,0,0,0,0,0,0,0,0,0,0,0,0,0,0,0,0,0,0,0,0],"sum_hessian":[4.817E3,3.2E3,1.617E3,7.4E2,2.46E3,1.163E3,4.54E2,5.11E2,2.29E2,6E1,2.4E3,5.48E2,6.15E2,2.3E1,4.31E2,8E0,5.03E2,6.2E1,1.67E2,5.4E1,6E0,1.375E3,1.025E3,4.93E2,5.5E1,5.52E2,6.3E1,1.1E1,1.2E1,4.27E2,4E0,3E0,5E0,7.9E1,4.24E2,3.4E1,2.8E1,1.64E2,3E0,5.3E1,1E0,9.2E2,4.55E2,5.67E2,4.58E2,4.45E2,4.8E1,3.4E1,2.1E1,1.06E2,4.46E2,1.5E1,4.8E1,2E0,1E1,3.76E2,5.1E1],"tree_param":{"num_deleted":"0","num_feature":"4336","num_nodes":"57","size_leaf_vector":"1"}},{"base_weights":[-9.084946E-3,9.378009E-1,-1.8297153E0,1.5550902E0,4.5452994E-1,-9.6090376E-1,-2.9655678E0,1.6367149E0,-1.3146962E0,-6.7131305E-1,6.1954606E-1,-6.7807806E-1,-1.5258409E0,-2.7000656E0,-4.573329E0,1.9214518E0,7.485167E-1,-2.0963328E0,3.3536875E-1,-1.5326583E0,-0E0,2.1483502E-1,1.069464E0,-0E0,-8.889376E-1,-1.8610365E0,-7.5128883E-1,-5.325079E-1,-2.8132927E0,-2.3289548E-1,-0E0,9.947492E-2,-0E0,5.379994E-2,1.0780293E-2,-0E0,-1.341588E-1,-0E0,2.1926349E-2,-8.6728744E-2,-0E0,1.3448297E-2,-2.8784404E-2,1.8808307E-2,-1.6700549E-2,-0E0,5.6018736E-2,5.200633E-2,-9.9903485E-3,-4.9305335E-2,-0E0,-0E0,-9.92737E-2,-0E0,-5.373497E-2,-5.0717916E-2,-0E0,-1.4303482E-1,-0E0],"categories":[],"categories_nodes":[],"categories_segments":[],"categories_sizes":[],"default_left":[0,0,0,0,0,0,0,0,0,0,0,0,0,0,0,0,0,0,0,0,0,0,0,0,0,0,0,0,0,0,0,0,0,0,0,0,0,0,0,0,0,0,0,0,0,0,0,0,0,0,0,0,0,0,0,0,0,0,0],"id":4,"left_children":[1,3,5,7,9,11,13,15,17,19,21,23,25,27,29,31,33,35,37,39,41,43,45,47,49,51,53,55,57,-1,-1,-1,-1,-1,-1,-1,-1,-1,-1,-1,-1,-1,-1,-1,-1,-1,-1,-1,-1,-1,-1,-1,-1,-1,-1,-1,-1,-1,-1],"loss_changes":[8.238949E3,9.150205E2,1.5733462E3,3.2582007E2,3.287329E2,1.26159485E2,2.1543018E2,3.0923413E2,6.345398E1,1.3855841E2,2.6952588E2,9.003528E1,5.0106873E1,1.1524463E2,2.9220337E1,1.476499E2,4.5141235E1,2.8138992E1,4.4636363E-1,4.2560547E1,1.6194267E1,7.404032E1,4.5457825E1,3.1154688E1,3.761795E1,2.8235474E1,3.1925442E1,1.4485819E1,5.69917E1,0E0,0E0,0E0,0E0,0E0,0E0,0E0,0E0,0E0,0E0,0E0,0E0,0E0,0E0,0E0,0E0,0E0,0E0,0E0,0E0,0E0,0E0,0E0,0E0,0E0,0E0,0E0,0E0,0E0,0E0],"parents":[2147483647,0,0,1,1,2,2,3,3,4,4,5,5,6,6,7,7,8,8,9,9,10,10,11,11,12,12,13,13,14,14,15,15,16,16,17,17,18,18,19,19,20,20,21,21,22,22,23,23,24,24,25,25,26,26,27,27,28,28],"right_children":[2,4,6,8,10,12,14,16,18,20,22,24,26,28,30,32,34,36,38,40,42,44,46,48,50,52,54,56,58,-1,-1,-1,-1,-1,-1,-1,-1,-1,-1,-1,-1,-1,-1,-1,-1,-1,-1,-1,-1,-1,-1,-1,-1,-1,-1,-1,-1,-1,-1],"split_conditions":[2.6885E0,1.9356102E0,4.37598E0,1.6388412E1,1.7084018E0,3.5301168E0,2.172058E0,1.81991E1,-1.3159984E-1,7.8692186E-1,-1.9254779E0,-1.3556883E-1,8.59484E0,-3.6177747E0,7.9749185E-1,8.5911673E-1,6.82058E-1,9.359586E0,-1.1698216E0,2.3714408E-1,6.909091E0,9.2619437E-1,1.1302782E0,-2.0620278E-1,1E0,4.2876935E0,4.6831277E-1,2.7060416E0,4.678704E-1,-2.3289548E-1,-0E0,9.947492E-2,-0E0,5.379994E-2,1.0780293E-2,-0E0,-1.341588E-1,-0E0,2.1926349E-2,-8.6728744E-2,-0E0,1.3448297E-2,-2.8784404E-2,1.8808307E-2,-1.6700549E-2,-0E0,5.6018736E-2,5.200633E-2,-9.9903485E-3,-4.9305335E-2,-0E0,-0E0,-9.92737E-2,-0E0,-5.373497E-2,-5.0717916E-2,-0E0,-1.4303482E-1,-0E0],"split_indices":[4249,3176,4249,2748,3180,2292,2736,4183,2476,3101,3819,2884,3597,2911,2839,3356,3115,3846,2305,2397,2651,3745,3772,3044,2518,3349,2866,2822,2989,0,0,0,0,0,0,0,0,0,0,0,0,0,0,0,0,0,0,0,0,0,0,0,0,0,0,0,0,0,0],"split_type":[0,0,0,0,0,0,0,0,0,0,0,0,0,0,0,0,0,0,0,0,0,0,0,0,0,0,0,0,0,0,0,0,0,0,0,0,0,0,0,0,0,0,0,0,0,0,0,0,0,0,0,0,0,0,0,0,0,0,0],"sum_hessian":[4.772E3,3.136E3,1.636E3,1.367E3,1.769E3,9.33E2,7.03E2,1.333E3,3.4E1,2.18E2,1.551E3,6.35E2,2.98E2,6.11E2,9.2E1,1E3,3.33E2,2.7E1,7E0,1E2,1.18E2,8.29E2,7.22E2,1.52E2,4.83E2,1.98E2,1E2,3.5E1,5.76E2,9E1,2E0,9.7E2,3E1,1.94E2,1.39E2,7E0,2E1,1E0,6E0,9.2E1,8E0,9E1,2.8E1,6.55E2,1.74E2,2.8E1,6.94E2,2.3E1,1.29E2,4.31E2,5.2E1,1.7E1,1.81E2,2.4E1,7.6E1,2.3E1,1.2E1,5.64E2,1.2E1],"tree_param":{"num_deleted":"0","num_feature":"4336","num_nodes":"59","size_leaf_vector":"1"}},{"base_weights":[-1.8294739E-2,6.897294E-1,-2.0966887E0,1.1432143E0,-2.8882734E-2,-1.4194639E0,-3.083062E0,1.8819944E0,7.070039E-1,1.4542203E-1,-9.9607927E-1,-1.5407022E0,-1.2649892E-1,-1.4012644E0,-3.3588636E0,2.2348547E0,1.2469944E0,-1.566455E0,8.6161226E-1,4.0556288E-1,-1.8601654E-1,-1.3396109E0,-1.20272055E-1,-2.0360243E0,-1.1401439E0,4.0401897E-1,-5.029771E-1,-1.7505122E0,2.8208092E-1,-1.731399E0,-3.5007977E0,1.1309943E-1,-0E0,-0E0,6.918118E-2,-9.935376E-2,-0E0,6.69133E-2,2.0166634E-2,3.1578664E-2,6.2399046E-3,-1.31744025E-2,3.5889294E-2,-5.126318E-2,-1.455066E-1,-2.5693512E-2,-0E0,-1.0481516E-1,-0E0,-6.218155E-2,-0E0,-0E0,3.6016148E-2,-0E0,-3.8811445E-2,-0E0,-1.06213115E-1,1.8395578E-2,-0E0,-1.0123386E-1,-0E0,-1.7609395E-1,-0E0],"categories":[],"categories_nodes":[],"categories_segments":[],"categories_sizes":[],"default_left":[0,0,0,0,0,0,0,0,0,0,0,0,0,0,0,0,0,0,0,0,0,0,0,0,0,0,0,0,0,0,0,0,0,0,0,0,0,0,0,0,0,0,0,0,0,0,0,0,0,0,0,0,0,0,0,0,0,0,0,0,0,0,0],"id":5,"left_children":[1,3,5,7,9,11,13,15,17,19,21,23,25,27,29,31,33,35,37,39,41,43,45,47,49,51,53,55,57,59,61,-1,-1,-1,-1,-1,-1,-1,-1,-1,-1,-1,-1,-1,-1,-1,-1,-1,-1,-1,-1,-1,-1,-1,-1,-1,-1,-1,-1,-1,-1,-1,-1],"loss_changes":[7.0760273E3,1.1765228E3,7.675586E2,6.820818E2,2.4062708E2,9.803601E1,1.7543896E2,1.4344043E2,4.8428644E2,1.0211449E2,5.1130035E1,9.745972E1,1.5373508E1,5.985884E1,3.7709473E1,3.64021E1,5.6496002E1,7.1769806E1,2.6820166E2,3.461902E1,3.0165482E1,3.1222107E1,8.479213E0,3.1191895E1,4.1157196E1,3.6438527E0,1.1295527E1,3.079007E1,3.6674464E-1,1.6469368E1,3.0858887E1,0E0,0E0,0E0,0E0,0E0,0E0,0E0,0E0,0E0,0E0,0E0,0E0,0E0,0E0,0E0,0E0,0E0,0E0,0E0,0E0,0E0,0E0,0E0,0E0,0E0,0E0,0E0,0E0,0E0,0E0,0E0,0E0],"parents":[2147483647,0,0,1,1,2,2,3,3,4,4,5,5,6,6,7,7,8,8,9,9,10,10,11,11,12,12,13,13,14,14,15,15,16,16,17,17,18,18,19,19,20,20,21,21,22,22,23,23,24,24,25,25,26,26,27,27,28,28,29,29,30,30],"right_children":[2,4,6,8,10,12,14,16,18,20,22,24,26,28,30,32,34,36,38,40,42,44,46,48,50,52,54,56,58,60,62,-1,-1,-1,-1,-1,-1,-1,-1,-1,-1,-1,-1,-1,-1,-1,-1,-1,-1,-1,-1,-1,-1,-1,-1,-1,-1,-1,-1,-1,-1,-1,-1],"split_conditions":[3.2774E0,1.6623E0,5.0093E0,1.9976439E2,3.84E2,1E0,2.132959E0,2.4666666E1,4.6934998E-1,2.4888E0,5.505247E-1,-4.310549E0,1.5161111E2,1.1067487E-1,-1.5670886E-2,1.3519204E1,-1.9297028E0,1.0414748E0,3.7183623E0,1.6244444E2,1E0,1E0,1.0253634E0,1E0,2.9956776E-1,1.5908138E0,-9.1223456E-2,5.1180357E-1,1.6337224E0,9.9280256E-1,1E0,1.1309943E-1,-0E0,-0E0,6.918118E-2,-9.935376E-2,-0E0,6.69133E-2,2.0166634E-2,3.1578664E-2,6.2399046E-3,-1.31744025E-2,3.5889294E-2,-5.126318E-2,-1.455066E-1,-2.5693512E-2,-0E0,-1.0481516E-1,-0E0,-6.218155E-2,-0E0,-0E0,3.6016148E-2,-0E0,-3.8811445E-2,-0E0,-1.06213115E-1,1.8395578E-2,-0E0,-1.0123386E-1,-0E0,-1.7609395E-1,-0E0],"split_indices":[4249,4249,4249,2694,2553,2518,3173,2758,2350,4249,3068,3819,2575,2975,3004,4181,2215,3379,3218,2550,2518,892,3073,840,3296,2309,2988,3155,3073,3144,738,0,0,0,0,0,0,0,0,0,0,0,0,0,0,0,0,0,0,0,0,0,0,0,0,0,0,0,0,0,0,0,0],"split_type":[0,0,0,0,0,0,0,0,0,0,0,0,0,0,0,0,0,0,0,0,0,0,0,0,0,0,0,0,0,0,0,0,0,0,0,0,0,0,0,0,0,0,0,0,0,0,0,0,0,0,0,0,0,0,0,0,0,0,0,0,0,0,0],"sum_hessian":[4.797E3,3.575E3,1.222E3,2.2E3,1.375E3,7.32E2,4.9E2,8.07E2,1.393E3,1.157E3,2.18E2,6.62E2,7E1,7.5E1,4.15E2,5.07E2,3E2,8.4E1,1.309E3,6.65E2,4.92E2,1.48E2,7E1,2.83E2,3.79E2,1.8E1,5.2E1,6.7E1,8E0,4E1,3.75E2,5.02E2,5E0,2.7E1,2.73E2,7E1,1.4E1,6.3E2,6.79E2,3.48E2,3.17E2,4.64E2,2.8E1,1.3E2,1.8E1,3.5E1,3.5E1,2.74E2,9E0,3.45E2,3.4E1,6E0,1.2E1,1.2E1,4E1,1.5E1,5.2E1,7E0,1E0,3.3E1,7E0,3.73E2,2E0],"tree_param":{"num_deleted":"0","num_feature":"4336","num_nodes":"63","size_leaf_vector":"1"}},{"base_weights":[-0E0,8.18154E-1,-1.694372E0,1.1791185E0,1.8234172E-1,-9.1285616E-1,-2.7157552E0,6.8193126E-1,1.7637166E0,4.3488237E-1,-3.9150476E-1,-6.340489E-1,-1.2387549E0,-2.3335059E0,-3.6708083E0,-1.3056834E0,8.2440543E-1,2.1341753E0,1.3503654E0,6.3133556E-1,1.315194E-1,8.440427E-2,-7.505972E-1,-0E0,-7.749869E-1,-0E0,-1.3059638E0,-0E0,-2.4709632E0,-3.8042684E0,-2.4126803E-3,-8.308907E-2,-0E0,6.4634785E-2,2.0878565E-2,1.2310877E-1,8.063745E-2,-4.6366557E-2,7.0042685E-2,-0E0,3.5849497E-2,3.0855551E-2,1.3088211E-3,2.1910064E-2,-6.028049E-3,-0E0,-4.8544534E-2,2.416159E-3,-4.4659525E-2,-4.2436663E-2,-0E0,-0E0,1.0638133E-3,-6.7188285E-2,-0E0,-4.348631E-2,5.0310134E-3,-0E0,-1.2557876E-1,-0E0,-1.931713E-1],"categories":[],"categories_nodes":[],"categories_segments":[],"categories_sizes":[],"default_left":[0,0,0,0,0,0,0,0,0,0,0,0,0,0,0,0,0,0,0,0,0,0,0,0,0,0,0,0,0,0,0,0,0,0,0,0,0,0,0,0,0,0,0,0,0,0,0,0,0,0,0,0,0,0,0,0,0,0,0,0,0],"id":6,"left_children":[1,3,5,7,9,11,13,15,17,19,21,23,25,27,29,31,33,35,37,39,41,43,45,47,49,51,53,55,57,59,-1,-1,-1,-1,-1,-1,-1,-1,-1,-1,-1,-1,-1,-1,-1,-1,-1,-1,-1,-1,-1,-1,-1,-1,-1,-1,-1,-1,-1,-1,-1],"loss_changes":[6.4960225E3,7.123262E2,1.1785308E3,5.579756E2,1.6827599E2,5.9628174E1,1.7051074E2,3.066331E2,1.02079834E2,4.0919266E1,6.5171486E1,3.9252274E1,3.8385986E1,1.3250586E2,4.73479E1,4.8059204E1,1.7820844E2,3.5149902E1,5.7437927E1,2.2985138E1,1.10455265E1,1.3091422E1,3.1369713E1,8.978839E0,2.4608643E1,4.9794754E-3,2.0609253E1,9.279573E0,3.388159E1,3.188086E1,0E0,0E0,0E0,0E0,0E0,0E0,0E0,0E0,0E0,0E0,0E0,0E0,0E0,0E0,0E0,0E0,0E0,0E0,0E0,0E0,0E0,0E0,0E0,0E0,0E0,0E0,0E0,0E0,0E0,0E0,0E0],"parents":[2147483647,0,0,1,1,2,2,3,3,4,4,5,5,6,6,7,7,8,8,9,9,10,10,11,11,12,12,13,13,14,14,15,15,16,16,17,17,18,18,19,19,20,20,21,21,22,22,23,23,24,24,25,25,26,26,27,27,28,28,29,29],"right_children":[2,4,6,8,10,12,14,16,18,20,22,24,26,28,30,32,34,36,38,40,42,44,46,48,50,52,54,56,58,60,-1,-1,-1,-1,-1,-1,-1,-1,-1,-1,-1,-1,-1,-1,-1,-1,-1,-1,-1,-1,-1,-1,-1,-1,-1,-1,-1,-1,-1,-1,-1],"split_conditions":[2.7659E0,1.4992E0,4.37598E0,2.1190372E-1,2.92E0,3.5421E0,2.9574468E0,1.0579428E-1,3.027973E0,2.2181E0,1.7583333E0,-9E-2,-9.6402496E-1,-1.0364096E0,6.861111E0,1.0538341E0,4.55228E0,7.2702E-1,8.106337E0,-6.6423386E-1,-3.275463E-1,6.02946E0,1.1645125E1,1.602982E0,1E0,-5.1018324E-2,1.6667198E2,7.5509114E0,-2.828201E0,-2.3858693E0,-2.4126803E-3,-8.308907E-2,-0E0,6.4634785E-2,2.0878565E-2,1.2310877E-1,8.063745E-2,-4.6366557E-2,7.0042685E-2,-0E0,3.5849497E-2,3.0855551E-2,1.3088211E-3,2.1910064E-2,-6.028049E-3,-0E0,-4.8544534E-2,2.416159E-3,-4.4659525E-2,-4.2436663E-2,-0E0,-0E0,1.0638133E-3,-6.7188285E-2,-0E0,-4.348631E-2,5.0310134E-3,-0E0,-1.2557876E-1,-0E0,-1.931713E-1],"split_indices":[4249,4249,4249,3343,2661,4249,2663,2350,2234,4249,2665,3028,3658,3873,3597,3379,2234,4249,3367,3579,2884,4151,3866,3124,2518,2819,2742,2704,3530,2442,0,0,0,0,0,0,0,0,0,0,0,0,0,0,0,0,0,0,0,0,0,0,0,0,0,0,0,0,0,0,0],"split_type":[0,0,0,0,0,0,0,0,0,0,0,0,0,0,0,0,0,0,0,0,0,0,0,0,0,0,0,0,0,0,0,0,0,0,0,0,0,0,0,0,0,0,0,0,0,0,0,0,0,0,0,0,0,0,0,0,0,0,0,0,0],"sum_hessian":[4.687E3,3.163E3,1.524E3,2.007E3,1.156E3,8.7E2,6.54E2,1.095E3,9.12E2,8.15E2,3.41E2,4.87E2,3.83E2,4.77E2,1.77E2,6.8E1,1.027E3,4.66E2,4.46E2,4.74E2,3.41E2,1.35E2,2.06E2,9.6E1,3.91E2,1.6E1,3.67E2,3E1,4.47E2,1.68E2,9E0,5.9E1,9E0,4.65E2,5.62E2,2.72E2,1.94E2,5E0,4.41E2,6.2E1,4.12E2,4.3E1,2.98E2,6.7E1,6.8E1,5E1,1.56E2,8.6E1,1E1,3.6E2,3.1E1,6E0,1E1,3.58E2,9E0,1.1E1,1.9E1,9E0,4.38E2,3E0,1.65E2],"tree_param":{"num_deleted":"0","num_feature":"4336","num_nodes":"61","size_leaf_vector":"1"}},{"base_weights":[-0E0,6.5523916E-1,-1.8721842E0,1.0733861E0,-5.0469865E-3,-1.3109598E0,-2.8163745E0,1.574195E0,5.56445E-1,1.7559311E-1,-8.537897E-1,-1.4488202E0,-0E0,-1.3940351E0,-3.1294022E0,1.9187196E0,9.943579E-1,-1.4770732E0,7.201772E-1,4.0424877E-1,-1.0378658E-1,-1.0797117E0,-0E0,-1.9977773E0,-1.0263284E0,6.831112E-1,-3.6758178E-1,-1.7310328E0,-0E0,-2.1991391E-1,-2.8653336E0,1.1077999E-1,6.944909E-2,5.291413E-2,-7.6271356E-3,-0E0,-9.538044E-2,8.257935E-3,5.0702143E-2,-0E0,2.7949011E-2,-9.568596E-3,2.8623765E-2,-1.1725486E-2,-6.834515E-2,9.62796E-3,-1.3300406E-2,-0E0,-1.0327164E-1,-5.5492885E-2,-0E0,6.591876E-2,-0E0,-0E0,-3.4562558E-2,-0E0,-9.93889E-2,-1.4500539E-1,-0E0],"categories":[],"categories_nodes":[],"categories_segments":[],"categories_sizes":[],"default_left":[0,0,0,0,0,0,0,0,0,0,0,0,0,0,0,0,0,0,0,0,0,0,0,0,0,0,0,0,0,0,0,0,0,0,0,0,0,0,0,0,0,0,0,0,0,0,0,0,0,0,0,0,0,0,0,0,0,0,0],"id":7,"left_children":[1,3,5,7,9,11,13,15,17,19,21,23,25,27,29,31,33,35,37,39,41,43,45,47,49,51,53,55,-1,-1,57,-1,-1,-1,-1,-1,-1,-1,-1,-1,-1,-1,-1,-1,-1,-1,-1,-1,-1,-1,-1,-1,-1,-1,-1,-1,-1,-1,-1],"loss_changes":[5.8979126E3,9.949729E2,6.1529346E2,5.45302E2,2.1758939E2,1.3054138E2,1.5387402E2,1.8930566E2,3.5641293E2,7.484967E1,4.6689972E1,1.3214673E2,1.8176674E1,4.6839066E1,3.806714E1,6.781958E1,4.0304504E1,4.3065964E1,1.534248E2,4.1970688E1,2.5143837E1,3.148404E1,2.9858208E0,3.0452637E1,4.166687E1,1.8010345E1,1.0735912E1,2.3239075E1,0E0,0E0,2.9311035E1,0E0,0E0,0E0,0E0,0E0,0E0,0E0,0E0,0E0,0E0,0E0,0E0,0E0,0E0,0E0,0E0,0E0,0E0,0E0,0E0,0E0,0E0,0E0,0E0,0E0,0E0,0E0,0E0],"parents":[2147483647,0,0,1,1,2,2,3,3,4,4,5,5,6,6,7,7,8,8,9,9,10,10,11,11,12,12,13,13,14,14,15,15,16,16,17,17,18,18,19,19,20,20,21,21,22,22,23,23,24,24,25,25,26,26,27,27,30,30],"right_children":[2,4,6,8,10,12,14,16,18,20,22,24,26,28,30,32,34,36,38,40,42,44,46,48,50,52,54,56,-1,-1,58,-1,-1,-1,-1,-1,-1,-1,-1,-1,-1,-1,-1,-1,-1,-1,-1,-1,-1,-1,-1,-1,-1,-1,-1,-1,-1,-1,-1],"split_conditions":[3.2576E0,1.60882E0,5.2109E0,6.2858933E-1,2.57E2,1E0,3.0133307E-1,2.6741486E0,4.6934998E-1,2.4425E0,1E0,-4.3965864E0,2.1532621E0,-1.526716E0,8.156253E2,8.034E-1,1.95E3,1.6299562E-1,-1.81E0,-5.3325706E0,1.6749844E2,3.067817E1,1.5076923E1,-4.5358396E0,1E0,4.691993E0,2.1506848E0,4.616307E-1,-0E0,-2.1991391E-1,1E0,1.1077999E-1,6.944909E-2,5.291413E-2,-7.6271356E-3,-0E0,-9.538044E-2,8.257935E-3,5.0702143E-2,-0E0,2.7949011E-2,-9.568596E-3,2.8623765E-2,-1.1725486E-2,-6.834515E-2,9.62796E-3,-1.3300406E-2,-0E0,-1.0327164E-1,-5.5492885E-2,-0E0,6.591876E-2,-0E0,-0E0,-3.4562558E-2,-0E0,-9.93889E-2,-1.4500539E-1,-0E0],"split_indices":[4249,4249,4249,3374,2551,2518,3163,3915,2350,4249,2518,3819,3175,2271,2802,4249,2577,2289,4167,2335,2739,3810,2681,2489,653,2379,2664,3083,0,0,1148,0,0,0,0,0,0,0,0,0,0,0,0,0,0,0,0,0,0,0,0,0,0,0,0,0,0,0,0],"split_type":[0,0,0,0,0,0,0,0,0,0,0,0,0,0,0,0,0,0,0,0,0,0,0,0,0,0,0,0,0,0,0,0,0,0,0,0,0,0,0,0,0,0,0,0,0,0,0,0,0,0,0,0,0,0,0,0,0,0,0],"sum_hessian":[4.809E3,3.564E3,1.245E3,2.191E3,1.373E3,7.89E2,4.56E2,1.102E3,1.089E3,1.123E3,2.5E2,7.08E2,8.1E1,8.9E1,3.67E2,6.79E2,4.23E2,7.6E1,1.013E3,6.37E2,4.86E2,1.96E2,5.4E1,2.96E2,4.12E2,2E1,6.1E1,7.3E1,1.6E1,5.4E1,3.13E2,4.21E2,2.58E2,4.09E2,1.4E1,1.9E1,5.7E1,3.63E2,6.5E2,1.7E2,4.67E2,4.44E2,4.2E1,5.9E1,1.37E2,2.8E1,2.6E1,1.2E1,2.84E2,3.86E2,2.6E1,1.5E1,5E0,2.2E1,3.9E1,1.2E1,6.1E1,3.09E2,4E0],"tree_param":{"num_deleted":"0","num_feature":"4336","num_nodes":"59","size_leaf_vector":"1"}},{"base_weights":[1.9341601E-2,7.47061E-1,-1.488179E0,1.1053665E0,2.3259366E-1,-9.367979E-1,-2.6432087E0,-1.2203526E0,1.2106746E0,-5.99932E-1,3.9739794E-1,-6.11625E-1,-1.39794E0,-1.7348816E-1,-2.7717025E0,-1.5371209E0,5.570673E-2,1.5000261E0,4.6879068E-1,-1.0436096E0,-0E0,1.9386776E-1,7.6007414E-1,3.2650307E-2,-7.2739524E-1,-0E0,-1.5056863E0,-0E0,-5.516079E-1,-2.8200092E0,-0E0,-9.13053E-2,4.337122E-3,-0E0,3.2945525E-2,8.0080286E-2,-3.408378E-2,-7.3736967E-3,2.8258136E-2,-0E0,-6.6507235E-2,-1.6846428E-2,1.726169E-2,1.8277654E-2,-3.9715474E-3,4.6272535E-2,1.2357894E-2,1.9244608E-2,-2.3409663E-2,-2.9202366E-2,-7.464417E-2,-1.716546E-2,2.4163293E-2,-0E0,-7.8502506E-2,-0E0,-4.0375996E-2,-2.0517297E-1,-1.3108033E-1],"categories":[],"categories_nodes":[],"categories_segments":[],"categories_sizes":[],"default_left":[0,0,0,0,0,0,0,0,0,0,0,0,0,0,0,0,0,0,0,0,0,0,0,0,0,0,0,0,0,0,0,0,0,0,0,0,0,0,0,0,0,0,0,0,0,0,0,0,0,0,0,0,0,0,0,0,0,0,0],"id":8,"left_children":[1,3,5,7,9,11,13,15,17,19,21,23,25,27,29,31,33,35,37,39,41,43,45,47,49,51,53,-1,55,57,-1,-1,-1,-1,-1,-1,-1,-1,-1,-1,-1,-1,-1,-1,-1,-1,-1,-1,-1,-1,-1,-1,-1,-1,-1,-1,-1,-1,-1],"loss_changes":[5.153136E3,5.720005E2,9.342117E2,4.5717163E2,1.7891046E2,1.3514832E2,1.2461377E2,4.6024338E1,3.6278613E2,5.2564133E1,7.2248474E1,5.3588608E1,6.2447693E1,5.2125793E0,6.831641E1,4.946257E1,3.0081093E0,2.9263037E2,3.4668274E1,2.6500603E1,1.0795391E1,3.7142868E1,2.036325E1,1.398989E1,3.794278E1,5.2754593E0,4.210211E1,0E0,4.3479905E0,3.708911E1,0E0,0E0,0E0,0E0,0E0,0E0,0E0,0E0,0E0,0E0,0E0,0E0,0E0,0E0,0E0,0E0,0E0,0E0,0E0,0E0,0E0,0E0,0E0,0E0,0E0,0E0,0E0,0E0,0E0],"parents":[2147483647,0,0,1,1,2,2,3,3,4,4,5,5,6,6,7,7,8,8,9,9,10,10,11,11,12,12,13,13,14,14,15,15,16,16,17,17,18,18,19,19,20,20,21,21,22,22,23,23,24,24,25,25,26,26,28,28,29,29],"right_children":[2,4,6,8,10,12,14,16,18,20,22,24,26,28,30,32,34,36,38,40,42,44,46,48,50,52,54,-1,56,58,-1,-1,-1,-1,-1,-1,-1,-1,-1,-1,-1,-1,-1,-1,-1,-1,-1,-1,-1,-1,-1,-1,-1,-1,-1,-1,-1,-1,-1],"split_conditions":[2.7659E0,1.4E1,5.14486E0,1.0579428E-1,-9.301525E0,3.878E0,-3.5714655E0,1.5221207E2,1.5558E0,5.537225E-1,-1.7908713E0,-1.19768284E-1,-1.0364096E0,-8.7921464E-1,1.6427846E0,3.1E0,-9.2062575E-1,1.0907241E1,1.4130902E1,4.4325256E-1,-1.03353396E-1,6.087686E1,-1.8761895E0,1.2362976E0,3.4744744E0,-4.0439588E-1,5.40467E-1,-0E0,5.830084E-1,8.156253E2,-0E0,-9.13053E-2,4.337122E-3,-0E0,3.2945525E-2,8.0080286E-2,-3.408378E-2,-7.3736967E-3,2.8258136E-2,-0E0,-6.6507235E-2,-1.6846428E-2,1.726169E-2,1.8277654E-2,-3.9715474E-3,4.6272535E-2,1.2357894E-2,1.9244608E-2,-2.3409663E-2,-2.9202366E-2,-7.464417E-2,-1.716546E-2,2.4163293E-2,-0E0,-7.8502506E-2,-0E0,-4.0375996E-2,-2.0517297E-1,-1.3108033E-1],"split_indices":[4249,3728,4249,2350,2448,4249,2911,2739,4249,3068,3819,3028,3873,2220,3884,3752,3020,2748,4145,2308,2982,2691,2247,3084,2657,2397,3087,0,2236,2802,0,0,0,0,0,0,0,0,0,0,0,0,0,0,0,0,0,0,0,0,0,0,0,0,0,0,0,0,0],"split_type":[0,0,0,0,0,0,0,0,0,0,0,0,0,0,0,0,0,0,0,0,0,0,0,0,0,0,0,0,0,0,0,0,0,0,0,0,0,0,0,0,0,0,0,0,0,0,0,0,0,0,0,0,0,0,0,0,0,0,0],"sum_hessian":[4.702E3,3.176E3,1.526E3,1.86E3,1.316E3,1.04E3,4.86E2,7.6E1,1.784E3,2.07E2,1.109E3,6.24E2,4.16E2,2.8E1,4.58E2,6.7E1,9E0,1.273E3,5.11E2,1.16E2,9.1E1,7.29E2,3.8E2,8.2E1,5.42E2,3E1,3.86E2,9E0,1.9E1,4.51E2,7E0,6.2E1,5E0,3E0,6E0,1.221E3,5.2E1,5.5E1,4.56E2,3E1,8.6E1,5E1,4.1E1,4.7E2,2.59E2,2.72E2,1.08E2,6E1,2.2E1,4.69E2,7.3E1,1.8E1,1.2E1,1.4E1,3.72E2,4E0,1.5E1,5.1E1,4E2],"tree_param":{"num_deleted":"0","num_feature":"4336","num_nodes":"59","size_leaf_vector":"1"}},{"base_weights":[-8.1639225E-3,6.936313E-1,-1.390922E0,1.1820834E0,3.26581E-1,-7.1049404E-1,-2.2099378E0,1.3105159E0,-4.8802248E-1,6.1372155E-1,-1.4222206E-1,-4.8502144E-1,-1.255384E0,-2.6062658E0,-1.4467645E0,1.5309442E0,4.0346518E-1,-1.5386274E0,1.4663271E0,3.537649E-1,9.52794E-1,-9.623127E-1,3.9822485E-2,-5.627448E-1,4.241123E-1,-1.4345754E0,-4.668385E-2,-7.408918E-1,-2.799701E0,-1.5327538E0,-0E0,9.207656E-2,4.700549E-2,-0E0,3.255351E-2,-9.679616E-2,-0E0,-0E0,9.1168314E-2,2.6031021E-2,-0E0,1.1630249E-2,5.9380617E-2,-0E0,-6.408283E-2,9.039286E-3,-3.2839306E-2,-9.015405E-3,-3.81221E-2,4.608237E-2,-0E0,-7.5060226E-2,-0E0,-2.519312E-2,-0E0,-7.337225E-2,3.836374E-3,-1.4487271E-1,-4.5501444E-2,-0E0,-7.9816304E-2],"categories":[],"categories_nodes":[],"categories_segments":[],"categories_sizes":[],"default_left":[0,0,0,0,0,0,0,0,0,0,0,0,0,0,0,0,0,0,0,0,0,0,0,0,0,0,0,0,0,0,0,0,0,0,0,0,0,0,0,0,0,0,0,0,0,0,0,0,0,0,0,0,0,0,0,0,0,0,0,0,0],"id":9,"left_children":[1,3,5,7,9,11,13,15,17,19,21,23,25,27,29,31,33,35,37,39,41,43,45,47,49,51,53,55,57,59,-1,-1,-1,-1,-1,-1,-1,-1,-1,-1,-1,-1,-1,-1,-1,-1,-1,-1,-1,-1,-1,-1,-1,-1,-1,-1,-1,-1,-1,-1,-1],"loss_changes":[4.630985E3,5.503556E2,8.658911E2,2.967179E2,2.4912375E2,9.0961914E1,1.7438257E2,2.303628E2,1.8982484E2,8.699347E1,1.103346E2,4.6989304E1,3.8401276E1,1.3066602E2,3.3210693E1,1.5359082E2,2.8856174E1,4.948874E1,2.7412617E1,3.465959E1,6.618875E1,4.274295E1,4.8875656E1,3.641069E1,8.764521E0,2.2461975E1,5.752003E0,4.3721962E1,3.631714E1,2.0506348E1,0E0,0E0,0E0,0E0,0E0,0E0,0E0,0E0,0E0,0E0,0E0,0E0,0E0,0E0,0E0,0E0,0E0,0E0,0E0,0E0,0E0,0E0,0E0,0E0,0E0,0E0,0E0,0E0,0E0,0E0,0E0],"parents":[2147483647,0,0,1,1,2,2,3,3,4,4,5,5,6,6,7,7,8,8,9,9,10,10,11,11,12,12,13,13,14,14,15,15,16,16,17,17,18,18,19,19,20,20,21,21,22,22,23,23,24,24,25,25,26,26,27,27,28,28,29,29],"right_children":[2,4,6,8,10,12,14,16,18,20,22,24,26,28,30,32,34,36,38,40,42,44,46,48,50,52,54,56,58,60,-1,-1,-1,-1,-1,-1,-1,-1,-1,-1,-1,-1,-1,-1,-1,-1,-1,-1,-1,-1,-1,-1,-1,-1,-1,-1,-1,-1,-1,-1,-1],"split_conditions":[2.702E0,1.9356102E0,4.184E0,6.153647E-1,4.3000607E1,6.95637E0,-5.571317E0,1.4628E0,7.4291706E-2,-1.5657759E0,7.87732E-2,1E0,8.216647E-1,1.9338256E-1,5.14547E0,4.0606112E0,2.965141E-1,3.2869807E-1,2.458477E1,7.8717947E0,1.45832E-1,-7.403467E-2,1.3492894E1,8.4944016E-1,1.0915248E1,-2.7357936E-3,9.727366E-1,1.8553084E-1,1E0,-4.213238E-1,-0E0,9.207656E-2,4.700549E-2,-0E0,3.255351E-2,-9.679616E-2,-0E0,-0E0,9.1168314E-2,2.6031021E-2,-0E0,1.1630249E-2,5.9380617E-2,-0E0,-6.408283E-2,9.039286E-3,-3.2839306E-2,-9.015405E-3,-3.81221E-2,4.608237E-2,-0E0,-7.5060226E-2,-0E0,-2.519312E-2,-0E0,-7.337225E-2,3.836374E-3,-1.4487271E-1,-4.5501444E-2,-0E0,-7.9816304E-2],"split_indices":[4249,3176,4249,2856,2631,2399,3819,4249,2371,3819,3359,2518,3132,3156,2333,2234,3295,2390,3802,2650,3358,3059,2350,3061,3179,2397,3152,3029,2518,3008,0,0,0,0,0,0,0,0,0,0,0,0,0,0,0,0,0,0,0,0,0,0,0,0,0,0,0,0,0,0,0],"split_type":[0,0,0,0,0,0,0,0,0,0,0,0,0,0,0,0,0,0,0,0,0,0,0,0,0,0,0,0,0,0,0,0,0,0,0,0,0,0,0,0,0,0,0,0,0,0,0,0,0,0,0,0,0,0,0,0,0,0,0,0,0],"sum_hessian":[4.763E3,3.155E3,1.608E3,1.341E3,1.814E3,8.86E2,7.22E2,1.251E3,9E1,1.138E3,6.76E2,6.41E2,2.45E2,4.65E2,2.57E2,9.97E2,2.54E2,6.2E1,2.8E1,6.62E2,4.76E2,1.32E2,5.44E2,6.01E2,4E1,2.06E2,3.9E1,4.9E1,4.16E2,2.43E2,1.4E1,6.41E2,3.56E2,8.9E1,1.65E2,5.2E1,1E1,2E0,2.6E1,4.33E2,2.29E2,1.28E2,3.48E2,3.2E1,1E2,4.65E2,7.9E1,2.24E2,3.77E2,1.8E1,2.2E1,1.98E2,8E0,2.2E1,1.7E1,3.2E1,1.7E1,3.9E2,2.6E1,1.1E1,2.32E2],"tree_param":{"num_deleted":"0","num_feature":"4336","num_nodes":"61","size_leaf_vector":"1"}},{"base_weights":[-5.5771293E-3,6.0815024E-1,-1.4979458E0,5.875603E-2,9.8250186E-1,-9.803349E-1,-2.450421E0,-1.2389429E-1,7.1257865E-1,-1.1481353E0,1.0715827E0,-1.1036651E0,-0E0,-0E0,-2.5070553E0,3.619943E-2,-1.0723656E0,8.7325895E-1,-3.3751103E-1,-1.5052432E0,4.854391E-2,1.2980723E0,4.5029324E-1,-9.11848E-1,-2.1136584E0,-2.0744684E-1,7.143369E-1,-0E0,-2.554108E0,-8.361482E-3,1.2153011E-2,-6.7010514E-2,-0E0,-6.9743404E-3,4.7016155E-2,-5.4679062E-2,-0E0,-9.202159E-2,-0E0,-0E0,2.6883228E-2,6.753169E-2,-5.2137386E-2,2.5367467E-2,-1.5670253E-2,-8.386191E-3,-5.049571E-2,-0E0,-1.11435466E-1,-0E0,-3.599581E-2,5.5766422E-2,-0E0,-4.4868425E-3,-1.3071164E-1],"categories":[],"categories_nodes":[],"categories_segments":[],"categories_sizes":[],"default_left":[0,0,0,0,0,0,0,0,0,0,0,0,0,0,0,0,0,0,0,0,0,0,0,0,0,0,0,0,0,0,0,0,0,0,0,0,0,0,0,0,0,0,0,0,0,0,0,0,0,0,0,0,0,0,0],"id":10,"left_children":[1,3,5,7,9,11,13,15,17,19,21,23,25,-1,27,29,31,33,35,37,39,41,43,45,47,49,51,-1,53,-1,-1,-1,-1,-1,-1,-1,-1,-1,-1,-1,-1,-1,-1,-1,-1,-1,-1,-1,-1,-1,-1,-1,-1,-1,-1],"loss_changes":[4.3722764E3,6.828319E2,6.500554E2,1.7053714E2,3.7892346E2,1.172099E2,6.018506E1,1.722665E2,5.846428E1,4.7118164E1,2.5196509E2,1.25710815E2,1.7767399E1,0E0,5.345337E1,3.8840626E1,4.2464127E1,2.715683E1,1.8849413E1,3.5634003E1,2.284387E0,1.7600073E2,2.501818E1,3.8770752E1,3.0647766E1,8.951066E0,8.837154E0,0E0,4.118042E1,0E0,0E0,0E0,0E0,0E0,0E0,0E0,0E0,0E0,0E0,0E0,0E0,0E0,0E0,0E0,0E0,0E0,0E0,0E0,0E0,0E0,0E0,0E0,0E0,0E0,0E0],"parents":[2147483647,0,0,1,1,2,2,3,3,4,4,5,5,6,6,7,7,8,8,9,9,10,10,11,11,12,12,14,14,15,15,16,16,17,17,18,18,19,19,20,20,21,21,22,22,23,23,24,24,25,25,26,26,28,28],"right_children":[2,4,6,8,10,12,14,16,18,20,22,24,26,-1,28,30,32,34,36,38,40,42,44,46,48,50,52,-1,54,-1,-1,-1,-1,-1,-1,-1,-1,-1,-1,-1,-1,-1,-1,-1,-1,-1,-1,-1,-1,-1,-1,-1,-1,-1,-1],"split_conditions":[2.9987E0,-2.0859118E0,5.14486E0,1E0,1.0579428E-1,1E0,-6.523039E-1,5.5E1,2.259972E0,1.5221207E2,3.4169204E0,4.9840107E0,1.7895992E0,-0E0,5.2897224E0,-2.7064545E0,6.138431E-1,5.9071426E0,-1.1954588E0,3.5E0,-9.2062575E-1,1.0907241E1,2.0517E2,-9.7737186E-2,-6.8784027E0,1.7758951E0,-6.7633514E0,-0E0,8.6561894E-1,-8.361482E-3,1.2153011E-2,-6.7010514E-2,-0E0,-6.9743404E-3,4.7016155E-2,-5.4679062E-2,-0E0,-9.202159E-2,-0E0,-0E0,2.6883228E-2,6.753169E-2,-5.2137386E-2,2.5367467E-2,-1.5670253E-2,-8.386191E-3,-5.049571E-2,-0E0,-1.11435466E-1,-0E0,-3.599581E-2,5.5766422E-2,-0E0,-4.4868425E-3,-1.3071164E-1],"split_indices":[4249,3819,4249,2518,2350,2517,4139,3912,2475,2739,2399,2292,2243,0,2718,3819,3068,2722,2514,3723,3020,2748,4071,3028,2777,3649,2848,0,3077,0,0,0,0,0,0,0,0,0,0,0,0,0,0,0,0,0,0,0,0,0,0,0,0,0,0],"split_type":[0,0,0,0,0,0,0,0,0,0,0,0,0,0,0,0,0,0,0,0,0,0,0,0,0,0,0,0,0,0,0,0,0,0,0,0,0,0,0,0,0,0,0,0,0,0,0,0,0,0,0,0,0,0,0],"sum_hessian":[4.762E3,3.37E3,1.392E3,1.377E3,1.993E3,9.1E2,4.82E2,1.065E3,3.12E2,7.5E1,1.918E3,8.14E2,9.6E1,1.2E1,4.7E2,9.03E2,1.62E2,2.79E2,3.3E1,6.4E1,1.1E1,1.393E3,5.25E2,6.94E2,1.2E2,6.8E1,2.8E1,9E0,4.61E2,4.31E2,4.72E2,1.27E2,3.5E1,8E0,2.71E2,1.8E1,1.5E1,5.3E1,1.1E1,4E0,7E0,1.367E3,2.6E1,5.01E2,2.4E1,9.3E1,6.01E2,6E0,1.14E2,4.6E1,2.2E1,1.8E1,1E1,1.5E1,4.46E2],"tree_param":{"num_deleted":"0","num_feature":"4336","num_nodes":"55","size_leaf_vector":"1"}},{"base_weights":[-1.5183948E-2,6.917294E-1,-1.1976346E0,1.1331384E0,3.3833194E-1,-7.5666744E-1,-2.335926E0,1.291778E0,-7.4159354E-2,-7.9937615E-2,6.1845666E-1,-6.007234E-1,-1.7775004E0,-0E0,-2.4352727E0,1.5979837E0,7.419743E-1,-8.32421E-1,8.885726E-1,-7.6801574E-1,8.55504E-2,4.285773E-1,1.0179272E0,-3.304048E-1,-9.61791E-1,-0E0,-1.9436696E0,-7.859005E-2,-0E0,-0E0,-2.4864166E0,4.389195E-2,8.949448E-2,4.348113E-2,-7.5033614E-3,-8.854097E-2,9.287824E-3,-6.2551553E-4,6.38402E-2,-7.21974E-2,1.7423317E-4,1.9921279E-2,-5.4900157E-3,2.540798E-2,-0E0,-4.6498552E-2,5.6325365E-2,-7.419319E-3,-3.35362E-2,-5.4996826E-2,-0E0,-1.02217175E-1,-0E0,-1.2521702E-2,-0E0,-1.1009087E-1,-1.6346928E-1],"categories":[],"categories_nodes":[],"categories_segments":[],"categories_sizes":[],"default_left":[0,0,0,0,0,0,0,0,0,0,0,0,0,0,0,0,0,0,0,0,0,0,0,0,0,0,0,0,0,0,0,0,0,0,0,0,0,0,0,0,0,0,0,0,0,0,0,0,0,0,0,0,0,0,0,0,0],"id":11,"left_children":[1,3,5,7,9,11,13,15,17,19,21,23,25,27,29,31,33,35,37,39,41,43,45,47,49,-1,51,53,-1,-1,55,-1,-1,-1,-1,-1,-1,-1,-1,-1,-1,-1,-1,-1,-1,-1,-1,-1,-1,-1,-1,-1,-1,-1,-1,-1,-1],"loss_changes":[3.9922476E3,4.4976062E2,8.657954E2,2.6355298E2,2.0098747E2,1.8178229E2,1.0321094E2,1.7188281E2,1.0675855E2,8.158821E1,6.201187E1,9.763754E1,4.7900085E1,9.882233E-2,6.909961E1,7.360486E1,5.6402985E1,1.0025972E2,3.329881E1,8.6895645E1,3.4590363E1,2.7066238E1,6.836734E1,3.302626E1,6.9742096E1,0E0,3.0566467E1,5.2834976E-1,0E0,0E0,4.1260986E1,0E0,0E0,0E0,0E0,0E0,0E0,0E0,0E0,0E0,0E0,0E0,0E0,0E0,0E0,0E0,0E0,0E0,0E0,0E0,0E0,0E0,0E0,0E0,0E0,0E0,0E0],"parents":[2147483647,0,0,1,1,2,2,3,3,4,4,5,5,6,6,7,7,8,8,9,9,10,10,11,11,12,12,13,13,14,14,15,15,16,16,17,17,18,18,19,19,20,20,21,21,22,22,23,23,24,24,26,26,27,27,30,30],"right_children":[2,4,6,8,10,12,14,16,18,20,22,24,26,28,30,32,34,36,38,40,42,44,46,48,50,-1,52,54,-1,-1,56,-1,-1,-1,-1,-1,-1,-1,-1,-1,-1,-1,-1,-1,-1,-1,-1,-1,-1,-1,-1,-1,-1,-1,-1,-1,-1],"split_conditions":[2.4888E0,1.9375638E0,5.14486E0,2E0,3.080816E-1,5.040209E0,-3.8241448E0,1.2142387E1,-4.803604E-1,1.623133E0,-1.2153044E0,3.5421E0,-2.1067514E0,3.1677466E-2,-3.8347886E0,-1.24E0,-2.7682272E-1,1.6262566E1,1.2440559E-1,8.117916E-1,1.6095652E1,1.7638332E2,1.0579428E-1,6.0233E0,1E0,-0E0,1E0,1.5259857E1,-0E0,-0E0,6.59338E0,4.389195E-2,8.949448E-2,4.348113E-2,-7.5033614E-3,-8.854097E-2,9.287824E-3,-6.2551553E-4,6.38402E-2,-7.21974E-2,1.7423317E-4,1.9921279E-2,-5.4900157E-3,2.540798E-2,-0E0,-4.6498552E-2,5.6325365E-2,-7.419319E-3,-3.35362E-2,-5.4996826E-2,-0E0,-1.02217175E-1,-0E0,-1.2521702E-2,-0E0,-1.1009087E-1,-1.6346928E-1],"split_indices":[4249,3176,4249,4138,3342,2292,2911,4183,2458,3180,3819,4249,2499,3007,3616,4167,4139,3867,2303,3101,2681,2699,2350,3158,2518,0,1627,4186,0,0,2719,0,0,0,0,0,0,0,0,0,0,0,0,0,0,0,0,0,0,0,0,0,0,0,0,0,0],"split_type":[0,0,0,0,0,0,0,0,0,0,0,0,0,0,0,0,0,0,0,0,0,0,0,0,0,0,0,0,0,0,0,0,0,0,0,0,0,0,0,0,0,0,0,0,0,0,0,0,0,0,0,0,0,0,0,0,0],"sum_hessian":[4.768E3,2.979E3,1.789E3,1.311E3,1.668E3,1.297E3,4.92E2,1.166E3,1.45E2,6.55E2,1.013E3,1.135E3,1.62E2,2.2E1,4.7E2,7.36E2,4.3E2,8.7E1,5.8E1,1.38E2,5.17E2,7.05E2,3.08E2,6.66E2,4.69E2,1.4E1,1.48E2,1.5E1,7E0,8E0,4.62E2,1.67E2,5.69E2,3.86E2,4.4E1,5E1,3.7E1,1E1,4.8E1,8E1,5.8E1,2.18E2,2.99E2,6.06E2,9.9E1,1.1E1,2.97E2,4.54E2,2.12E2,4.16E2,5.3E1,1.41E2,7E0,9E0,6E0,3.51E2,1.11E2],"tree_param":{"num_deleted":"0","num_feature":"4336","num_nodes":"57","size_leaf_vector":"1"}},{"base_weights":[-7.696825E-3,6.7386115E-1,-1.1404692E0,1.2309604E0,4.2472404E-1,-6.2566376E-1,-2.0458562E0,1.6516882E0,6.2223315E-1,-1.13376E0,4.9130484E-1,-4.769486E-1,-1.2074362E0,-3.0057645E0,-1.7638263E0,7.102865E-1,1.8890383E0,-0E0,8.053541E-1,-1.5925491E0,2.6324317E-1,8.2085043E-1,2.0611264E-1,-3.637299E-1,-1.1048846E0,-1.3146262E0,-0E0,-3.176957E0,-0E0,-2.4207665E-1,-1.8648547E0,4.976623E-2,-0E0,9.610961E-2,-0E0,-8.187905E-3,1.9179136E-2,-0E0,4.314555E-2,-8.7281816E-2,-0E0,3.0222757E-2,-0E0,4.5638252E-2,-1.9599656E-2,-1.1819615E-2,1.9521175E-2,-7.5754235E-3,-3.6590423E-2,-0E0,-6.0211208E-2,-7.124487E-2,-0E0,-1.0769296E-2,5.4016556E-3,-1.628341E-1,-0E0,1.6085118E-2,-4.374652E-2,-9.521047E-2,-0E0],"categories":[],"categories_nodes":[],"categories_segments":[],"categories_sizes":[],"default_left":[0,0,0,0,0,0,0,0,0,0,0,0,0,0,0,0,0,0,0,0,0,0,0,0,0,0,0,0,0,0,0,0,0,0,0,0,0,0,0,0,0,0,0,0,0,0,0,0,0,0,0,0,0,0,0,0,0,0,0,0,0],"id":12,"left_children":[1,3,5,7,9,11,13,15,17,19,21,23,25,27,29,31,33,35,37,39,41,43,45,47,49,51,53,55,-1,57,59,-1,-1,-1,-1,-1,-1,-1,-1,-1,-1,-1,-1,-1,-1,-1,-1,-1,-1,-1,-1,-1,-1,-1,-1,-1,-1,-1,-1,-1,-1],"loss_changes":[3.6927454E3,3.9611035E2,8.109817E2,2.0852332E2,2.0903003E2,8.259558E1,1.2161865E2,9.0195435E1,3.8246338E1,6.434575E1,1.76871E2,5.1456055E1,2.6908478E1,6.426111E1,5.673291E1,2.7665577E1,2.6068848E1,7.5343E0,1.7877731E1,2.7122711E1,3.3449373E0,1.067876E2,9.020508E1,5.4172203E1,1.6539352E1,1.6355011E1,6.270136E-1,1.3137207E1,0E0,1.9728546E1,3.7229248E1,0E0,0E0,0E0,0E0,0E0,0E0,0E0,0E0,0E0,0E0,0E0,0E0,0E0,0E0,0E0,0E0,0E0,0E0,0E0,0E0,0E0,0E0,0E0,0E0,0E0,0E0,0E0,0E0,0E0,0E0],"parents":[2147483647,0,0,1,1,2,2,3,3,4,4,5,5,6,6,7,7,8,8,9,9,10,10,11,11,12,12,13,13,14,14,15,15,16,16,17,17,18,18,19,19,20,20,21,21,22,22,23,23,24,24,25,25,26,26,27,27,29,29,30,30],"right_children":[2,4,6,8,10,12,14,16,18,20,22,24,26,28,30,32,34,36,38,40,42,44,46,48,50,52,54,56,-1,58,60,-1,-1,-1,-1,-1,-1,-1,-1,-1,-1,-1,-1,-1,-1,-1,-1,-1,-1,-1,-1,-1,-1,-1,-1,-1,-1,-1,-1,-1,-1],"split_conditions":[2.4888E0,6.262509E-1,4.4459E0,8.775E-1,4.6934998E-1,4.0670776E0,-3.6105196E0,-1.24E0,2.8033757E-1,3.426291E-1,3.7461119E0,6.8613136E-1,1E1,8.3206564E-1,-2.4438289E-1,-3.6975223E-1,2.1285403E0,1.1993926E1,7.12422E-1,4.2277725E1,9.916312E-1,1.0907241E1,-7.7659903E0,6.0233E0,-1.1726516E0,8.455098E-2,1.6450308E2,1.0232988E1,-0E0,1.776758E2,3.1238616E-1,4.976623E-2,-0E0,9.610961E-2,-0E0,-8.187905E-3,1.9179136E-2,-0E0,4.314555E-2,-8.7281816E-2,-0E0,3.0222757E-2,-0E0,4.5638252E-2,-1.9599656E-2,-1.1819615E-2,1.9521175E-2,-7.5754235E-3,-3.6590423E-2,-0E0,-6.0211208E-2,-7.124487E-2,-0E0,-1.0769296E-2,5.4016556E-3,-1.628341E-1,-0E0,1.6085118E-2,-4.374652E-2,-9.521047E-2,-0E0],"split_indices":[4249,3378,4249,4249,2350,2477,2502,4167,3295,2396,3218,3765,4072,3572,2884,4139,2383,4185,3070,4185,3356,2748,2448,3158,2893,2994,2745,4146,0,2697,3001,0,0,0,0,0,0,0,0,0,0,0,0,0,0,0,0,0,0,0,0,0,0,0,0,0,0,0,0,0,0],"split_type":[0,0,0,0,0,0,0,0,0,0,0,0,0,0,0,0,0,0,0,0,0,0,0,0,0,0,0,0,0,0,0,0,0,0,0,0,0,0,0,0,0,0,0,0,0,0,0,0,0,0,0,0,0,0,0,0,0,0,0,0,0],"sum_hessian":[4.775E3,2.976E3,1.799E3,9.06E2,2.07E3,1.155E3,6.44E2,5.25E2,3.81E2,7.8E1,1.992E3,9.35E2,2.2E2,1.36E2,5.08E2,1.15E2,4.1E2,9.5E1,2.86E2,6.4E1,1.4E1,9.07E2,1.085E3,8.07E2,1.28E2,2.01E2,1.9E1,1.28E2,8E0,3.8E1,4.7E2,8.6E1,2.9E1,4.03E2,7E0,5.5E1,4E1,1.3E1,2.73E2,6.2E1,2E0,1.1E1,3E0,8.51E2,5.6E1,3.03E2,7.82E2,5.3E2,2.77E2,9E0,1.19E2,1.79E2,2.2E1,1E1,9E0,1.23E2,5E0,1.2E1,2.6E1,4.61E2,9E0],"tree_param":{"num_deleted":"0","num_feature":"4336","num_nodes":"61","size_leaf_vector":"1"}},{"base_weights":[-1.02774175E-2,5.0432146E-1,-1.3495499E0,8.4811854E-1,2.9915715E-2,-8.9908195E-1,-2.155413E0,1.3832709E0,5.258891E-1,2.1830845E-1,-4.6254492E-1,-9.8997915E-1,-0E0,-0E0,-2.2682414E0,1.5975525E0,7.111187E-1,-1.3350616E0,6.320147E-1,4.278863E-1,-0E0,-8.8147885E-1,-9.813965E-2,-1.059291E0,-0E0,2.8623378E-1,-2.9913327E-1,9.080203E-2,-3.4693763E-1,-2.3757226E0,-6.5558344E-1,-0E0,8.204676E-2,4.744595E-2,-0E0,-0E0,-7.984581E-2,5.015243E-2,1.3419627E-2,-0E0,2.5947958E-2,-3.5977904E-3,3.1791672E-2,-5.3342916E-2,-0E0,-0E0,-2.4801102E-2,-5.7161342E-2,-9.051605E-3,1.5160391E-2,-1.2421347E-2,-0E0,2.5862014E-2,-2.6096284E-2,-0E0,8.30498E-3,-0E0,-2.2981707E-2,-0E0,-1.21592335E-1,-0E0,-5.4495085E-2,-0E0],"categories":[],"categories_nodes":[],"categories_segments":[],"categories_sizes":[],"default_left":[0,0,0,0,0,0,0,0,0,0,0,0,0,0,0,0,0,0,0,0,0,0,0,0,0,0,0,0,0,0,0,0,0,0,0,0,0,0,0,0,0,0,0,0,0,0,0,0,0,0,0,0,0,0,0,0,0,0,0,0,0,0,0],"id":13,"left_children":[1,3,5,7,9,11,13,15,17,19,21,23,25,27,29,31,33,35,37,39,41,43,45,47,49,51,53,55,57,59,61,-1,-1,-1,-1,-1,-1,-1,-1,-1,-1,-1,-1,-1,-1,-1,-1,-1,-1,-1,-1,-1,-1,-1,-1,-1,-1,-1,-1,-1,-1,-1,-1],"loss_changes":[3.3096545E3,5.5470245E2,4.5214282E2,3.235127E2,1.3357547E2,6.441614E1,1.0596045E2,8.17832E1,2.4186646E2,5.09294E1,4.9808044E1,5.131909E1,7.617571E0,1.7923054E0,4.5261475E1,3.3627197E1,2.9475853E1,2.7967216E1,1.4810617E2,2.118554E1,2.14452E1,2.8032272E1,9.415978E0,4.0143005E1,4.028977E0,3.635287E0,7.9711432E0,1.6870566E-1,8.5004234E-1,3.4015625E1,1.227873E1,0E0,0E0,0E0,0E0,0E0,0E0,0E0,0E0,0E0,0E0,0E0,0E0,0E0,0E0,0E0,0E0,0E0,0E0,0E0,0E0,0E0,0E0,0E0,0E0,0E0,0E0,0E0,0E0,0E0,0E0,0E0,0E0],"parents":[2147483647,0,0,1,1,2,2,3,3,4,4,5,5,6,6,7,7,8,8,9,9,10,10,11,11,12,12,13,13,14,14,15,15,16,16,17,17,18,18,19,19,20,20,21,21,22,22,23,23,24,24,25,25,26,26,27,27,28,28,29,29,30,30],"right_children":[2,4,6,8,10,12,14,16,18,20,22,24,26,28,30,32,34,36,38,40,42,44,46,48,50,52,54,56,58,60,62,-1,-1,-1,-1,-1,-1,-1,-1,-1,-1,-1,-1,-1,-1,-1,-1,-1,-1,-1,-1,-1,-1,-1,-1,-1,-1,-1,-1,-1,-1,-1,-1],"split_conditions":[3.11842E0,1.4462E0,5.3138E0,1.9941522E2,3.88E0,1E0,-3.7326393E0,2.9473684E1,1.0579428E-1,2.2181E0,-8.276738E0,2.8749073E-1,3.7059E0,2.0117566E-1,5.9809368E-2,1.3713295E1,-4.7267318E-2,-6.878955E-1,4.4055915E0,7.8675056E-1,1E0,6.2728496E0,1.6854781E0,1E0,-1.0045515E-1,2.38E2,1.0908837E1,5.745614E-1,5.356513E2,-2.5468729E0,8.222212E0,-0E0,8.204676E-2,4.744595E-2,-0E0,-0E0,-7.984581E-2,5.015243E-2,1.3419627E-2,-0E0,2.5947958E-2,-3.5977904E-3,3.1791672E-2,-5.3342916E-2,-0E0,-0E0,-2.4801102E-2,-5.7161342E-2,-9.051605E-3,1.5160391E-2,-1.2421347E-2,-0E0,2.5862014E-2,-2.6096284E-2,-0E0,8.30498E-3,-0E0,-2.2981707E-2,-0E0,-1.21592335E-1,-0E0,-5.4495085E-2,-0E0],"split_indices":[4249,4249,4249,2694,2653,2517,2911,2758,2350,4249,2448,3296,4249,2220,2984,4145,2974,3252,2234,3126,2518,2265,2379,2518,2984,2784,3865,3093,4097,2448,2916,0,0,0,0,0,0,0,0,0,0,0,0,0,0,0,0,0,0,0,0,0,0,0,0,0,0,0,0,0,0,0,0],"split_type":[0,0,0,0,0,0,0,0,0,0,0,0,0,0,0,0,0,0,0,0,0,0,0,0,0,0,0,0,0,0,0,0,0,0,0,0,0,0,0,0,0,0,0,0,0,0,0,0,0,0,0,0,0,0,0,0,0,0,0,0,0,0,0],"sum_hessian":[4.788E3,3.454E3,1.334E3,1.99E3,1.464E3,8.65E2,4.69E2,7.35E2,1.255E3,1.074E3,3.9E2,7.79E2,8.6E1,2.5E1,4.44E2,5.45E2,1.9E2,6.2E1,1.193E3,5.57E2,5.17E2,1.68E2,2.22E2,7.26E2,5.3E1,3.3E1,5.3E1,1.2E1,1.3E1,4.1E2,3.4E1,1.6E1,5.29E2,1.39E2,5.1E1,8E0,5.4E1,5.76E2,6.17E2,1E2,4.57E2,4.71E2,4.6E1,1.39E2,2.9E1,1.76E2,4.6E1,6.52E2,7.4E1,2E1,3.3E1,1E1,2.3E1,4.6E1,7E0,9E0,3E0,1.1E1,2E0,3.97E2,1.3E1,2.2E1,1.2E1],"tree_param":{"num_deleted":"0","num_feature":"4336","num_nodes":"63","size_leaf_vector":"1"}},{"base_weights":[-0E0,4.5990166E-1,-1.4700885E0,7.6914765E-2,8.910297E-1,-1.0282122E0,-2.189611E0,-3.8480826E-2,6.133892E-1,-9.449732E-1,9.9203974E-1,-1.3166965E0,-6.361719E-1,-2.3311074E0,-2.606209E-1,1.302967E-1,-4.791651E-1,1.2042642E-1,9.894535E-1,9.5582634E-1,-1.3498896E0,1.2386786E0,5.631371E-1,-1.4678417E0,-0E0,5.2982185E-2,-7.077791E-1,-0E0,-2.4122443E0,7.9122536E-2,-1.0193846E0,-3.1108275E-2,1.1600364E-2,-3.6791075E-2,-1.0661061E-2,-8.599344E-3,3.0932268E-2,6.452847E-2,1.2176336E-2,5.262388E-2,-0E0,-0E0,-8.889707E-2,6.4878784E-2,-5.0672453E-2,-1.6755147E-2,3.147114E-2,-0E0,-7.696419E-2,-6.468491E-3,7.5272447E-3,1.2052557E-2,-0E0,-3.872956E-2,-0E0,-1.2395348E-1,-0E0,1.5902175E-2,-0E0,-0E0,-6.96398E-2],"categories":[],"categories_nodes":[],"categories_segments":[],"categories_sizes":[],"default_left":[0,0,0,0,0,0,0,0,0,0,0,0,0,0,0,0,0,0,0,0,0,0,0,0,0,0,0,0,0,0,0,0,0,0,0,0,0,0,0,0,0,0,0,0,0,0,0,0,0,0,0,0,0,0,0,0,0,0,0,0,0],"id":14,"left_children":[1,3,5,7,9,11,13,15,17,19,21,23,25,27,29,31,33,35,37,39,41,43,45,47,49,51,53,-1,55,57,59,-1,-1,-1,-1,-1,-1,-1,-1,-1,-1,-1,-1,-1,-1,-1,-1,-1,-1,-1,-1,-1,-1,-1,-1,-1,-1,-1,-1,-1,-1],"loss_changes":[3.2379397E3,5.912757E2,3.286577E2,1.2593375E2,3.1668115E2,6.0837646E1,8.947656E1,1.2129088E2,5.5335495E1,6.988277E1,1.5233691E2,7.701459E1,2.24263E1,6.901611E1,1.8505753E1,8.264894E1,2.1409248E1,2.9048203E1,2.746994E1,1.0274467E0,4.8499405E1,1.3825891E2,3.9295166E1,4.3309875E1,8.2531655E-1,6.4673996E-1,1.3908463E1,0E0,4.3332275E1,9.113504E-1,8.315315E0,0E0,0E0,0E0,0E0,0E0,0E0,0E0,0E0,0E0,0E0,0E0,0E0,0E0,0E0,0E0,0E0,0E0,0E0,0E0,0E0,0E0,0E0,0E0,0E0,0E0,0E0,0E0,0E0,0E0,0E0],"parents":[2147483647,0,0,1,1,2,2,3,3,4,4,5,5,6,6,7,7,8,8,9,9,10,10,11,11,12,12,13,13,14,14,15,15,16,16,17,17,18,18,19,19,20,20,21,21,22,22,23,23,24,24,25,25,26,26,28,28,29,29,30,30],"right_children":[2,4,6,8,10,12,14,16,18,20,22,24,26,28,30,32,34,36,38,40,42,44,46,48,50,52,54,-1,56,58,60,-1,-1,-1,-1,-1,-1,-1,-1,-1,-1,-1,-1,-1,-1,-1,-1,-1,-1,-1,-1,-1,-1,-1,-1,-1,-1,-1,-1,-1,-1],"split_conditions":[3.3868E0,-1.7384144E0,6.1152126E1,1E0,4.6934998E-1,-4.310549E0,3.75538E1,4.7472595E2,-6.2206926E0,-3.808E-1,2.6741486E0,1E0,-3.0360725E0,-3.6177747E0,9.3957067E-1,1.5449257E-1,7.198143E-1,2.1506275E4,1.9875299E0,-1.9412857E-2,-6.878955E-1,1.0907241E1,-3.4985805E0,5.7449424E-1,-1.0779962E-2,2.17658E-1,9.628688E-2,-0E0,-3.044892E0,3.4835997E0,-4.89006E0,-3.1108275E-2,1.1600364E-2,-3.6791075E-2,-1.0661061E-2,-8.599344E-3,3.0932268E-2,6.452847E-2,1.2176336E-2,5.262388E-2,-0E0,-0E0,-8.889707E-2,6.4878784E-2,-5.0672453E-2,-1.6755147E-2,3.147114E-2,-0E0,-7.696419E-2,-6.468491E-3,7.5272447E-3,1.2052557E-2,-0E0,-3.872956E-2,-0E0,-1.2395348E-1,-0E0,1.5902175E-2,-0E0,-0E0,-6.96398E-2],"split_indices":[4249,3819,3809,2518,2350,3819,4185,4154,2481,4150,3915,2518,4129,2911,3145,3252,3100,2647,3176,2310,3252,2748,2240,3087,2984,3295,2888,0,2448,3901,2441,0,0,0,0,0,0,0,0,0,0,0,0,0,0,0,0,0,0,0,0,0,0,0,0,0,0,0,0,0,0],"split_type":[0,0,0,0,0,0,0,0,0,0,0,0,0,0,0,0,0,0,0,0,0,0,0,0,0,0,0,0,0,0,0,0,0,0,0,0,0,0,0,0,0,0,0,0,0,0,0,0,0,0,0,0,0,0,0,0,0,0,0,0,0],"sum_hessian":[4.78E3,3.639E3,1.141E3,1.94E3,1.699E3,7.17E2,4.24E2,1.582E3,3.58E2,8.3E1,1.616E3,3.97E2,3.2E2,3.9E2,3.4E1,1.128E3,4.54E2,1.67E2,1.91E2,1E1,7.3E1,1.01E3,6.06E2,3.55E2,4.2E1,1.7E1,3.03E2,1.4E1,3.76E2,1.5E1,1.9E1,1.22E2,1.006E3,2.11E2,2.43E2,9.3E1,7.4E1,1.26E2,6.5E1,9E0,1E0,1.6E1,5.7E1,9.89E2,2.1E1,3.1E1,5.75E2,1.4E1,3.41E2,2.8E1,1.4E1,1.1E1,6E0,2.76E2,2.7E1,3.63E2,1.3E1,9E0,6E0,5E0,1.4E1],"tree_param":{"num_deleted":"0","num_feature":"4336","num_nodes":"61","size_leaf_vector":"1"}},{"base_weights":[2.2027206E-3,6.1766577E-1,-9.889947E-1,8.8696605E-1,2.2205018E-1,-4.514226E-1,-1.6699361E0,-2.613534E-1,1.0215851E0,3.3122253E-1,-2.1003938E-1,-2.395151E-1,-7.840838E-1,-1.2616904E0,-2.1465075E0,-6.5911645E-1,1.2366775E0,-5.5631906E-1,1.0783213E0,4.711861E-1,4.7382094E-2,-6.568859E-1,-0E0,-8.2521147E-1,-6.610049E-2,-8.4990174E-1,-0E0,2.6886198E-1,-1.3621892E0,-2.3033533E0,-7.223392E-1,-6.239171E-2,-0E0,-0E0,7.922171E-2,-5.7079226E-2,1.9149972E-2,6.9206394E-2,3.7607193E-2,1.5709786E-2,4.025779E-2,-1.2768428E-2,7.745806E-3,-4.275394E-2,-0E0,2.0585885E-2,-4.5929435E-3,-5.055638E-2,3.894253E-2,7.174623E-3,-1.5798893E-2,-9.908845E-2,-3.5734396E-2,-0E0,4.3147925E-2,-4.2474408E-2,-8.374154E-2,-1.17407046E-1,-0E0,-4.898268E-2,-0E0],"categories":[],"categories_nodes":[],"categories_segments":[],"categories_sizes":[],"default_left":[0,0,0,0,0,0,0,0,0,0,0,0,0,0,0,0,0,0,0,0,0,0,0,0,0,0,0,0,0,0,0,0,0,0,0,0,0,0,0,0,0,0,0,0,0,0,0,0,0,0,0,0,0,0,0,0,0,0,0,0,0],"id":15,"left_children":[1,3,5,7,9,11,13,15,17,19,21,23,25,27,29,31,33,35,37,39,41,43,45,47,49,51,-1,53,55,57,59,-1,-1,-1,-1,-1,-1,-1,-1,-1,-1,-1,-1,-1,-1,-1,-1,-1,-1,-1,-1,-1,-1,-1,-1,-1,-1,-1,-1,-1,-1],"loss_changes":[2.914135E3,3.0374976E2,6.46449E2,2.7746667E2,5.8548485E1,6.2184418E1,1.1827295E2,9.991109E1,1.4628357E2,3.4042587E1,2.1484983E1,5.695016E1,1.869011E1,7.944116E1,4.737732E1,5.6902954E1,1.8841766E1,3.4960854E1,1.2931177E2,2.200386E1,1.0462191E1,1.3101305E1,5.987465E0,4.337011E1,2.8742046E1,2.5337555E1,0E0,7.34606E0,4.0977234E1,3.212451E1,1.0194246E1,0E0,0E0,0E0,0E0,0E0,0E0,0E0,0E0,0E0,0E0,0E0,0E0,0E0,0E0,0E0,0E0,0E0,0E0,0E0,0E0,0E0,0E0,0E0,0E0,0E0,0E0,0E0,0E0,0E0,0E0],"parents":[2147483647,0,0,1,1,2,2,3,3,4,4,5,5,6,6,7,7,8,8,9,9,10,10,11,11,12,12,13,13,14,14,15,15,16,16,17,17,18,18,19,19,20,20,21,21,22,22,23,23,24,24,25,25,27,27,28,28,29,29,30,30],"right_children":[2,4,6,8,10,12,14,16,18,20,22,24,26,28,30,32,34,36,38,40,42,44,46,48,50,52,-1,54,56,58,60,-1,-1,-1,-1,-1,-1,-1,-1,-1,-1,-1,-1,-1,-1,-1,-1,-1,-1,-1,-1,-1,-1,-1,-1,-1,-1,-1,-1,-1,-1],"split_conditions":[2.4888E0,1.35E1,4.1048E0,5.85E0,2.7068965E0,6.023135E0,2.2966907E2,-1.02436095E-1,-1.8321422E-1,1.6623E0,-3.1334553E0,1.7246738E-1,1E0,-3.1767592E0,6.861111E0,4.005515E1,-1.0038109E0,8.050835E-1,6.2398E-1,1.0238096E0,8.8941693E-1,-1.7408502E0,-4.302578E-2,1E0,1.18458954E2,-9.123887E0,-0E0,5.25779E-1,5.07376E0,1E0,5.9586687E0,-6.239171E-2,-0E0,-0E0,7.922171E-2,-5.7079226E-2,1.9149972E-2,6.9206394E-2,3.7607193E-2,1.5709786E-2,4.025779E-2,-1.2768428E-2,7.745806E-3,-4.275394E-2,-0E0,2.0585885E-2,-4.5929435E-3,-5.055638E-2,3.894253E-2,7.174623E-3,-1.5798893E-2,-9.908845E-2,-3.5734396E-2,-0E0,4.3147925E-2,-4.2474408E-2,-8.374154E-2,-1.17407046E-1,-0E0,-4.898268E-2,-0E0],"split_indices":[4249,3728,4249,2722,2663,3158,2696,2291,2920,4249,3819,3278,4259,3873,3597,2606,2370,2369,4249,3076,3070,2510,2947,100,2701,2227,0,3067,2339,1268,2654,0,0,0,0,0,0,0,0,0,0,0,0,0,0,0,0,0,0,0,0,0,0,0,0,0,0,0,0,0,0],"split_type":[0,0,0,0,0,0,0,0,0,0,0,0,0,0,0,0,0,0,0,0,0,0,0,0,0,0,0,0,0,0,0,0,0,0,0,0,0,0,0,0,0,0,0,0,0,0,0,0,0,0,0,0,0,0,0,0,0,0,0,0,0],"sum_hessian":[4.781E3,2.956E3,1.825E3,1.743E3,1.213E3,1.029E3,7.96E2,1.75E2,1.568E3,9.87E2,2.26E2,6.48E2,3.81E2,4.42E2,3.54E2,1.44E2,3.1E1,4.8E1,1.52E3,6.37E2,3.5E2,7.2E1,1.54E2,1.34E2,5.14E2,3.5E2,3.1E1,2.1E1,4.21E2,3.12E2,4.2E1,7.6E1,6.8E1,5E0,2.6E1,3.6E1,1.2E1,7.67E2,7.53E2,4.55E2,1.82E2,6.7E1,2.83E2,6E1,1.2E1,2.8E1,1.26E2,1.26E2,8E0,2.58E2,2.56E2,2.8E1,3.22E2,1E1,1.1E1,1.73E2,2.48E2,3.06E2,6E0,3.3E1,9E0],"tree_param":{"num_deleted":"0","num_feature":"4336","num_nodes":"61","size_leaf_vector":"1"}},{"base_weights":[-2.5228143E-2,3.8646853E-1,-1.1706259E0,8.5636534E-2,8.0218637E-1,-1.7172458E0,-7.491343E-1,1.9399275E-1,-4.2070305E-1,8.911122E-1,-1.3527293E0,-1.871626E0,-1.5993948E-1,-8.017646E-1,3.713215E-1,3.7592402E-1,-8.588669E-2,-6.31975E-1,2.050804E-2,1.0277802E0,-2.9708046E-2,-1.8177077E0,-0E0,-1.9088233E0,-0E0,-0E0,-9.8542213E-1,-3.8966027E-1,-9.381597E-1,1.1938922E0,-0E0,2.8930822E-2,3.5442696E-3,-4.3437175E-2,-7.897772E-4,-4.117001E-2,-0E0,-1.668392E-3,1.7473115E-2,2.3272723E-2,6.271273E-2,9.7589465E-3,-3.276305E-2,-0E0,-1.0069424E-1,-0E0,1.31868E-2,-9.792074E-2,-0E0,-2.137269E-3,2.1766758E-2,-0E0,-6.124518E-2,-2.4682494E-2,3.9375285E-3,-4.9130637E-2,-0E0,6.558522E-2,-0E0],"categories":[],"categories_nodes":[],"categories_segments":[],"categories_sizes":[],"default_left":[0,0,0,0,0,0,0,0,0,0,0,0,0,0,0,0,0,0,0,0,0,0,0,0,0,0,0,0,0,0,0,0,0,0,0,0,0,0,0,0,0,0,0,0,0,0,0,0,0,0,0,0,0,0,0,0,0,0,0],"id":16,"left_children":[1,3,5,7,9,11,13,15,17,19,21,23,25,27,29,31,33,35,37,39,41,43,45,47,-1,49,51,53,55,57,-1,-1,-1,-1,-1,-1,-1,-1,-1,-1,-1,-1,-1,-1,-1,-1,-1,-1,-1,-1,-1,-1,-1,-1,-1,-1,-1,-1,-1],"loss_changes":[2.2703503E3,4.316438E2,2.6780444E2,1.1078163E2,2.773238E2,1.10172E2,4.7768127E1,9.015662E1,3.8473415E1,1.8770667E2,3.9957222E1,3.9615356E1,1.4104393E1,2.6152222E1,1.5082931E1,5.9002716E1,2.7026737E1,2.9647583E1,4.9094296E0,1.4000867E2,2.9206808E1,1.5347229E1,5.564535E-1,3.0881226E1,0E0,3.4551523E0,3.9681482E0,1.3735001E1,1.6767303E1,3.9632607E-1,0E0,0E0,0E0,0E0,0E0,0E0,0E0,0E0,0E0,0E0,0E0,0E0,0E0,0E0,0E0,0E0,0E0,0E0,0E0,0E0,0E0,0E0,0E0,0E0,0E0,0E0,0E0,0E0,0E0],"parents":[2147483647,0,0,1,1,2,2,3,3,4,4,5,5,6,6,7,7,8,8,9,9,10,10,11,11,12,12,13,13,14,14,15,15,16,16,17,17,18,18,19,19,20,20,21,21,22,22,23,23,25,25,26,26,27,27,28,28,29,29],"right_children":[2,4,6,8,10,12,14,16,18,20,22,24,26,28,30,32,34,36,38,40,42,44,46,48,-1,50,52,54,56,58,-1,-1,-1,-1,-1,-1,-1,-1,-1,-1,-1,-1,-1,-1,-1,-1,-1,-1,-1,-1,-1,-1,-1,-1,-1,-1,-1,-1,-1],"split_conditions":[3.2004E0,-1.5448292E0,-5.571317E0,2.45E1,1.0907241E1,1E0,1.7424185E0,2.1919E0,8.090129E-1,-2.479644E-1,2.3589385E0,-1.093116E0,1.4801804E0,-4.7542262E-1,-1.5777684E0,4.370324E-1,5.981875E0,-2.6493404E0,-1.7873237E0,-1.24E0,1.6441679E-1,-1.7238289E0,2.9816332E0,2.5833333E0,-0E0,-3.412179E-1,5.275071E-1,1E0,1.8167686E0,1.6800016E-1,-0E0,2.8930822E-2,3.5442696E-3,-4.3437175E-2,-7.897772E-4,-4.117001E-2,-0E0,-1.668392E-3,1.7473115E-2,2.3272723E-2,6.271273E-2,9.7589465E-3,-3.276305E-2,-0E0,-1.0069424E-1,-0E0,1.31868E-2,-9.792074E-2,-0E0,-2.137269E-3,2.1766758E-2,-0E0,-6.124518E-2,-2.4682494E-2,3.9375285E-3,-4.9130637E-2,-0E0,6.558522E-2,-0E0],"split_indices":[4249,3819,3819,3728,2748,2518,3148,4249,3100,4139,3773,2271,2314,4139,2511,3156,2713,3819,2397,4167,2242,2219,2224,4144,0,2430,2303,100,3087,3360,0,0,0,0,0,0,0,0,0,0,0,0,0,0,0,0,0,0,0,0,0,0,0,0,0,0,0,0,0],"split_type":[0,0,0,0,0,0,0,0,0,0,0,0,0,0,0,0,0,0,0,0,0,0,0,0,0,0,0,0,0,0,0,0,0,0,0,0,0,0,0,0,0,0,0,0,0,0,0,0,0,0,0,0,0,0,0,0,0,0,0],"sum_hessian":[4.796E3,3.522E3,1.274E3,2.058E3,1.464E3,5.43E2,7.31E2,1.712E3,3.46E2,1.411E3,5.3E1,4.88E2,5.5E1,7.07E2,2.4E1,1.059E3,6.53E2,2.49E2,9.7E1,1.238E3,1.73E2,4.1E1,1.2E1,4.8E2,8E0,4E1,1.5E1,1.95E2,5.12E2,1.2E1,1.2E1,6.16E2,4.43E2,4.1E1,6.12E2,1.9E2,5.9E1,5.8E1,3.9E1,3.69E2,8.69E2,1.16E2,5.7E1,4E0,3.7E1,5E0,7E0,4.64E2,1.6E1,2.3E1,1.7E1,3E0,1.2E1,1.77E2,1.8E1,4.84E2,2.8E1,1E1,2E0],"tree_param":{"num_deleted":"0","num_feature":"4336","num_nodes":"59","size_leaf_vector":"1"}},{"base_weights":[-2.8119914E-4,3.8371983E-1,-1.1560992E0,6.4917964E-1,-4.3289162E-2,-1.6914462E0,-7.2007567E-1,9.970944E-1,2.8959262E-1,-6.4459985E-1,3.547236E-2,-1.3672574E0,-2.3396993E0,-0E0,-8.3382475E-1,1.3613093E0,7.087656E-1,-8.4723955E-1,4.042075E-1,-1.0111165E0,-0E0,-4.4357845E-1,1.00769415E-1,-1.4491626E0,-0E0,-0E0,-2.4448605E0,2.2194268E-1,-6.917881E-1,-0E0,-8.856546E-1,7.637571E-2,2.4893574E-2,4.4927333E-2,1.2160944E-2,3.8017102E-3,-6.3175716E-2,3.6316283E-2,3.9733234E-3,-0E0,-6.5195374E-2,2.5333276E-2,-4.8521045E-4,-3.176348E-2,2.1052066E-2,1.6498001E-2,-2.5669707E-3,-0E0,-7.775857E-2,-1.243572E-1,-0E0,3.2086942E-2,-0E0,-0E0,-5.218311E-2,-0E0,3.3491661E-3,-0E0,-4.5840237E-2],"categories":[],"categories_nodes":[],"categories_segments":[],"categories_sizes":[],"default_left":[0,0,0,0,0,0,0,0,0,0,0,0,0,0,0,0,0,0,0,0,0,0,0,0,0,0,0,0,0,0,0,0,0,0,0,0,0,0,0,0,0,0,0,0,0,0,0,0,0,0,0,0,0,0,0,0,0,0,0],"id":17,"left_children":[1,3,5,7,9,11,13,15,17,19,21,23,25,27,29,31,33,35,37,39,41,43,45,47,-1,-1,49,51,53,55,57,-1,-1,-1,-1,-1,-1,-1,-1,-1,-1,-1,-1,-1,-1,-1,-1,-1,-1,-1,-1,-1,-1,-1,-1,-1,-1,-1,-1],"loss_changes":[2.1532234E3,4.1665417E2,2.5757654E2,2.6808185E2,7.123434E1,7.174487E1,4.7885834E1,9.6789795E1,1.4197606E2,4.731716E1,3.42159E1,4.288867E1,3.5704224E1,2.0676647E1,2.7017426E1,4.815625E1,4.5527557E1,4.8482742E1,9.9313675E1,2.9999664E1,3.3415616E0,2.3292992E1,4.0349434E1,4.3113525E1,0E0,0E0,2.057782E1,1.2201391E1,1.1091454E1,4.935442E-2,1.715152E1,0E0,0E0,0E0,0E0,0E0,0E0,0E0,0E0,0E0,0E0,0E0,0E0,0E0,0E0,0E0,0E0,0E0,0E0,0E0,0E0,0E0,0E0,0E0,0E0,0E0,0E0,0E0,0E0],"parents":[2147483647,0,0,1,1,2,2,3,3,4,4,5,5,6,6,7,7,8,8,9,9,10,10,11,11,12,12,13,13,14,14,15,15,16,16,17,17,18,18,19,19,20,20,21,21,22,22,23,23,26,26,27,27,28,28,29,29,30,30],"right_children":[2,4,6,8,10,12,14,16,18,20,22,24,26,28,30,32,34,36,38,40,42,44,46,48,-1,-1,50,52,54,56,58,-1,-1,-1,-1,-1,-1,-1,-1,-1,-1,-1,-1,-1,-1,-1,-1,-1,-1,-1,-1,-1,-1,-1,-1,-1,-1,-1,-1],"split_conditions":[3.2774E0,1.6623E0,1E0,6.2858933E-1,-9.740706E0,7.919192E0,-7.327798E0,2.9201016E0,1.4746785E-1,5.755814E-1,7.133333E-1,1.5846445E2,8.6561894E-1,6.0235476E0,2.334228E0,1.2796E0,2.4825916E1,4.7850132E-2,4.4055915E0,7.512195E0,1.8571428E0,3.391781E1,5.6349273E0,4.780011E-1,-0E0,-0E0,4.7942524E0,-2.9141163E-2,1.0041971E0,3.8959494E0,-1.030735E0,7.637571E-2,2.4893574E-2,4.4927333E-2,1.2160944E-2,3.8017102E-3,-6.3175716E-2,3.6316283E-2,3.9733234E-3,-0E0,-6.5195374E-2,2.5333276E-2,-4.8521045E-4,-3.176348E-2,2.1052066E-2,1.6498001E-2,-2.5669707E-3,-0E0,-7.775857E-2,-1.243572E-1,-0E0,3.2086942E-2,-0E0,-0E0,-5.218311E-2,-0E0,3.3491661E-3,-0E0,-4.5840237E-2],"split_indices":[4249,4249,3817,3374,2448,2650,2317,2234,2287,3068,3755,2741,3077,3158,3738,4249,3848,2445,2234,2649,4144,2759,2719,3147,0,0,2911,3044,3149,2218,3658,0,0,0,0,0,0,0,0,0,0,0,0,0,0,0,0,0,0,0,0,0,0,0,0,0,0,0,0],"split_type":[0,0,0,0,0,0,0,0,0,0,0,0,0,0,0,0,0,0,0,0,0,0,0,0,0,0,0,0,0,0,0,0,0,0,0,0,0,0,0,0,0,0,0,0,0,0,0,0,0,0,0,0,0,0,0,0,0,0,0],"sum_hessian":[4.832E3,3.621E3,1.211E3,2.247E3,1.374E3,5.32E2,6.79E2,1.127E3,1.12E3,1.73E2,1.201E3,3.67E2,1.65E2,1.04E2,5.75E2,4.81E2,6.46E2,9.4E1,1.026E3,1.16E2,5.7E1,1.25E2,1.076E3,3.47E2,2E1,8E0,1.57E2,6.9E1,3.5E1,3.1E1,5.44E2,3.93E2,8.8E1,4.43E2,2.03E2,2.2E1,7.2E1,4.99E2,5.27E2,2.9E1,8.7E1,1.2E1,4.5E1,1.12E2,1.3E1,4.55E2,6.21E2,2.8E1,3.19E2,1.55E2,2E0,3.7E1,3.2E1,1E1,2.5E1,2.1E1,1E1,1.6E1,5.28E2],"tree_param":{"num_deleted":"0","num_feature":"4336","num_nodes":"59","size_leaf_vector":"1"}},{"base_weights":[-2.013571E-4,3.901678E-1,-1.0489422E0,-1.1168782E-2,6.2818927E-1,-7.1034074E-1,-1.6483911E0,-1.7487483E-1,5.1021427E-1,-1.148715E0,6.934878E-1,-8.045198E-1,4.5771595E-2,-5.096641E-1,-1.836033E0,-3.378555E-2,-9.048304E-1,5.1077143E-3,9.801858E-1,-0E0,-1.3582706E0,4.9475184E-1,1.0587038E0,-1.4815453E0,-6.235128E-1,-4.446731E-2,7.525462E-1,-0E0,-7.9497707E-1,-4.6090942E-2,-1.8961221E0,-1.2536715E-2,6.447773E-3,-0E0,-4.9944356E-2,-1.7494632E-2,1.6352708E-2,5.4383058E-2,-0E0,-8.246907E-2,-0E0,3.0065084E-2,-0E0,5.65391E-2,-3.1245044E-2,-0E0,-7.8899115E-2,-3.9756637E-2,-9.837502E-3,-1.7930172E-2,4.4221994E-3,6.1336745E-2,-0E0,2.7100125E-3,-0E0,-0E0,-5.2938767E-2,-2.7613906E-2,-0E0,-0E0,-9.778806E-2],"categories":[],"categories_nodes":[],"categories_segments":[],"categories_sizes":[],"default_left":[0,0,0,0,0,0,0,0,0,0,0,0,0,0,0,0,0,0,0,0,0,0,0,0,0,0,0,0,0,0,0,0,0,0,0,0,0,0,0,0,0,0,0,0,0,0,0,0,0,0,0,0,0,0,0,0,0,0,0,0,0],"id":18,"left_children":[1,3,5,7,9,11,13,15,17,19,21,23,25,27,29,31,33,35,37,-1,39,41,43,45,47,49,51,53,55,57,59,-1,-1,-1,-1,-1,-1,-1,-1,-1,-1,-1,-1,-1,-1,-1,-1,-1,-1,-1,-1,-1,-1,-1,-1,-1,-1,-1,-1,-1,-1],"loss_changes":[1.9671855E3,3.3889673E2,2.4032617E2,1.06159096E2,2.5174072E2,6.793915E1,7.389685E1,9.264529E1,5.9458702E1,2.9126282E1,1.3854028E2,7.177359E1,1.2407873E1,1.6169304E1,2.2114624E1,3.1013468E1,2.0692902E1,1.7258295E1,2.5421173E1,0E0,3.233345E1,7.6244354E1,9.459454E1,2.6532501E1,3.5114426E1,5.3219495E0,8.609132E0,3.818967E-2,1.5053875E1,3.3147593E0,2.3567627E1,0E0,0E0,0E0,0E0,0E0,0E0,0E0,0E0,0E0,0E0,0E0,0E0,0E0,0E0,0E0,0E0,0E0,0E0,0E0,0E0,0E0,0E0,0E0,0E0,0E0,0E0,0E0,0E0,0E0,0E0],"parents":[2147483647,0,0,1,1,2,2,3,3,4,4,5,5,6,6,7,7,8,8,9,9,10,10,11,11,12,12,13,13,14,14,15,15,16,16,17,17,18,18,20,20,21,21,22,22,23,23,24,24,25,25,26,26,27,27,28,28,29,29,30,30],"right_children":[2,4,6,8,10,12,14,16,18,20,22,24,26,28,30,32,34,36,38,-1,40,42,44,46,48,50,52,54,56,58,60,-1,-1,-1,-1,-1,-1,-1,-1,-1,-1,-1,-1,-1,-1,-1,-1,-1,-1,-1,-1,-1,-1,-1,-1,-1,-1,-1,-1,-1,-1],"split_conditions":[3.11842E0,-2.2587614E0,5.3138E0,1E0,1.0579428E-1,1E0,3.0133307E-1,6.2E1,9.655172E-1,-9.426385E-3,-7.3955584E-1,1.7607202E-1,2E0,-4.8868603E-1,-3.1561497E1,7.482572E-1,-9.205247E-1,-4.33117E0,1.6132208E1,-0E0,2.6558006E1,8.985172E0,5.6066063E1,-1.1873637E-1,-3.644983E0,-6.9574137E0,7.264189E0,2.432653E1,6.481481E-1,2.8333333E0,3.7753934E-1,-1.2536715E-2,6.447773E-3,-0E0,-4.9944356E-2,-1.7494632E-2,1.6352708E-2,5.4383058E-2,-0E0,-8.246907E-2,-0E0,3.0065084E-2,-0E0,5.65391E-2,-3.1245044E-2,-0E0,-7.8899115E-2,-3.9756637E-2,-9.837502E-3,-1.7930172E-2,4.4221994E-3,6.1336745E-2,-0E0,2.7100125E-3,-0E0,-0E0,-5.2938767E-2,-2.7613906E-2,-0E0,-0E0,-9.778806E-2],"split_indices":[4249,3819,4249,2518,2350,2518,3163,3908,3076,2289,3819,3295,3440,2458,2759,3177,2884,2512,3493,0,4185,3847,3804,3012,3819,2509,3901,2765,3130,3774,3085,0,0,0,0,0,0,0,0,0,0,0,0,0,0,0,0,0,0,0,0,0,0,0,0,0,0,0,0,0,0],"split_type":[0,0,0,0,0,0,0,0,0,0,0,0,0,0,0,0,0,0,0,0,0,0,0,0,0,0,0,0,0,0,0,0,0,0,0,0,0,0,0,0,0,0,0,0,0,0,0,0,0,0,0,0,0,0,0,0,0,0,0,0,0],"sum_hessian":[4.787E3,3.482E3,1.305E3,1.281E3,2.201E3,8.46E2,4.59E2,9.9E2,2.91E2,7.2E1,2.129E3,7.64E2,8.2E1,7.3E1,3.86E2,8.42E2,1.48E2,1.51E2,1.4E2,5E0,6.7E1,1.398E3,7.31E2,1.48E2,6.16E2,6.1E1,2.1E1,1.8E1,5.5E1,1.8E1,3.68E2,3.87E2,4.55E2,6E0,1.42E2,5.7E1,9.4E1,1.35E2,5E0,5.7E1,1E1,1.157E3,2.41E2,7.07E2,2.4E1,7E0,1.41E2,4.22E2,1.94E2,4E1,2.1E1,1.3E1,8E0,1.2E1,6E0,1.1E1,4.4E1,1E1,8E0,1.6E1,3.52E2],"tree_param":{"num_deleted":"0","num_feature":"4336","num_nodes":"61","size_leaf_vector":"1"}},{"base_weights":[-3.438271E-2,3.3447433E-1,-1.0031499E0,1.5181193E-1,8.572686E-1,-1.4952269E0,-6.436417E-1,3.064452E-1,-1.8014799E-1,1.0632976E0,2.5809044E-1,-4.3161026E-1,-1.651742E0,-1.2544739E0,-4.966078E-1,-7.8473663E-1,3.94546E-1,-6.921309E-1,-3.932625E-2,-0E0,1.2385849E0,-3.2053337E-2,4.229579E-1,-0E0,-1.6153054E0,-2.881973E0,-1.5065093E0,2.5216666E-1,-1.5032449E0,7.2058454E-2,-5.561978E-1,2.6385618E-2,-6.59106E-2,3.999082E-2,1.0330296E-2,-5.1361974E-2,-0E0,-8.320471E-3,1.2379754E-2,2.9313264E-2,-1.37485145E-2,6.396329E-2,-5.729295E-3,-2.002001E-2,5.979368E-3,-0E0,2.4172232E-2,-1.44421775E-2,9.656799E-3,-8.967032E-2,-0E0,-1.4823826E-1,-0E0,-1.9435214E-3,-7.89425E-2,-0E0,3.9762907E-2,-0E0,-8.007239E-2,2.5383845E-2,-0E0,-3.2126866E-2,-2.0616513E-3],"categories":[],"categories_nodes":[],"categories_segments":[],"categories_sizes":[],"default_left":[0,0,0,0,0,0,0,0,0,0,0,0,0,0,0,0,0,0,0,0,0,0,0,0,0,0,0,0,0,0,0,0,0,0,0,0,0,0,0,0,0,0,0,0,0,0,0,0,0,0,0,0,0,0,0,0,0,0,0,0,0,0,0],"id":19,"left_children":[1,3,5,7,9,11,13,15,17,19,21,23,25,27,29,31,33,35,37,39,41,43,45,47,49,51,53,55,57,59,61,-1,-1,-1,-1,-1,-1,-1,-1,-1,-1,-1,-1,-1,-1,-1,-1,-1,-1,-1,-1,-1,-1,-1,-1,-1,-1,-1,-1,-1,-1,-1,-1],"loss_changes":[1.7451073E3,3.2553897E2,2.1629468E2,1.3585951E2,9.712128E1,7.1178345E1,5.308795E1,1.703141E2,5.127415E1,1.1507593E2,1.5546574E1,3.9704163E1,3.69989E1,6.536302E1,2.7043442E1,9.752087E1,1.179588E2,3.7316612E1,2.3076063E1,1.7672993E1,4.24552E1,6.598388E0,5.0297127E0,3.558179E0,3.1000862E0,2.751007E0,3.0051636E1,5.3705344E0,1.5334412E1,5.6838803E0,2.0168594E1,0E0,0E0,0E0,0E0,0E0,0E0,0E0,0E0,0E0,0E0,0E0,0E0,0E0,0E0,0E0,0E0,0E0,0E0,0E0,0E0,0E0,0E0,0E0,0E0,0E0,0E0,0E0,0E0,0E0,0E0,0E0,0E0],"parents":[2147483647,0,0,1,1,2,2,3,3,4,4,5,5,6,6,7,7,8,8,9,9,10,10,11,11,12,12,13,13,14,14,15,15,16,16,17,17,18,18,19,19,20,20,21,21,22,22,23,23,24,24,25,25,26,26,27,27,28,28,29,29,30,30],"right_children":[2,4,6,8,10,12,14,16,18,20,22,24,26,28,30,32,34,36,38,40,42,44,46,48,50,52,54,56,58,60,62,-1,-1,-1,-1,-1,-1,-1,-1,-1,-1,-1,-1,-1,-1,-1,-1,-1,-1,-1,-1,-1,-1,-1,-1,-1,-1,-1,-1,-1,-1,-1,-1],"split_conditions":[3.11842E0,1.6577235E2,1E0,2.02164E0,1.2598E0,2.4685228E-1,1.7921582E-1,3.426291E-1,-8.611433E0,-1.58E0,2.7913144E-1,2.348479E0,7.99242E2,7.947712E-1,-3.0385774E-2,-7.737524E-2,3.6445787E0,5.523256E-1,8.545911E0,-2.814123E-1,1.9590909E2,9.6362084E-1,3.6557813E-3,6.022314E-1,2.143176E-2,9.116867E0,-1.731906E-1,3.2323163E0,-3.4491649E0,-2.9855351E0,1E0,2.6385618E-2,-6.59106E-2,3.999082E-2,1.0330296E-2,-5.1361974E-2,-0E0,-8.320471E-3,1.2379754E-2,2.9313264E-2,-1.37485145E-2,6.396329E-2,-5.729295E-3,-2.002001E-2,5.979368E-3,-0E0,2.4172232E-2,-1.44421775E-2,9.656799E-3,-8.967032E-2,-0E0,-1.4823826E-1,-0E0,-1.9435214E-3,-7.89425E-2,-0E0,3.9762907E-2,-0E0,-8.007239E-2,2.5383845E-2,-0E0,-3.2126866E-2,-2.0616513E-3],"split_indices":[4249,2742,3817,4249,4249,3156,3295,2396,2448,4167,3295,2496,2802,3898,2866,2247,2506,3068,3597,2220,2787,3102,2856,3061,3006,3329,3052,2439,2485,2372,111,0,0,0,0,0,0,0,0,0,0,0,0,0,0,0,0,0,0,0,0,0,0,0,0,0,0,0,0,0,0,0,0],"split_type":[0,0,0,0,0,0,0,0,0,0,0,0,0,0,0,0,0,0,0,0,0,0,0,0,0,0,0,0,0,0,0,0,0,0,0,0,0,0,0,0,0,0,0,0,0,0,0,0,0,0,0,0,0,0,0,0,0,0,0,0,0,0,0],"sum_hessian":[4.863E3,3.515E3,1.348E3,2.62E3,8.95E2,5.56E2,7.92E2,1.808E3,8.12E2,6.53E2,2.42E2,8E1,4.76E2,1.39E2,6.53E2,1.26E2,1.682E3,1.59E2,6.53E2,9.7E1,5.56E2,6.6E1,1.76E2,6E1,2E1,4.1E1,4.35E2,1.4E1,1.25E2,4.6E1,6.07E2,3.1E1,9.5E1,5.15E2,1.167E3,1.07E2,5.2E1,4.77E2,1.76E2,3.7E1,6E1,5.47E2,9E0,3.8E1,2.8E1,2E1,1.56E2,2.6E1,3.4E1,1.7E1,3E0,3.9E1,2E0,2.7E1,4.08E2,5E0,9E0,9E0,1.16E2,2.2E1,2.4E1,5.03E2,1.04E2],"tree_param":{"num_deleted":"0","num_feature":"4336","num_nodes":"63","size_leaf_vector":"1"}},{"base_weights":[1.0507292E-2,3.47915E-1,-9.992959E-1,6.454247E-1,2.4815435E-2,-7.4097353E-1,-1.6849667E0,3.969917E-1,1.1411299E0,1.8556292E-1,-3.1347546E-1,-8.3462703E-1,2.146932E-2,-0E0,-1.8495214E0,5.123338E-1,-8.326506E-1,1.2220638E0,-8.0752313E-1,-2.5886735E-1,2.691703E-1,-6.5705836E-1,-9.79913E-2,-1.1101719E0,-4.76554E-1,-2.2456166E-1,4.576824E-1,-0E0,-2.5923333E-1,-1.932247E0,-0E0,3.9651107E-2,1.12875765E-2,-5.094428E-2,1.0484581E-2,6.1809802E-3,6.6469364E-2,-7.440781E-2,-0E0,-2.1878017E-2,3.743157E-2,2.516155E-2,8.130739E-4,7.7825612E-3,-3.890168E-2,-1.209825E-2,5.818555E-3,-5.8653515E-2,-0E0,-0E0,-3.0768678E-2,-0E0,-2.6760673E-2,-0E0,3.70803E-2,-0E0,-2.0778118E-2,-9.891983E-2,-0E0],"categories":[],"categories_nodes":[],"categories_segments":[],"categories_sizes":[],"default_left":[0,0,0,0,0,0,0,0,0,0,0,0,0,0,0,0,0,0,0,0,0,0,0,0,0,0,0,0,0,0,0,0,0,0,0,0,0,0,0,0,0,0,0,0,0,0,0,0,0,0,0,0,0,0,0,0,0,0,0],"id":20,"left_children":[1,3,5,7,9,11,13,15,17,19,21,23,25,27,29,31,33,35,37,39,41,43,45,47,49,51,53,-1,55,57,-1,-1,-1,-1,-1,-1,-1,-1,-1,-1,-1,-1,-1,-1,-1,-1,-1,-1,-1,-1,-1,-1,-1,-1,-1,-1,-1,-1,-1],"loss_changes":[1.636082E3,3.4135114E2,1.870409E2,2.1433228E2,9.410615E1,7.127185E1,7.1488464E1,1.759287E2,1.0133661E2,4.5096317E1,3.2735104E1,6.2437195E1,1.16636715E1,1.5456442E0,5.524695E1,8.2944E1,2.7911766E1,5.4977905E1,1.5748038E1,2.8362568E1,5.618316E1,2.5221924E1,1.2209437E1,2.806897E1,2.9197777E1,5.9531517E0,1.0163491E1,0E0,1.9081968E0,2.2232178E1,0E0,0E0,0E0,0E0,0E0,0E0,0E0,0E0,0E0,0E0,0E0,0E0,0E0,0E0,0E0,0E0,0E0,0E0,0E0,0E0,0E0,0E0,0E0,0E0,0E0,0E0,0E0,0E0,0E0],"parents":[2147483647,0,0,1,1,2,2,3,3,4,4,5,5,6,6,7,7,8,8,9,9,10,10,11,11,12,12,13,13,14,14,15,15,16,16,17,17,18,18,19,19,20,20,21,21,22,22,23,23,24,24,25,25,26,26,28,28,29,29],"right_children":[2,4,6,8,10,12,14,16,18,20,22,24,26,28,30,32,34,36,38,40,42,44,46,48,50,52,54,-1,56,58,-1,-1,-1,-1,-1,-1,-1,-1,-1,-1,-1,-1,-1,-1,-1,-1,-1,-1,-1,-1,-1,-1,-1,-1,-1,-1,-1,-1,-1],"split_conditions":[3.2774E0,1.2796E0,6.1982E0,3.373253E-1,3.6923077E0,1E0,6.621115E-1,-1.8749939E0,2.1659962E1,1.8566775E-1,-3.1221354E0,-4.3965864E0,4.570894E0,7.924521E-1,7.130864E-1,4.861058E0,2.8135769E1,-1.24E0,3.2322177E-1,7.337405E-3,8.370231E-1,-1.6270636E1,4.0136557E0,5.124205E0,1.0434735E0,1.292965E2,2.0869143E0,-0E0,8.167418E-1,1E0,-0E0,3.9651107E-2,1.12875765E-2,-5.094428E-2,1.0484581E-2,6.1809802E-3,6.6469364E-2,-7.440781E-2,-0E0,-2.1878017E-2,3.743157E-2,2.516155E-2,8.130739E-4,7.7825612E-3,-3.890168E-2,-1.209825E-2,5.818555E-3,-5.8653515E-2,-0E0,-0E0,-3.0768678E-2,-0E0,-2.6760673E-2,-0E0,3.70803E-2,-0E0,-2.0778118E-2,-9.891983E-2,-0E0],"split_indices":[4249,4249,4249,3295,2653,2518,3062,2465,3846,3252,2490,3819,3872,2249,2871,2234,4185,4167,2307,4088,3130,2325,2391,2358,4165,2636,3570,0,3075,2092,0,0,0,0,0,0,0,0,0,0,0,0,0,0,0,0,0,0,0,0,0,0,0,0,0,0,0,0,0],"split_type":[0,0,0,0,0,0,0,0,0,0,0,0,0,0,0,0,0,0,0,0,0,0,0,0,0,0,0,0,0,0,0,0,0,0,0,0,0,0,0,0,0,0,0,0,0,0,0,0,0,0,0,0,0,0,0,0,0,0,0],"sum_hessian":[4.819E3,3.62E3,1.199E3,1.868E3,1.752E3,8.83E2,3.16E2,1.259E3,6.09E2,1.208E3,5.44E2,7.98E2,8.5E1,3.3E1,2.83E2,1.159E3,1E2,5.9E2,1.9E1,1.72E2,1.036E3,1.91E2,3.53E2,4.34E2,3.64E2,4E1,4.5E1,1.1E1,2.2E1,2.74E2,9E0,5.67E2,5.92E2,9.3E1,7E0,6.1E1,5.29E2,1.2E1,7E0,1.55E2,1.7E1,5.17E2,5.19E2,1.4E1,1.77E2,2.39E2,1.14E2,4.09E2,2.5E1,6.9E1,2.95E2,1.3E1,2.7E1,1E1,3.5E1,3E0,1.9E1,2.67E2,7E0],"tree_param":{"num_deleted":"0","num_feature":"4336","num_nodes":"59","size_leaf_vector":"1"}},{"base_weights":[1.2004981E-2,4.2134613E-1,-7.880846E-1,1.0651613E-1,6.3277465E-1,-5.5160534E-1,-1.6224958E0,1.9752651E-1,-8.75939E-1,9.392741E-1,3.0898425E-1,-3.294676E-1,-9.040668E-1,-0E0,-1.7355189E0,1.1495589E0,1.0833361E-1,6.977079E-2,-1.1579788E0,1.0415822E0,-2.7840105E-1,4.4460312E-1,3.285347E-2,-4.0750256E-1,4.0294975E-1,-9.745199E-1,-0E0,-5.333737E-1,1.2919839E-1,-1.7943823E0,-0E0,-0E0,6.0409922E-2,1.761881E-2,-7.097274E-3,1.0293207E-2,-0E0,-6.385904E-2,-0E0,6.372598E-2,2.792712E-2,-4.774924E-2,8.947785E-3,2.6566485E-2,-0E0,-3.324705E-3,1.5435833E-2,-3.1084731E-2,-3.2968733E-3,3.4868218E-2,-0E0,-0E0,-5.204242E-2,-1.02596795E-2,5.239173E-3,-0E0,-3.9291155E-2,1.2237643E-2,-0E0,-9.191235E-2,-0E0],"categories":[],"categories_nodes":[],"categories_segments":[],"categories_sizes":[],"default_left":[0,0,0,0,0,0,0,0,0,0,0,0,0,0,0,0,0,0,0,0,0,0,0,0,0,0,0,0,0,0,0,0,0,0,0,0,0,0,0,0,0,0,0,0,0,0,0,0,0,0,0,0,0,0,0,0,0,0,0,0,0],"id":21,"left_children":[1,3,5,7,9,11,13,15,17,19,21,23,25,27,29,31,33,35,37,39,41,43,45,47,49,51,53,55,57,59,-1,-1,-1,-1,-1,-1,-1,-1,-1,-1,-1,-1,-1,-1,-1,-1,-1,-1,-1,-1,-1,-1,-1,-1,-1,-1,-1,-1,-1,-1,-1],"loss_changes":[1.5680555E3,2.0441296E2,2.9623468E2,1.0953719E2,1.742976E2,8.680145E1,4.736151E1,8.910907E1,3.7902367E1,1.2652008E2,3.0187767E1,4.5818756E1,2.746408E1,5.8566723E0,3.0864563E1,9.938477E0,6.976852E1,4.7305322E-1,2.1701317E1,8.064844E1,2.8663681E1,2.8085663E1,1.1569062E1,4.6782516E1,1.3761899E1,1.9281769E1,1.1129496E0,3.5730186E0,3.1230944E-1,2.5424072E1,0E0,0E0,0E0,0E0,0E0,0E0,0E0,0E0,0E0,0E0,0E0,0E0,0E0,0E0,0E0,0E0,0E0,0E0,0E0,0E0,0E0,0E0,0E0,0E0,0E0,0E0,0E0,0E0,0E0,0E0,0E0],"parents":[2147483647,0,0,1,1,2,2,3,3,4,4,5,5,6,6,7,7,8,8,9,9,10,10,11,11,12,12,13,13,14,14,15,15,16,16,17,17,18,18,19,19,20,20,21,21,22,22,23,23,24,24,25,25,26,26,27,27,28,28,29,29],"right_children":[2,4,6,8,10,12,14,16,18,20,22,24,26,28,30,32,34,36,38,40,42,44,46,48,50,52,54,56,58,60,-1,-1,-1,-1,-1,-1,-1,-1,-1,-1,-1,-1,-1,-1,-1,-1,-1,-1,-1,-1,-1,-1,-1,-1,-1,-1,-1,-1,-1,-1,-1],"split_conditions":[2.702E0,3.187625E-1,5.9672E0,1.8120205E-1,9.595E-1,6.95637E0,-1.6E1,-2.5034E0,7.3028955E0,9.416281E3,2.02164E0,1E0,5.0589623E0,-1.9725916E0,9.5701945E-1,7.9851854E-1,4.8802276E0,1.26E2,7.341531E-1,5.535628E0,-3.2904136E-1,9.701602E0,3.1413808E0,-3.4026916E0,7.3333335E-1,-1.5847078E-1,-9.75E0,8.238087E-1,8.630544E-1,-2.7874217E0,-0E0,-0E0,6.0409922E-2,1.761881E-2,-7.097274E-3,1.0293207E-2,-0E0,-6.385904E-2,-0E0,6.372598E-2,2.792712E-2,-4.774924E-2,8.947785E-3,2.6566485E-2,-0E0,-3.324705E-3,1.5435833E-2,-3.1084731E-2,-3.2968733E-3,3.4868218E-2,-0E0,-0E0,-5.204242E-2,-1.02596795E-2,5.239173E-3,-0E0,-3.9291155E-2,1.2237643E-2,-0E0,-9.191235E-2,-0E0],"split_indices":[4249,3342,4249,2330,4249,2399,2779,4249,4121,2586,4249,2518,2306,2841,2505,2820,2399,2560,3213,3744,2273,3864,3160,3819,4067,2988,3763,3061,3885,2448,0,0,0,0,0,0,0,0,0,0,0,0,0,0,0,0,0,0,0,0,0,0,0,0,0,0,0,0,0,0,0],"split_type":[0,0,0,0,0,0,0,0,0,0,0,0,0,0,0,0,0,0,0,0,0,0,0,0,0,0,0,0,0,0,0,0,0,0,0,0,0,0,0,0,0,0,0,0,0,0,0,0,0,0,0,0,0,0,0,0,0,0,0,0,0],"sum_hessian":[4.797E3,3.182E3,1.615E3,1.298E3,1.884E3,1.269E3,3.46E2,1.198E3,1E2,9.51E2,9.33E2,7.97E2,4.72E2,2.8E1,3.18E2,9.2E1,1.106E3,1.5E1,8.5E1,8.85E2,6.6E1,6.01E2,3.32E2,7.33E2,6.4E1,4.35E2,3.7E1,1.9E1,9E0,3.07E2,1.1E1,2E0,9E1,5.8E2,5.26E2,1.2E1,3E0,8.3E1,2E0,5.82E2,3.03E2,3.5E1,3.1E1,5.2E2,8.1E1,2.18E2,1.14E2,4.32E2,3.01E2,4.9E1,1.5E1,3.6E1,3.99E2,2.1E1,1.6E1,5E0,1.4E1,7E0,2E0,3E2,7E0],"tree_param":{"num_deleted":"0","num_feature":"4336","num_nodes":"61","size_leaf_vector":"1"}},{"base_weights":[-0E0,4.2668834E-1,-6.942366E-1,7.042051E-1,1.609039E-1,-3.6863387E-1,-1.2470464E0,8.0224293E-1,-2.7133502E-2,2.0549433E-1,-1.4100978E0,-1.9043721E-1,-7.1961033E-1,-0E0,-1.3126626E0,1.1324135E0,5.077725E-1,-7.8717047E-1,4.7018725E-2,4.0120476E-1,-2.6434138E-2,-0E0,-1.6452206E0,-9.074427E-2,-6.667513E-1,-0E0,-8.808482E-1,-1.8262087E-1,1.8003826E-1,-1.3648034E0,-0E0,6.0774356E-2,-0E0,-0E0,2.7606213E-2,-7.06972E-2,-0E0,-8.5988E-3,1.582575E-2,2.4024015E-2,-1.6815456E-2,4.4601155E-3,-3.5124116E-2,-9.12536E-2,-0E0,1.6058715E-3,-2.0369729E-2,-0E0,-3.9096706E-2,9.991257E-3,-1.798929E-2,-3.3885166E-2,-1.00024335E-1,-1.6699657E-2,-0E0,1.0827171E-2,-0E0,-3.258267E-2,-7.445237E-2,-0E0,-9.865753E-3],"categories":[],"categories_nodes":[],"categories_segments":[],"categories_sizes":[],"default_left":[0,0,0,0,0,0,0,0,0,0,0,0,0,0,0,0,0,0,0,0,0,0,0,0,0,0,0,0,0,0,0,0,0,0,0,0,0,0,0,0,0,0,0,0,0,0,0,0,0,0,0,0,0,0,0,0,0,0,0,0,0],"id":22,"left_children":[1,3,5,7,9,11,13,15,17,19,21,23,25,27,29,31,33,35,37,39,41,-1,43,45,47,49,51,53,55,57,59,-1,-1,-1,-1,-1,-1,-1,-1,-1,-1,-1,-1,-1,-1,-1,-1,-1,-1,-1,-1,-1,-1,-1,-1,-1,-1,-1,-1,-1,-1],"loss_changes":[1.407085E3,2.084577E2,3.0863696E2,1.0972864E2,9.500244E1,6.2686737E1,5.020868E1,1.06110596E2,1.6286804E1,7.134524E1,1.7741257E1,2.954542E1,4.220331E1,1.2236615E0,3.4818848E1,4.9599487E1,1.7052643E1,9.87952E0,9.290234E0,5.018924E1,5.7713314E1,0E0,1.3934731E1,2.9676052E1,1.1130009E1,5.1225157E0,4.009703E1,1.1408155E0,6.5467894E-2,3.034253E1,7.7866477E-1,0E0,0E0,0E0,0E0,0E0,0E0,0E0,0E0,0E0,0E0,0E0,0E0,0E0,0E0,0E0,0E0,0E0,0E0,0E0,0E0,0E0,0E0,0E0,0E0,0E0,0E0,0E0,0E0,0E0,0E0],"parents":[2147483647,0,0,1,1,2,2,3,3,4,4,5,5,6,6,7,7,8,8,9,9,10,10,11,11,12,12,13,13,14,14,15,15,16,16,17,17,18,18,19,19,20,20,22,22,23,23,24,24,25,25,26,26,27,27,28,28,29,29,30,30],"right_children":[2,4,6,8,10,12,14,16,18,20,22,24,26,28,30,32,34,36,38,40,42,-1,44,46,48,50,52,54,56,58,60,-1,-1,-1,-1,-1,-1,-1,-1,-1,-1,-1,-1,-1,-1,-1,-1,-1,-1,-1,-1,-1,-1,-1,-1,-1,-1,-1,-1,-1,-1],"split_conditions":[2.4425E0,4.207692E1,4.37598E0,-1.935718E-1,1.6388412E1,3.0243902E0,-3.6177747E0,3.8333333E0,-1.7716123E0,4.4374384E-2,5.460686E1,6.8613136E-1,-9.464307E-2,3.826537E0,4.0598292E-2,6.206927E-1,3.5160032E-1,1.224362E0,7.096731E0,-2.7682272E-1,5.7250137E0,-0E0,6.6373994E3,6.0232863E0,2.8997566E1,6.0861415E-1,1.127E2,6.762065E-2,9.04571E-1,8.219209E-2,1.2723608E-1,6.0774356E-2,-0E0,-0E0,2.7606213E-2,-7.06972E-2,-0E0,-8.5988E-3,1.582575E-2,2.4024015E-2,-1.6815456E-2,4.4601155E-3,-3.5124116E-2,-9.12536E-2,-0E0,1.6058715E-3,-2.0369729E-2,-0E0,-3.9096706E-2,9.991257E-3,-1.798929E-2,-3.3885166E-2,-1.00024335E-1,-1.6699657E-2,-0E0,1.0827171E-2,-0E0,-3.258267E-2,-7.445237E-2,-0E0,-9.865753E-3],"split_indices":[4249,3808,4249,4139,2748,2661,2911,3723,2956,3760,3856,3765,3036,2360,3762,2330,3085,3224,2703,4139,3919,0,2802,3158,2635,3085,4071,2996,3075,2488,4079,0,0,0,0,0,0,0,0,0,0,0,0,0,0,0,0,0,0,0,0,0,0,0,0,0,0,0,0,0,0],"split_type":[0,0,0,0,0,0,0,0,0,0,0,0,0,0,0,0,0,0,0,0,0,0,0,0,0,0,0,0,0,0,0,0,0,0,0,0,0,0,0,0,0,0,0,0,0,0,0,0,0,0,0,0,0,0,0,0,0,0,0,0,0],"sum_hessian":[4.75E3,2.944E3,1.806E3,1.421E3,1.523E3,1.149E3,6.57E2,1.265E3,1.56E2,1.488E3,3.5E1,7.82E2,3.67E2,3.5E1,6.22E2,5.79E2,6.86E2,2.5E1,1.31E2,8.3E2,6.58E2,3E0,3.2E1,6.65E2,1.17E2,6.8E1,2.99E2,2.5E1,1E1,5.94E2,2.8E1,5.36E2,4.3E1,5E1,6.36E2,1.2E1,1.3E1,5.2E1,7.9E1,7.62E2,6.8E1,5.5E2,1.08E2,3E1,2E0,4.57E2,2.08E2,1.4E1,1.03E2,4.3E1,2.5E1,2.62E2,3.7E1,1.7E1,8E0,8E0,2E0,1.01E2,4.93E2,9E0,1.9E1],"tree_param":{"num_deleted":"0","num_feature":"4336","num_nodes":"61","size_leaf_vector":"1"}},{"base_weights":[-2.7508236E-2,3.3237112E-1,-7.699638E-1,5.3005236E-1,-0E0,-4.8306924E-1,-1.3351793E0,-2.3952234E-1,6.1550224E-1,5.0972086E-1,-8.68475E-2,-5.511614E-1,7.1264945E-2,-1.439169E0,-4.525832E-2,-3.99424E-1,4.731027E-1,8.626351E-1,2.7609986E-1,8.7185764E-1,-1.48551E-1,-6.142049E-1,1.5768053E-2,-9.6298957E-1,-4.1868252E-1,9.688353E-1,-2.8723364E-3,-1.4672477E0,-0E0,3.4219865E-3,-5.818826E-1,-5.8350354E-3,-6.247263E-2,-0E0,4.197735E-2,4.558781E-2,-5.0084956E-2,-1.1458646E-4,1.9707108E-2,-0E0,4.9252994E-2,-3.972633E-2,8.432887E-3,-7.733207E-2,-1.46214655E-2,-1.3076933E-2,6.088039E-3,-0E0,-5.2305818E-2,-5.9618276E-2,-1.7117754E-2,6.0352843E-2,-0E0,-1.6220266E-2,4.414467E-3,-7.448206E-2,-0E0,2.5633126E-2,-0E0,-3.671138E-2,-0E0],"categories":[],"categories_nodes":[],"categories_segments":[],"categories_sizes":[],"default_left":[0,0,0,0,0,0,0,0,0,0,0,0,0,0,0,0,0,0,0,0,0,0,0,0,0,0,0,0,0,0,0,0,0,0,0,0,0,0,0,0,0,0,0,0,0,0,0,0,0,0,0,0,0,0,0,0,0,0,0,0,0],"id":23,"left_children":[1,3,5,7,9,11,13,15,17,19,21,23,25,27,29,31,33,35,37,39,41,43,45,47,49,51,53,55,-1,57,59,-1,-1,-1,-1,-1,-1,-1,-1,-1,-1,-1,-1,-1,-1,-1,-1,-1,-1,-1,-1,-1,-1,-1,-1,-1,-1,-1,-1,-1,-1],"loss_changes":[1.2909058E3,2.1054941E2,2.3754315E2,1.3680835E2,5.533006E1,4.4924316E1,5.484265E1,2.1216618E1,1.419541E2,5.0986927E1,6.18408E1,3.826541E1,1.6383299E1,2.7918274E1,7.01438E0,2.6566896E1,6.610438E0,9.5438416E1,2.9880367E1,2.0114113E1,1.7867603E1,3.636351E1,2.3588295E1,2.1680573E1,2.8416412E1,3.5022545E0,4.8519664E0,1.77406E1,0E0,3.4163816E0,2.5932884E0,0E0,0E0,0E0,0E0,0E0,0E0,0E0,0E0,0E0,0E0,0E0,0E0,0E0,0E0,0E0,0E0,0E0,0E0,0E0,0E0,0E0,0E0,0E0,0E0,0E0,0E0,0E0,0E0,0E0,0E0],"parents":[2147483647,0,0,1,1,2,2,3,3,4,4,5,5,6,6,7,7,8,8,9,9,10,10,11,11,12,12,13,13,14,14,15,15,16,16,17,17,18,18,19,19,20,20,21,21,22,22,23,23,24,24,25,25,26,26,27,27,29,29,30,30],"right_children":[2,4,6,8,10,12,14,16,18,20,22,24,26,28,30,32,34,36,38,40,42,44,46,48,50,52,54,56,-1,58,60,-1,-1,-1,-1,-1,-1,-1,-1,-1,-1,-1,-1,-1,-1,-1,-1,-1,-1,-1,-1,-1,-1,-1,-1,-1,-1,-1,-1,-1,-1],"split_conditions":[2.7449E0,4.4909396E0,5.0093E0,5.88125E0,-3.1727836E0,1E0,-5.2131987E0,-1.7923266E-2,1.2796E0,1.565185E0,-3.461212E0,-6.8923855E0,-4.972128E-2,8.649553E1,1.7374653E-2,1.3729681E-1,2.458477E1,9.834278E-1,-1.4876099E-1,-1.1269568E0,-2.062306E0,-1.11923255E-2,1E0,1.491679E0,5.8055553E0,-7.845691E0,-4.047659E0,1E0,-0E0,-7.6057535E-1,1.2682993E0,-5.8350354E-3,-6.247263E-2,-0E0,4.197735E-2,4.558781E-2,-5.0084956E-2,-1.1458646E-4,1.9707108E-2,-0E0,4.9252994E-2,-3.972633E-2,8.432887E-3,-7.733207E-2,-1.46214655E-2,-1.3076933E-2,6.088039E-3,-0E0,-5.2305818E-2,-5.9618276E-2,-1.7117754E-2,6.0352843E-2,-0E0,-1.6220266E-2,4.414467E-3,-7.448206E-2,-0E0,2.5633126E-2,-0E0,-3.671138E-2,-0E0],"split_indices":[4249,2234,4249,2722,2489,2517,3819,2291,4249,2458,3819,2227,3044,3856,4087,4138,3802,2856,3042,2228,2271,2996,3299,2339,2722,2325,2343,1666,0,2376,3089,0,0,0,0,0,0,0,0,0,0,0,0,0,0,0,0,0,0,0,0,0,0,0,0,0,0,0,0,0,0],"split_type":[0,0,0,0,0,0,0,0,0,0,0,0,0,0,0,0,0,0,0,0,0,0,0,0,0,0,0,0,0,0,0,0,0,0,0,0,0,0,0,0,0,0,0,0,0,0,0,0,0,0,0,0,0,0,0,0,0,0,0,0,0],"sum_hessian":[4.813E3,3.233E3,1.58E3,2.02E3,1.213E3,1.061E3,5.19E2,1.9E2,1.83E3,1.82E2,1.031E3,9.61E2,1E2,4.73E2,4.6E1,1.67E2,2.3E1,1.041E3,7.89E2,1.27E2,5.5E1,1.83E2,8.48E2,2.14E2,7.47E2,1.7E1,8.3E1,4.68E2,5E0,2.6E1,2E1,1.35E2,3.2E1,7E0,1.6E1,1.02E3,2.1E1,2.1E2,5.79E2,7E0,1.2E2,2.8E1,2.7E1,3.8E1,1.45E2,2.08E2,6.4E2,1.3E1,2.01E2,5.4E1,6.93E2,1.3E1,4E0,4.2E1,4.1E1,4.62E2,6E0,1.2E1,1.4E1,1.7E1,3E0],"tree_param":{"num_deleted":"0","num_feature":"4336","num_nodes":"61","size_leaf_vector":"1"}},{"base_weights":[-1.7983502E-2,3.0494308E-1,-7.497415E-1,5.143695E-1,2.8851356E-2,-1.2174686E0,-4.7377115E-1,-5.090585E-1,5.932978E-1,2.1674092E-1,-2.3991252E-1,-1.3245269E0,-0E0,-6.142683E-1,-1.11659266E-1,3.2938594E-1,-1.0412681E0,8.6552805E-1,2.814094E-1,3.0046332E-1,-1.3600932E-1,-9.427986E-2,-7.249648E-1,-1.1188141E0,-1.9945192E0,4.40996E-1,-7.437813E-1,-3.725835E-1,-8.922329E-1,6.766675E-2,-4.5077038E-1,-0E0,3.19214E-2,-6.170268E-2,-0E0,4.5851406E-2,-3.6507484E-2,-0E0,2.116423E-2,-2.7906406E-3,1.9667896E-2,-1.9300887E-2,-0E0,4.194079E-2,-7.840073E-3,-4.5459356E-2,-0E0,-0E0,-6.016385E-2,-0E0,-1.0383681E-1,5.7571914E-2,-0E0,-0E0,-4.7322392E-2,-2.4080526E-2,-0E0,-4.6607308E-2,-0E0,3.0552644E-2,-2.3680122E-4,-0E0,-3.3463094E-2],"categories":[],"categories_nodes":[],"categories_segments":[],"categories_sizes":[],"default_left":[0,0,0,0,0,0,0,0,0,0,0,0,0,0,0,0,0,0,0,0,0,0,0,0,0,0,0,0,0,0,0,0,0,0,0,0,0,0,0,0,0,0,0,0,0,0,0,0,0,0,0,0,0,0,0,0,0,0,0,0,0,0,0],"id":24,"left_children":[1,3,5,7,9,11,13,15,17,19,21,23,25,27,29,31,33,35,37,39,41,43,45,47,49,51,53,55,57,59,61,-1,-1,-1,-1,-1,-1,-1,-1,-1,-1,-1,-1,-1,-1,-1,-1,-1,-1,-1,-1,-1,-1,-1,-1,-1,-1,-1,-1,-1,-1,-1,-1],"loss_changes":[1.1370459E3,1.8628705E2,1.7316022E2,1.5179428E2,7.314328E1,5.7605103E1,4.069879E1,6.3240322E1,1.3610748E2,2.758593E1,3.242753E1,3.3343018E1,1.9798624E1,3.1358093E1,2.1192799E1,1.0116459E1,2.314051E1,7.748419E1,3.0306282E1,2.7623764E1,7.282864E0,2.0147144E1,1.5383617E1,3.6221497E1,1.2243195E1,1.3699404E1,6.56164E0,1.4187271E1,1.6553955E1,1.267563E1,1.2303944E1,0E0,0E0,0E0,0E0,0E0,0E0,0E0,0E0,0E0,0E0,0E0,0E0,0E0,0E0,0E0,0E0,0E0,0E0,0E0,0E0,0E0,0E0,0E0,0E0,0E0,0E0,0E0,0E0,0E0,0E0,0E0,0E0],"parents":[2147483647,0,0,1,1,2,2,3,3,4,4,5,5,6,6,7,7,8,8,9,9,10,10,11,11,12,12,13,13,14,14,15,15,16,16,17,17,18,18,19,19,20,20,21,21,22,22,23,23,24,24,25,25,26,26,27,27,28,28,29,29,30,30],"right_children":[2,4,6,8,10,12,14,16,18,20,22,24,26,28,30,32,34,36,38,40,42,44,46,48,50,52,54,56,58,60,62,-1,-1,-1,-1,-1,-1,-1,-1,-1,-1,-1,-1,-1,-1,-1,-1,-1,-1,-1,-1,-1,-1,-1,-1,-1,-1,-1,-1,-1,-1,-1,-1],"split_conditions":[2.9084E0,1.2796E0,-5.571317E0,1.4746785E-1,1.0040348E2,-1.8054966E0,4.691707E-1,1.3833672E1,4.0606112E0,6.7045456E-1,8.566667E0,6.399319E0,7.172732E-1,4.4239918E1,2.5282264E0,-1.4337935E2,1E0,8E0,2.3426819E1,-2.4113417E0,3.0029377E-1,-8.633257E0,-2.2643116E0,-3.3333333E0,-4.276598E1,1.293311E-1,9.0024525E-1,1.9448524E1,3.220434E-1,-6.778737E0,-4.88757E-1,-0E0,3.19214E-2,-6.170268E-2,-0E0,4.5851406E-2,-3.6507484E-2,-0E0,2.116423E-2,-2.7906406E-3,1.9667896E-2,-1.9300887E-2,-0E0,4.194079E-2,-7.840073E-3,-4.5459356E-2,-0E0,-0E0,-6.016385E-2,-0E0,-1.0383681E-1,5.7571914E-2,-0E0,-0E0,-4.7322392E-2,-2.4080526E-2,-0E0,-4.6607308E-2,-0E0,3.0552644E-2,-2.3680122E-4,-0E0,-3.3463094E-2],"split_indices":[4249,4249,3819,2287,2702,2271,4140,4187,2234,3765,2650,2728,3088,3809,2273,2803,2518,2748,3845,2217,3784,2400,2377,2777,2904,3345,3115,3858,3017,2301,2499,0,0,0,0,0,0,0,0,0,0,0,0,0,0,0,0,0,0,0,0,0,0,0,0,0,0,0,0,0,0,0,0],"split_type":[0,0,0,0,0,0,0,0,0,0,0,0,0,0,0,0,0,0,0,0,0,0,0,0,0,0,0,0,0,0,0,0,0,0,0,0,0,0,0,0,0,0,0,0,0,0,0,0,0,0,0,0,0,0,0,0,0,0,0,0,0,0,0],"sum_hessian":[4.791E3,3.315E3,1.476E3,1.864E3,1.451E3,5.33E2,9.43E2,1.24E2,1.74E3,8.76E2,5.75E2,4.83E2,5E1,6.59E2,2.84E2,4.1E1,8.3E1,9.11E2,8.29E2,7.31E2,1.45E2,4.59E2,1.16E2,3.83E2,1E2,2.4E1,2.6E1,3.73E2,2.86E2,1.67E2,1.17E2,6E0,3.5E1,7.4E1,9E0,8.89E2,2.2E1,2.94E2,5.35E2,1.29E2,6.02E2,6.6E1,7.9E1,1.8E1,4.41E2,9.2E1,2.4E1,2.7E1,3.56E2,5E0,9.5E1,1.3E1,1.1E1,3E0,2.3E1,2.84E2,8.9E1,2.81E2,5E0,3.5E1,1.32E2,3.7E1,8E1],"tree_param":{"num_deleted":"0","num_feature":"4336","num_nodes":"63","size_leaf_vector":"1"}},{"base_weights":[-0E0,3.0970478E-1,-6.673877E-1,3.7333246E-2,5.099694E-1,-5.021528E-1,-1.4337648E0,2.1158858E-1,-2.2944841E-1,7.766602E-1,2.025239E-1,-2.1142508E-1,-7.477893E-1,-8.8740714E-2,-1.6536808E0,-0E0,4.3533158E-1,-0E0,-5.902142E-1,-1.9393567E-2,8.5679E-1,2.6646635E-1,-1.8537891E-1,1.981562E-1,-3.0208805E-1,-1.6446778E-1,-8.628851E-1,-0E0,-6.8928844E-1,-0E0,-1.734271E0,5.387713E-3,-4.0593695E-2,2.8197968E-2,-0E0,-1.23824105E-2,9.433839E-3,-6.289547E-3,-4.842557E-2,3.0792708E-2,-3.757681E-2,5.4886665E-2,2.8100774E-2,-8.195666E-3,1.6158318E-2,-0E0,-2.9586924E-2,-1.0687312E-2,2.585972E-2,-1.9149413E-2,1.188748E-3,-2.5224378E-2,7.102543E-3,-4.6677254E-2,-0E0,-0E0,1.0267399E-2,-0E0,-3.718276E-2,-0E0,-8.999543E-2],"categories":[],"categories_nodes":[],"categories_segments":[],"categories_sizes":[],"default_left":[0,0,0,0,0,0,0,0,0,0,0,0,0,0,0,0,0,0,0,0,0,0,0,0,0,0,0,0,0,0,0,0,0,0,0,0,0,0,0,0,0,0,0,0,0,0,0,0,0,0,0,0,0,0,0,0,0,0,0,0,0],"id":25,"left_children":[1,3,5,7,9,11,13,15,17,19,21,23,25,27,29,31,33,35,37,39,41,43,45,47,49,51,53,55,57,-1,59,-1,-1,-1,-1,-1,-1,-1,-1,-1,-1,-1,-1,-1,-1,-1,-1,-1,-1,-1,-1,-1,-1,-1,-1,-1,-1,-1,-1,-1,-1],"loss_changes":[9.7327563E2,1.7058371E2,1.6860284E2,6.448844E1,1.4083572E2,7.8659485E1,5.7264526E1,4.129369E1,4.0532402E1,7.007324E1,2.2513687E1,2.2896748E1,3.335846E1,8.213512E0,2.753357E1,3.9474274E1,2.6890121E1,1.5868433E1,2.3370392E1,3.8096832E1,4.5996887E1,2.0484257E1,1.2601837E1,1.4577928E1,1.6808796E1,1.6515385E1,3.0672638E1,6.3251704E-1,2.9623604E-1,0E0,1.7469849E1,0E0,0E0,0E0,0E0,0E0,0E0,0E0,0E0,0E0,0E0,0E0,0E0,0E0,0E0,0E0,0E0,0E0,0E0,0E0,0E0,0E0,0E0,0E0,0E0,0E0,0E0,0E0,0E0,0E0,0E0],"parents":[2147483647,0,0,1,1,2,2,3,3,4,4,5,5,6,6,7,7,8,8,9,9,10,10,11,11,12,12,13,13,14,14,15,15,16,16,17,17,18,18,19,19,20,20,21,21,22,22,23,23,24,24,25,25,26,26,27,27,28,28,30,30],"right_children":[2,4,6,8,10,12,14,16,18,20,22,24,26,28,30,32,34,36,38,40,42,44,46,48,50,52,54,56,58,-1,60,-1,-1,-1,-1,-1,-1,-1,-1,-1,-1,-1,-1,-1,-1,-1,-1,-1,-1,-1,-1,-1,-1,-1,-1,-1,-1,-1,-1,-1,-1],"split_conditions":[2.8254E0,3.187625E-1,1.978854E2,1.9920474E0,1.0637E0,3.878E0,-4.4972017E-1,7.623784E-1,-1.1282429E-2,1.9475988E-1,3.9807383E-2,-1.19768284E-1,7.8453183E-1,1.3893518E-1,-7.017544E-2,7.884428E-4,6.0153E0,9.1808176E-1,2.574173E1,-3.5257727E-1,1.24333336E2,3.195372E-2,3.5555556E-2,7.421982E-1,1.9536426E4,2.2151665E1,1.5851408E2,-7.454791E-2,7.335223E-1,-0E0,8.565659E-1,5.387713E-3,-4.0593695E-2,2.8197968E-2,-0E0,-1.23824105E-2,9.433839E-3,-6.289547E-3,-4.842557E-2,3.0792708E-2,-3.757681E-2,5.4886665E-2,2.8100774E-2,-8.195666E-3,1.6158318E-2,-0E0,-2.9586924E-2,-1.0687312E-2,2.585972E-2,-1.9149413E-2,1.188748E-3,-2.5224378E-2,7.102543E-3,-4.6677254E-2,-0E0,-0E0,1.0267399E-2,-0E0,-3.718276E-2,-0E0,-8.999543E-2],"split_indices":[4249,3342,2701,3176,4249,4249,2830,3069,3039,3060,3006,3028,3063,2344,2885,2330,2399,2409,3812,2369,2568,2937,2830,2883,2646,3845,2741,3002,3081,0,3073,0,0,0,0,0,0,0,0,0,0,0,0,0,0,0,0,0,0,0,0,0,0,0,0,0,0,0,0,0,0],"split_type":[0,0,0,0,0,0,0,0,0,0,0,0,0,0,0,0,0,0,0,0,0,0,0,0,0,0,0,0,0,0,0,0,0,0,0,0,0,0,0,0,0,0,0,0,0,0,0,0,0,0,0,0,0,0,0,0,0,0,0,0,0],"sum_hessian":[4.716E3,3.227E3,1.489E3,1.389E3,1.838E3,1.237E3,2.52E2,8.63E2,5.26E2,9.66E2,8.72E2,5.86E2,6.51E2,4.2E1,2.1E2,4.42E2,4.21E2,3.31E2,1.95E2,7.7E1,8.89E2,7.71E2,1.01E2,8.6E1,5E2,1.22E2,5.29E2,2.5E1,1.7E1,1E1,2E2,3.9E2,5.2E1,3.35E2,8.6E1,1.55E2,1.76E2,1E2,9.5E1,3.4E1,4.3E1,4.69E2,4.2E2,6.9E1,7.02E2,5.6E1,4.5E1,2.4E1,6.2E1,4.25E2,7.5E1,7.3E1,4.9E1,4.87E2,4.2E1,1.1E1,1.4E1,2E0,1.5E1,9E0,1.91E2],"tree_param":{"num_deleted":"0","num_feature":"4336","num_nodes":"61","size_leaf_vector":"1"}},{"base_weights":[2.22071E-3,3.632356E-1,-5.13309E-1,8.3044074E-2,5.3555155E-1,-2.8814104E-1,-1.0852726E0,-7.204164E-1,2.1375716E-1,8.0250084E-1,3.108416E-1,-7.7607983E-1,-1.7061557E-1,-1.2117196E0,-0E0,-1.5653326E-1,-1.7352586E0,6.750927E-1,3.2006927E-2,-3.9386114E-1,8.855708E-1,4.3880084E-1,4.4135593E-2,-8.828269E-1,-0E0,-0E0,-3.7965247E-1,-8.949246E-1,-1.684517E0,6.199074E-1,-3.867762E-1,-4.1992467E-2,5.7264506E-3,-9.379681E-2,-0E0,4.458308E-2,1.4970002E-2,3.4920502E-2,-1.5075397E-3,-0E0,-8.014766E-2,5.3947747E-2,1.8540917E-2,-0E0,2.4273863E-2,-2.9258097E-2,7.3296526E-3,-4.888273E-2,-0E0,-0E0,7.190838E-3,1.916889E-2,-4.6138153E-3,-2.5271846E-2,-0E0,-0E0,-5.000157E-2,-8.761455E-2,-0E0,-0E0,5.07718E-2,-4.6772685E-2,-0E0],"categories":[],"categories_nodes":[],"categories_segments":[],"categories_sizes":[],"default_left":[0,0,0,0,0,0,0,0,0,0,0,0,0,0,0,0,0,0,0,0,0,0,0,0,0,0,0,0,0,0,0,0,0,0,0,0,0,0,0,0,0,0,0,0,0,0,0,0,0,0,0,0,0,0,0,0,0,0,0,0,0,0,0],"id":26,"left_children":[1,3,5,7,9,11,13,15,17,19,21,23,25,27,29,31,33,35,37,39,41,43,45,47,49,51,53,55,57,59,61,-1,-1,-1,-1,-1,-1,-1,-1,-1,-1,-1,-1,-1,-1,-1,-1,-1,-1,-1,-1,-1,-1,-1,-1,-1,-1,-1,-1,-1,-1,-1,-1],"loss_changes":[8.92963E2,1.3079239E2,2.3940765E2,1.1103257E2,9.2693146E1,7.217495E1,8.429999E1,6.321482E1,7.3485176E1,8.198862E1,2.805017E1,2.6557114E1,4.2565228E1,4.653961E1,1.4350285E1,2.5871511E1,1.2303223E1,8.651436E0,3.5947647E1,2.6732525E1,5.777002E1,1.7343666E1,1.755753E1,1.5653061E1,3.9298192E-1,2.329432E1,2.897142E1,2.2741104E1,2.1364746E1,9.862222E0,8.660732E0,0E0,0E0,0E0,0E0,0E0,0E0,0E0,0E0,0E0,0E0,0E0,0E0,0E0,0E0,0E0,0E0,0E0,0E0,0E0,0E0,0E0,0E0,0E0,0E0,0E0,0E0,0E0,0E0,0E0,0E0,0E0,0E0],"parents":[2147483647,0,0,1,1,2,2,3,3,4,4,5,5,6,6,7,7,8,8,9,9,10,10,11,11,12,12,13,13,14,14,15,15,16,16,17,17,18,18,19,19,20,20,21,21,22,22,23,23,24,24,25,25,26,26,27,27,28,28,29,29,30,30],"right_children":[2,4,6,8,10,12,14,16,18,20,22,24,26,28,30,32,34,36,38,40,42,44,46,48,50,52,54,56,58,60,62,-1,-1,-1,-1,-1,-1,-1,-1,-1,-1,-1,-1,-1,-1,-1,-1,-1,-1,-1,-1,-1,-1,-1,-1,-1,-1,-1,-1,-1,-1,-1,-1],"split_conditions":[2.2984E0,-2.7736166E-1,4.302589E0,-1.2811214E-1,4.895E-1,2.0607612E-1,1E0,2E0,4.057205E0,-1.8321422E-1,8.4704447E-1,1.6723242E2,-2.7755576E-17,1.941417E0,-1.3136277E-1,4.101491E0,1.7384701E0,9.392E-1,-4.028931E0,3.461237E-1,1.0555289E1,5.517951E0,8.3623695E-1,2.0434175E0,9.694098E-1,-3.0705783E-1,1E0,-2.7164009E0,1E0,-2.38418E1,-2.3990815E0,-4.1992467E-2,5.7264506E-3,-9.379681E-2,-0E0,4.458308E-2,1.4970002E-2,3.4920502E-2,-1.5075397E-3,-0E0,-8.014766E-2,5.3947747E-2,1.8540917E-2,-0E0,2.4273863E-2,-2.9258097E-2,7.3296526E-3,-4.888273E-2,-0E0,-0E0,7.190838E-3,1.916889E-2,-4.6138153E-3,-2.5271846E-2,-0E0,-0E0,-5.000157E-2,-8.761455E-2,-0E0,-0E0,5.07718E-2,-4.6772685E-2,-0E0],"split_indices":[4249,2349,2292,2419,4249,3790,2517,4138,3920,2920,3115,2739,2821,2363,2342,3366,2227,4249,2911,4132,3895,2723,3070,2373,3078,2884,86,2501,401,2849,2492,0,0,0,0,0,0,0,0,0,0,0,0,0,0,0,0,0,0,0,0,0,0,0,0,0,0,0,0,0,0,0,0],"split_type":[0,0,0,0,0,0,0,0,0,0,0,0,0,0,0,0,0,0,0,0,0,0,0,0,0,0,0,0,0,0,0,0,0,0,0,0,0,0,0,0,0,0,0,0,0,0,0,0,0,0,0,0,0,0,0,0,0,0,0,0,0,0,0],"sum_hessian":[4.804E3,2.837E3,1.967E3,1.103E3,1.734E3,1.425E3,5.42E2,1.43E2,9.6E2,7.71E2,9.63E2,2.59E2,1.166E3,4.92E2,5E1,9.9E1,4.4E1,2.55E2,7.05E2,4.2E1,7.29E2,6.25E2,3.38E2,2.34E2,2.5E1,6.36E2,5.3E2,3.09E2,1.83E2,2.7E1,2.3E1,3.8E1,6.1E1,4.1E1,3E0,1.44E2,1.11E2,7.3E1,6.32E2,3E1,1.2E1,5.15E2,2.14E2,4.1E1,5.84E2,3.3E1,3.05E2,2.07E2,2.7E1,7E0,1.8E1,1.28E2,5.08E2,4.12E2,1.18E2,3.9E1,2.7E2,1.76E2,7E0,8E0,1.9E1,1.3E1,1E1],"tree_param":{"num_deleted":"0","num_feature":"4336","num_nodes":"63","size_leaf_vector":"1"}},{"base_weights":[-1.3086771E-3,2.3715636E-1,-7.6743525E-1,4.1802388E-1,-4.7195405E-2,-1.235785E0,-5.34455E-1,6.8299377E-1,1.8976958E-1,-3.6183897E-1,6.5247156E-2,2.3083314E-2,-1.3174406E0,-1.9190976E-2,-6.5998197E-1,7.7817637E-1,3.9224893E-2,4.8527606E-2,8.8160986E-1,-4.6405208E-1,1.762817E-1,1.0489483E0,1.6684324E-2,2.2961816E-2,-0E0,-0E0,-1.3697857E0,-2.478473E-1,5.2447057E-1,-7.926568E-1,-1.6993402E-1,5.2803505E-2,2.623106E-2,-1.167371E-2,2.0174544E-2,-5.016469E-2,1.0526164E-2,6.493588E-2,9.708799E-3,-7.856407E-3,-3.636099E-2,-0E0,2.58174E-2,-0E0,6.876188E-2,-9.971816E-3,6.067989E-3,-0E0,-7.085115E-2,-0E0,-1.9565802E-2,-0E0,4.437362E-2,-0E0,-4.5346495E-2,-2.7420724E-2,1.9180262E-3],"categories":[],"categories_nodes":[],"categories_segments":[],"categories_sizes":[],"default_left":[0,0,0,0,0,0,0,0,0,0,0,0,0,0,0,0,0,0,0,0,0,0,0,0,0,0,0,0,0,0,0,0,0,0,0,0,0,0,0,0,0,0,0,0,0,0,0,0,0,0,0,0,0,0,0,0,0],"id":27,"left_children":[1,3,5,7,9,11,13,15,17,19,21,23,25,27,29,31,33,35,37,39,41,43,45,-1,-1,-1,47,49,51,53,55,-1,-1,-1,-1,-1,-1,-1,-1,-1,-1,-1,-1,-1,-1,-1,-1,-1,-1,-1,-1,-1,-1,-1,-1,-1,-1],"loss_changes":[8.8735077E2,1.9257896E2,1.0777551E2,1.2819162E2,5.276824E1,5.0904907E1,4.4163116E1,5.4786774E1,1.1172707E2,2.4630684E1,3.7766285E1,1.4677604E0,3.1031555E1,1.862105E1,3.0419922E1,4.578601E1,1.6396618E1,1.6983043E2,4.1592194E1,1.9070297E1,6.7734623E0,1.8709782E1,2.1345646E1,0E0,0E0,0E0,2.1189087E1,7.0814323E0,9.237544E0,4.0285675E1,1.6868053E1,0E0,0E0,0E0,0E0,0E0,0E0,0E0,0E0,0E0,0E0,0E0,0E0,0E0,0E0,0E0,0E0,0E0,0E0,0E0,0E0,0E0,0E0,0E0,0E0,0E0,0E0],