{"learner":{"attributes":{"scikit_learn":"{\"_estimator_type\": \"regressor\"}"},"feature_names":[],"feature_types":[],"gradient_booster":{"model":{"gbtree_model_param":{"num_parallel_tree":"1","num_trees":"500"},"iteration_indptr":[0,1,2,3,4,5,6,7,8,9,10,11,12,13,14,15,16,17,18,19,20,21,22,23,24,25,26,27,28,29,30,31,32,33,34,35,36,37,38,39,40,41,42,43,44,45,46,47,48,49,50,51,52,53,54,55,56,57,58,59,60,61,62,63,64,65,66,67,68,69,70,71,72,73,74,75,76,77,78,79,80,81,82,83,84,85,86,87,88,89,90,91,92,93,94,95,96,97,98,99,100,101,102,103,104,105,106,107,108,109,110,111,112,113,114,115,116,117,118,119,120,121,122,123,124,125,126,127,128,129,130,131,132,133,134,135,136,137,138,139,140,141,142,143,144,145,146,147,148,149,150,151,152,153,154,155,156,157,158,159,160,161,162,163,164,165,166,167,168,169,170,171,172,173,174,175,176,177,178,179,180,181,182,183,184,185,186,187,188,189,190,191,192,193,194,195,196,197,198,199,200,201,202,203,204,205,206,207,208,209,210,211,212,213,214,215,216,217,218,219,220,221,222,223,224,225,226,227,228,229,230,231,232,233,234,235,236,237,238,239,240,241,242,243,244,245,246,247,248,249,250,251,252,253,254,255,256,257,258,259,260,261,262,263,264,265,266,267,268,269,270,271,272,273,274,275,276,277,278,279,280,281,282,283,284,285,286,287,288,289,290,291,292,293,294,295,296,297,298,299,300,301,302,303,304,305,306,307,308,309,310,311,312,313,314,315,316,317,318,319,320,321,322,323,324,325,326,327,328,329,330,331,332,333,334,335,336,337,338,339,340,341,342,343,344,345,346,347,348,349,350,351,352,353,354,355,356,357,358,359,360,361,362,363,364,365,366,367,368,369,370,371,372,373,374,375,376,377,378,379,380,381,382,383,384,385,386,387,388,389,390,391,392,393,394,395,396,397,398,399,400,401,402,403,404,405,406,407,408,409,410,411,412,413,414,415,416,417,418,419,420,421,422,423,424,425,426,427,428,429,430,431,432,433,434,435,436,437,438,439,440,441,442,443,444,445,446,447,448,449,450,451,452,453,454,455,456,457,458,459,460,461,462,463,464,465,466,467,468,469,470,471,472,473,474,475,476,477,478,479,480,481,482,483,484,485,486,487,488,489,490,491,492,493,494,495,496,497,498,499,500],"tree_info":[0,0,0,0,0,0,0,0,0,0,0,0,0,0,0,0,0,0,0,0,0,0,0,0,0,0,0,0,0,0,0,0,0,0,0,0,0,0,0,0,0,0,0,0,0,0,0,0,0,0,0,0,0,0,0,0,0,0,0,0,0,0,0,0,0,0,0,0,0,0,0,0,0,0,0,0,0,0,0,0,0,0,0,0,0,0,0,0,0,0,0,0,0,0,0,0,0,0,0,0,0,0,0,0,0,0,0,0,0,0,0,0,0,0,0,0,0,0,0,0,0,0,0,0,0,0,0,0,0,0,0,0,0,0,0,0,0,0,0,0,0,0,0,0,0,0,0,0,0,0,0,0,0,0,0,0,0,0,0,0,0,0,0,0,0,0,0,0,0,0,0,0,0,0,0,0,0,0,0,0,0,0,0,0,0,0,0,0,0,0,0,0,0,0,0,0,0,0,0,0,0,0,0,0,0,0,0,0,0,0,0,0,0,0,0,0,0,0,0,0,0,0,0,0,0,0,0,0,0,0,0,0,0,0,0,0,0,0,0,0,0,0,0,0,0,0,0,0,0,0,0,0,0,0,0,0,0,0,0,0,0,0,0,0,0,0,0,0,0,0,0,0,0,0,0,0,0,0,0,0,0,0,0,0,0,0,0,0,0,0,0,0,0,0,0,0,0,0,0,0,0,0,0,0,0,0,0,0,0,0,0,0,0,0,0,0,0,0,0,0,0,0,0,0,0,0,0,0,0,0,0,0,0,0,0,0,0,0,0,0,0,0,0,0,0,0,0,0,0,0,0,0,0,0,0,0,0,0,0,0,0,0,0,0,0,0,0,0,0,0,0,0,0,0,0,0,0,0,0,0,0,0,0,0,0,0,0,0,0,0,0,0,0,0,0,0,0,0,0,0,0,0,0,0,0,0,0,0,0,0,0,0,0,0,0,0,0,0,0,0,0,0,0,0,0,0,0,0,0,0,0,0,0,0,0,0,0,0,0,0,0,0,0,0,0,0,0,0,0,0,0,0,0,0,0,0,0,0,0,0,0,0,0,0,0,0,0,0,0,0,0,0,0,0,0,0,0,0,0,0,0,0,0,0,0,0,0,0,0,0,0,0,0,0,0,0,0,0,0,0],"trees":[{"base_weights":[-9.441405E-9,-1.8850784E-1,1.7172925E-1,-2.5920278E-1,-5.4565758E-2,-2.9995957E-2,2.853315E-1,-2.8007466E-1,-1.418055E-1,-1.1753954E-1,8.208393E-2,-1.9247083E-1,4.258935E-2,1.2321565E-2,3.4072104E-1,-2.8505132E-1,-7.049771E-2,-2.497795E-1,-6.75718E-2,-2.0076844E-1,-4.4176616E-2,-2.913282E-1,1.2786041E-1,6.012208E-2,-2.3285992E-1,1.3671891E-1,-2.055432E-1,-1.5303306E-1,1.8411316E-1,4.5164552E-1,2.6640585E-1,-2.8980675E-1,-9.664583E-2,1.6486613E-2,-1.8051934E-1,1.742858E-1,-2.7849907E-1,-2.2393544E-1,1.9992454E-2,2.0560858E-1,-2.2107056E-1,-8.764287E-2,1.3340206E-1,-1.5300818E-2,-3.4642823E-3,-3.752882E-2,2.3640282E-1,1.927779E-1,-1.6606048E-1,-2.713749E-1,2.9978804E-2,1.7107871E-1,-2.4119335E-1,-2.3859455E-1,2.2507412E-2,-1.7674589E-1,2.2421062E-1,-1.8157421E-1,2.5834075E-1,7.7389896E-2,4.797582E-1,2.9054457E-1,-1.3343737E-1,-1.461704E-2,1.9689496E-3,7.5229644E-3,-1.1827634E-2,-1.2235708E-2,1.1535718E-2,-3.4642823E-3,1.6535718E-2,2.6250042E-3,-1.4679191E-2,8.81319E-3,-1.3368534E-2,9.713422E-3,-5.601566E-3,-9.874996E-3,1.9803576E-2,1.6505498E-2,-1.1680856E-2,-1.1030945E-2,-1.3121705E-3,-8.303024E-3,1.1789689E-2,3.2802727E-3,-1.0197414E-2,-5.047613E-3,1.4786023E-2,-3.5428517E-3,1.791387E-2,4.967037E-3,-1.3542852E-2,-1.4080866E-2,3.986612E-3,1.5088809E-2,-1.3081627E-2,1.0028328E-2,-1.2812023E-2,1.1535718E-2,-1.4433391E-2,1.0958337E-2,-1.2646422E-2,-1.3081163E-2,1.0716523E-2,-9.7626215E-3,1.5125004E-2,-3.4642823E-3,1.768878E-2,-1.38685005E-2,1.6535718E-2,1.2314712E-3,1.8456228E-2,1.410964E-2,-6.8205916E-3,-3.9902544E-3,2.4493089E-2,9.8210005E-3,1.9786216E-2,-1.2803306E-2,7.591523E-3],"categories":[],"categories_nodes":[],"categories_segments":[],"categories_sizes":[],"default_left":[0,0,0,0,0,0,0,0,0,0,0,0,0,0,0,0,0,0,0,0,0,0,0,0,0,0,0,0,0,0,0,0,0,0,0,0,0,0,0,0,0,0,0,0,0,0,0,0,0,0,0,0,0,0,0,0,0,0,0,0,0,0,0,0,0,0,0,0,0,0,0,0,0,0,0,0,0,0,0,0,0,0,0,0,0,0,0,0,0,0,0,0,0,0,0,0,0,0,0,0,0,0,0,0,0,0,0,0,0,0,0,0,0,0,0,0,0,0,0,0,0],"id":0,"left_children":[1,3,5,7,9,11,13,15,17,19,21,23,25,27,29,31,33,35,37,39,41,43,45,47,49,51,53,55,57,59,61,63,65,-1,67,69,71,73,75,77,79,81,83,-1,-1,85,87,89,91,93,95,97,99,101,103,105,107,109,111,113,115,117,119,-1,-1,-1,-1,-1,-1,-1,-1,-1,-1,-1,-1,-1,-1,-1,-1,-1,-1,-1,-1,-1,-1,-1,-1,-1,-1,-1,-1,-1,-1,-1,-1,-1,-1,-1,-1,-1,-1,-1,-1,-1,-1,-1,-1,-1,-1,-1,-1,-1,-1,-1,-1,-1,-1,-1,-1,-1,-1],"loss_changes":[3.1346106E2,4.363829E1,1.1616034E2,7.2013397E0,1.3825402E1,2.1622704E1,4.900418E1,2.5685577E0,3.6507435E0,6.6599493E0,8.86974E0,5.84433E0,2.9780043E1,1.5821283E1,2.1614288E1,2.098053E0,3.2038562E0,2.5323381E0,3.8971827E0,4.4596825E0,4.612479E0,7.988691E-2,8.230356E0,2.6204276E0,4.9909363E0,1.2191462E1,2.672471E0,2.738667E0,7.6448755E0,1.1114273E1,1.5887512E1,2.0879211E0,2.5634046E0,0E0,1.734244E0,6.860917E-1,9.658289E-1,2.0086794E0,4.388415E0,2.4641056E0,3.7810707E0,3.8655918E0,3.8139532E0,0E0,0E0,3.2421575E0,5.6723337E0,2.4830303E0,1.0523689E0,1.6478405E0,5.705138E0,1.0954975E1,2.10288E0,2.2915459E0,2.9510071E0,2.6900005E0,8.450678E-1,2.8633304E0,5.8836803E0,3.7392366E0,5.837738E0,1.4807861E1,3.552669E0,0E0,0E0,0E0,0E0,0E0,0E0,0E0,0E0,0E0,0E0,0E0,0E0,0E0,0E0,0E0,0E0,0E0,0E0,0E0,0E0,0E0,0E0,0E0,0E0,0E0,0E0,0E0,0E0,0E0,0E0,0E0,0E0,0E0,0E0,0E0,0E0,0E0,0E0,0E0,0E0,0E0,0E0,0E0,0E0,0E0,0E0,0E0,0E0,0E0,0E0,0E0,0E0,0E0,0E0,0E0,0E0,0E0,0E0],"parents":[2147483647,0,0,1,1,2,2,3,3,4,4,5,5,6,6,7,7,8,8,9,9,10,10,11,11,12,12,13,13,14,14,15,15,16,16,17,17,18,18,19,19,20,20,21,21,22,22,23,23,24,24,25,25,26,26,27,27,28,28,29,29,30,30,31,31,32,32,34,34,35,35,36,36,37,37,38,38,39,39,40,40,41,41,42,42,45,45,46,46,47,47,48,48,49,49,50,50,51,51,52,52,53,53,54,54,55,55,56,56,57,57,58,58,59,59,60,60,61,61,62,62],"right_children":[2,4,6,8,10,12,14,16,18,20,22,24,26,28,30,32,34,36,38,40,42,44,46,48,50,52,54,56,58,60,62,64,66,-1,68,70,72,74,76,78,80,82,84,-1,-1,86,88,90,92,94,96,98,100,102,104,106,108,110,112,114,116,118,120,-1,-1,-1,-1,-1,-1,-1,-1,-1,-1,-1,-1,-1,-1,-1,-1,-1,-1,-1,-1,-1,-1,-1,-1,-1,-1,-1,-1,-1,-1,-1,-1,-1,-1,-1,-1,-1,-1,-1,-1,-1,-1,-1,-1,-1,-1,-1,-1,-1,-1,-1,-1,-1,-1,-1,-1,-1,-1],"split_conditions":[2.93092E0,1.4E1,5.957865E0,1.294438E0,8.75001E0,1.7001767E-1,6.0374937E0,1E0,1.6046E0,-2.5533717E0,-6.34848E0,3.2790926E0,4.5095167E0,5.740741E-1,-4.1463046E0,1E0,-1.20347016E-1,1.4759026E2,1.13243475E1,-4.0883574E0,1.4407068E0,1.7965873E-1,4.352334E1,6.2068105E-1,3.47E2,1E0,3.977862E0,7.9341555E0,8.0490005E-1,6.6521597E-1,1.2065887E0,2.3519649E-1,-2.0371885E0,1.6486613E-2,1.3906096E0,4.7579535E2,5.4671073E0,-2.8077501E-3,-1.0618079E0,-6.143927E0,-5.8383937E0,2.1442075E0,3.2050302E0,-1.5300818E-2,-3.4642823E-3,-5.624339E-1,1.7345E0,9.0716237E-1,-6.0342264E0,1.2158957E1,7.4165387E0,1E0,2.200111E0,-3.619528E0,1.8783967E0,1.22364305E-1,-3.6801167E0,-1.306359E-1,4.9839787E0,2.3368518E0,9.725986E0,2.756064E0,3.1155214E0,-1.461704E-2,1.9689496E-3,7.5229644E-3,-1.1827634E-2,-1.2235708E-2,1.1535718E-2,-3.4642823E-3,1.6535718E-2,2.6250042E-3,-1.4679191E-2,8.81319E-3,-1.3368534E-2,9.713422E-3,-5.601566E-3,-9.874996E-3,1.9803576E-2,1.6505498E-2,-1.1680856E-2,-1.1030945E-2,-1.3121705E-3,-8.303024E-3,1.1789689E-2,3.2802727E-3,-1.0197414E-2,-5.047613E-3,1.4786023E-2,-3.5428517E-3,1.791387E-2,4.967037E-3,-1.3542852E-2,-1.4080866E-2,3.986612E-3,1.5088809E-2,-1.3081627E-2,1.0028328E-2,-1.2812023E-2,1.1535718E-2,-1.4433391E-2,1.0958337E-2,-1.2646422E-2,-1.3081163E-2,1.0716523E-2,-9.7626215E-3,1.5125004E-2,-3.4642823E-3,1.768878E-2,-1.38685005E-2,1.6535718E-2,1.2314712E-3,1.8456228E-2,1.410964E-2,-6.8205916E-3,-3.9902544E-3,2.4493089E-2,9.8210005E-3,1.9786216E-2,-1.2803306E-2,7.591523E-3],"split_indices":[4249,3732,4151,2736,2353,4141,2717,45,4249,2356,2437,2319,2286,3733,2451,550,2881,2741,3598,2378,2736,3202,3807,2917,2558,956,3671,4117,3141,3378,3884,3022,2411,0,3137,4154,2729,2858,2222,2297,2451,2339,2471,0,0,2289,4249,3123,2233,3598,2476,711,2416,2475,2250,3006,2220,2300,4190,4149,4146,3331,2373,0,0,0,0,0,0,0,0,0,0,0,0,0,0,0,0,0,0,0,0,0,0,0,0,0,0,0,0,0,0,0,0,0,0,0,0,0,0,0,0,0,0,0,0,0,0,0,0,0,0,0,0,0,0,0,0,0,0],"split_type":[0,0,0,0,0,0,0,0,0,0,0,0,0,0,0,0,0,0,0,0,0,0,0,0,0,0,0,0,0,0,0,0,0,0,0,0,0,0,0,0,0,0,0,0,0,0,0,0,0,0,0,0,0,0,0,0,0,0,0,0,0,0,0,0,0,0,0,0,0,0,0,0,0,0,0,0,0,0,0,0,0,0,0,0,0,0,0,0,0,0,0,0,0,0,0,0,0,0,0,0,0,0,0,0,0,0,0,0,0,0,0,0,0,0,0,0,0,0,0,0,0],"sum_hessian":[9.673E3,4.611E3,5.062E3,3.015E3,1.596E3,1.825E3,3.237E3,2.554E3,4.61E2,1.093E3,5.03E2,5.61E2,1.264E3,5.47E2,2.69E3,2.493E3,6.1E1,1.83E2,2.78E2,5.08E2,5.85E2,5.2E1,4.51E2,7.7E1,4.84E2,9.18E2,3.46E2,2.79E2,2.68E2,1.069E3,1.621E3,2.429E3,6.4E1,1.1E1,5E1,1E1,1.73E2,9.7E1,1.81E2,2.2E1,4.86E2,4.72E2,1.13E2,4.7E1,5E0,1.8E2,2.71E2,4.9E1,2.8E1,4.22E2,6.2E1,8.44E2,7.4E1,3.02E2,4.4E1,2.65E2,1.4E1,4.4E1,2.24E2,7.6E1,9.93E2,1.53E3,9.1E1,2.411E3,1.8E1,2.3E1,4.1E1,4.5E1,5E0,5E0,5E0,7E0,1.66E2,8E0,8.9E1,7.7E1,1.04E2,7E0,1.5E1,8E0,4.78E2,1.45E2,3.27E2,2.8E1,8.5E1,1.13E2,6.7E1,4E1,2.31E2,2E1,2.9E1,8E0,2E1,4.11E2,1.1E1,3.2E1,3E1,7.92E2,5.2E1,5E0,6.9E1,7E0,2.95E2,1.7E1,2.7E1,2.58E2,7E0,5E0,9E0,3.9E1,5E0,7.4E1,1.5E2,3.8E1,3.8E1,1.7E1,9.76E2,8.15E2,7.15E2,6.4E1,2.7E1],"tree_param":{"num_deleted":"0","num_feature":"4336","num_nodes":"121","size_leaf_vector":"1"}},{"base_weights":[3.6915568E-5,-1.7909397E-1,1.6322382E-1,-7.605746E-3,-2.2951537E-1,-2.8529016E-2,2.712101E-1,-1.9022024E-1,6.3954234E-2,-2.6777452E-1,-1.5681697E-1,3.539381E-2,-1.975202E-1,3.2503045E-1,-1.9608928E-2,-2.0933335E-1,2.4015827E-1,-9.780704E-3,2.1576625E-1,-1.9890404E-1,-2.847349E-1,-1.8197049E-1,5.7958804E-2,-1.5274099E-1,1.0453563E-1,-2.127992E-1,1.8524488E-2,4.0817443E-1,2.2899975E-1,-1.7266384E-1,1.7415361E-1,-2.374611E-1,2.054165E-2,1.3955428E-3,1.6616328E-2,8.427755E-2,-1.5267658E-1,2.7675617E-1,-1.2739673E-1,-2.4940364E-1,-5.4516472E-2,-2.8670684E-1,6.9038677E-3,-2.0302247E-1,-2.840849E-2,2.2126701E-1,-1.6838782E-1,1.654574E-1,-2.165913E-1,1.781333E-1,-1.6203295E-1,1.7738575E-1,-2.3730977E-1,2.163E-1,4.422556E-1,-9.3860604E-2,2.6155004E-1,-2.1755235E-1,1.08393125E-1,5.288318E-2,4.1801974E-1,-1.3973615E-2,-4.873438E-3,1.66936E-2,-9.204905E-3,-6.5192394E-3,8.194244E-3,4.27233E-3,-1.0978814E-2,-9.3784155E-3,1.5581324E-2,-1.14976885E-2,1.0813176E-2,-1.37042105E-2,-3.440961E-3,1.4974679E-2,-5.685658E-3,-1.4499985E-2,-5.2766287E-4,-1.0488168E-2,1.3391259E-2,-5.569074E-3,1.9791607E-2,-9.066729E-4,1.7958725E-2,8.611983E-3,-1.2773955E-2,1.7197883E-2,-5.156089E-3,9.783753E-3,-1.3453806E-2,1.2703768E-2,-5.1387125E-3,-1.0099626E-2,9.819775E-3,-1.0610177E-2,1.7572895E-2,-1.2327916E-2,1.07663E-2,1.6094554E-2,-9.800846E-3,1.3939663E-2,2.3874352E-2,8.016264E-3,-1.3598884E-2,6.5847323E-3,1.7515289E-2,-1.2972275E-2,1.06072395E-4,-1.020427E-2,1.4721598E-2,1.1319098E-2,-4.3648123E-3,-4.0568677E-3,2.4611669E-2],"categories":[],"categories_nodes":[],"categories_segments":[],"categories_sizes":[],"default_left":[0,0,0,0,0,0,0,0,0,0,0,0,0,0,0,0,0,0,0,0,0,0,0,0,0,0,0,0,0,0,0,0,0,0,0,0,0,0,0,0,0,0,0,0,0,0,0,0,0,0,0,0,0,0,0,0,0,0,0,0,0,0,0,0,0,0,0,0,0,0,0,0,0,0,0,0,0,0,0,0,0,0,0,0,0,0,0,0,0,0,0,0,0,0,0,0,0,0,0,0,0,0,0,0,0,0,0,0,0,0,0,0,0,0,0],"id":1,"left_children":[1,3,5,7,9,11,13,15,17,19,21,23,25,27,29,31,33,35,37,39,41,43,45,47,49,51,-1,53,55,57,59,61,63,-1,-1,65,67,69,71,73,75,77,-1,79,81,83,85,87,89,91,93,95,97,99,101,103,105,107,109,111,113,-1,-1,-1,-1,-1,-1,-1,-1,-1,-1,-1,-1,-1,-1,-1,-1,-1,-1,-1,-1,-1,-1,-1,-1,-1,-1,-1,-1,-1,-1,-1,-1,-1,-1,-1,-1,-1,-1,-1,-1,-1,-1,-1,-1,-1,-1,-1,-1,-1,-1,-1,-1,-1,-1],"loss_changes":[2.830517E2,3.9904327E1,1.049594E2,1.3834381E1,9.711227E0,1.9803337E1,5.0775574E1,2.7026768E0,8.529073E0,2.4384155E0,6.762474E0,1.740647E1,4.759548E0,2.13779E1,1.5304725E1,1.8865585E0,2.470597E-1,7.013093E0,5.3877287E0,3.4100704E0,1.7470703E0,3.569252E0,5.139505E0,7.493327E0,1.9311909E1,4.9253597E0,0E0,9.069061E0,1.358503E1,3.751381E0,6.632283E0,1.3752804E0,2.6156402E0,0E0,0E0,5.4897785E0,3.391396E0,3.7409668E0,1.6936886E0,1.4745274E0,2.8945906E0,1.6678772E0,0E0,3.3850136E0,5.1485133E0,2.6737745E0,1.9702932E0,3.197659E0,6.7978487E0,1.6514078E1,3.2633996E0,2.5430357E0,2.2162304E0,1.0328986E1,6.4467926E0,5.6962814E0,1.3196442E1,2.3034582E0,2.8001711E0,3.9415226E0,2.9780102E0,0E0,0E0,0E0,0E0,0E0,0E0,0E0,0E0,0E0,0E0,0E0,0E0,0E0,0E0,0E0,0E0,0E0,0E0,0E0,0E0,0E0,0E0,0E0,0E0,0E0,0E0,0E0,0E0,0E0,0E0,0E0,0E0,0E0,0E0,0E0,0E0,0E0,0E0,0E0,0E0,0E0,0E0,0E0,0E0,0E0,0E0,0E0,0E0,0E0,0E0,0E0,0E0,0E0,0E0],"parents":[2147483647,0,0,1,1,2,2,3,3,4,4,5,5,6,6,7,7,8,8,9,9,10,10,11,11,12,12,13,13,14,14,15,15,16,16,17,17,18,18,19,19,20,20,21,21,22,22,23,23,24,24,25,25,27,27,28,28,29,29,30,30,31,31,32,32,35,35,36,36,37,37,38,38,39,39,40,40,41,41,43,43,44,44,45,45,46,46,47,47,48,48,49,49,50,50,51,51,52,52,53,53,54,54,55,55,56,56,57,57,58,58,59,59,60,60],"right_children":[2,4,6,8,10,12,14,16,18,20,22,24,26,28,30,32,34,36,38,40,42,44,46,48,50,52,-1,54,56,58,60,62,64,-1,-1,66,68,70,72,74,76,78,-1,80,82,84,86,88,90,92,94,96,98,100,102,104,106,108,110,112,114,-1,-1,-1,-1,-1,-1,-1,-1,-1,-1,-1,-1,-1,-1,-1,-1,-1,-1,-1,-1,-1,-1,-1,-1,-1,-1,-1,-1,-1,-1,-1,-1,-1,-1,-1,-1,-1,-1,-1,-1,-1,-1,-1,-1,-1,-1,-1,-1,-1,-1,-1,-1,-1,-1],"split_conditions":[2.93092E0,-7.852024E0,5.957865E0,1.7632E0,1.2228905E0,1E0,1E0,1E0,1.41E3,4.5119536E-1,1E0,1.677902E-1,1E0,-5.2148104E0,2.2977529E0,1.2610387E0,4.923311E0,4.064406E0,1.2399E2,6.312949E0,7.0515356E2,9.886109E-2,-1.2312266E0,-5.9917927E0,4.5095167E0,-4.414196E0,1.8524488E-2,4.794537E0,-2.3965063E0,1.9133333E1,1.3247679E-1,5.9394E-1,6.037015E-1,1.3955428E-3,1.6616328E-2,6.052632E-1,-4.4177313E0,8.5417926E-1,-5.513204E0,5.0632176E0,-4.253755E1,1E0,6.9038677E-3,9.414888E0,1.1342841E1,4.1839824E0,-2.1731202E-2,-1.640625E-3,4.312992E0,7.6926003E0,1.2569067E0,3.7260804E0,1E0,5.884182E0,9.224097E-1,6.99E1,1.1176634E1,5.198643E-2,-6.4309694E-2,-1.6902205E0,-1.390285E-1,-1.3973615E-2,-4.873438E-3,1.66936E-2,-9.204905E-3,-6.5192394E-3,8.194244E-3,4.27233E-3,-1.0978814E-2,-9.3784155E-3,1.5581324E-2,-1.14976885E-2,1.0813176E-2,-1.37042105E-2,-3.440961E-3,1.4974679E-2,-5.685658E-3,-1.4499985E-2,-5.2766287E-4,-1.0488168E-2,1.3391259E-2,-5.569074E-3,1.9791607E-2,-9.066729E-4,1.7958725E-2,8.611983E-3,-1.2773955E-2,1.7197883E-2,-5.156089E-3,9.783753E-3,-1.3453806E-2,1.2703768E-2,-5.1387125E-3,-1.0099626E-2,9.819775E-3,-1.0610177E-2,1.7572895E-2,-1.2327916E-2,1.07663E-2,1.6094554E-2,-9.800846E-3,1.3939663E-2,2.3874352E-2,8.016264E-3,-1.3598884E-2,6.5847323E-3,1.7515289E-2,-1.2972275E-2,1.06072395E-4,-1.020427E-2,1.4721598E-2,1.1319098E-2,-4.3648123E-3,-4.0568677E-3,2.4611669E-2],"split_indices":[4249,2227,4151,4249,2736,2518,2518,971,2577,3068,4291,4141,660,2372,2657,3065,3855,3671,4209,2399,2805,3030,2289,2480,2286,2485,0,3835,4148,2681,3500,3085,3133,0,0,3733,2368,3142,2498,4182,2782,660,0,3510,2387,2223,2940,2943,4223,2265,3572,4224,1451,3853,3114,4209,2838,3038,2967,2907,2992,0,0,0,0,0,0,0,0,0,0,0,0,0,0,0,0,0,0,0,0,0,0,0,0,0,0,0,0,0,0,0,0,0,0,0,0,0,0,0,0,0,0,0,0,0,0,0,0,0,0,0,0,0,0],"split_type":[0,0,0,0,0,0,0,0,0,0,0,0,0,0,0,0,0,0,0,0,0,0,0,0,0,0,0,0,0,0,0,0,0,0,0,0,0,0,0,0,0,0,0,0,0,0,0,0,0,0,0,0,0,0,0,0,0,0,0,0,0,0,0,0,0,0,0,0,0,0,0,0,0,0,0,0,0,0,0,0,0,0,0,0,0,0,0,0,0,0,0,0,0,0,0,0,0,0,0,0,0,0,0,0,0,0,0,0,0,0,0,0,0,0,0],"sum_hessian":[9.673E3,4.611E3,5.062E3,1.049E3,3.562E3,1.825E3,3.237E3,2.93E2,7.56E2,2.325E3,1.237E3,1.327E3,4.98E2,2.731E3,5.06E2,2.83E2,1E1,5.12E2,2.44E2,4.72E2,1.853E3,1.108E3,1.29E2,3.55E2,9.72E2,4.88E2,1E1,1.455E3,1.276E3,2.83E2,2.23E2,2.52E2,3.1E1,5E0,5E0,3.1E2,2.02E2,2.08E2,3.6E1,3.47E2,1.25E2,1.846E3,7E0,9.73E2,1.35E2,7.5E1,5.4E1,5.8E1,2.97E2,7.63E2,2.09E2,2.7E1,4.61E2,2.25E2,1.23E3,1.16E2,1.16E3,2.45E2,3.8E1,1.53E2,7E1,1.9E2,6.2E1,1.1E1,2E1,8.3E1,2.27E2,4.4E1,1.58E2,1.3E1,1.95E2,2.9E1,7E0,3.03E2,4.4E1,1.5E1,1.1E2,1.824E3,2.2E1,9.62E2,1.1E1,1.16E2,1.9E1,2.9E1,4.6E1,1E1,4.4E1,3.4E1,2.4E1,3.2E1,2.65E2,6.01E2,1.62E2,1.9E2,1.9E1,8E0,1.9E1,4.54E2,7E0,1.8E2,4.5E1,2.26E2,1.004E3,4.8E1,6.8E1,4.76E2,6.84E2,2.05E2,4E1,1.4E1,2.4E1,6.7E1,8.6E1,9E0,6.1E1],"tree_param":{"num_deleted":"0","num_feature":"4336","num_nodes":"115","size_leaf_vector":"1"}},{"base_weights":[1.087181E-4,-1.7011634E-1,1.5518239E-1,-2.3437104E-1,-4.838005E-2,-2.699442E-2,2.5777575E-1,-2.5296986E-1,-1.2332356E-1,-1.0594113E-1,7.650965E-2,-7.853656E-2,1.6620454E-1,3.3674687E-2,3.1532153E-1,-2.5839028E-1,-8.2672685E-2,-2.070111E-1,-2.6401447E-2,-1.831471E-1,-3.791339E-2,1.6095369E-1,-9.917929E-2,1.3089512E-1,-1.1985699E-1,1.1880739E-2,3.2102016E-1,-1.2752634E-1,1.4125758E-1,1.703705E-1,3.9198482E-1,-2.6130593E-1,2.5218E-2,-1.7275777E-1,2.8519964E-1,1.352482E-2,-2.252688E-1,-1.9453646E-1,6.958796E-2,1.9571276E-1,-2.0211549E-1,-7.047901E-2,2.0903692E-1,-9.553117E-2,2.4796277E-1,-1.5100679E-1,2.2018578E-2,3.273234E-1,-1.0440967E-2,-1.4249393E-1,1.9260672E-1,-4.0657163E-2,3.6927852E-1,4.0976843E-1,-1.639288E-2,9.7651504E-2,-1.7594795E-1,2.4663629E-1,-1.8217048E-2,6.692877E-2,2.6837423E-1,2.0166948E-1,4.2526358E-1,-1.3156101E-2,7.5953826E-3,-1.0356591E-2,2.0436307E-2,-1.2717607E-2,8.541659E-3,2.1431824E-2,-2.9105868E-3,-1.2024114E-2,9.4155455E-3,-1.1928473E-2,9.105257E-3,1.22992E-2,-3.683658E-3,1.9052798E-2,-9.736979E-3,1.5989764E-2,-1.0703525E-2,-8.065979E-3,4.7238247E-4,1.6882917E-2,-9.846558E-3,-9.871917E-3,7.819019E-3,-1.5397979E-3,1.7301997E-2,9.28828E-3,-1.0205232E-2,2.0295138E-2,-9.016704E-3,1.6355101E-2,-4.5454125E-3,3.347527E-3,-8.965186E-3,-8.028056E-3,1.779305E-2,-4.6780165E-3,1.0766617E-2,2.4446499E-2,-3.3314356E-3,6.0641825E-5,2.3557989E-2,1.0941032E-2,-1.3389617E-2,-9.0675345E-3,1.4582254E-2,-9.885972E-3,1.4553239E-2,-7.953225E-3,1.4736413E-2,-6.483156E-3,1.2180488E-2,6.21364E-3,-6.988106E-3,3.332083E-4,1.6946847E-2,1.1912417E-2,-9.49107E-3,1.2971726E-2,2.293394E-2],"categories":[],"categories_nodes":[],"categories_segments":[],"categories_sizes":[],"default_left":[0,0,0,0,0,0,0,0,0,0,0,0,0,0,0,0,0,0,0,0,0,0,0,0,0,0,0,0,0,0,0,0,0,0,0,0,0,0,0,0,0,0,0,0,0,0,0,0,0,0,0,0,0,0,0,0,0,0,0,0,0,0,0,0,0,0,0,0,0,0,0,0,0,0,0,0,0,0,0,0,0,0,0,0,0,0,0,0,0,0,0,0,0,0,0,0,0,0,0,0,0,0,0,0,0,0,0,0,0,0,0,0,0,0,0,0,0,0,0,0,0,0,0],"id":2,"left_children":[1,3,5,7,9,11,13,15,17,19,21,23,25,27,29,31,33,35,37,39,41,43,45,47,49,51,53,55,57,59,61,63,65,67,69,-1,71,73,75,77,79,81,83,85,87,89,-1,91,93,95,97,99,101,103,105,107,109,111,113,115,117,119,121,-1,-1,-1,-1,-1,-1,-1,-1,-1,-1,-1,-1,-1,-1,-1,-1,-1,-1,-1,-1,-1,-1,-1,-1,-1,-1,-1,-1,-1,-1,-1,-1,-1,-1,-1,-1,-1,-1,-1,-1,-1,-1,-1,-1,-1,-1,-1,-1,-1,-1,-1,-1,-1,-1,-1,-1,-1,-1,-1,-1],"loss_changes":[2.5560628E2,3.6050262E1,9.4737656E1,6.0813904E0,1.1549774E1,1.8288202E1,4.1755997E1,2.2765808E0,3.5659237E0,5.7321424E0,7.6164455E0,1.2609157E1,9.227033E0,1.1674843E1,2.8325012E1,2.1002045E0,3.129516E0,2.370882E0,3.473054E0,3.8843899E0,4.8184977E0,7.8176374E0,5.0303745E0,6.707828E0,8.709976E0,3.8116782E0,5.812937E0,3.0298462E0,6.7949743E0,9.044237E0,1.0230408E1,2.0571747E0,3.0965426E0,2.263821E0,1.0606574E0,0E0,1.6798773E0,1.5108268E0,3.577968E0,2.324961E0,3.405859E0,3.8194265E0,3.9876094E0,2.490492E0,7.1343107E0,2.997035E0,0E0,4.3950205E0,4.08705E0,8.795004E0,5.1288047E0,2.5113254E0,1.518964E0,3.8346539E0,2.9539578E0,3.0248063E0,2.565279E0,4.975566E0,4.9725637E0,5.3612003E0,8.501984E0,3.949398E0,7.3178406E0,0E0,0E0,0E0,0E0,0E0,0E0,0E0,0E0,0E0,0E0,0E0,0E0,0E0,0E0,0E0,0E0,0E0,0E0,0E0,0E0,0E0,0E0,0E0,0E0,0E0,0E0,0E0,0E0,0E0,0E0,0E0,0E0,0E0,0E0,0E0,0E0,0E0,0E0,0E0,0E0,0E0,0E0,0E0,0E0,0E0,0E0,0E0,0E0,0E0,0E0,0E0,0E0,0E0,0E0,0E0,0E0,0E0,0E0,0E0,0E0],"parents":[2147483647,0,0,1,1,2,2,3,3,4,4,5,5,6,6,7,7,8,8,9,9,10,10,11,11,12,12,13,13,14,14,15,15,16,16,17,17,18,18,19,19,20,20,21,21,22,22,23,23,24,24,25,25,26,26,27,27,28,28,29,29,30,30,31,31,32,32,33,33,34,34,36,36,37,37,38,38,39,39,40,40,41,41,42,42,43,43,44,44,45,45,47,47,48,48,49,49,50,50,51,51,52,52,53,53,54,54,55,55,56,56,57,57,58,58,59,59,60,60,61,61,62,62],"right_children":[2,4,6,8,10,12,14,16,18,20,22,24,26,28,30,32,34,36,38,40,42,44,46,48,50,52,54,56,58,60,62,64,66,68,70,-1,72,74,76,78,80,82,84,86,88,90,-1,92,94,96,98,100,102,104,106,108,110,112,114,116,118,120,122,-1,-1,-1,-1,-1,-1,-1,-1,-1,-1,-1,-1,-1,-1,-1,-1,-1,-1,-1,-1,-1,-1,-1,-1,-1,-1,-1,-1,-1,-1,-1,-1,-1,-1,-1,-1,-1,-1,-1,-1,-1,-1,-1,-1,-1,-1,-1,-1,-1,-1,-1,-1,-1,-1,-1,-1,-1,-1,-1,-1],"split_conditions":[2.93092E0,1.4E1,5.957865E0,1.3004662E0,8.75001E0,7.8359856E1,1.6237288E1,1E0,1.1464269E1,-2.5533717E0,9.89334E-1,-1.3311692E-3,9.166667E-1,5.104167E-1,1E0,1E0,2.9310404E1,4.67859E-1,1.6665E0,-4.0883574E0,1.4835585E0,-7.0676135E2,1.4409645E-2,1.3151638E1,1E0,5.6935763E0,1.0432966E1,-1.1881846E-2,2.0535185E0,1.2236363E-3,1.2991273E0,3.7374666E0,2E-1,1E0,4.7373098E-1,1.352482E-2,-9.8675287E-1,1.672517E-1,-1.6818594E1,4.9232993E0,-5.8383937E0,2.797979E0,-5.786909E0,6.1349163E0,4.2364685E1,3.496791E0,2.2018578E-2,2.4407043E0,1.3402473E0,4.8648104E-2,2.235E2,3.1585839E0,-3.644025E0,1.736323E4,3.1426826E0,-1.4882467E0,1.1929711E0,-6.2040746E-1,7.309571E0,6.000251E0,6.3703914E0,1.2187755E0,6.138498E0,-1.3156101E-2,7.5953826E-3,-1.0356591E-2,2.0436307E-2,-1.2717607E-2,8.541659E-3,2.1431824E-2,-2.9105868E-3,-1.2024114E-2,9.4155455E-3,-1.1928473E-2,9.105257E-3,1.22992E-2,-3.683658E-3,1.9052798E-2,-9.736979E-3,1.5989764E-2,-1.0703525E-2,-8.065979E-3,4.7238247E-4,1.6882917E-2,-9.846558E-3,-9.871917E-3,7.819019E-3,-1.5397979E-3,1.7301997E-2,9.28828E-3,-1.0205232E-2,2.0295138E-2,-9.016704E-3,1.6355101E-2,-4.5454125E-3,3.347527E-3,-8.965186E-3,-8.028056E-3,1.779305E-2,-4.6780165E-3,1.0766617E-2,2.4446499E-2,-3.3314356E-3,6.0641825E-5,2.3557989E-2,1.0941032E-2,-1.3389617E-2,-9.0675345E-3,1.4582254E-2,-9.885972E-3,1.4553239E-2,-7.953225E-3,1.4736413E-2,-6.483156E-3,1.2180488E-2,6.21364E-3,-6.988106E-3,3.332083E-4,1.6946847E-2,1.1912417E-2,-9.49107E-3,1.2971726E-2,2.293394E-2],"split_indices":[4249,3732,4151,2736,2353,4194,2681,312,3677,2356,3141,2860,4142,3733,4262,660,2781,3126,4249,2378,2737,2810,2929,4185,52,3165,3899,2933,3514,2929,2735,3499,3892,62,3156,0,2433,2321,2761,2360,2451,2339,2340,2308,3806,2432,0,3171,2445,2475,2574,2284,2374,2601,2670,2491,3317,2964,2338,2419,2281,4077,4162,0,0,0,0,0,0,0,0,0,0,0,0,0,0,0,0,0,0,0,0,0,0,0,0,0,0,0,0,0,0,0,0,0,0,0,0,0,0,0,0,0,0,0,0,0,0,0,0,0,0,0,0,0,0,0,0,0,0,0,0],"split_type":[0,0,0,0,0,0,0,0,0,0,0,0,0,0,0,0,0,0,0,0,0,0,0,0,0,0,0,0,0,0,0,0,0,0,0,0,0,0,0,0,0,0,0,0,0,0,0,0,0,0,0,0,0,0,0,0,0,0,0,0,0,0,0,0,0,0,0,0,0,0,0,0,0,0,0,0,0,0,0,0,0,0,0,0,0,0,0,0,0,0,0,0,0,0,0,0,0,0,0,0,0,0,0,0,0,0,0,0,0,0,0,0,0,0,0,0,0,0,0,0,0,0,0],"sum_hessian":[9.673E3,4.611E3,5.062E3,3.015E3,1.596E3,1.825E3,3.237E3,2.577E3,4.38E2,1.093E3,5.03E2,1.443E3,3.82E2,6.63E2,2.574E3,2.495E3,8.2E1,2.32E2,2.06E2,5.08E2,5.85E2,3.4E2,1.63E2,2.36E2,1.207E3,1.94E2,1.88E2,2.65E2,3.98E2,8.96E2,1.678E3,2.47E3,2.5E1,6.8E1,1.4E1,6E0,2.26E2,7.3E1,1.33E2,2.2E1,4.86E2,5.2E2,6.5E1,8.6E1,2.54E2,1.52E2,1.1E1,9.6E1,1.4E2,1.128E3,7.9E1,1.73E2,2.1E1,1.48E2,4E1,4.6E1,2.19E2,2.38E2,1.6E2,4.4E2,4.56E2,2.55E2,1.423E3,2.461E3,9E0,1.7E1,8E0,5.6E1,1.2E1,9E0,5E0,2.2E2,6E0,6.7E1,6E0,5.8E1,7.5E1,1.5E1,7E0,8E0,4.78E2,2.41E2,2.79E2,5E1,1.5E1,6.2E1,2.4E1,6.7E1,1.87E2,1.9E1,1.33E2,8.4E1,1.2E1,2.4E1,1.16E2,1.68E2,9.6E2,2.5E1,5.4E1,1.46E2,2.7E1,1.6E1,5E0,2E1,1.28E2,2.1E1,1.9E1,1.9E1,2.7E1,2.12E2,7E0,2.4E1,2.14E2,1.14E2,4.6E1,3.46E2,9.4E1,9.8E1,3.58E2,2.35E2,2E1,2.46E2,1.177E3],"tree_param":{"num_deleted":"0","num_feature":"4336","num_nodes":"123","size_leaf_vector":"1"}},{"base_weights":[2.2600377E-4,-1.68101E-1,1.4194451E-1,-2.2431824E-1,-5.634841E-2,-5.433569E-2,2.2944674E-1,-2.4273159E-1,-1.15948655E-1,-8.07458E-2,1.8718883E-1,4.5829296E-2,-1.8024178E-1,8.37151E-2,3.4838647E-1,-2.4548195E-1,2.563707E-2,-2.1782124E-1,-3.8264435E-2,-1.04216054E-1,1.6990888E-1,-1.816175E-1,3.4863564E-1,1.5946075E-1,-8.6610876E-2,-2.1357583E-1,5.6335147E-2,1.643058E-1,-1.1063399E-1,3.647009E-1,-1.1403164E-1,-2.4720488E-1,7.3512457E-3,-1.9912899E-1,1.9807499E-2,1.7330843E-1,-2.4466303E-1,-1.9590256E-1,6.536875E-2,-1.1845677E-1,2.6265788E-1,3.4779432E-1,-3.7450653E-2,-2.6125783E-1,1.1387628E-2,-8.704926E-3,3.8650697E-1,1.2894835E-2,3.241476E-1,-1.7649692E-1,1.0747592E-1,-2.2393386E-1,1.4391014E-2,2.888496E-1,-1.0887612E-1,2.202132E-1,-6.828228E-2,-1.7770384E-1,1.8479972E-1,2.3193488E-1,4.2631498E-1,-2.0076749E-1,1.4124353E-2,-1.2593183E-2,-4.5937537E-3,-2.9116597E-3,-1.1172076E-2,-3.1806328E-3,1.6178764E-2,3.121329E-3,-1.2952966E-2,9.675E-3,-1.1515917E-2,1.1378849E-2,-3.2390503E-3,-3.4973205E-3,-9.984172E-3,-5.481299E-3,2.242439E-2,2.2604855E-2,-7.1813525E-3,-7.3465663E-3,1.3812304E-2,-1.4168898E-2,-2.6604226E-3,5.8138184E-3,2.3933098E-2,9.822548E-3,-6.082782E-3,1.8468512E-2,-5.17241E-3,5.4508806E-3,-1.02690095E-2,-3.7902803E-3,1.441586E-2,3.7455799E-3,-1.2010778E-2,2.2941153E-2,-5.4746415E-3,1.3174596E-2,-8.858871E-3,2.1572039E-3,1.4194585E-2,-8.637145E-3,9.323142E-3,4.8911734E-3,-1.1032517E-2,1.4309573E-2,-6.380807E-3,-6.820552E-3,1.2950452E-2,2.1866752E-2,1.0192314E-3,-1.341151E-2,6.3164853E-3],"categories":[],"categories_nodes":[],"categories_segments":[],"categories_sizes":[],"default_left":[0,0,0,0,0,0,0,0,0,0,0,0,0,0,0,0,0,0,0,0,0,0,0,0,0,0,0,0,0,0,0,0,0,0,0,0,0,0,0,0,0,0,0,0,0,0,0,0,0,0,0,0,0,0,0,0,0,0,0,0,0,0,0,0,0,0,0,0,0,0,0,0,0,0,0,0,0,0,0,0,0,0,0,0,0,0,0,0,0,0,0,0,0,0,0,0,0,0,0,0,0,0,0,0,0,0,0,0,0,0,0,0,0,0,0],"id":3,"left_children":[1,3,5,7,9,11,13,15,17,19,21,23,25,27,29,31,33,35,37,39,41,43,45,47,49,51,53,55,57,59,61,63,-1,65,-1,67,69,71,73,75,77,79,81,83,-1,-1,85,87,89,91,93,95,-1,97,99,101,103,105,107,109,111,113,-1,-1,-1,-1,-1,-1,-1,-1,-1,-1,-1,-1,-1,-1,-1,-1,-1,-1,-1,-1,-1,-1,-1,-1,-1,-1,-1,-1,-1,-1,-1,-1,-1,-1,-1,-1,-1,-1,-1,-1,-1,-1,-1,-1,-1,-1,-1,-1,-1,-1,-1,-1,-1],"loss_changes":[2.3098853E2,2.7742798E1,9.035108E1,5.7318726E0,8.916782E0,2.05348E1,6.289531E1,1.8848419E0,3.416697E0,8.065787E0,8.473929E0,1.3748934E1,5.74601E0,2.5793427E1,1.530368E1,1.8628998E0,2.8927865E0,2.185752E0,4.2135105E0,6.649684E0,4.4177017E0,1.7646172E0,2.2567253E0,1.18306055E1,7.474374E0,3.6097412E0,3.7297468E0,1.5185129E1,9.75451E0,1.5326202E1,2.7598228E0,1.6767578E0,0E0,1.0303199E-2,0E0,6.3693833E-1,8.677902E-1,1.5897956E0,3.3881972E0,4.6585674E0,3.5665405E0,3.6050906E0,2.2292259E0,1.08692646E-1,0E0,0E0,2.0128002E0,6.664351E0,4.6579037E0,2.5117102E0,4.650127E0,3.1213112E0,0E0,2.959495E0,1.7085508E0,1.0515171E1,6.254932E0,4.8055973E0,3.0968409E0,6.399601E0,5.837906E0,1.5375729E0,0E0,0E0,0E0,0E0,0E0,0E0,0E0,0E0,0E0,0E0,0E0,0E0,0E0,0E0,0E0,0E0,0E0,0E0,0E0,0E0,0E0,0E0,0E0,0E0,0E0,0E0,0E0,0E0,0E0,0E0,0E0,0E0,0E0,0E0,0E0,0E0,0E0,0E0,0E0,0E0,0E0,0E0,0E0,0E0,0E0,0E0,0E0,0E0,0E0,0E0,0E0,0E0,0E0],"parents":[2147483647,0,0,1,1,2,2,3,3,4,4,5,5,6,6,7,7,8,8,9,9,10,10,11,11,12,12,13,13,14,14,15,15,16,16,17,17,18,18,19,19,20,20,21,21,22,22,23,23,24,24,25,25,26,26,27,27,28,28,29,29,30,30,31,31,33,33,35,35,36,36,37,37,38,38,39,39,40,40,41,41,42,42,43,43,46,46,47,47,48,48,49,49,50,50,51,51,53,53,54,54,55,55,56,56,57,57,58,58,59,59,60,60,61,61],"right_children":[2,4,6,8,10,12,14,16,18,20,22,24,26,28,30,32,34,36,38,40,42,44,46,48,50,52,54,56,58,60,62,64,-1,66,-1,68,70,72,74,76,78,80,82,84,-1,-1,86,88,90,92,94,96,-1,98,100,102,104,106,108,110,112,114,-1,-1,-1,-1,-1,-1,-1,-1,-1,-1,-1,-1,-1,-1,-1,-1,-1,-1,-1,-1,-1,-1,-1,-1,-1,-1,-1,-1,-1,-1,-1,-1,-1,-1,-1,-1,-1,-1,-1,-1,-1,-1,-1,-1,-1,-1,-1,-1,-1,-1,-1,-1,-1],"split_conditions":[2.86272E0,1.4E1,1.5877451E1,1.294438E0,3.174174E-2,1E0,1E0,1E0,1.6046E0,4.8555556E-1,4.592765E0,7.4809403E0,1.0111326E1,2.9875743E0,4E0,3.7374666E0,2E-1,1.4759026E2,1.12642565E1,1E0,-2.2419775E0,3.1816212E-3,-8.995619E-1,1.2041171E1,-1.0731826E0,1E0,2.4371765E0,1.67701E0,1.5867317E0,1.745E3,1.3002613E0,1E0,7.3512457E-3,4.07598E0,1.9807499E-2,-9.2206374E-2,5.4671073E0,-1.132371E0,-1.0618079E0,7.5369417E-3,-6.4282645E-3,1.0372431E0,8.019429E0,7.29014E-1,1.1387628E-2,-8.704926E-3,1.9908E0,-3.9242985E0,3.379747E0,-1.0453496E1,-9.87135E-2,-1.5323463E-1,1.4391014E-2,-4.027027E0,-2.4149208E0,4.8757657E-1,2.4345508E0,6.021117E0,1.9999886E-2,-5.294561E0,4.090146E1,4.6399E0,1.4124353E-2,-1.2593183E-2,-4.5937537E-3,-2.9116597E-3,-1.1172076E-2,-3.1806328E-3,1.6178764E-2,3.121329E-3,-1.2952966E-2,9.675E-3,-1.1515917E-2,1.1378849E-2,-3.2390503E-3,-3.4973205E-3,-9.984172E-3,-5.481299E-3,2.242439E-2,2.2604855E-2,-7.1813525E-3,-7.3465663E-3,1.3812304E-2,-1.4168898E-2,-2.6604226E-3,5.8138184E-3,2.3933098E-2,9.822548E-3,-6.082782E-3,1.8468512E-2,-5.17241E-3,5.4508806E-3,-1.02690095E-2,-3.7902803E-3,1.441586E-2,3.7455799E-3,-1.2010778E-2,2.2941153E-2,-5.4746415E-3,1.3174596E-2,-8.858871E-3,2.1572039E-3,1.4194585E-2,-8.637145E-3,9.323142E-3,4.8911734E-3,-1.1032517E-2,1.4309573E-2,-6.380807E-3,-6.820552E-3,1.2950452E-2,2.1866752E-2,1.0192314E-3,-1.341151E-2,6.3164853E-3],"split_indices":[4068,3732,2680,2736,3325,2518,4262,660,4068,3724,2265,2302,4179,3666,3418,3499,3892,2741,3677,312,2283,2859,2749,3598,2328,424,2228,3873,3329,2583,3137,312,0,2295,0,2961,2729,2336,2222,4091,2920,2406,2234,2283,0,0,4068,2849,2256,2481,3006,2888,0,2411,2494,3085,3171,3899,2856,2217,3811,4068,0,0,0,0,0,0,0,0,0,0,0,0,0,0,0,0,0,0,0,0,0,0,0,0,0,0,0,0,0,0,0,0,0,0,0,0,0,0,0,0,0,0,0,0,0,0,0,0,0,0,0,0,0],"split_type":[0,0,0,0,0,0,0,0,0,0,0,0,0,0,0,0,0,0,0,0,0,0,0,0,0,0,0,0,0,0,0,0,0,0,0,0,0,0,0,0,0,0,0,0,0,0,0,0,0,0,0,0,0,0,0,0,0,0,0,0,0,0,0,0,0,0,0,0,0,0,0,0,0,0,0,0,0,0,0,0,0,0,0,0,0,0,0,0,0,0,0,0,0,0,0,0,0,0,0,0,0,0,0,0,0,0,0,0,0,0,0,0,0,0,0],"sum_hessian":[9.673E3,4.421E3,5.252E3,2.938E3,1.483E3,1.62E3,3.632E3,2.506E3,4.32E2,1.351E3,1.32E2,9.04E2,7.16E2,1.636E3,1.996E3,2.481E3,2.5E1,1.83E2,2.49E2,1.238E3,1.13E2,4E1,9.2E1,4.86E2,4.18E2,6.28E2,8.8E1,1.157E3,4.79E2,1.929E3,6.7E1,2.472E3,9E0,1.7E1,8E0,1E1,1.73E2,9.7E1,1.52E2,1.195E3,4.3E1,5.9E1,5.4E1,3.5E1,5E0,5E0,8.7E1,2.6E2,2.26E2,2.86E2,1.32E2,6.18E2,1E1,3.5E1,5.3E1,9.33E2,2.24E2,3.92E2,8.7E1,6.19E2,1.31E3,5.7E1,1E1,2.397E3,7.5E1,5E0,1.2E1,5E0,5E0,7E0,1.66E2,6E0,9.1E1,6.6E1,8.6E1,7.54E2,4.41E2,1.5E1,2.8E1,4.9E1,1E1,4.2E1,1.2E1,3E1,5E0,2.5E1,6.2E1,1.09E2,1.51E2,2.05E2,2.1E1,2.5E1,2.61E2,6.7E1,6.5E1,3.1E1,5.87E2,2.4E1,1.1E1,6E0,4.7E1,2.49E2,6.84E2,1.6E2,6.4E1,5.2E1,3.4E2,6.6E1,2.1E1,4.1E1,5.78E2,1.275E3,3.5E1,4.8E1,9E0],"tree_param":{"num_deleted":"0","num_feature":"4336","num_nodes":"115","size_leaf_vector":"1"}},{"base_weights":[2.9319714E-4,-1.536265E-1,1.4051263E-1,-2.1808463E-1,-6.572283E-2,-2.4973605E-2,2.3378716E-1,-2.2535639E-1,7.3356656E-3,-1.2362581E-1,3.529894E-2,5.805617E-2,-1.6079123E-1,3.262886E-1,1.0117386E-1,-2.296299E-1,-8.442794E-3,-1.472138E-1,3.0079937E-1,-1.401722E-1,1.05048515E-1,-1.06821656E-1,1.21126555E-1,1.4354825E-1,-1.1080076E-1,-1.961034E-1,9.10626E-2,3.5372245E-1,-1.672231E-2,1.7616649E-1,-1.4954397E-1,-2.3391819E-1,-4.9142946E-2,-2.1466322E-1,2.134554E-1,1.3312061E-1,-2.2945085E-1,-8.091025E-3,4.3867713E-1,-7.0022605E-2,-1.9579409E-1,-8.6343445E-2,3.7535432E-1,6.591642E-2,-1.7391731E-1,1.5493111E-1,-2.3498861E-1,-1.4721443E-2,3.2578933E-1,2.1904387E-1,-1.406627E-1,9.923211E-2,-2.111129E-1,-2.0610529E-1,2.4436142E-1,-8.0158815E-2,3.6581856E-1,-1.129462E-1,3.2988468E-1,2.3044257E-1,-6.757522E-2,-2.2195026E-1,1.530991E-1,-1.1927214E-2,-2.7895907E-3,-1.0473084E-2,8.023732E-3,-1.18804835E-2,-2.3835439E-3,-8.856381E-3,1.8899405E-2,1.8570295E-2,-8.283701E-3,2.327316E-3,-1.3305177E-2,2.4253653E-2,6.0953577E-3,-7.7349404E-3,1.3130814E-3,-1.0386318E-2,1.0467986E-2,-1.0147048E-2,1.1698741E-2,-7.393738E-3,2.4010716E-2,-6.8551E-3,1.2827438E-2,-1.0846864E-2,6.935812E-3,1.0688912E-2,-3.284494E-3,1.8045942E-3,-1.3882573E-2,7.91354E-3,-6.0730684E-3,1.7837055E-2,-2.6624328E-3,2.068161E-2,-8.265606E-3,-7.926835E-3,1.966432E-2,-1.0294014E-2,2.053407E-2,-1.088853E-2,9.848724E-3,1.7028314E-3,-1.2753645E-2,-6.3737067E-3,1.7917272E-2,-8.275565E-3,1.3665626E-2,9.642523E-3,1.9940225E-2,-9.288305E-3,8.344248E-3,2.2242378E-2,-2.8326772E-3,3.917132E-3,1.5795358E-2,-9.508803E-3,9.044411E-3,-1.27437385E-2,1.0123581E-2,1.4585792E-2,-5.013119E-3],"categories":[],"categories_nodes":[],"categories_segments":[],"categories_sizes":[],"default_left":[0,0,0,0,0,0,0,0,0,0,0,0,0,0,0,0,0,0,0,0,0,0,0,0,0,0,0,0,0,0,0,0,0,0,0,0,0,0,0,0,0,0,0,0,0,0,0,0,0,0,0,0,0,0,0,0,0,0,0,0,0,0,0,0,0,0,0,0,0,0,0,0,0,0,0,0,0,0,0,0,0,0,0,0,0,0,0,0,0,0,0,0,0,0,0,0,0,0,0,0,0,0,0,0,0,0,0,0,0,0,0,0,0,0,0,0,0,0,0,0,0,0,0,0,0],"id":4,"left_children":[1,3,5,7,9,11,13,15,17,19,21,23,25,27,29,31,33,35,37,39,41,43,45,47,49,51,53,55,57,59,61,63,65,67,69,71,73,-1,75,77,79,81,83,85,87,89,91,93,95,97,99,101,103,105,107,109,111,113,115,117,119,121,123,-1,-1,-1,-1,-1,-1,-1,-1,-1,-1,-1,-1,-1,-1,-1,-1,-1,-1,-1,-1,-1,-1,-1,-1,-1,-1,-1,-1,-1,-1,-1,-1,-1,-1,-1,-1,-1,-1,-1,-1,-1,-1,-1,-1,-1,-1,-1,-1,-1,-1,-1,-1,-1,-1,-1,-1,-1,-1,-1,-1,-1,-1],"loss_changes":[2.0898369E2,2.6083076E1,7.8241615E1,4.370178E0,1.1486764E1,2.069469E1,3.9592026E1,2.380066E0,4.2126193E0,4.7919426E0,8.822766E0,1.6536488E1,6.2791653E0,1.797464E1,2.5307583E1,1.8991547E0,2.7459018E0,1.5590096E0,2.3960547E0,4.47711E0,4.662936E0,3.2213829E0,5.599278E0,2.1916E1,3.9560795E0,2.8176441E0,4.3062596E0,9.415085E0,5.0556693E0,1.3743778E1,6.9849277E0,1.9671631E0,2.352432E0,6.21531E-2,2.1984074E0,1.5180335E0,5.5761623E-1,0E0,8.644867E-2,4.2843237E0,3.3453083E0,2.2915726E0,2.3850923E0,3.2720168E0,2.8134627E0,5.44514E0,5.2427244E-1,7.6853075E0,4.2363434E0,2.8847933E0,3.7188897E0,3.5586479E0,1.801157E0,4.3151987E-1,2.813781E0,1.7950039E0,9.423248E0,2.5595264E0,1.5924504E0,1.0873543E1,6.0206733E0,3.793418E0,2.3588095E0,0E0,0E0,0E0,0E0,0E0,0E0,0E0,0E0,0E0,0E0,0E0,0E0,0E0,0E0,0E0,0E0,0E0,0E0,0E0,0E0,0E0,0E0,0E0,0E0,0E0,0E0,0E0,0E0,0E0,0E0,0E0,0E0,0E0,0E0,0E0,0E0,0E0,0E0,0E0,0E0,0E0,0E0,0E0,0E0,0E0,0E0,0E0,0E0,0E0,0E0,0E0,0E0,0E0,0E0,0E0,0E0,0E0,0E0,0E0,0E0,0E0,0E0],"parents":[2147483647,0,0,1,1,2,2,3,3,4,4,5,5,6,6,7,7,8,8,9,9,10,10,11,11,12,12,13,13,14,14,15,15,16,16,17,17,18,18,19,19,20,20,21,21,22,22,23,23,24,24,25,25,26,26,27,27,28,28,29,29,30,30,31,31,32,32,33,33,34,34,35,35,36,36,38,38,39,39,40,40,41,41,42,42,43,43,44,44,45,45,46,46,47,47,48,48,49,49,50,50,51,51,52,52,53,53,54,54,55,55,56,56,57,57,58,58,59,59,60,60,61,61,62,62],"right_children":[2,4,6,8,10,12,14,16,18,20,22,24,26,28,30,32,34,36,38,40,42,44,46,48,50,52,54,56,58,60,62,64,66,68,70,72,74,-1,76,78,80,82,84,86,88,90,92,94,96,98,100,102,104,106,108,110,112,114,116,118,120,122,124,-1,-1,-1,-1,-1,-1,-1,-1,-1,-1,-1,-1,-1,-1,-1,-1,-1,-1,-1,-1,-1,-1,-1,-1,-1,-1,-1,-1,-1,-1,-1,-1,-1,-1,-1,-1,-1,-1,-1,-1,-1,-1,-1,-1,-1,-1,-1,-1,-1,-1,-1,-1,-1,-1,-1,-1,-1,-1,-1,-1,-1,-1],"split_conditions":[2.93092E0,1.3E1,1.6237288E1,1E0,7.3417463E0,1E0,-5.9804254E0,1E0,1E0,6.2712757E1,2.089844E1,3.9102807E0,9.9679575E0,1E0,2.9875743E0,6.547942E2,3.5886428E3,-1.4346648E0,6.527778E-1,9.184952E0,-1.996269E0,-2.9199197E0,2.0838041E0,1.2118485E1,2.500347E0,-1.5599371E-1,1.4280745E0,-5.2116175E0,1.0038883E1,1.6965647E0,1.794918E0,1.398654E0,2.9823835E0,1.0033151E0,-9.428128E-2,6.656014E0,4.6805748E-1,-8.091025E-3,8.638345E0,2.20619E0,1.3103785E-1,9.708887E-3,4.078989E0,-1.1253679E0,7.460644E-2,2.1772201E-1,8.363403E-2,3.6576188E0,1.611212E2,-5.3493166E0,2.5505643E0,7.014207E0,1E0,-3.378095E0,1.1823647E1,1E0,1E0,1.1560693E0,2.1675373E1,1E0,9.573381E-1,1E0,8.693854E-1,-1.1927214E-2,-2.7895907E-3,-1.0473084E-2,8.023732E-3,-1.18804835E-2,-2.3835439E-3,-8.856381E-3,1.8899405E-2,1.8570295E-2,-8.283701E-3,2.327316E-3,-1.3305177E-2,2.4253653E-2,6.0953577E-3,-7.7349404E-3,1.3130814E-3,-1.0386318E-2,1.0467986E-2,-1.0147048E-2,1.1698741E-2,-7.393738E-3,2.4010716E-2,-6.8551E-3,1.2827438E-2,-1.0846864E-2,6.935812E-3,1.0688912E-2,-3.284494E-3,1.8045942E-3,-1.3882573E-2,7.91354E-3,-6.0730684E-3,1.7837055E-2,-2.6624328E-3,2.068161E-2,-8.265606E-3,-7.926835E-3,1.966432E-2,-1.0294014E-2,2.053407E-2,-1.088853E-2,9.848724E-3,1.7028314E-3,-1.2753645E-2,-6.3737067E-3,1.7917272E-2,-8.275565E-3,1.3665626E-2,9.642523E-3,1.9940225E-2,-9.288305E-3,8.344248E-3,2.2242378E-2,-2.8326772E-3,3.917132E-3,1.5795358E-2,-9.508803E-3,9.044411E-3,-1.27437385E-2,1.0123581E-2,1.4585792E-2,-5.013119E-3],"split_indices":[4249,3292,2681,45,2359,2518,2320,1375,62,2760,3168,2286,4179,2517,3666,2796,2586,2409,4076,4180,2374,2514,3570,3519,2309,2888,2730,2220,4190,3593,2730,2738,2360,3086,2970,2360,3133,0,2355,4249,3359,2922,2439,2251,3001,2293,3324,2319,2742,2317,3593,3162,424,2844,4218,79,3421,3146,4207,3414,3149,4028,2844,0,0,0,0,0,0,0,0,0,0,0,0,0,0,0,0,0,0,0,0,0,0,0,0,0,0,0,0,0,0,0,0,0,0,0,0,0,0,0,0,0,0,0,0,0,0,0,0,0,0,0,0,0,0,0,0,0,0,0,0,0,0],"split_type":[0,0,0,0,0,0,0,0,0,0,0,0,0,0,0,0,0,0,0,0,0,0,0,0,0,0,0,0,0,0,0,0,0,0,0,0,0,0,0,0,0,0,0,0,0,0,0,0,0,0,0,0,0,0,0,0,0,0,0,0,0,0,0,0,0,0,0,0,0,0,0,0,0,0,0,0,0,0,0,0,0,0,0,0,0,0,0,0,0,0,0,0,0,0,0,0,0,0,0,0,0,0,0,0,0,0,0,0,0,0,0,0,0,0,0,0,0,0,0,0,0,0,0,0,0],"sum_hessian":[9.673E3,4.611E3,5.062E3,2.656E3,1.955E3,1.826E3,3.236E3,2.573E3,8.3E1,1.242E3,7.13E2,1.135E3,6.91E2,1.902E3,1.334E3,2.523E3,5E1,5.6E1,2.7E1,1.16E3,8.2E1,2.68E2,4.45E2,7.54E2,3.81E2,6.07E2,8.4E1,1.761E3,1.41E2,1.028E3,3.06E2,2.463E3,6E1,2.6E1,2.4E1,1.2E1,4.4E1,6E0,2.1E1,5.18E2,6.42E2,5E1,3.2E1,7.5E1,1.93E2,4.09E2,3.6E1,4.06E2,3.48E2,2.9E1,3.52E2,2.8E1,5.79E2,2.8E1,5.6E1,4.7E1,1.714E3,1.13E2,2.8E1,8.41E2,1.87E2,2.48E2,5.8E1,2.399E3,6.4E1,3.4E1,2.6E1,2.1E1,5E0,7E0,1.7E1,6E0,6E0,5E0,3.9E1,1.6E1,5E0,2.74E2,2.44E2,6.26E2,1.6E1,3.8E1,1.2E1,5E0,2.7E1,3.7E1,3.8E1,1.71E2,2.2E1,3.23E2,8.6E1,5E0,3.1E1,1.54E2,2.52E2,3.22E2,2.6E1,1.9E1,1E1,3.44E2,8E0,1.5E1,1.3E1,5.72E2,7E0,5E0,2.3E1,1.3E1,4.3E1,4E1,7E0,2.8E2,1.434E3,9.1E1,2.2E1,2.1E1,7E0,3.06E2,5.35E2,1.26E2,6.1E1,2.32E2,1.6E1,3.7E1,2.1E1],"tree_param":{"num_deleted":"0","num_feature":"4336","num_nodes":"125","size_leaf_vector":"1"}},{"base_weights":[3.508138E-4,-1.45935E-1,1.3361578E-1,-1.3968564E-4,-1.8881097E-1,-2.3953378E-2,2.2235219E-1,-1.6038984E-1,6.261359E-2,-2.3132816E-1,-1.403124E-1,-1.5590355E-1,3.4993485E-2,2.679309E-1,-2.3861293E-2,-1.7820902E-1,2.3520158E-1,1.20120965E-1,-9.113482E-2,-2.3635924E-1,-5.177951E-2,-1.7093344E-1,-2.8902458E-2,6.153588E-2,-1.9077168E-1,1.1156968E-1,-1.6687204E-1,3.3965477E-1,1.8513893E-1,-1.5568256E-1,1.4317305E-1,-2.050706E-1,3.8304146E-2,1.3229147E-3,1.6317206E-2,-1.1612217E-1,1.53677E-1,-2.4392551E-1,2.040522E-2,-2.4132302E-1,-7.454907E-2,-1.8541314E-1,2.4847768E-1,-1.7834668E-1,1.5438952E-1,-2.289274E-1,2.5337279E-2,2.6647934E-1,-7.574256E-2,-2.2499156E-1,4.155283E-2,1.6684479E-1,-1.34627E-1,-2.0442194E-1,4.432863E-3,2.3844637E-1,3.933851E-1,2.4378982E-1,5.0006174E-2,-2.0454936E-1,3.507578E-2,-1.8705747E-1,2.0586957E-1,-5.2059386E-3,-1.2727841E-2,1.6633537E-2,-7.887565E-3,-9.488951E-3,1.2840295E-2,4.2049335E-3,1.5481213E-2,-1.4233115E-2,5.1856763E-3,9.202591E-3,-7.3664314E-3,-1.2209865E-2,1.5854022E-3,-7.174997E-3,1.7787274E-2,-1.241415E-2,7.3099444E-3,1.849127E-2,-2.8891375E-3,-9.1967005E-3,5.306366E-3,1.9800663E-2,-4.4794017E-3,2.1270188E-3,-1.3125556E-2,-6.7920457E-3,4.9312697E-3,2.0398317E-2,-5.949334E-3,8.756424E-3,-1.09266415E-2,-1.1727068E-2,5.7745054E-3,1.4711444E-2,-1.1574899E-2,1.1507779E-2,-4.303106E-3,6.4288587E-3,-1.0576328E-2,-1.13063E-2,4.740221E-3,9.863334E-3,-9.189413E-3,5.7411922E-5,1.4115858E-2,2.0199684E-2,-3.911705E-3,-3.0487878E-3,1.3813405E-2,-9.379411E-3,5.6763426E-3,1.2412962E-3,-1.1978815E-2,-7.350154E-3,1.2993152E-2,1.0416954E-2,-1.3792107E-2,1.3938417E-2,-7.0564486E-3],"categories":[],"categories_nodes":[],"categories_segments":[],"categories_sizes":[],"default_left":[0,0,0,0,0,0,0,0,0,0,0,0,0,0,0,0,0,0,0,0,0,0,0,0,0,0,0,0,0,0,0,0,0,0,0,0,0,0,0,0,0,0,0,0,0,0,0,0,0,0,0,0,0,0,0,0,0,0,0,0,0,0,0,0,0,0,0,0,0,0,0,0,0,0,0,0,0,0,0,0,0,0,0,0,0,0,0,0,0,0,0,0,0,0,0,0,0,0,0,0,0,0,0,0,0,0,0,0,0,0,0,0,0,0,0,0,0,0,0,0,0,0,0],"id":5,"left_children":[1,3,5,7,9,11,13,15,17,19,21,23,25,27,29,31,33,35,37,39,41,43,45,47,49,51,53,55,57,59,61,63,65,-1,-1,67,69,71,73,75,77,79,81,83,85,87,89,91,93,95,97,99,101,103,105,107,109,111,113,115,117,119,121,-1,-1,-1,-1,-1,-1,-1,-1,-1,-1,-1,-1,-1,-1,-1,-1,-1,-1,-1,-1,-1,-1,-1,-1,-1,-1,-1,-1,-1,-1,-1,-1,-1,-1,-1,-1,-1,-1,-1,-1,-1,-1,-1,-1,-1,-1,-1,-1,-1,-1,-1,-1,-1,-1,-1,-1,-1,-1,-1,-1],"loss_changes":[1.8876791E2,2.8855011E1,7.087403E1,1.0649471E1,7.1929474E0,1.4261107E1,3.6413986E1,2.3102112E0,6.783244E0,1.6487885E0,5.70319E0,4.349942E0,1.970941E1,1.5932388E1,1.1362993E1,1.7142506E0,2.4220836E-1,4.496852E0,3.6037657E0,1.3879242E0,2.5575738E0,3.31147E0,4.021544E0,2.4079332E0,3.934351E0,1.2673E1,2.262332E0,7.4704285E0,1.009182E1,2.7205372E0,4.91313E0,1.1513796E0,2.3400342E0,0E0,0E0,2.2214293E0,5.175723E0,1.4080076E0,3.5941637E0,1.4379501E0,2.0947368E0,1.0779747E0,8.501278E-1,2.1463966E0,2.0638146E0,7.760711E-1,3.5398457E0,2.0970194E0,2.0899196E0,1.52384E0,4.963125E0,1.2203915E1,3.6173162E0,1.9775839E0,2.6493633E0,5.401409E0,4.8910675E0,8.913475E0,6.052791E0,1.8776302E0,2.769531E0,1.6564442E0,5.1040897E0,0E0,0E0,0E0,0E0,0E0,0E0,0E0,0E0,0E0,0E0,0E0,0E0,0E0,0E0,0E0,0E0,0E0,0E0,0E0,0E0,0E0,0E0,0E0,0E0,0E0,0E0,0E0,0E0,0E0,0E0,0E0,0E0,0E0,0E0,0E0,0E0,0E0,0E0,0E0,0E0,0E0,0E0,0E0,0E0,0E0,0E0,0E0,0E0,0E0,0E0,0E0,0E0,0E0,0E0,0E0,0E0,0E0,0E0,0E0,0E0],"parents":[2147483647,0,0,1,1,2,2,3,3,4,4,5,5,6,6,7,7,8,8,9,9,10,10,11,11,12,12,13,13,14,14,15,15,16,16,17,17,18,18,19,19,20,20,21,21,22,22,23,23,24,24,25,25,26,26,27,27,28,28,29,29,30,30,31,31,32,32,35,35,36,36,37,37,38,38,39,39,40,40,41,41,42,42,43,43,44,44,45,45,46,46,47,47,48,48,49,49,50,50,51,51,52,52,53,53,54,54,55,55,56,56,57,57,58,58,59,59,60,60,61,61,62,62],"right_children":[2,4,6,8,10,12,14,16,18,20,22,24,26,28,30,32,34,36,38,40,42,44,46,48,50,52,54,56,58,60,62,64,66,-1,-1,68,70,72,74,76,78,80,82,84,86,88,90,92,94,96,98,100,102,104,106,108,110,112,114,116,118,120,122,-1,-1,-1,-1,-1,-1,-1,-1,-1,-1,-1,-1,-1,-1,-1,-1,-1,-1,-1,-1,-1,-1,-1,-1,-1,-1,-1,-1,-1,-1,-1,-1,-1,-1,-1,-1,-1,-1,-1,-1,-1,-1,-1,-1,-1,-1,-1,-1,-1,-1,-1,-1,-1,-1,-1,-1,-1,-1,-1,-1],"split_conditions":[2.93092E0,-7.852024E0,5.957865E0,1.7632E0,1.1812116E0,1.7001767E-1,1E0,1E0,4.6350297E-1,1E0,6.812196E0,3.2790926E0,4.5095167E0,-5.2148104E0,2.2977529E0,1.2610387E0,4.923311E0,5.042383E-1,9.671684E0,1.3236878E0,4.1384506E0,9.117386E0,-7.9778976E0,-5.034178E-1,3.47E2,1E0,5.783979E-1,1.2290826E1,1.6131932E2,3.3223068E-3,9.4630075E-1,7.6923077E-3,6.037015E-1,1.3229147E-3,1.6317206E-2,1.4186292E2,3.3159907E0,1.1329318E0,7.503161E-1,1.3169421E2,-1.7928978E0,1.2165525E0,4.3781868E-1,5.1523256E0,9.21692E-1,-4.421342E0,1.97282E0,2.8673956E0,1.1691169E0,-3.0667927E0,7.4165387E0,1E0,1.4664916E0,6.0308382E-2,-8.2714554E1,9.076541E-1,3.995317E1,-7.5321805E-1,4.391892E-2,9.6482766E-1,-4.8466597E0,-1.6536074E0,7.7404437E0,-5.2059386E-3,-1.2727841E-2,1.6633537E-2,-7.887565E-3,-9.488951E-3,1.2840295E-2,4.2049335E-3,1.5481213E-2,-1.4233115E-2,5.1856763E-3,9.202591E-3,-7.3664314E-3,-1.2209865E-2,1.5854022E-3,-7.174997E-3,1.7787274E-2,-1.241415E-2,7.3099444E-3,1.849127E-2,-2.8891375E-3,-9.1967005E-3,5.306366E-3,1.9800663E-2,-4.4794017E-3,2.1270188E-3,-1.3125556E-2,-6.7920457E-3,4.9312697E-3,2.0398317E-2,-5.949334E-3,8.756424E-3,-1.09266415E-2,-1.1727068E-2,5.7745054E-3,1.4711444E-2,-1.1574899E-2,1.1507779E-2,-4.303106E-3,6.4288587E-3,-1.0576328E-2,-1.13063E-2,4.740221E-3,9.863334E-3,-9.189413E-3,5.7411922E-5,1.4115858E-2,2.0199684E-2,-3.911705E-3,-3.0487878E-3,1.3813405E-2,-9.379411E-3,5.6763426E-3,1.2412962E-3,-1.1978815E-2,-7.350154E-3,1.2993152E-2,1.0416954E-2,-1.3792107E-2,1.3938417E-2,-7.0564486E-3],"split_indices":[4249,2227,4151,4249,2735,4141,2518,971,3651,550,2359,2319,2286,2372,2657,3065,3855,3125,3848,2737,2843,3589,2428,2280,2558,1063,3785,2838,2745,2940,2470,4090,3133,0,0,2806,3160,3127,3092,2787,2233,2846,3341,3691,3119,2420,4249,4168,2346,2270,2476,2518,3060,2328,2808,3114,3812,3658,4084,2366,2918,2256,2417,0,0,0,0,0,0,0,0,0,0,0,0,0,0,0,0,0,0,0,0,0,0,0,0,0,0,0,0,0,0,0,0,0,0,0,0,0,0,0,0,0,0,0,0,0,0,0,0,0,0,0,0,0,0,0,0,0,0,0,0],"split_type":[0,0,0,0,0,0,0,0,0,0,0,0,0,0,0,0,0,0,0,0,0,0,0,0,0,0,0,0,0,0,0,0,0,0,0,0,0,0,0,0,0,0,0,0,0,0,0,0,0,0,0,0,0,0,0,0,0,0,0,0,0,0,0,0,0,0,0,0,0,0,0,0,0,0,0,0,0,0,0,0,0,0,0,0,0,0,0,0,0,0,0,0,0,0,0,0,0,0,0,0,0,0,0,0,0,0,0,0,0,0,0,0,0,0,0,0,0,0,0,0,0,0,0],"sum_hessian":[9.673E3,4.611E3,5.062E3,1.049E3,3.562E3,1.825E3,3.237E3,2.93E2,7.56E2,1.888E3,1.674E3,5.61E2,1.264E3,2.731E3,5.06E2,2.83E2,1E1,5.51E2,2.05E2,1.835E3,5.3E1,1.311E3,3.63E2,7.7E1,4.84E2,9.18E2,3.46E2,1.455E3,1.276E3,2.83E2,2.23E2,2.52E2,3.1E1,5E0,5E0,6.7E1,4.84E2,8.4E1,1.21E2,1.778E3,5.7E1,3.8E1,1.5E1,1.284E3,2.7E1,7.4E1,2.89E2,2.9E1,4.8E1,4.22E2,6.2E1,7.51E2,1.67E2,2.83E2,6.3E1,5.14E2,9.41E2,8.87E2,3.89E2,2.25E2,5.8E1,3.4E1,1.89E2,8.8E1,1.64E2,1.1E1,2E1,5.8E1,9E0,3.4E2,1.44E2,7.6E1,8E0,6.1E1,6E1,1.76E3,1.8E1,5.2E1,5E0,3.3E1,5E0,1E1,5E0,1.261E3,2.3E1,1.2E1,1.5E1,8E0,6.6E1,8.9E1,2E2,2.1E1,8E0,1.7E1,3.1E1,4.12E2,1E1,3.2E1,3E1,6.01E2,1.5E2,3.7E1,1.3E2,2.65E2,1.8E1,3.1E1,3.2E1,8.1E1,4.33E2,9.21E2,2E1,8.5E1,8.02E2,8E1,3.09E2,3E1,1.95E2,3.3E1,2.5E1,5E0,2.9E1,1.57E2,3.2E1],"tree_param":{"num_deleted":"0","num_feature":"4336","num_nodes":"123","size_leaf_vector":"1"}},{"base_weights":[3.724826E-4,-1.3860214E-1,1.2697698E-1,2.340913E-3,-1.7868437E-1,5.068423E-3,2.3149267E-1,-1.5031625E-1,6.1134074E-2,-2.1986312E-1,-1.3231423E-1,7.964607E-2,-1.4046478E-1,9.989877E-2,3.3133107E-1,-1.6865328E-1,1.3374445E-2,9.384062E-2,-1.8521087E-1,-2.2481318E-1,-2.2709686E-2,-1.4619793E-1,1.0770753E-1,1.3367346E-1,-9.8669656E-2,-3.4507595E-2,-1.9183356E-1,1.744568E-1,-9.900637E-2,4.206145E-2,3.5072333E-1,2.4609573E-2,-1.9791159E-1,-4.526575E-2,1.428478E-1,-2.3257324E-1,1.0780161E-2,-2.2850224E-1,-2.4307609E-2,-1.2895332E-1,2.566364E-1,-1.5495305E-1,8.9113005E-2,4.1073558E-1,-1.0134292E-2,-9.569938E-3,2.6815808E-1,-1.4745945E-1,1.13058604E-1,1.3410798E-1,-1.13295734E-1,-2.1193565E-1,1.4607368E-1,-1.5103622E-1,2.1145497E-1,-1.5317963E-1,2.473939E-1,2.7091947E-1,-1.0676193E-1,1.1139089E-2,3.6789578E-1,1.2817464E-2,-7.919217E-3,-1.059493E-2,9.606644E-3,-4.5325295E-3,1.6569933E-2,1.1030602E-2,3.7638054E-4,6.347418E-3,-1.372959E-2,-1.1559052E-2,1.523365E-3,-7.31948E-3,1.3808005E-2,-1.050103E-2,9.380159E-3,1.7269839E-2,1.5340907E-3,-9.088571E-3,-3.3110331E-3,-2.669025E-3,1.9728491E-2,1.6389271E-3,2.4459261E-2,-4.595005E-3,1.7105563E-2,5.0216997E-3,-8.332528E-3,5.5517466E-3,1.6292002E-2,-9.737065E-3,8.6333E-3,1.0864368E-2,-1.0352326E-2,1.3797112E-2,-6.3783163E-3,3.089673E-3,-9.230546E-3,5.0506513E-3,-1.1092356E-2,1.728352E-2,-8.700992E-3,8.805717E-3,-1.4068367E-2,-4.6845055E-3,1.2260301E-2,3.591944E-3,-1.1199219E-2,2.003474E-2,-5.1189135E-3,-6.6256956E-3,1.7828153E-2,-1.04349265E-2,8.9933425E-3,-6.6218823E-3,1.1814318E-2,1.8871563E-2,-2.6364566E-3],"categories":[],"categories_nodes":[],"categories_segments":[],"categories_sizes":[],"default_left":[0,0,0,0,0,0,0,0,0,0,0,0,0,0,0,0,0,0,0,0,0,0,0,0,0,0,0,0,0,0,0,0,0,0,0,0,0,0,0,0,0,0,0,0,0,0,0,0,0,0,0,0,0,0,0,0,0,0,0,0,0,0,0,0,0,0,0,0,0,0,0,0,0,0,0,0,0,0,0,0,0,0,0,0,0,0,0,0,0,0,0,0,0,0,0,0,0,0,0,0,0,0,0,0,0,0,0,0,0,0,0,0,0,0,0,0,0,0,0],"id":6,"left_children":[1,3,5,7,9,11,13,15,17,19,21,23,25,27,29,31,-1,33,35,37,39,41,43,45,47,49,51,53,55,57,59,61,63,65,67,69,-1,71,73,75,77,79,81,83,85,87,89,91,93,95,97,99,101,103,105,107,109,111,113,115,117,-1,-1,-1,-1,-1,-1,-1,-1,-1,-1,-1,-1,-1,-1,-1,-1,-1,-1,-1,-1,-1,-1,-1,-1,-1,-1,-1,-1,-1,-1,-1,-1,-1,-1,-1,-1,-1,-1,-1,-1,-1,-1,-1,-1,-1,-1,-1,-1,-1,-1,-1,-1,-1,-1,-1,-1,-1,-1],"loss_changes":[1.703706E2,2.6079315E1,6.455459E1,9.263475E0,6.717163E0,2.54966E1,3.567531E1,2.424357E0,6.089436E0,1.8248215E0,5.753792E0,1.5027444E1,4.2994413E0,1.7645052E1,8.6154785E0,1.5963149E0,0E0,4.538507E0,1.9402497E0,1.3398895E0,1.7087653E0,3.3900452E0,3.4489126E0,2.301409E1,3.8435423E0,3.6097543E0,3.7888584E0,1.055249E1,6.307076E0,3.6527402E0,8.441025E0,1.941694E0,1.5238066E0,3.158902E0,5.1480007E0,1.4130349E0,0E0,1.2943268E0,1.6327211E0,1.24916E0,2.6790595E-1,3.642559E0,2.760374E0,7.203927E-1,2.2885215E0,1.0157627E1,5.4020157E0,4.6786904E0,2.593798E0,3.404955E0,2.354558E0,1.6846466E0,2.4091249E0,4.127814E0,8.117161E0,4.621181E0,2.6716497E0,1.6874104E0,2.1160755E0,2.580909E0,5.6384735E0,0E0,0E0,0E0,0E0,0E0,0E0,0E0,0E0,0E0,0E0,0E0,0E0,0E0,0E0,0E0,0E0,0E0,0E0,0E0,0E0,0E0,0E0,0E0,0E0,0E0,0E0,0E0,0E0,0E0,0E0,0E0,0E0,0E0,0E0,0E0,0E0,0E0,0E0,0E0,0E0,0E0,0E0,0E0,0E0,0E0,0E0,0E0,0E0,0E0,0E0,0E0,0E0,0E0,0E0,0E0,0E0,0E0,0E0],"parents":[2147483647,0,0,1,1,2,2,3,3,4,4,5,5,6,6,7,7,8,8,9,9,10,10,11,11,12,12,13,13,14,14,15,15,17,17,18,18,19,19,20,20,21,21,22,22,23,23,24,24,25,25,26,26,27,27,28,28,29,29,30,30,31,31,32,32,33,33,34,34,35,35,37,37,38,38,39,39,40,40,41,41,42,42,43,43,44,44,45,45,46,46,47,47,48,48,49,49,50,50,51,51,52,52,53,53,54,54,55,55,56,56,57,57,58,58,59,59,60,60],"right_children":[2,4,6,8,10,12,14,16,18,20,22,24,26,28,30,32,-1,34,36,38,40,42,44,46,48,50,52,54,56,58,60,62,64,66,68,70,-1,72,74,76,78,80,82,84,86,88,90,92,94,96,98,100,102,104,106,108,110,112,114,116,118,-1,-1,-1,-1,-1,-1,-1,-1,-1,-1,-1,-1,-1,-1,-1,-1,-1,-1,-1,-1,-1,-1,-1,-1,-1,-1,-1,-1,-1,-1,-1,-1,-1,-1,-1,-1,-1,-1,-1,-1,-1,-1,-1,-1,-1,-1,-1,-1,-1,-1,-1,-1,-1,-1,-1,-1,-1,-1],"split_conditions":[2.93092E0,-7.929224E0,1.76E1,1.7632E0,1.1812116E0,1E0,1E0,1E0,7.019218E-1,1E0,1E0,4.5095167E0,7.397705E-1,2.9570398E0,5.8883476E-1,-3.604411E-3,1.3374445E-2,9.638694E-1,7.567191E0,1.8933702E2,3.8597565E1,2.0826318E0,1.4456578E0,1.2118485E1,1.2366241E0,-2.491965E0,1.4617182E-1,-5.0279367E-1,1.5753368E0,6.9254413E-3,7.30743E1,-6.40439E-1,2.2798727E-1,9.165834E-2,1.2583604E0,-1.0453387E-2,1.0780161E-2,1.3169421E2,1.1897046E-2,2.6509294E-2,7.082712E0,6.6524606E0,4.5940172E-2,3.0577965E0,4.2530423E-1,9.589074E0,2.25E0,1.2569067E0,1.3309935E0,1E0,8.934987E0,-1.3117473E1,-2.491965E0,3.032863E-1,4.5183367E-1,9.799819E0,1.1399821E1,4.761905E-2,1.0159356E1,5.8414185E-1,4E0,1.2817464E-2,-7.919217E-3,-1.059493E-2,9.606644E-3,-4.5325295E-3,1.6569933E-2,1.1030602E-2,3.7638054E-4,6.347418E-3,-1.372959E-2,-1.1559052E-2,1.523365E-3,-7.31948E-3,1.3808005E-2,-1.050103E-2,9.380159E-3,1.7269839E-2,1.5340907E-3,-9.088571E-3,-3.3110331E-3,-2.669025E-3,1.9728491E-2,1.6389271E-3,2.4459261E-2,-4.595005E-3,1.7105563E-2,5.0216997E-3,-8.332528E-3,5.5517466E-3,1.6292002E-2,-9.737065E-3,8.6333E-3,1.0864368E-2,-1.0352326E-2,1.3797112E-2,-6.3783163E-3,3.089673E-3,-9.230546E-3,5.0506513E-3,-1.1092356E-2,1.728352E-2,-8.700992E-3,8.805717E-3,-1.4068367E-2,-4.6845055E-3,1.2260301E-2,3.591944E-3,-1.1199219E-2,2.003474E-2,-5.1189135E-3,-6.6256956E-3,1.7828153E-2,-1.04349265E-2,8.9933425E-3,-6.6218823E-3,1.1814318E-2,1.8871563E-2,-2.6364566E-3],"split_indices":[4249,2227,2681,4249,2735,2518,4262,971,3651,1375,312,2286,3132,3587,3090,2862,0,3142,2479,2701,2852,3499,2500,3519,2735,2485,3759,2956,3354,4091,2637,2873,3049,3030,3089,2923,0,2787,4090,2954,4162,2359,3762,2236,3500,4180,4144,3572,3063,1312,2478,2227,2485,3900,3117,4180,2281,3306,4146,3085,3418,0,0,0,0,0,0,0,0,0,0,0,0,0,0,0,0,0,0,0,0,0,0,0,0,0,0,0,0,0,0,0,0,0,0,0,0,0,0,0,0,0,0,0,0,0,0,0,0,0,0,0,0,0,0,0,0,0,0],"split_type":[0,0,0,0,0,0,0,0,0,0,0,0,0,0,0,0,0,0,0,0,0,0,0,0,0,0,0,0,0,0,0,0,0,0,0,0,0,0,0,0,0,0,0,0,0,0,0,0,0,0,0,0,0,0,0,0,0,0,0,0,0,0,0,0,0,0,0,0,0,0,0,0,0,0,0,0,0,0,0,0,0,0,0,0,0,0,0,0,0,0,0,0,0,0,0,0,0,0,0,0,0,0,0,0,0,0,0,0,0,0,0,0,0,0,0,0,0,0,0],"sum_hessian":[9.673E3,4.611E3,5.062E3,1.022E3,3.589E3,2.339E3,2.723E3,2.82E2,7.4E2,1.891E3,1.698E3,1.548E3,7.91E2,1.179E3,1.544E3,2.73E2,9E0,6.56E2,8.4E1,1.844E3,4.7E1,1.607E3,9.1E1,1.189E3,3.59E2,2.61E2,5.3E2,8.58E2,3.21E2,9.8E1,1.446E3,3.6E1,2.37E2,1.71E2,4.85E2,7.7E1,7E0,1.81E3,3.4E1,3.6E1,1.1E1,1.551E3,5.6E1,2.2E1,6.9E1,5.78E2,6.11E2,2.93E2,6.6E1,8.2E1,1.79E2,5.02E2,2.8E1,8.6E1,7.72E2,2.8E2,4.1E1,3.7E1,6.1E1,7E1,1.376E3,1.5E1,2.1E1,2.31E2,6E0,1.56E2,1.5E1,3.06E2,1.79E2,7E0,7E1,1.792E3,1.8E1,2.6E1,8E0,3E1,6E0,6E0,5E0,1.187E3,3.64E2,4.1E1,1.5E1,5E0,1.7E1,5.9E1,1E1,3.41E2,2.37E2,1.68E2,4.43E2,2.57E2,3.6E1,5.1E1,1.5E1,5.3E1,2.9E1,5.2E1,1.27E2,1.4E1,4.88E2,1.7E1,1.1E1,2.4E1,6.2E1,7.6E1,6.96E2,6.7E1,2.13E2,2.8E1,1.3E1,6E0,3.1E1,4.6E1,1.5E1,4.4E1,2.6E1,1.346E3,3E1],"tree_param":{"num_deleted":"0","num_feature":"4336","num_nodes":"119","size_leaf_vector":"1"}},{"base_weights":[4.386377E-4,-1.3691533E-1,1.16079964E-1,-1.7729151E-1,-4.2158745E-2,3.437149E-3,2.2010238E-1,-1.8752947E-1,2.341116E-2,-1.0395981E-1,5.1112268E-2,6.7204945E-2,-1.389236E-1,1.0132969E-1,2.95867E-1,-2.1414186E-1,-1.484943E-1,-1.2155407E-1,2.1290073E-1,-1.207973E-3,-1.5503636E-1,1.6638267E-1,-4.687432E-2,1.134322E-1,-1.372289E-1,-1.7031284E-1,9.216892E-2,1.4851439E-1,-1.4815944E-1,1.100626E-1,3.46301E-1,-2.16086E-1,7.82483E-3,-1.6946316E-1,-5.197328E-3,1.2076457E-2,-1.6618773E-1,3.939213E-2,4.3189657E-1,3.1142426E-1,-5.5726618E-2,-1.6803005E-1,1.707428E-1,2.1980798E-1,-1.0386621E-1,-1.2076167E-1,1.2843964E-1,1.8068352E-1,-6.569418E-2,-1.9263811E-1,2.0259489E-1,-1.8199857E-1,1.9285621E-1,-1.4649634E-1,2.325991E-1,-2.653455E-2,2.0949662E-1,1.4675957E-1,-2.4831513E-1,-1.548159E-1,1.9892488E-1,1.3689794E-2,3.647689E-1,-3.6597294E-3,-1.1066675E-2,-8.840349E-3,7.801564E-3,7.3941E-3,-5.612138E-3,-1.0700533E-2,6.2567303E-3,1.2817531E-2,-8.005405E-3,2.5393022E-2,1.3019328E-3,-7.953618E-3,2.0740272E-2,1.0117392E-2,-5.3748786E-3,-8.80764E-3,1.6593432E-2,-5.6779603E-3,1.6530609E-2,-1.1938873E-3,1.5116543E-2,1.4927586E-2,-9.686707E-3,-8.514364E-3,8.383764E-3,9.7041695E-5,1.9491334E-2,3.9004113E-3,1.3634868E-2,3.1764319E-3,-8.849727E-3,3.5555293E-3,-1.1949178E-2,-8.971447E-3,1.8506108E-2,-9.863629E-3,1.4021493E-3,1.9497236E-2,-8.335464E-3,-1.1368018E-2,8.134249E-3,-6.026862E-3,1.7289747E-2,-5.213627E-3,1.2080013E-2,1.1903663E-2,-5.960628E-3,-1.0856923E-2,1.7563233E-2,-1.4422066E-2,1.348933E-2,-9.484063E-3,1.164469E-2,1.2916957E-2,-5.3863763E-3,-1.0312556E-2,7.7154483E-3,1.8681338E-2,-3.4618124E-3],"categories":[],"categories_nodes":[],"categories_segments":[],"categories_sizes":[],"default_left":[0,0,0,0,0,0,0,0,0,0,0,0,0,0,0,0,0,0,0,0,0,0,0,0,0,0,0,0,0,0,0,0,0,0,0,0,0,0,0,0,0,0,0,0,0,0,0,0,0,0,0,0,0,0,0,0,0,0,0,0,0,0,0,0,0,0,0,0,0,0,0,0,0,0,0,0,0,0,0,0,0,0,0,0,0,0,0,0,0,0,0,0,0,0,0,0,0,0,0,0,0,0,0,0,0,0,0,0,0,0,0,0,0,0,0,0,0,0,0,0,0,0,0],"id":7,"left_children":[1,3,5,7,9,11,13,15,17,19,21,23,25,27,29,31,33,35,37,39,41,43,45,47,49,51,53,55,57,59,61,63,-1,65,67,-1,69,71,73,75,77,79,81,83,85,87,89,91,93,95,97,99,101,103,105,107,109,111,113,115,117,119,121,-1,-1,-1,-1,-1,-1,-1,-1,-1,-1,-1,-1,-1,-1,-1,-1,-1,-1,-1,-1,-1,-1,-1,-1,-1,-1,-1,-1,-1,-1,-1,-1,-1,-1,-1,-1,-1,-1,-1,-1,-1,-1,-1,-1,-1,-1,-1,-1,-1,-1,-1,-1,-1,-1,-1,-1,-1,-1,-1,-1],"loss_changes":[1.5380283E2,1.6896103E1,6.1594482E1,6.395897E0,7.687255E0,2.3005022E1,2.4443726E1,2.9076004E0,4.3871512E0,4.202878E0,6.0592065E0,1.661606E1,5.765483E0,1.2729675E1,1.5421295E1,1.4257507E0,3.6403847E0,1.6754179E0,2.536772E0,4.705775E0,2.408145E0,3.6659327E0,3.8599706E0,1.7285828E1,6.3146825E0,3.1122723E0,3.4214077E0,9.677881E0,5.2922554E0,8.698172E0,8.0095825E0,1.2214432E0,0E0,2.6669483E0,2.7048244E0,0E0,1.304179E0,2.1096826E0,8.587961E-1,2.324181E0,3.2485378E0,2.3915958E0,1.2330977E0,4.1987925E0,1.8804345E0,3.1140485E0,2.9390144E0,9.728527E0,5.7229433E0,3.532012E0,3.4040246E0,2.1867638E0,2.0258262E0,1.1600046E0,2.7267394E0,5.086895E0,6.4448757E0,3.879058E0,3.112505E0,1.4915364E0,5.1313E0,2.4477973E0,4.892517E0,0E0,0E0,0E0,0E0,0E0,0E0,0E0,0E0,0E0,0E0,0E0,0E0,0E0,0E0,0E0,0E0,0E0,0E0,0E0,0E0,0E0,0E0,0E0,0E0,0E0,0E0,0E0,0E0,0E0,0E0,0E0,0E0,0E0,0E0,0E0,0E0,0E0,0E0,0E0,0E0,0E0,0E0,0E0,0E0,0E0,0E0,0E0,0E0,0E0,0E0,0E0,0E0,0E0,0E0,0E0,0E0,0E0,0E0,0E0,0E0],"parents":[2147483647,0,0,1,1,2,2,3,3,4,4,5,5,6,6,7,7,8,8,9,9,10,10,11,11,12,12,13,13,14,14,15,15,16,16,17,17,18,18,19,19,20,20,21,21,22,22,23,23,24,24,25,25,26,26,27,27,28,28,29,29,30,30,31,31,33,33,34,34,36,36,37,37,38,38,39,39,40,40,41,41,42,42,43,43,44,44,45,45,46,46,47,47,48,48,49,49,50,50,51,51,52,52,53,53,54,54,55,55,56,56,57,57,58,58,59,59,60,60,61,61,62,62],"right_children":[2,4,6,8,10,12,14,16,18,20,22,24,26,28,30,32,34,36,38,40,42,44,46,48,50,52,54,56,58,60,62,64,-1,66,68,-1,70,72,74,76,78,80,82,84,86,88,90,92,94,96,98,100,102,104,106,108,110,112,114,116,118,120,122,-1,-1,-1,-1,-1,-1,-1,-1,-1,-1,-1,-1,-1,-1,-1,-1,-1,-1,-1,-1,-1,-1,-1,-1,-1,-1,-1,-1,-1,-1,-1,-1,-1,-1,-1,-1,-1,-1,-1,-1,-1,-1,-1,-1,-1,-1,-1,-1,-1,-1,-1,-1,-1,-1,-1,-1,-1,-1,-1,-1],"split_conditions":[2.86272E0,4.025328E1,4.3131298E1,1.4664383E0,1.6028172E1,1E0,1E0,1.1620775E0,7.2667554E-2,-1.973237E2,-3.5416267E0,1.1905508E0,1.0111326E1,1E0,1.2966648E0,1.9779592E0,1.1617301E2,-1.6122329E-1,2.4265469E1,-1.14781166E2,1E0,2.0601534E1,1.8804133E0,1.9438744E0,3.1142149E1,4.2540293E0,-3.0449963E0,4.8757657E-1,2.5579065E1,-2.3808677E0,1.199E3,-4.4751632E-1,7.82483E-3,9.174352E0,-2.9466066E0,1.2076457E-2,2.8573651E0,-4.127508E0,4.998464E-1,3.8333333E0,-4.9217925E0,1E0,5.4714084E-1,-2.2846941E1,-1.8646814E0,1.2116426E-1,-2.7760785E0,1.2120478E1,4.846725E0,-5.2345586E0,-1.1317996E0,4.2045967E1,5.4916356E-2,9.563445E0,1.5323083E0,1.8898635E0,1E0,7.737302E0,3.206335E0,8.914354E-2,1.9549585E2,2.8769976E-1,1.556583E0,-3.6597294E-3,-1.1066675E-2,-8.840349E-3,7.801564E-3,7.3941E-3,-5.612138E-3,-1.0700533E-2,6.2567303E-3,1.2817531E-2,-8.005405E-3,2.5393022E-2,1.3019328E-3,-7.953618E-3,2.0740272E-2,1.0117392E-2,-5.3748786E-3,-8.80764E-3,1.6593432E-2,-5.6779603E-3,1.6530609E-2,-1.1938873E-3,1.5116543E-2,1.4927586E-2,-9.686707E-3,-8.514364E-3,8.383764E-3,9.7041695E-5,1.9491334E-2,3.9004113E-3,1.3634868E-2,3.1764319E-3,-8.849727E-3,3.5555293E-3,-1.1949178E-2,-8.971447E-3,1.8506108E-2,-9.863629E-3,1.4021493E-3,1.9497236E-2,-8.335464E-3,-1.1368018E-2,8.134249E-3,-6.026862E-3,1.7289747E-2,-5.213627E-3,1.2080013E-2,1.1903663E-2,-5.960628E-3,-1.0856923E-2,1.7563233E-2,-1.4422066E-2,1.348933E-2,-9.484063E-3,1.164469E-2,1.2916957E-2,-5.3863763E-3,-1.0312556E-2,7.7154483E-3,1.8681338E-2,-3.4618124E-3],"split_indices":[4249,4205,3807,2736,3166,2518,4262,2736,3005,2798,2451,3890,3823,25,2735,2867,2786,2965,3827,2792,726,3862,2329,2467,2788,2275,2420,3085,3866,4148,2583,3594,0,3510,2451,0,3587,2404,3724,2659,2451,2015,3581,2782,2900,3056,2453,3598,2486,2372,2306,3806,2897,2892,2327,2342,422,2332,3508,2983,2702,2363,3884,0,0,0,0,0,0,0,0,0,0,0,0,0,0,0,0,0,0,0,0,0,0,0,0,0,0,0,0,0,0,0,0,0,0,0,0,0,0,0,0,0,0,0,0,0,0,0,0,0,0,0,0,0,0,0,0,0,0,0,0],"split_type":[0,0,0,0,0,0,0,0,0,0,0,0,0,0,0,0,0,0,0,0,0,0,0,0,0,0,0,0,0,0,0,0,0,0,0,0,0,0,0,0,0,0,0,0,0,0,0,0,0,0,0,0,0,0,0,0,0,0,0,0,0,0,0,0,0,0,0,0,0,0,0,0,0,0,0,0,0,0,0,0,0,0,0,0,0,0,0,0,0,0,0,0,0,0,0,0,0,0,0,0,0,0,0,0,0,0,0,0,0,0,0,0,0,0,0,0,0,0,0,0,0,0,0],"sum_hessian":[9.673E3,4.421E3,5.252E3,3.097E3,1.324E3,2.524E3,2.728E3,2.947E3,1.5E2,7.96E2,5.28E2,1.745E3,7.79E2,1.067E3,1.661E3,1.739E3,1.208E3,8.6E1,6.4E1,2.66E2,5.3E2,2.41E2,2.87E2,1.425E3,3.2E2,6.87E2,9.2E1,8.99E2,1.68E2,3.58E2,1.303E3,1.732E3,7E0,1.053E3,1.55E2,7E0,7.9E1,3.9E1,2.5E1,3.6E1,2.3E2,5.12E2,1.8E1,2.02E2,3.9E1,2.03E2,8.4E1,1.036E3,3.89E2,2.77E2,4.3E1,6.68E2,1.9E1,3.4E1,5.8E1,2.33E2,6.66E2,4.2E1,1.26E2,8.9E1,2.69E2,6.9E1,1.234E3,6.4E1,1.668E3,1.032E3,2.1E1,6.3E1,9.2E1,6.9E1,1E1,1.8E1,2.1E1,2E1,5E0,6E0,3E1,3.6E1,1.94E2,5.07E2,5E0,7E0,1.1E1,5.2E1,1.5E2,5E0,3.4E1,1.75E2,2.8E1,6E1,2.4E1,4.94E2,5.42E2,1.81E2,2.08E2,4.1E1,2.36E2,1.3E1,3E1,6.23E2,4.5E1,1.2E1,7E0,2.8E1,6E0,1.4E1,4.4E1,1.83E2,5E1,6.14E2,5.2E1,1.5E1,2.7E1,1.19E2,7E0,8.4E1,5E0,2.26E2,4.3E1,2.6E1,4.3E1,1.21E3,2.4E1],"tree_param":{"num_deleted":"0","num_feature":"4336","num_nodes":"123","size_leaf_vector":"1"}},{"base_weights":[5.0577323E-4,-1.2497107E-1,1.1481376E-1,1.6848887E-3,-1.62221E-1,-2.1795606E-2,1.9181398E-1,-1.3953686E-1,5.6974843E-2,-1.9024277E-1,-1.0615539E-1,4.586589E-2,-1.3246389E-1,2.7056745E-1,7.8937225E-2,-1.5608244E-1,2.2465049E-1,-1.1050951E-1,1.010742E-1,-1.1069231E-1,-2.0180139E-1,-1.21369705E-1,1.1151947E-1,1.1975255E-1,-1.0001313E-1,-1.633244E-1,8.718727E-2,2.9483894E-1,-3.2283615E-2,1.4219414E-1,-1.3244243E-1,-1.6727547E-1,1.193608E-2,1.2232198E-3,1.5625568E-2,-1.5536587E-1,2.8900656E-1,-4.453158E-2,1.6930413E-1,-1.2342823E-1,1.6782332E-2,7.453908E-3,-2.0352837E-1,-1.7784455E-1,-6.1448615E-2,2.2640078E-1,-1.1369939E-2,-1.4365932E-2,2.742113E-1,9.618178E-3,-1.7867416E-1,1.00975655E-1,-1.7686084E-1,2.1646397E-1,-2.0313424E-1,3.0661243E-1,-6.547241E-2,2.0369309E-1,-1.5825655E-1,1.8862894E-1,-6.6112205E-2,-1.953841E-1,1.3083462E-1,-8.9336345E-3,1.1660243E-2,-1.1148053E-2,6.2252204E-3,1.2666552E-3,1.9033795E-2,6.6440417E-3,-6.7449245E-3,1.1702586E-2,-1.4629842E-3,-7.0346645E-3,9.642667E-3,-1.0309651E-2,-1.3446859E-4,-9.463406E-3,5.010278E-3,-5.9997747E-3,4.7068484E-3,-7.0613413E-3,1.5887383E-2,7.4895485E-3,-5.679842E-3,1.528046E-2,-3.2658763E-3,5.041168E-3,-1.0922278E-2,7.243076E-4,-1.1105448E-2,-9.19798E-3,1.947608E-2,-9.159117E-3,1.1784776E-2,-6.765491E-3,1.6897848E-2,-1.1397349E-2,-1.9767636E-3,9.057085E-3,1.6910676E-2,1.0091837E-2,-1.233939E-2,-1.4716636E-3,2.085488E-2,-1.0193158E-2,1.2676693E-2,2.4825537E-3,1.3346167E-2,8.061444E-3,-8.16324E-3,8.497576E-3,-1.1433978E-2,1.3029943E-2,-7.5747124E-3],"categories":[],"categories_nodes":[],"categories_segments":[],"categories_sizes":[],"default_left":[0,0,0,0,0,0,0,0,0,0,0,0,0,0,0,0,0,0,0,0,0,0,0,0,0,0,0,0,0,0,0,0,0,0,0,0,0,0,0,0,0,0,0,0,0,0,0,0,0,0,0,0,0,0,0,0,0,0,0,0,0,0,0,0,0,0,0,0,0,0,0,0,0,0,0,0,0,0,0,0,0,0,0,0,0,0,0,0,0,0,0,0,0,0,0,0,0,0,0,0,0,0,0,0,0,0,0,0,0,0,0,0,0,0,0],"id":8,"left_children":[1,3,5,7,9,11,13,15,17,19,21,23,25,27,29,31,33,35,37,39,41,43,45,47,49,51,53,55,57,59,61,63,-1,-1,-1,65,67,69,71,73,-1,-1,75,77,79,81,-1,83,85,87,89,91,93,95,97,99,101,103,105,107,109,111,113,-1,-1,-1,-1,-1,-1,-1,-1,-1,-1,-1,-1,-1,-1,-1,-1,-1,-1,-1,-1,-1,-1,-1,-1,-1,-1,-1,-1,-1,-1,-1,-1,-1,-1,-1,-1,-1,-1,-1,-1,-1,-1,-1,-1,-1,-1,-1,-1,-1,-1,-1,-1],"loss_changes":[1.3888336E2,2.1779312E1,5.332041E1,8.269535E0,5.502983E0,1.3740872E1,2.8703888E1,1.9709754E0,5.6765566E0,2.0693436E0,4.0418034E0,1.2347389E1,4.789069E0,1.4065247E1,1.7998232E1,1.4723482E0,2.2560078E-1,3.1097634E0,6.048176E0,1.9807174E0,1.4030304E0,3.749012E0,3.4111817E0,1.5742965E1,3.3373456E0,2.2788372E0,3.5601869E0,7.59198E0,4.5012736E0,1.0054216E1,5.281427E0,1.5000505E0,0E0,0E0,0E0,2.9386454E0,3.8685548E-1,3.247973E0,5.3439875E0,1.8120766E0,0E0,0E0,1.0980606E0,1.9243908E0,5.0937843E0,2.3400156E0,0E0,6.7800384E0,3.8629627E0,3.5630207E0,1.903811E0,3.0714395E0,1.7389297E0,2.9638789E0,7.672036E-2,6.4778137E0,3.15709E0,2.6981442E0,2.0989068E0,9.139219E0,4.372276E0,3.271819E0,2.5054765E0,0E0,0E0,0E0,0E0,0E0,0E0,0E0,0E0,0E0,0E0,0E0,0E0,0E0,0E0,0E0,0E0,0E0,0E0,0E0,0E0,0E0,0E0,0E0,0E0,0E0,0E0,0E0,0E0,0E0,0E0,0E0,0E0,0E0,0E0,0E0,0E0,0E0,0E0,0E0,0E0,0E0,0E0,0E0,0E0,0E0,0E0,0E0,0E0,0E0,0E0,0E0,0E0],"parents":[2147483647,0,0,1,1,2,2,3,3,4,4,5,5,6,6,7,7,8,8,9,9,10,10,11,11,12,12,13,13,14,14,15,15,16,16,17,17,18,18,19,19,20,20,21,21,22,22,23,23,24,24,25,25,26,26,27,27,28,28,29,29,30,30,31,31,35,35,36,36,37,37,38,38,39,39,42,42,43,43,44,44,45,45,47,47,48,48,49,49,50,50,51,51,52,52,53,53,54,54,55,55,56,56,57,57,58,58,59,59,60,60,61,61,62,62],"right_children":[2,4,6,8,10,12,14,16,18,20,22,24,26,28,30,32,34,36,38,40,42,44,46,48,50,52,54,56,58,60,62,64,-1,-1,-1,66,68,70,72,74,-1,-1,76,78,80,82,-1,84,86,88,90,92,94,96,98,100,102,104,106,108,110,112,114,-1,-1,-1,-1,-1,-1,-1,-1,-1,-1,-1,-1,-1,-1,-1,-1,-1,-1,-1,-1,-1,-1,-1,-1,-1,-1,-1,-1,-1,-1,-1,-1,-1,-1,-1,-1,-1,-1,-1,-1,-1,-1,-1,-1,-1,-1,-1,-1,-1,-1,-1,-1],"split_conditions":[2.93092E0,-7.852024E0,1.6237288E1,1.7632E0,1.2404759E0,1E0,-5.9804254E0,1E0,-1.777044E0,6.378567E-1,1E0,3.9102807E0,9.9679575E0,1E0,2.9875743E0,6.140351E-2,-2.4390243E-2,4.377323E-1,1.8976744E1,1.3479059E1,-7.181122E-1,1.1531234E1,1.49375E-1,1.2118485E1,2.1915216E0,-1.5599371E-1,5.1224625E-1,3.9538563E1,-1.2023026E-1,1.6965647E0,1.794918E0,1E0,1.193608E-2,1.2232198E-3,1.5625568E-2,2.2766852E0,7.068138E-2,-9.86098E0,-3.6616657E0,1E0,1.6782332E-2,7.453908E-3,2.1255556E2,1.5181447E0,9.356821E-1,-4.345804E0,-1.1369939E-2,3.4248574E0,1.3362804E-1,1.1139713E-1,3.974093E3,7.014207E0,2E0,1.226321E1,1.8091372E1,7.04708E-1,2.5963885E2,1.4152119E-1,1.1632406E0,1E0,2.2310955E-2,-4.796052E0,-2.682257E0,-8.9336345E-3,1.1660243E-2,-1.1148053E-2,6.2252204E-3,1.2666552E-3,1.9033795E-2,6.6440417E-3,-6.7449245E-3,1.1702586E-2,-1.4629842E-3,-7.0346645E-3,9.642667E-3,-1.0309651E-2,-1.3446859E-4,-9.463406E-3,5.010278E-3,-5.9997747E-3,4.7068484E-3,-7.0613413E-3,1.5887383E-2,7.4895485E-3,-5.679842E-3,1.528046E-2,-3.2658763E-3,5.041168E-3,-1.0922278E-2,7.243076E-4,-1.1105448E-2,-9.19798E-3,1.947608E-2,-9.159117E-3,1.1784776E-2,-6.765491E-3,1.6897848E-2,-1.1397349E-2,-1.9767636E-3,9.057085E-3,1.6910676E-2,1.0091837E-2,-1.233939E-2,-1.4716636E-3,2.085488E-2,-1.0193158E-2,1.2676693E-2,2.4825537E-3,1.3346167E-2,8.061444E-3,-8.16324E-3,8.497576E-3,-1.1433978E-2,1.3029943E-2,-7.5747124E-3],"split_indices":[4249,2227,2681,4249,2735,2518,2320,971,2261,3124,50,2286,3823,2517,3666,3753,2889,2821,2679,3680,2319,3677,4080,3519,3175,2888,2267,3811,2230,3593,2730,1709,0,0,0,2336,3345,2227,2372,4050,0,0,2786,2738,3580,2464,0,3501,2888,3016,2594,3162,3891,3861,2854,3737,3396,2408,3070,3414,2948,2343,2291,0,0,0,0,0,0,0,0,0,0,0,0,0,0,0,0,0,0,0,0,0,0,0,0,0,0,0,0,0,0,0,0,0,0,0,0,0,0,0,0,0,0,0,0,0,0,0,0,0,0,0,0],"split_type":[0,0,0,0,0,0,0,0,0,0,0,0,0,0,0,0,0,0,0,0,0,0,0,0,0,0,0,0,0,0,0,0,0,0,0,0,0,0,0,0,0,0,0,0,0,0,0,0,0,0,0,0,0,0,0,0,0,0,0,0,0,0,0,0,0,0,0,0,0,0,0,0,0,0,0,0,0,0,0,0,0,0,0,0,0,0,0,0,0,0,0,0,0,0,0,0,0,0,0,0,0,0,0,0,0,0,0,0,0,0,0,0,0,0,0],"sum_hessian":[9.673E3,4.611E3,5.062E3,1.049E3,3.562E3,1.826E3,3.236E3,2.93E2,7.56E2,2.367E3,1.195E3,1.135E3,6.91E2,1.902E3,1.334E3,2.83E2,1E1,1.56E2,6E2,3.07E2,2.06E3,1.119E3,7.6E1,7.54E2,3.81E2,6.07E2,8.4E1,1.761E3,1.41E2,1.028E3,3.06E2,2.78E2,5E0,5E0,5E0,1.43E2,1.3E1,1.92E2,4.08E2,3.02E2,5E0,8E0,2.052E3,5.71E2,5.48E2,5.8E1,1.8E1,4.06E2,3.48E2,1.61E2,2.2E2,2.8E1,5.79E2,5.9E1,2.5E1,1.706E3,5.5E1,4.8E1,9.3E1,8.41E2,1.87E2,2.48E2,5.8E1,2.73E2,5E0,1.16E2,2.7E1,5E0,8E0,6.4E1,1.28E2,3.07E2,1.01E2,2.89E2,1.3E1,2.025E3,2.7E1,5.5E2,2.1E1,3.99E2,1.49E2,1.1E1,4.7E1,1.52E2,2.54E2,3.19E2,2.9E1,1.17E2,4.4E1,4.1E1,1.79E2,1.5E1,1.3E1,5.73E2,6E0,1.5E1,4.4E1,2E1,5E0,3.5E2,1.356E3,2.2E1,3.3E1,2.5E1,2.3E1,8.6E1,7E0,3.06E2,5.35E2,5.5E1,1.32E2,1.9E1,2.29E2,4E1,1.8E1],"tree_param":{"num_deleted":"0","num_feature":"4336","num_nodes":"115","size_leaf_vector":"1"}},{"base_weights":[5.508469E-4,-1.2745199E-1,1.018208E-1,-6.6144457E-3,-1.5856655E-1,-4.4456452E-2,1.670401E-1,-1.7231199E-1,3.8062073E-2,-1.7992727E-1,-9.4605386E-2,5.3768888E-2,-1.1983553E-1,3.1234829E-2,2.2903597E-1,1.0900575E-2,-1.8893316E-1,-3.901715E-2,1.3460466E-1,-1.24269076E-1,-1.947204E-1,-1.1588876E-1,1.0164816E-1,-3.0369682E-2,2.504014E-1,-1.4037377E-1,1.6495307E-1,1.2136566E-1,-7.97284E-2,2.5484246E-1,-8.789582E-2,-2.1356185E-1,9.43253E-3,-9.181047E-2,1.4065145E-1,3.0847067E-1,3.315046E-2,-1.6984183E-1,-3.2413455E-3,-1.976049E-1,4.382034E-2,-1.4824502E-1,-3.0158147E-2,-6.245946E-2,2.6912373E-1,2.1074177E-1,-1.1283991E-1,4.1472578E-1,1.327949E-1,-1.7119478E-1,-8.400617E-3,-3.4099136E-2,3.691718E-1,-9.703319E-2,1.7564088E-1,-1.3397107E-1,2.344378E-1,2.6774815E-1,-1.423771E-1,-1.9201085E-1,3.0730814E-1,-1.1180312E-2,2.5960202E-3,-9.3455715E-3,1.5000912E-2,-6.119809E-3,8.9880815E-3,-4.4015218E-3,1.5274594E-2,-4.803311E-3,1.8264776E-2,1.3227549E-2,-4.0622572E-3,-9.193502E-3,4.3535507E-3,-6.3993405E-3,4.6981485E-3,-9.964368E-3,5.479663E-3,-9.178605E-3,1.6838713E-2,-8.036809E-3,7.080843E-3,-8.705634E-3,3.6203358E-3,-8.552958E-3,1.1673981E-2,1.7761746E-2,-7.534016E-3,-4.004576E-3,1.5934857E-2,-6.629323E-3,1.5225549E-2,2.3930186E-2,-9.7287875E-3,-1.4693433E-3,1.2843302E-2,-9.0143755E-3,9.560689E-3,4.1776877E-3,-8.380678E-3,-9.364016E-3,6.7247623E-3,2.3111964E-2,-3.8001467E-3,-9.265905E-3,8.329212E-3,5.522563E-3,1.825253E-2,-9.071126E-3,1.1424302E-2,1.5098902E-2,-9.590782E-3,1.45558985E-2,2.1673476E-3,-1.0912865E-2,1.245361E-2,-1.23904105E-2,1.0588724E-2,2.0260334E-2,-3.7230134E-3],"categories":[],"categories_nodes":[],"categories_segments":[],"categories_sizes":[],"default_left":[0,0,0,0,0,0,0,0,0,0,0,0,0,0,0,0,0,0,0,0,0,0,0,0,0,0,0,0,0,0,0,0,0,0,0,0,0,0,0,0,0,0,0,0,0,0,0,0,0,0,0,0,0,0,0,0,0,0,0,0,0,0,0,0,0,0,0,0,0,0,0,0,0,0,0,0,0,0,0,0,0,0,0,0,0,0,0,0,0,0,0,0,0,0,0,0,0,0,0,0,0,0,0,0,0,0,0,0,0,0,0,0,0,0,0,0,0,0,0,0,0],"id":9,"left_children":[1,3,5,7,9,11,13,15,17,19,21,23,25,27,29,-1,31,33,35,37,39,41,43,45,47,49,51,53,55,57,59,61,63,65,67,69,71,73,75,77,79,81,83,85,87,89,91,93,95,97,99,101,103,105,107,109,111,113,115,117,119,-1,-1,-1,-1,-1,-1,-1,-1,-1,-1,-1,-1,-1,-1,-1,-1,-1,-1,-1,-1,-1,-1,-1,-1,-1,-1,-1,-1,-1,-1,-1,-1,-1,-1,-1,-1,-1,-1,-1,-1,-1,-1,-1,-1,-1,-1,-1,-1,-1,-1,-1,-1,-1,-1,-1,-1,-1,-1,-1,-1],"loss_changes":[1.25519264E2,1.6075455E1,5.1610912E1,6.55465E0,4.5615234E0,1.2404529E1,3.145266E1,1.4256229E0,5.2203755E0,1.9736328E0,3.6594205E0,1.2098876E1,5.654829E0,1.1829804E1,2.1107224E1,0E0,9.0411615E-1,3.782805E0,5.434736E0,3.0197792E0,1.4201126E0,2.141306E0,2.4751558E0,1.03594265E1,3.9569445E0,3.596655E0,2.7458553E0,7.813793E0,9.205923E0,1.2365784E1,8.400927E0,4.9270582E-1,1.7067531E0,2.6517153E0,3.5648003E0,2.7960653E0,5.4546504E0,1.5144539E0,1.9396285E0,1.1315308E0,2.1743457E0,2.1595154E0,3.3112636E0,1.7423613E0,1.8582273E0,4.3034267E0,3.3912325E0,3.9295845E0,2.7542226E0,2.5383835E0,2.6028001E0,1.10731E0,1.5428901E0,3.249723E0,6.2685146E0,8.050058E0,2.5927625E0,1.2009094E1,2.5886629E0,3.8446913E0,1.7579656E0,0E0,0E0,0E0,0E0,0E0,0E0,0E0,0E0,0E0,0E0,0E0,0E0,0E0,0E0,0E0,0E0,0E0,0E0,0E0,0E0,0E0,0E0,0E0,0E0,0E0,0E0,0E0,0E0,0E0,0E0,0E0,0E0,0E0,0E0,0E0,0E0,0E0,0E0,0E0,0E0,0E0,0E0,0E0,0E0,0E0,0E0,0E0,0E0,0E0,0E0,0E0,0E0,0E0,0E0,0E0,0E0,0E0,0E0,0E0,0E0],"parents":[2147483647,0,0,1,1,2,2,3,3,4,4,5,5,6,6,7,7,8,8,9,9,10,10,11,11,12,12,13,13,14,14,16,16,17,17,18,18,19,19,20,20,21,21,22,22,23,23,24,24,25,25,26,26,27,27,28,28,29,29,30,30,31,31,32,32,33,33,34,34,35,35,36,36,37,37,38,38,39,39,40,40,41,41,42,42,43,43,44,44,45,45,46,46,47,47,48,48,49,49,50,50,51,51,52,52,53,53,54,54,55,55,56,56,57,57,58,58,59,59,60,60],"right_children":[2,4,6,8,10,12,14,16,18,20,22,24,26,28,30,-1,32,34,36,38,40,42,44,46,48,50,52,54,56,58,60,62,64,66,68,70,72,74,76,78,80,82,84,86,88,90,92,94,96,98,100,102,104,106,108,110,112,114,116,118,120,-1,-1,-1,-1,-1,-1,-1,-1,-1,-1,-1,-1,-1,-1,-1,-1,-1,-1,-1,-1,-1,-1,-1,-1,-1,-1,-1,-1,-1,-1,-1,-1,-1,-1,-1,-1,-1,-1,-1,-1,-1,-1,-1,-1,-1,-1,-1,-1,-1,-1,-1,-1,-1,-1,-1,-1,-1,-1,-1,-1],"split_conditions":[2.789E0,-7.929224E0,1.5877451E1,1.2971E0,1.2671424E0,1.9057379E1,1.1778319E1,1.530906E2,3.708611E2,4.5119536E-1,1E0,6.257277E0,1E0,9.47634E0,1E0,1.0900575E-2,6.864753E0,1E0,-1.6106241E1,6.312949E0,1E0,2.2153475E1,1.0388329E0,-3.339722E0,-1.29439E0,1.2E1,-1.5268221E-1,1.2E1,1.7109056E-3,4E0,-6.451222E-2,1.7045806E-1,-1.5794389E1,1.3098191E0,3.171554E0,1.3906696E-2,2.2160525E0,1E0,1.1336786E1,1E0,2.8710055E-1,3.338131E0,1.1649125E1,9.978914E1,5.4325037E0,1.08235165E-1,2.8867513E-1,6.9798675E0,-1.8163773E0,1.6331545E-1,-3.241036E-2,1.6336803E2,6.487508E-2,4.1198477E-1,3.0784478E0,1.4194622E0,-3.59769E0,3.0214897E-1,1.3002613E0,1.1505119E-2,7.175829E0,-1.1180312E-2,2.5960202E-3,-9.3455715E-3,1.5000912E-2,-6.119809E-3,8.9880815E-3,-4.4015218E-3,1.5274594E-2,-4.803311E-3,1.8264776E-2,1.3227549E-2,-4.0622572E-3,-9.193502E-3,4.3535507E-3,-6.3993405E-3,4.6981485E-3,-9.964368E-3,5.479663E-3,-9.178605E-3,1.6838713E-2,-8.036809E-3,7.080843E-3,-8.705634E-3,3.6203358E-3,-8.552958E-3,1.1673981E-2,1.7761746E-2,-7.534016E-3,-4.004576E-3,1.5934857E-2,-6.629323E-3,1.5225549E-2,2.3930186E-2,-9.7287875E-3,-1.4693433E-3,1.2843302E-2,-9.0143755E-3,9.560689E-3,4.1776877E-3,-8.380678E-3,-9.364016E-3,6.7247623E-3,2.3111964E-2,-3.8001467E-3,-9.265905E-3,8.329212E-3,5.522563E-3,1.825253E-2,-9.071126E-3,1.1424302E-2,1.5098902E-2,-9.590782E-3,1.45558985E-2,2.1673476E-3,-1.0912865E-2,1.245361E-2,-1.23904105E-2,1.0588724E-2,2.0260334E-2,-3.7230134E-3],"split_indices":[4249,2227,2680,4249,2736,3840,3598,2746,2573,3068,4291,2308,1375,3824,25,0,2334,47,2780,2399,660,4214,2373,2375,2845,3300,2283,3732,2922,3418,2812,3049,2497,3078,2471,2856,2418,1552,3827,1258,2821,2344,3827,2810,3599,3296,3309,3232,2413,2979,3044,2746,3025,2814,4168,3354,2266,3747,3137,3024,2432,0,0,0,0,0,0,0,0,0,0,0,0,0,0,0,0,0,0,0,0,0,0,0,0,0,0,0,0,0,0,0,0,0,0,0,0,0,0,0,0,0,0,0,0,0,0,0,0,0,0,0,0,0,0,0,0,0,0,0,0],"split_type":[0,0,0,0,0,0,0,0,0,0,0,0,0,0,0,0,0,0,0,0,0,0,0,0,0,0,0,0,0,0,0,0,0,0,0,0,0,0,0,0,0,0,0,0,0,0,0,0,0,0,0,0,0,0,0,0,0,0,0,0,0,0,0,0,0,0,0,0,0,0,0,0,0,0,0,0,0,0,0,0,0,0,0,0,0,0,0,0,0,0,0,0,0,0,0,0,0,0,0,0,0,0,0,0,0,0,0,0,0,0,0,0,0,0,0,0,0,0,0,0,0],"sum_hessian":[9.673E3,4.272E3,5.401E3,8.76E2,3.396E3,1.666E3,3.735E3,1.83E2,6.93E2,2.539E3,8.57E2,7.24E2,9.42E2,1.173E3,2.562E3,5E0,1.78E2,3.87E2,3.06E2,5.43E2,1.996E3,7.75E2,8.2E1,5.1E2,2.14E2,8.81E2,6.1E1,6.47E2,5.26E2,2.37E3,1.92E2,1.58E2,2E1,3.01E2,8.6E1,1.09E2,1.97E2,3.93E2,1.5E2,1.973E3,2.3E1,5.6E2,2.15E2,4.3E1,3.9E1,1.28E2,3.82E2,8.4E1,1.3E2,7.13E2,1.68E2,3.3E1,2.8E1,1.28E2,5.19E2,4.51E2,7.5E1,2.297E3,7.3E1,1.54E2,3.8E1,1.53E2,5E0,1.3E1,7E0,2.73E2,2.8E1,3.7E1,4.9E1,1.3E1,9.6E1,6.3E1,1.34E2,3.74E2,1.9E1,6.5E1,8.5E1,1.964E3,9E0,1.4E1,9E0,5.39E2,2.1E1,8.8E1,1.27E2,3.3E1,1E1,3.3E1,6E0,3.5E1,9.3E1,3.68E2,1.4E1,7.7E1,7E0,5.8E1,7.2E1,6.98E2,1.5E1,1.08E2,6E1,1.7E1,1.6E1,2.3E1,5E0,9.7E1,3.1E1,3.92E2,1.27E2,4.01E2,5E1,6.6E1,9E0,2.079E3,2.18E2,6.3E1,1E1,1.37E2,1.7E1,3E1,8E0],"tree_param":{"num_deleted":"0","num_feature":"4336","num_nodes":"121","size_leaf_vector":"1"}},{"base_weights":[6.117021E-4,-1.1292198E-1,1.0403945E-1,1.7496546E-3,-1.466476E-1,2.9742324E-3,1.9193462E-1,-1.267728E-1,5.206627E-2,-1.846018E-1,-1.1206023E-1,6.518158E-2,-1.19123384E-1,2.6532152E-1,9.062246E-2,-1.4907238E-1,1.3518289E-1,8.107396E-2,-1.6596149E-1,-1.9555418E-1,-4.988143E-2,-1.2631115E-1,3.7814904E-2,1.6921912E-1,-1.8397532E-2,-1.4716467E-1,6.131111E-2,2.880976E-1,-3.238668E-2,1.6554126E-1,-6.37832E-2,1.214965E-2,-1.7574637E-1,-1.1158833E-1,1.7667228E-2,-2.8022747E-2,1.3377637E-1,-2.0901833E-1,1.0229352E-2,-1.9796441E-1,1.19330965E-1,-1.2013981E-1,2.5079805E-1,-1.3401705E-1,9.766828E-2,3.0768555E-1,-2.7615355E-2,-1.657215E-2,2.3873425E-1,1.7631488E-1,-6.393824E-2,-1.6977544E-1,-1.0947199E-2,-7.073552E-2,2.6283902E-1,2.9826102E-1,-1.09477624E-1,2.3073602E-1,-1.6032463E-1,2.1659E-1,-7.720446E-2,-1.375855E-1,1.10981435E-1,-1.03424145E-2,1.0177107E-2,-9.767978E-3,4.343865E-3,-1.1792203E-3,-7.0434967E-3,-3.6206113E-3,1.4147154E-2,8.276115E-3,-9.518954E-3,5.856353E-3,-1.2313678E-2,-1.0025038E-2,1.7463636E-3,1.4371276E-2,-5.4214536E-3,8.7943515E-3,-7.7272216E-3,-6.4593167E-3,1.9506183E-2,-7.305427E-3,1.8615344E-4,-7.924008E-3,1.1315644E-2,2.1712903E-2,5.522952E-4,-8.473877E-3,5.422225E-3,-1.0088324E-2,5.001809E-3,-5.2512083E-3,1.3222282E-2,1.1626096E-2,-1.1306918E-2,-4.999581E-3,1.5770229E-2,-8.957955E-3,6.446065E-3,1.1419783E-2,-8.008304E-3,-9.614921E-3,8.14889E-3,2.0030707E-2,-4.0956205E-3,2.0948711E-3,1.5699197E-2,1.30174635E-2,-1.2941927E-2,1.9566728E-2,-3.7127554E-3,-1.16107045E-2,7.7896193E-3,1.1878219E-2,-8.415427E-3,-1.2947701E-2,3.7461033E-3,2.8023955E-3,-9.219262E-3,1.6312424E-2,-4.629602E-3],"categories":[],"categories_nodes":[],"categories_segments":[],"categories_sizes":[],"default_left":[0,0,0,0,0,0,0,0,0,0,0,0,0,0,0,0,0,0,0,0,0,0,0,0,0,0,0,0,0,0,0,0,0,0,0,0,0,0,0,0,0,0,0,0,0,0,0,0,0,0,0,0,0,0,0,0,0,0,0,0,0,0,0,0,0,0,0,0,0,0,0,0,0,0,0,0,0,0,0,0,0,0,0,0,0,0,0,0,0,0,0,0,0,0,0,0,0,0,0,0,0,0,0,0,0,0,0,0,0,0,0,0,0,0,0,0,0,0,0,0,0,0,0],"id":10,"left_children":[1,3,5,7,9,11,13,15,17,19,21,23,25,27,29,31,33,35,37,39,41,43,45,47,49,51,53,55,57,59,61,63,65,67,-1,69,71,73,-1,75,77,79,81,83,85,87,89,91,93,95,97,99,101,103,105,107,109,111,113,115,117,119,121,-1,-1,-1,-1,-1,-1,-1,-1,-1,-1,-1,-1,-1,-1,-1,-1,-1,-1,-1,-1,-1,-1,-1,-1,-1,-1,-1,-1,-1,-1,-1,-1,-1,-1,-1,-1,-1,-1,-1,-1,-1,-1,-1,-1,-1,-1,-1,-1,-1,-1,-1,-1,-1,-1,-1,-1,-1,-1,-1,-1],"loss_changes":[1.1370299E2,1.7853073E1,4.5008038E1,6.849026E0,4.5791016E0,1.7979086E1,2.0028587E1,1.8415279E0,4.880207E0,2.4492645E0,4.037163E0,1.36499E1,4.0877466E0,1.0685455E1,1.3309593E1,1.2018967E0,1.5968822E0,3.899763E0,1.6656857E0,1.3051071E0,2.9814377E0,3.028925E0,2.991321E0,9.047581E0,7.8064213E0,2.1251316E0,3.0467901E0,6.054634E0,4.089915E0,9.662521E0,4.9518037E0,2.0547523E0,1.3107734E0,2.461867E-2,0E0,3.1944513E0,4.8500834E0,1.1648791E0,0E0,9.5295334E-1,7.3010474E-1,1.2765976E0,1.6814153E0,2.7707539E0,2.156457E0,1.2150476E0,2.7748375E0,4.3119836E0,4.637665E0,4.0405684E0,9.89542E0,1.7803917E0,3.8972113E0,2.173874E0,2.3014936E0,5.6700363E0,2.5464494E0,2.104538E0,2.0216498E0,5.3666477E0,3.9125593E0,2.4802861E0,5.190646E0,0E0,0E0,0E0,0E0,0E0,0E0,0E0,0E0,0E0,0E0,0E0,0E0,0E0,0E0,0E0,0E0,0E0,0E0,0E0,0E0,0E0,0E0,0E0,0E0,0E0,0E0,0E0,0E0,0E0,0E0,0E0,0E0,0E0,0E0,0E0,0E0,0E0,0E0,0E0,0E0,0E0,0E0,0E0,0E0,0E0,0E0,0E0,0E0,0E0,0E0,0E0,0E0,0E0,0E0,0E0,0E0,0E0,0E0,0E0,0E0],"parents":[2147483647,0,0,1,1,2,2,3,3,4,4,5,5,6,6,7,7,8,8,9,9,10,10,11,11,12,12,13,13,14,14,15,15,16,16,17,17,18,18,19,19,20,20,21,21,22,22,23,23,24,24,25,25,26,26,27,27,28,28,29,29,30,30,31,31,32,32,33,33,35,35,36,36,37,37,39,39,40,40,41,41,42,42,43,43,44,44,45,45,46,46,47,47,48,48,49,49,50,50,51,51,52,52,53,53,54,54,55,55,56,56,57,57,58,58,59,59,60,60,61,61,62,62],"right_children":[2,4,6,8,10,12,14,16,18,20,22,24,26,28,30,32,34,36,38,40,42,44,46,48,50,52,54,56,58,60,62,64,66,68,-1,70,72,74,-1,76,78,80,82,84,86,88,90,92,94,96,98,100,102,104,106,108,110,112,114,116,118,120,122,-1,-1,-1,-1,-1,-1,-1,-1,-1,-1,-1,-1,-1,-1,-1,-1,-1,-1,-1,-1,-1,-1,-1,-1,-1,-1,-1,-1,-1,-1,-1,-1,-1,-1,-1,-1,-1,-1,-1,-1,-1,-1,-1,-1,-1,-1,-1,-1,-1,-1,-1,-1,-1,-1,-1,-1,-1,-1,-1,-1],"split_conditions":[2.93092E0,-7.852024E0,1.7654322E1,1.7632E0,1.445269E0,1E0,-5.9804254E0,7.005038E-1,7.019218E-1,7.486351E1,1E0,-5.0509844E0,9.9679575E0,1E0,3.2635438E-1,-1.2406363E1,1.7366242E0,1.0100358E0,7.567191E0,1.337927E0,4.282051E0,1E0,1.3020169E0,1.4252253E1,-8.7617224E-1,1.3413885E-1,4.625542E0,1E0,-1.2023026E-1,1E0,-1.0497673E-2,-2.9229715E0,-1.6725359E0,1.232953E1,1.7667228E-2,7.417164E-1,1.0399874E0,-1.0453387E-2,1.0229352E-2,1.8933702E2,5.0980206E0,-7.273023E-1,4.593069E0,1.5298506E0,-3.32E0,1.472958E2,2.4108093E2,-4.58625E0,8.145431E0,1.3759438E0,2.471638E1,4.2540293E0,-2.491965E0,-7.2812066E0,4.285227E-3,2.2330387E-1,3.791927E0,2.3811746E0,4.988013E-4,2.2762629E1,1.907E3,1E0,-3.1102934E0,-1.03424145E-2,1.0177107E-2,-9.767978E-3,4.343865E-3,-1.1792203E-3,-7.0434967E-3,-3.6206113E-3,1.4147154E-2,8.276115E-3,-9.518954E-3,5.856353E-3,-1.2313678E-2,-1.0025038E-2,1.7463636E-3,1.4371276E-2,-5.4214536E-3,8.7943515E-3,-7.7272216E-3,-6.4593167E-3,1.9506183E-2,-7.305427E-3,1.8615344E-4,-7.924008E-3,1.1315644E-2,2.1712903E-2,5.522952E-4,-8.473877E-3,5.422225E-3,-1.0088324E-2,5.001809E-3,-5.2512083E-3,1.3222282E-2,1.1626096E-2,-1.1306918E-2,-4.999581E-3,1.5770229E-2,-8.957955E-3,6.446065E-3,1.1419783E-2,-8.008304E-3,-9.614921E-3,8.14889E-3,2.0030707E-2,-4.0956205E-3,2.0948711E-3,1.5699197E-2,1.30174635E-2,-1.2941927E-2,1.9566728E-2,-3.7127554E-3,-1.16107045E-2,7.7896193E-3,1.1878219E-2,-8.415427E-3,-1.2947701E-2,3.7461033E-3,2.8023955E-3,-9.219262E-3,1.6312424E-2,-4.629602E-3],"split_indices":[4068,2227,2681,4068,2730,2518,2320,2895,3651,2759,4291,2372,3823,2517,3900,2318,2314,3087,2479,3579,2655,1375,2500,2680,2414,3759,2303,1883,2230,1552,2812,2345,2490,3860,0,3801,3109,2923,0,2701,4164,2889,3776,3087,2770,2740,2804,2772,3870,2244,2760,2275,2485,2498,2992,2946,2455,4149,2922,4207,2580,133,2233,0,0,0,0,0,0,0,0,0,0,0,0,0,0,0,0,0,0,0,0,0,0,0,0,0,0,0,0,0,0,0,0,0,0,0,0,0,0,0,0,0,0,0,0,0,0,0,0,0,0,0,0,0,0,0,0,0,0,0,0],"split_type":[0,0,0,0,0,0,0,0,0,0,0,0,0,0,0,0,0,0,0,0,0,0,0,0,0,0,0,0,0,0,0,0,0,0,0,0,0,0,0,0,0,0,0,0,0,0,0,0,0,0,0,0,0,0,0,0,0,0,0,0,0,0,0,0,0,0,0,0,0,0,0,0,0,0,0,0,0,0,0,0,0,0,0,0,0,0,0,0,0,0,0,0,0,0,0,0,0,0,0,0,0,0,0,0,0,0,0,0,0,0,0,0,0,0,0,0,0,0,0,0,0,0,0],"sum_hessian":[9.673E3,4.611E3,5.062E3,1.049E3,3.562E3,2.357E3,2.705E3,2.93E2,7.56E2,1.688E3,1.874E3,1.563E3,7.94E2,1.564E3,1.141E3,2.72E2,2.1E1,6.7E2,8.6E1,1.559E3,1.29E2,1.712E3,1.62E2,6.94E2,8.69E2,6.88E2,1.06E2,1.453E3,1.11E2,7.68E2,3.73E2,3.9E1,2.33E2,1.1E1,1E1,2.19E2,4.51E2,7.9E1,7E0,1.549E3,1E1,1.07E2,2.2E1,1.657E3,5.5E1,2.8E1,1.34E2,1.9E2,5.04E2,1.62E2,7.07E2,5.89E2,9.9E1,6.6E1,4E1,1.418E3,3.5E1,3.5E1,7.6E1,6.35E2,1.33E2,2.63E2,1.1E2,1.8E1,2.1E1,2.18E2,1.5E1,5E0,6E0,1.95E2,2.4E1,4.13E2,3.8E1,7E0,7.2E1,1.533E3,1.6E1,5E0,5E0,9E0,9.8E1,6E0,1.6E1,1.523E3,1.34E2,1.8E1,3.7E1,1.8E1,1E1,6.5E1,6.9E1,7.2E1,1.18E2,3.4E1,4.7E2,1.44E2,1.8E1,6.49E2,5.8E1,5.73E2,1.6E1,3.7E1,6.2E1,4.4E1,2.2E1,2.8E1,1.2E1,8.3E1,1.335E3,9E0,2.6E1,2.2E1,1.3E1,6.3E1,1.3E1,6.04E2,3.1E1,5.9E1,7.4E1,5.1E1,2.12E2,5.2E1,5.8E1],"tree_param":{"num_deleted":"0","num_feature":"4336","num_nodes":"123","size_leaf_vector":"1"}},{"base_weights":[6.358557E-4,-1.2393376E-1,8.595043E-2,-1.569012E-1,-4.811424E-2,-4.937343E-3,1.7407455E-1,-1.8065435E-1,-1.24235004E-1,-6.011235E-2,2.5941584E-1,4.9174577E-2,-1.2149104E-1,7.3121E-2,2.3804076E-1,-1.8352951E-1,1.1918832E-1,-1.5694061E-1,-5.832884E-2,-7.897282E-2,1.3708682E-1,3.7926325E-1,-7.498618E-3,-5.2223556E-2,1.19267814E-1,-1.4646553E-1,5.5355042E-2,1.1582488E-1,-1.2904501E-1,7.843801E-2,2.8448084E-1,-1.8686795E-1,4.0995643E-2,1.723174E-2,-6.8566375E-3,1.6189083E-2,-1.6791594E-1,5.054748E-2,-1.2865815E-1,-3.308751E-2,-1.5623185E-1,2.3456094E-1,-1.3919367E-1,2.0095767E-4,2.2562144E-2,-1.17694125E-1,9.919083E-2,-1.2849142E-2,1.6735812E-1,-1.5546963E-1,1.6015406E-1,1.9536814E-1,-9.908611E-2,-3.8118124E-2,1.6632469E-1,1.4056574E-1,-2.1132265E-1,-1.5344533E-1,1.5397432E-1,1.5288624E-1,3.2236713E-1,-9.432601E-3,9.0298755E-3,-7.464801E-3,1.2149716E-2,-6.5681115E-3,1.1218688E-2,-8.677165E-3,4.461206E-3,1.4795317E-5,1.8170524E-2,6.882192E-3,-7.853849E-3,-4.594467E-3,3.0928943E-3,-1.3219223E-3,-9.52231E-3,-1.1834776E-3,1.8679587E-2,7.2708963E-3,-1.125998E-2,1.2355487E-2,-6.892267E-3,8.555854E-3,-7.526307E-3,1.3435835E-2,-2.4979573E-3,3.1333424E-3,1.179574E-2,-8.854738E-3,-1.7259455E-3,1.7987918E-2,-8.123234E-3,1.7011626E-2,-2.771253E-3,8.378662E-3,-9.343196E-3,1.7438715E-2,-3.8940192E-3,1.1844214E-2,2.2276805E-3,-8.6928345E-3,1.6444143E-2,-1.2655064E-2,1.3288178E-2,-1.1101786E-2,3.4964064E-3,1.36501E-2,1.8036133E-3,1.1026008E-2,-1.5352046E-3,-3.445796E-3,1.6623542E-2],"categories":[],"categories_nodes":[],"categories_segments":[],"categories_sizes":[],"default_left":[0,0,0,0,0,0,0,0,0,0,0,0,0,0,0,0,0,0,0,0,0,0,0,0,0,0,0,0,0,0,0,0,0,0,0,0,0,0,0,0,0,0,0,0,0,0,0,0,0,0,0,0,0,0,0,0,0,0,0,0,0,0,0,0,0,0,0,0,0,0,0,0,0,0,0,0,0,0,0,0,0,0,0,0,0,0,0,0,0,0,0,0,0,0,0,0,0,0,0,0,0,0,0,0,0,0,0,0,0,0,0,0,0],"id":11,"left_children":[1,3,5,7,9,11,13,15,17,19,21,23,25,27,29,31,33,35,37,39,41,43,-1,45,47,49,51,53,55,57,59,61,63,-1,-1,65,67,69,71,73,75,77,79,-1,-1,81,83,85,87,89,91,93,95,97,99,101,103,105,107,109,111,-1,-1,-1,-1,-1,-1,-1,-1,-1,-1,-1,-1,-1,-1,-1,-1,-1,-1,-1,-1,-1,-1,-1,-1,-1,-1,-1,-1,-1,-1,-1,-1,-1,-1,-1,-1,-1,-1,-1,-1,-1,-1,-1,-1,-1,-1,-1,-1,-1,-1,-1,-1],"loss_changes":[1.029072E2,9.800587E0,4.6034344E1,2.0145874E0,4.5057063E0,1.790375E1,1.8756302E1,1.4680443E0,2.4761658E0,4.364763E0,2.5413446E0,1.3812243E1,4.0155134E0,9.908031E0,1.3111382E1,1.2098732E0,1.276464E0,1.4938126E0,3.064766E0,3.7354555E0,2.937057E0,9.902997E-1,0E0,7.949267E0,7.3046207E0,2.3055553E0,2.5835264E0,7.362669E0,4.6072936E0,7.282019E0,6.6337433E0,1.1805992E0,1.2192343E0,0E0,0E0,1.7139851E0,1.1380901E0,2.4992378E0,1.9395571E0,3.7801723E0,1.7244968E0,2.8445692E0,8.980885E-1,0E0,0E0,4.272308E0,4.493361E0,3.3167348E0,5.9693565E0,1.983427E0,1.9021423E0,2.3468094E0,1.5141597E0,3.781754E0,6.056225E0,3.2464483E0,3.4457192E0,1.6557238E0,4.3152127E0,3.982438E0,4.3328476E0,0E0,0E0,0E0,0E0,0E0,0E0,0E0,0E0,0E0,0E0,0E0,0E0,0E0,0E0,0E0,0E0,0E0,0E0,0E0,0E0,0E0,0E0,0E0,0E0,0E0,0E0,0E0,0E0,0E0,0E0,0E0,0E0,0E0,0E0,0E0,0E0,0E0,0E0,0E0,0E0,0E0,0E0,0E0,0E0,0E0,0E0,0E0,0E0,0E0,0E0,0E0,0E0],"parents":[2147483647,0,0,1,1,2,2,3,3,4,4,5,5,6,6,7,7,8,8,9,9,10,10,11,11,12,12,13,13,14,14,15,15,16,16,17,17,18,18,19,19,20,20,21,21,23,23,24,24,25,25,26,26,27,27,28,28,29,29,30,30,31,31,32,32,35,35,36,36,37,37,38,38,39,39,40,40,41,41,42,42,45,45,46,46,47,47,48,48,49,49,50,50,51,51,52,52,53,53,54,54,55,55,56,56,57,57,58,58,59,59,60,60],"right_children":[2,4,6,8,10,12,14,16,18,20,22,24,26,28,30,32,34,36,38,40,42,44,-1,46,48,50,52,54,56,58,60,62,64,-1,-1,66,68,70,72,74,76,78,80,-1,-1,82,84,86,88,90,92,94,96,98,100,102,104,106,108,110,112,-1,-1,-1,-1,-1,-1,-1,-1,-1,-1,-1,-1,-1,-1,-1,-1,-1,-1,-1,-1,-1,-1,-1,-1,-1,-1,-1,-1,-1,-1,-1,-1,-1,-1,-1,-1,-1,-1,-1,-1,-1,-1,-1,-1,-1,-1,-1,-1,-1,-1,-1,-1],"split_conditions":[2.6454E0,1.4E1,4.3131298E1,1.6046E0,1E0,1E0,1E0,1.6985686E0,1.6050142E0,4.043829E0,1.957733E1,2.3000412E-1,1.0111326E1,1E0,1.2966648E0,5.4537827E-1,6.0311146E0,-4.0959253E0,-8.081857E1,3.6499212E0,3.8710349E0,1.418374E0,-7.498618E-3,4.433608E-1,1.3977444E1,4.2540293E0,2.4371765E0,4.7620067E-1,2.5579065E1,-2.3808677E0,6.2515645E3,1E0,-3.8595986E-2,1.723174E-2,-6.8566375E-3,4.727388E0,1E0,1.2799747E0,-5.2734637E0,1.124901E1,-4.6031613E0,1.0610698E1,3.999E2,2.0095767E-4,2.2562144E-2,8.041413E0,3.7401503E-1,1.395503E0,1.1925636E1,3.8751446E1,6.6754483E-3,-5.7759056E1,-3.1565359E0,-6.300447E0,-3.1102934E0,7.737302E0,3.206335E0,1.0364499E0,1.0118773E0,8.549878E0,-9.825769E0,-9.432601E-3,9.0298755E-3,-7.464801E-3,1.2149716E-2,-6.5681115E-3,1.1218688E-2,-8.677165E-3,4.461206E-3,1.4795317E-5,1.8170524E-2,6.882192E-3,-7.853849E-3,-4.594467E-3,3.0928943E-3,-1.3219223E-3,-9.52231E-3,-1.1834776E-3,1.8679587E-2,7.2708963E-3,-1.125998E-2,1.2355487E-2,-6.892267E-3,8.555854E-3,-7.526307E-3,1.3435835E-2,-2.4979573E-3,3.1333424E-3,1.179574E-2,-8.854738E-3,-1.7259455E-3,1.7987918E-2,-8.123234E-3,1.7011626E-2,-2.771253E-3,8.378662E-3,-9.343196E-3,1.7438715E-2,-3.8940192E-3,1.1844214E-2,2.2276805E-3,-8.6928345E-3,1.6444143E-2,-1.2655064E-2,1.3288178E-2,-1.1101786E-2,3.4964064E-3,1.36501E-2,1.8036133E-3,1.1026008E-2,-1.5352046E-3,-3.445796E-3,1.6623542E-2],"split_indices":[4068,3732,3807,4068,312,2518,4262,2736,3772,3160,4173,2946,4179,25,2735,2956,3855,2395,2791,2670,2286,2733,0,3156,2681,2275,2228,3085,3866,4148,2592,1307,2992,0,0,4115,660,3095,2357,4197,2440,4186,2784,0,0,4116,2240,2466,3598,3804,3008,2790,2846,2827,2233,2332,3508,3580,3066,3925,2330,0,0,0,0,0,0,0,0,0,0,0,0,0,0,0,0,0,0,0,0,0,0,0,0,0,0,0,0,0,0,0,0,0,0,0,0,0,0,0,0,0,0,0,0,0,0,0,0,0,0,0,0],"split_type":[0,0,0,0,0,0,0,0,0,0,0,0,0,0,0,0,0,0,0,0,0,0,0,0,0,0,0,0,0,0,0,0,0,0,0,0,0,0,0,0,0,0,0,0,0,0,0,0,0,0,0,0,0,0,0,0,0,0,0,0,0,0,0,0,0,0,0,0,0,0,0,0,0,0,0,0,0,0,0,0,0,0,0,0,0,0,0,0,0,0,0,0,0,0,0,0,0,0,0,0,0,0,0,0,0,0,0,0,0,0,0,0,0],"sum_hessian":[9.673E3,3.931E3,5.742E3,2.736E3,1.195E3,2.829E3,2.913E3,1.571E3,1.165E3,1.154E3,4.1E1,1.934E3,8.95E2,1.134E3,1.779E3,1.558E3,1.3E1,7.74E2,3.91E2,1.056E3,9.8E1,3.2E1,9E0,7.91E2,1.143E3,7.85E2,1.1E2,9.38E2,1.96E2,4.04E2,1.375E3,1.536E3,2.2E1,6E0,7E0,4.6E1,7.28E2,1.54E2,2.37E2,6.67E2,3.89E2,7.3E1,2.5E1,6E0,2.6E1,5.53E2,2.38E2,3.06E2,8.37E2,7.65E2,2E1,5.7E1,5.3E1,2.32E2,7.06E2,4.5E1,1.51E2,9.8E1,3.06E2,3.13E2,1.062E3,1.531E3,5E0,1.2E1,1E1,2.8E1,1.8E1,7.14E2,1.4E1,1.37E2,1.7E1,2.1E1,2.16E2,4.12E2,2.55E2,8.3E1,3.06E2,2.7E1,4.6E1,5E0,2E1,2.6E1,5.27E2,1.86E2,5.2E1,3.2E1,2.74E2,3.35E2,5.02E2,6.47E2,1.18E2,1.2E1,8E0,3.5E1,2.2E1,1.2E1,4.1E1,1.8E1,2.14E2,4.44E2,2.62E2,1.7E1,2.8E1,1.41E2,1E1,7.5E1,2.3E1,1.49E2,1.57E2,2.28E2,8.5E1,2.6E1,1.036E3],"tree_param":{"num_deleted":"0","num_feature":"4336","num_nodes":"113","size_leaf_vector":"1"}},{"base_weights":[6.8680954E-4,-8.131557E-2,1.1848956E-1,-1.3425589E-1,-4.6420377E-3,-7.3292637E-3,1.8229556E-1,-1.4130843E-1,4.3074697E-2,-2.4695583E-2,1.8049487E-1,5.3451017E-2,-1.0795804E-1,2.1465433E-1,-8.610139E-3,-1.4819591E-1,3.2416582E-2,-1.045961E-1,2.1045384E-1,-1.2720503E-1,2.1080624E-2,-2.028216E-1,2.389375E-1,9.956607E-2,-1.7673306E-1,9.903783E-2,-1.3372618E-1,2.885338E-1,1.6685323E-1,-1.2750718E-1,1.3755357E-1,-1.5324974E-1,2.1113615E-2,-7.808005E-2,2.2471097E-1,9.586988E-2,-1.7279384E-1,3.1139272E-1,-5.3018726E-2,-4.2553626E-2,-2.0791277E-1,-2.5918894E-2,1.2054371E-1,3.6278924E-3,-1.3247663E-2,2.6902318E-1,-1.0059359E-1,9.969071E-3,2.0726326E-1,5.9953623E-2,-2.049626E-1,-9.23514E-2,2.994393E-1,-1.4597116E-1,1.8438874E-1,-5.7548787E-2,3.0580962E-1,1.8030979E-1,-2.1734439E-1,-1.8674813E-1,4.5960106E-2,2.4669154E-2,3.238254E-1,7.391568E-3,-7.7645183E-3,-7.7579543E-3,8.465844E-3,-6.256852E-3,1.687079E-2,1.5755014E-2,-8.887435E-3,-4.701504E-3,1.4664951E-2,-1.0120851E-2,3.3821806E-3,1.9165678E-2,-7.3185596E-3,-9.940743E-3,1.1067203E-2,1.1853736E-2,-4.2414716E-3,1.2606055E-2,-1.09384395E-2,-7.4803755E-3,6.129166E-4,-6.0902326E-3,8.546898E-3,-1.0532028E-2,1.4543155E-2,-1.3255439E-2,9.823799E-3,-7.81967E-4,2.1043835E-2,-2.1251342E-3,1.3981287E-2,-8.0408715E-3,1.1185042E-2,2.082132E-3,-1.1156904E-2,-9.568121E-3,4.8425016E-3,-6.96847E-3,2.190884E-2,-8.075081E-3,6.0459855E-3,1.5831515E-2,-2.7854906E-3,-1.1029781E-2,1.161004E-2,1.6100375E-2,1.2142443E-3,5.514666E-3,1.323113E-2,-1.3418674E-2,5.7927854E-3,4.8666596E-3,-1.0845449E-2,1.1158171E-2,-7.5044306E-3,1.1364269E-2,-4.92726E-3,1.8970532E-2,-4.219797E-3],"categories":[],"categories_nodes":[],"categories_segments":[],"categories_sizes":[],"default_left":[0,0,0,0,0,0,0,0,0,0,0,0,0,0,0,0,0,0,0,0,0,0,0,0,0,0,0,0,0,0,0,0,0,0,0,0,0,0,0,0,0,0,0,0,0,0,0,0,0,0,0,0,0,0,0,0,0,0,0,0,0,0,0,0,0,0,0,0,0,0,0,0,0,0,0,0,0,0,0,0,0,0,0,0,0,0,0,0,0,0,0,0,0,0,0,0,0,0,0,0,0,0,0,0,0,0,0,0,0,0,0,0,0,0,0,0,0,0,0,0,0,0,0],"id":12,"left_children":[1,3,5,7,9,11,13,15,17,19,21,23,25,27,29,31,33,35,37,39,41,43,45,47,49,51,53,55,57,59,61,63,65,67,69,71,73,75,77,79,81,83,85,-1,-1,87,89,91,93,95,97,99,101,103,105,107,109,111,113,115,117,119,121,-1,-1,-1,-1,-1,-1,-1,-1,-1,-1,-1,-1,-1,-1,-1,-1,-1,-1,-1,-1,-1,-1,-1,-1,-1,-1,-1,-1,-1,-1,-1,-1,-1,-1,-1,-1,-1,-1,-1,-1,-1,-1,-1,-1,-1,-1,-1,-1,-1,-1,-1,-1,-1,-1,-1,-1,-1,-1,-1,-1],"loss_changes":[9.353868E1,2.317041E1,3.1909939E1,4.2538147E0,8.698753E0,8.236853E0,1.629924E1,3.9115372E0,3.397426E0,9.928647E0,5.3723717E0,9.004541E0,2.7705064E0,7.7228546E0,6.813149E0,2.6909714E0,2.807456E0,1.0945066E0,1.7846041E0,4.4170732E0,6.8640833E0,6.60745E-1,2.188529E0,6.77316E0,1.0102224E0,2.4011948E0,1.8991547E0,5.3434067E0,7.3356857E0,2.2626102E0,3.6608417E0,1.9800949E0,2.613153E0,1.8730342E0,2.0261893E0,9.62714E-1,4.7444487E-1,1.8279004E0,1.1000552E0,3.9425461E0,1.9388275E0,4.726536E0,5.85641E0,0E0,0E0,2.25484E0,1.2378867E0,4.1262383E0,5.824929E0,8.667371E-1,6.2017775E-1,7.2959024E-1,2.1317189E0,1.9172707E0,6.9146633E-1,2.4292789E0,3.7822647E0,7.7467613E0,9.8860455E-1,1.4935994E0,2.2171597E0,2.9829903E0,1.6577148E0,0E0,0E0,0E0,0E0,0E0,0E0,0E0,0E0,0E0,0E0,0E0,0E0,0E0,0E0,0E0,0E0,0E0,0E0,0E0,0E0,0E0,0E0,0E0,0E0,0E0,0E0,0E0,0E0,0E0,0E0,0E0,0E0,0E0,0E0,0E0,0E0,0E0,0E0,0E0,0E0,0E0,0E0,0E0,0E0,0E0,0E0,0E0,0E0,0E0,0E0,0E0,0E0,0E0,0E0,0E0,0E0,0E0,0E0,0E0,0E0],"parents":[2147483647,0,0,1,1,2,2,3,3,4,4,5,5,6,6,7,7,8,8,9,9,10,10,11,11,12,12,13,13,14,14,15,15,16,16,17,17,18,18,19,19,20,20,21,21,22,22,23,23,24,24,25,25,26,26,27,27,28,28,29,29,30,30,31,31,32,32,33,33,34,34,35,35,36,36,37,37,38,38,39,39,40,40,41,41,42,42,45,45,46,46,47,47,48,48,49,49,50,50,51,51,52,52,53,53,54,54,55,55,56,56,57,57,58,58,59,59,60,60,61,61,62,62],"right_children":[2,4,6,8,10,12,14,16,18,20,22,24,26,28,30,32,34,36,38,40,42,44,46,48,50,52,54,56,58,60,62,64,66,68,70,72,74,76,78,80,82,84,86,-1,-1,88,90,92,94,96,98,100,102,104,106,108,110,112,114,116,118,120,122,-1,-1,-1,-1,-1,-1,-1,-1,-1,-1,-1,-1,-1,-1,-1,-1,-1,-1,-1,-1,-1,-1,-1,-1,-1,-1,-1,-1,-1,-1,-1,-1,-1,-1,-1,-1,-1,-1,-1,-1,-1,-1,-1,-1,-1,-1,-1,-1,-1,-1,-1,-1,-1,-1,-1,-1,-1,-1,-1,-1],"split_conditions":[3.3816E0,1.4E1,5.957865E0,1E0,7.751292E1,-5.4688325E0,1E0,8.112546E2,9.448055E0,-1.655287E0,1.3518438E-1,2.9806402E0,-1.635449E-1,-4.1463046E0,2.2977529E0,1E0,2.495E0,1.8484849E0,-1.2466321E1,8.38712E-1,7.133136E0,3.104036E-1,1.4135361E0,-2.551828E-1,-3.588687E-1,1.1311783E0,1E0,1.4632864E0,1.4154742E3,5.5957363E1,6.421473E-2,4.67859E-1,9.9541146E-1,6.1491754E-2,4.6078277E0,9.720647E0,1.5858347E0,1.3252269E-1,-2.7783623E0,2.4262295E0,1.7328095E0,-5.7474893E-1,-1.54499635E-2,3.6278924E-3,-1.3247663E-2,-8.77591E0,2.1551521E-2,6.891873E1,1.2090909E1,9.191639E-1,-1.7182236E0,1.1137577E0,-1.7700529E0,2.0304973E2,9.05291E-1,3.2797737E0,2.050263E0,2.1405685E-1,2E0,-1.9368124E0,1.3817902E0,-5.6599967E-2,1.5081303E0,7.391568E-3,-7.7645183E-3,-7.7579543E-3,8.465844E-3,-6.256852E-3,1.687079E-2,1.5755014E-2,-8.887435E-3,-4.701504E-3,1.4664951E-2,-1.0120851E-2,3.3821806E-3,1.9165678E-2,-7.3185596E-3,-9.940743E-3,1.1067203E-2,1.1853736E-2,-4.2414716E-3,1.2606055E-2,-1.09384395E-2,-7.4803755E-3,6.129166E-4,-6.0902326E-3,8.546898E-3,-1.0532028E-2,1.4543155E-2,-1.3255439E-2,9.823799E-3,-7.81967E-4,2.1043835E-2,-2.1251342E-3,1.3981287E-2,-8.0408715E-3,1.1185042E-2,2.082132E-3,-1.1156904E-2,-9.568121E-3,4.8425016E-3,-6.96847E-3,2.190884E-2,-8.075081E-3,6.0459855E-3,1.5831515E-2,-2.7854906E-3,-1.1029781E-2,1.161004E-2,1.6100375E-2,1.2142443E-3,5.514666E-3,1.323113E-2,-1.3418674E-2,5.7927854E-3,4.8666596E-3,-1.0845449E-2,1.1158171E-2,-7.5044306E-3,1.1364269E-2,-4.92726E-3,1.8970532E-2,-4.219797E-3],"split_indices":[4249,3732,4151,550,3841,2320,2518,2795,3496,2261,2314,3797,2752,2451,2657,45,4249,4143,2850,3117,4151,2307,3163,2261,2830,3091,1375,2730,2617,4183,3500,3126,3114,2985,2299,4146,3087,2959,2374,2656,2439,2964,2938,0,0,2511,2990,2765,2683,3127,2494,3087,2493,2702,3083,2431,2226,3739,2536,2463,2307,3001,2866,0,0,0,0,0,0,0,0,0,0,0,0,0,0,0,0,0,0,0,0,0,0,0,0,0,0,0,0,0,0,0,0,0,0,0,0,0,0,0,0,0,0,0,0,0,0,0,0,0,0,0,0,0,0,0,0,0,0,0,0],"split_type":[0,0,0,0,0,0,0,0,0,0,0,0,0,0,0,0,0,0,0,0,0,0,0,0,0,0,0,0,0,0,0,0,0,0,0,0,0,0,0,0,0,0,0,0,0,0,0,0,0,0,0,0,0,0,0,0,0,0,0,0,0,0,0,0,0,0,0,0,0,0,0,0,0,0,0,0,0,0,0,0,0,0,0,0,0,0,0,0,0,0,0,0,0,0,0,0,0,0,0,0,0,0,0,0,0,0,0,0,0,0,0,0,0,0,0,0,0,0,0,0,0,0,0],"sum_hessian":[9.673E3,5.704E3,3.969E3,3.372E3,2.332E3,1.337E3,2.632E3,3.244E3,1.28E2,2.108E3,2.24E2,8.35E2,5.02E2,2.25E3,3.82E2,3.121E3,1.23E2,6.9E1,5.9E1,6.48E2,1.46E3,2.8E1,1.96E2,6.98E2,1.37E2,5.4E1,4.48E2,8.74E2,1.376E3,2.11E2,1.71E2,3.031E3,9E1,8E1,4.3E1,1.7E1,5.2E1,4.2E1,1.7E1,3.2E2,3.28E2,9.94E2,4.66E2,5E0,2.3E1,1.81E2,1.5E1,3.84E2,3.14E2,1.4E1,1.23E2,2.9E1,2.5E1,4.34E2,1.4E1,4.1E1,8.33E2,1.332E3,4.4E1,1.57E2,5.4E1,1.1E2,6.1E1,1.8E1,3.013E3,4.1E1,4.9E1,7.5E1,5E0,3.6E1,7E0,1E1,7E0,4.7E1,5E0,3.7E1,5E0,1.2E1,5E0,3.9E1,2.81E2,5E0,3.23E2,2.31E2,7.63E2,7.9E1,3.87E2,6E0,1.75E2,1E1,5E0,3.66E2,1.8E1,7.1E1,2.43E2,6E0,8E0,8E0,1.15E2,1.9E1,1E1,6E0,1.9E1,4.12E2,2.2E1,8E0,6E0,2.7E1,1.4E1,7.87E2,4.6E1,7.34E2,5.98E2,3.9E1,5E0,1.4E1,1.43E2,2.8E1,2.6E1,4E1,7E1,5.4E1,7E0],"tree_param":{"num_deleted":"0","num_feature":"4336","num_nodes":"123","size_leaf_vector":"1"}},{"base_weights":[7.1712263E-4,-1.1230355E-1,7.812199E-2,-1.4186405E-1,-4.4314504E-2,-6.5656323E-3,1.5726224E-1,-1.6423285E-1,-1.11126825E-1,2.463505E-3,-1.2066353E-1,4.9764898E-2,-1.1232604E-1,2.0410836E-1,2.367029E-2,9.451958E-2,-1.6685458E-1,2.1072799E-1,-1.16502315E-1,-4.714355E-2,1.1333457E-1,-1.9150752E-1,-5.1749557E-2,1.4746864E-1,-2.016553E-2,-1.1970805E-1,1.821561E-2,2.2580606E-1,-9.552478E-2,-6.361961E-2,1.8690374E-1,1.6353931E-2,-6.930741E-3,-1.7003116E-1,4.5227658E-2,1.9003483E-2,-5.7988935E-3,-1.3978945E-1,-3.5348933E-2,-6.6211835E-2,2.1894474E-1,2.145683E-1,-3.966162E-2,-2.1307878E-1,8.0710575E-2,-1.4615913E-1,1.0601776E-1,-2.0581886E-2,2.0455615E-1,-1.0976001E-1,6.299193E-2,-1.4491263E-1,1.6420782E-2,5.2674823E-2,2.5245082E-1,-1.933101E-1,8.440778E-2,1.6847204E-1,-1.3408913E-1,-1.565323E-1,2.7956614E-1,-8.587069E-3,8.8750655E-3,1.2181061E-2,-5.120866E-3,-7.3343664E-3,1.0842058E-2,-7.1602524E-3,3.0460556E-3,-4.1098893E-3,1.0104085E-2,1.714785E-2,-8.598924E-3,-5.3741056E-3,1.4956213E-2,-5.2603157E-3,1.6251769E-2,-1.8624574E-3,-1.1387672E-2,-7.3994747E-3,1.3038791E-2,5.4649822E-3,-9.132321E-3,1.067306E-2,-5.9210337E-3,-9.581436E-3,4.3921E-3,1.2049109E-2,-8.0881565E-4,-8.366189E-3,1.1414345E-3,5.415526E-4,1.4301139E-2,-7.5995564E-3,7.827549E-3,6.038699E-3,-9.11972E-3,-2.5440992E-3,1.09977145E-2,7.0250705E-3,1.4243992E-2,1.4449431E-3,-1.2891846E-2,-7.325121E-3,1.1972648E-2,1.8525414E-2,-2.0206238E-3,-9.303744E-3,4.2486354E-3,-1.20706735E-2,9.212054E-3,1.5566406E-2,-7.814774E-3],"categories":[],"categories_nodes":[],"categories_segments":[],"categories_sizes":[],"default_left":[0,0,0,0,0,0,0,0,0,0,0,0,0,0,0,0,0,0,0,0,0,0,0,0,0,0,0,0,0,0,0,0,0,0,0,0,0,0,0,0,0,0,0,0,0,0,0,0,0,0,0,0,0,0,0,0,0,0,0,0,0,0,0,0,0,0,0,0,0,0,0,0,0,0,0,0,0,0,0,0,0,0,0,0,0,0,0,0,0,0,0,0,0,0,0,0,0,0,0,0,0,0,0,0,0,0,0,0,0,0,0,0,0],"id":13,"left_children":[1,3,5,7,9,11,13,15,17,19,21,23,25,27,29,31,33,35,37,39,41,43,45,47,49,51,-1,53,55,57,59,-1,-1,61,63,-1,-1,65,67,69,71,73,75,77,79,81,83,85,87,89,91,93,95,97,99,101,103,105,107,109,111,-1,-1,-1,-1,-1,-1,-1,-1,-1,-1,-1,-1,-1,-1,-1,-1,-1,-1,-1,-1,-1,-1,-1,-1,-1,-1,-1,-1,-1,-1,-1,-1,-1,-1,-1,-1,-1,-1,-1,-1,-1,-1,-1,-1,-1,-1,-1,-1,-1,-1,-1,-1],"loss_changes":[8.47104E1,7.879101E0,3.8522694E1,1.7933311E0,4.2872334E0,1.6595865E1,1.8569145E1,1.1479836E0,2.1470003E0,4.146205E0,2.176705E0,1.2436292E1,3.6240091E0,1.4404327E1,1.1130641E1,1.2568223E0,1.0907669E0,1.3822212E0,2.1561537E0,2.7159586E0,3.6513426E0,1.3954659E0,3.6224272E0,7.30258E0,7.961848E0,3.2954311E0,0E0,9.399467E0,2.7559881E0,8.454198E0,8.874828E0,0E0,0E0,1.0677261E0,9.156341E-1,0E0,0E0,2.360735E0,2.784816E0,2.1846278E0,2.0401597E0,4.000363E0,2.4896622E0,4.9427223E-1,1.016579E0,1.5072873E0,2.3449192E0,3.7376413E0,4.5784016E0,3.9421024E0,6.4410954E0,1.843174E0,3.30518E0,4.906378E0,6.2511063E0,1.4710996E0,2.2160883E0,5.181338E0,4.5659657E0,1.9868314E0,3.2335606E0,0E0,0E0,0E0,0E0,0E0,0E0,0E0,0E0,0E0,0E0,0E0,0E0,0E0,0E0,0E0,0E0,0E0,0E0,0E0,0E0,0E0,0E0,0E0,0E0,0E0,0E0,0E0,0E0,0E0,0E0,0E0,0E0,0E0,0E0,0E0,0E0,0E0,0E0,0E0,0E0,0E0,0E0,0E0,0E0,0E0,0E0,0E0,0E0,0E0,0E0,0E0,0E0],"parents":[2147483647,0,0,1,1,2,2,3,3,4,4,5,5,6,6,7,7,8,8,9,9,10,10,11,11,12,12,13,13,14,14,15,15,16,16,17,17,18,18,19,19,20,20,21,21,22,22,23,23,24,24,25,25,27,27,28,28,29,29,30,30,33,33,34,34,37,37,38,38,39,39,40,40,41,41,42,42,43,43,44,44,45,45,46,46,47,47,48,48,49,49,50,50,51,51,52,52,53,53,54,54,55,55,56,56,57,57,58,58,59,59,60,60],"right_children":[2,4,6,8,10,12,14,16,18,20,22,24,26,28,30,32,34,36,38,40,42,44,46,48,50,52,-1,54,56,58,60,-1,-1,62,64,-1,-1,66,68,70,72,74,76,78,80,82,84,86,88,90,92,94,96,98,100,102,104,106,108,110,112,-1,-1,-1,-1,-1,-1,-1,-1,-1,-1,-1,-1,-1,-1,-1,-1,-1,-1,-1,-1,-1,-1,-1,-1,-1,-1,-1,-1,-1,-1,-1,-1,-1,-1,-1,-1,-1,-1,-1,-1,-1,-1,-1,-1,-1,-1,-1,-1,-1,-1,-1,-1],"split_conditions":[2.6454E0,1.4E1,1.7739496E1,1.6046E0,7.5718374E-3,1E0,3.107664E-1,4.67859E-1,-1.5006812E0,4.2842207E0,-2.496279E0,-5.0509844E0,1E0,1E0,1E0,3.211577E0,5.4537827E-1,1.48678665E1,1.533925E0,1E0,8.4019864E-1,3.6407856E1,4.077081E0,1.4252253E1,2.3063958E-1,7.281539E1,1.821561E-2,-3.8997644E-1,-1.8572138E-1,1E0,4.859641E0,1.6353931E-2,-6.930741E-3,1E0,8.738646E-1,1.9003483E-2,-5.7988935E-3,1E0,1.1449547E1,1.4634018E0,6.901578E-1,1.7934782E1,2.552408E-2,-1.8638997E0,5.691125E0,-1.856622E0,6.6577363E0,-4.58625E0,4.642857E0,1.3563228E-1,5.3161607E0,1E0,5.1945E0,1.7790235E0,3.0593858E0,-5.566832E0,5.5731044E0,4.150361E0,4.521931E0,1.4115369E0,7.5E-2,-8.587069E-3,8.8750655E-3,1.2181061E-2,-5.120866E-3,-7.3343664E-3,1.0842058E-2,-7.1602524E-3,3.0460556E-3,-4.1098893E-3,1.0104085E-2,1.714785E-2,-8.598924E-3,-5.3741056E-3,1.4956213E-2,-5.2603157E-3,1.6251769E-2,-1.8624574E-3,-1.1387672E-2,-7.3994747E-3,1.3038791E-2,5.4649822E-3,-9.132321E-3,1.067306E-2,-5.9210337E-3,-9.581436E-3,4.3921E-3,1.2049109E-2,-8.0881565E-4,-8.366189E-3,1.1414345E-3,5.415526E-4,1.4301139E-2,-7.5995564E-3,7.827549E-3,6.038699E-3,-9.11972E-3,-2.5440992E-3,1.09977145E-2,7.0250705E-3,1.4243992E-2,1.4449431E-3,-1.2891846E-2,-7.325121E-3,1.1972648E-2,1.8525414E-2,-2.0206238E-3,-9.303744E-3,4.2486354E-3,