{"learner":{"attributes":{"scikit_learn":"{\"_estimator_type\": \"regressor\"}"},"feature_names":[],"feature_types":[],"gradient_booster":{"model":{"gbtree_model_param":{"num_parallel_tree":"1","num_trees":"100"},"iteration_indptr":[0,1,2,3,4,5,6,7,8,9,10,11,12,13,14,15,16,17,18,19,20,21,22,23,24,25,26,27,28,29,30,31,32,33,34,35,36,37,38,39,40,41,42,43,44,45,46,47,48,49,50,51,52,53,54,55,56,57,58,59,60,61,62,63,64,65,66,67,68,69,70,71,72,73,74,75,76,77,78,79,80,81,82,83,84,85,86,87,88,89,90,91,92,93,94,95,96,97,98,99,100],"tree_info":[0,0,0,0,0,0,0,0,0,0,0,0,0,0,0,0,0,0,0,0,0,0,0,0,0,0,0,0,0,0,0,0,0,0,0,0,0,0,0,0,0,0,0,0,0,0,0,0,0,0,0,0,0,0,0,0,0,0,0,0,0,0,0,0,0,0,0,0,0,0,0,0,0,0,0,0,0,0,0,0,0,0,0,0,0,0,0,0,0,0,0,0,0,0,0,0,0,0,0,0],"trees":[{"base_weights":[7.5715595E-1,1.675005E2,-6.294339E0,-0E0,1.0304824E1,-9.99671E0,5.706261E0,-1.2082213E-1,1.3523339E-1,1.3295042E1,-1.0891504E1,-2.064776E-1,2.3942617E1,4.6660886E0,-1.2092912E1,7.960658E-3,1.2479279E0,1.0534118E1,-4.6756787E0,7.7880687E-1,-1.2731894E1,-5.2955174E-1,1.4250637E1,-0E0,-2.657076E-1,-3.9882913E0,2.9782182E-1,-1.2958286E1,2.3523338E-1,-5.0822128E-2,-0E0,7.4447435E-1,-0E0,-0E0,-2.1629584E-1,-6.610936E-1,1.425155E-1],"categories":[],"categories_nodes":[],"categories_segments":[],"categories_sizes":[],"default_left":[0,0,0,0,0,0,0,0,0,0,0,0,0,0,0,0,0,0,0,0,0,0,0,0,0,0,0,0,0,0,0,0,0,0,0,0,0],"id":0,"left_children":[1,3,5,7,-1,9,-1,-1,-1,11,13,-1,15,17,19,-1,-1,21,23,25,27,29,31,-1,-1,33,-1,35,-1,-1,-1,-1,-1,-1,-1,-1,-1],"loss_changes":[4.636584E5,1.03282125E5,1.7889419E5,1.5053783E2,0E0,9.26034E3,0E0,0E0,0E0,4.5263877E3,7.516828E3,0E0,2.3197754E1,2.3601118E3,3.0562422E3,0E0,0E0,1.1995151E3,6.470615E1,8.742981E2,1.9948594E3,8.191489E0,1.3201025E2,0E0,0E0,3.1814056E1,0E0,1.8514961E3,0E0,0E0,0E0,0E0,0E0,0E0,0E0,0E0,0E0],"parents":[2147483647,0,0,1,1,2,2,3,3,5,5,9,9,10,10,12,12,13,13,14,14,17,17,18,18,19,19,20,20,21,21,22,22,25,25,27,27],"right_children":[2,4,6,8,-1,10,-1,-1,-1,12,14,-1,16,18,20,-1,-1,22,24,26,28,30,32,-1,-1,34,-1,36,-1,-1,-1,-1,-1,-1,-1,-1,-1],"split_conditions":[-6.192296E0,1.3895411E-3,3.5363715E0,5.8660183E1,1.0304824E1,-5.9088516E1,5.706261E0,-1.2082213E-1,1.3523339E-1,1.1490305E-2,-2.4159346E0,-2.064776E-1,-2.0497929E-1,1.029534E0,-2.165687E0,7.960658E-3,1.2479279E0,-1.6734735E0,4.305216E0,-5.1123476E0,1E0,4.565048E0,1E0,-0E0,-2.657076E-1,-8.8670164E-2,2.9782182E-1,1.8631515E-1,2.3523338E-1,-5.0822128E-2,-0E0,7.4447435E-1,-0E0,-0E0,-2.1629584E-1,-6.610936E-1,1.425155E-1],"split_indices":[2514,2999,3666,3845,0,2776,0,0,0,2952,2405,0,2992,3103,2226,0,0,2494,3859,2372,827,3846,450,0,0,2992,0,3006,0,0,0,0,0,0,0,0,0],"split_type":[0,0,0,0,0,0,0,0,0,0,0,0,0,0,0,0,0,0,0,0,0,0,0,0,0,0,0,0,0,0,0,0,0,0,0,0,0],"sum_hessian":[3.74E2,6E0,3.68E2,3E0,3E0,3.66E2,2E0,2E0,1E0,8E0,3.58E2,5E0,3E0,2.3E1,3.35E2,1E0,2E0,1.4E1,9E0,1.5E1,3.2E2,5E0,9E0,2E0,7E0,8E0,7E0,3.19E2,1E0,2E0,3E0,8E0,1E0,1E0,7E0,3.16E2,3E0],"tree_param":{"num_deleted":"0","num_feature":"4336","num_nodes":"37","size_leaf_vector":"1"}},{"base_weights":[-1.5817286E0,1.2575819E2,-8.678327E0,1.0185922E1,-0E0,-9.743362E0,2.0749586E1,-1.9952917E-1,4.033922E0,1.2807534E1,-1.0753319E1,1.3519892E0,-7.3259854E-1,2.1678562E-1,-0E0,1.0578068E0,-3.4127562E0,-1.3104931E1,-3.6989348E0,-0E0,-5.947969E-2,-1.9144207E-1,-0E0,-1.3378461E1,2.9773793E0,4.562121E0,-6.426356E0,-1.3729585E1,9.131658E-1,2.3416415E-1,-2.6307104E-2,-1.6196518E-1,7.2879996E0,-8.7155695E0,1.2640475E0,-6.951365E-1,2.8608171E-2,-2.4322232E-2,1.2508862E-1,4.6091396E-1,-5.5625718E-2,-5.740141E-1,8.516436E-2,1.9224823E-1,-1.14421785E-1],"categories":[],"categories_nodes":[],"categories_segments":[],"categories_sizes":[],"default_left":[0,0,0,0,0,0,0,0,0,0,0,0,0,0,0,0,0,0,0,0,0,0,0,0,0,0,0,0,0,0,0,0,0,0,0,0,0,0,0,0,0,0,0,0,0],"id":1,"left_children":[1,3,5,-1,7,9,11,-1,13,15,17,-1,19,-1,-1,-1,21,23,25,-1,-1,-1,-1,27,29,31,33,35,37,-1,-1,-1,39,41,43,-1,-1,-1,-1,-1,-1,-1,-1,-1,-1],"loss_changes":[3.5946712E5,2.073981E5,1.369616E4,0E0,4.5041425E2,9.783602E3,2.6231997E3,0E0,1.4037994E1,3.607776E3,5.3193164E3,0E0,1.0004494E1,0E0,0E0,0E0,3.0536804E1,1.6680742E3,2.6776147E3,0E0,0E0,0E0,0E0,1.5733047E3,1.3793216E2,9.3580524E2,1.6635024E3,8.517344E2,6.567447E1,0E0,0E0,0E0,6.214264E2,2.2232563E3,3.5110876E2,0E0,0E0,0E0,0E0,0E0,0E0,0E0,0E0,0E0,0E0],"parents":[2147483647,0,0,1,1,2,2,4,4,5,5,6,6,8,8,9,9,10,10,12,12,16,16,17,17,18,18,23,23,24,24,25,25,26,26,27,27,28,28,32,32,33,33,34,34],"right_children":[2,4,6,-1,8,10,12,-1,14,16,18,-1,20,-1,-1,-1,22,24,26,-1,-1,-1,-1,28,30,32,34,36,38,-1,-1,-1,40,42,44,-1,-1,-1,-1,-1,-1,-1,-1,-1,-1],"split_conditions":[-1.0855514E1,4.83627E0,1.22925825E1,1.0185922E1,5.1112323E0,-6.653028E-1,1.3892274E-2,-1.9952917E-1,8.133905E-2,-1.0806444E0,9.523591E0,1.3519892E0,4.8397254E-2,2.1678562E-1,-0E0,1.0578068E0,-2.1529528E-1,1E0,4.797903E0,-0E0,-5.947969E-2,-1.9144207E-1,-0E0,1E0,4.7089267E0,7.717665E-1,2.4494898E0,2.354907E0,4.416439E0,2.3416415E-1,-2.6307104E-2,-1.6196518E-1,1.9761087E0,1E0,1.5976074E0,-6.951365E-1,2.8608171E-2,-2.4322232E-2,1.2508862E-1,4.6091396E-1,-5.5625718E-2,-5.740141E-1,8.516436E-2,1.9224823E-1,-1.14421785E-1],"split_indices":[2330,3833,3538,0,2521,2888,2973,0,2974,2289,2351,0,2973,0,0,0,2974,1676,3776,0,0,0,0,615,2521,3122,3880,3574,3400,0,0,0,2222,519,2409,0,0,0,0,0,0,0,0,0,0],"split_type":[0,0,0,0,0,0,0,0,0,0,0,0,0,0,0,0,0,0,0,0,0,0,0,0,0,0,0,0,0,0,0,0,0,0,0,0,0,0,0,0,0,0,0,0,0],"sum_hessian":[3.77E2,1.1E1,3.66E2,3E0,8E0,3.6E2,6E0,5E0,3E0,1E1,3.5E2,3E0,3E0,2E0,1E0,5E0,5E0,2.55E2,9.5E1,1E0,2E0,4E0,1E0,2.53E2,2E0,2.1E1,7.4E1,2.48E2,5E0,1E0,1E0,4E0,1.7E1,5.7E1,1.7E1,2.46E2,2E0,3E0,2E0,1.4E1,3E0,4.5E1,1.2E1,1.1E1,6E0],"tree_param":{"num_deleted":"0","num_feature":"4336","num_nodes":"45","size_leaf_vector":"1"}},{"base_weights":[4.4571815E0,-6.4961696E0,1.0998776E2,-9.228323E0,6.495289E1,-4.621857E0,2.154921E2,-1.0234392E1,1.2946856E1,1.0506741E0,3.694718E0,2.1570854E-1,-7.9530983E0,1.3290874E1,6.934812E0,-1.1120321E1,-0E0,8.6495954E-1,-2.4982813E-1,-0E0,5.5434782E-2,-4.1056702E-1,-0E0,4.4002315E-1,-0E0,-1.2547898E1,-3.6331975E0,6.006708E0,-5.5967135E0,-4.8399117E-2,-0E0,-1.3108588E1,3.4303155E0,2.930785E0,-7.6593676E0,4.5057198E-1,-1.6473616E0,4.172472E-2,-3.481671E-1,-6.770371E-1,1.0111568E-1,4.0408587E-1,-1.5452799E-1,-9.982462E-2,4.077046E-1,-4.3716526E-1,8.419435E-2,-0E0,-9.1687426E-2,-0E0,1.8670794E-2],"categories":[],"categories_nodes":[],"categories_segments":[],"categories_sizes":[],"default_left":[0,0,0,0,0,0,0,0,0,0,0,0,0,0,0,0,0,0,0,0,0,0,0,0,0,0,0,0,0,0,0,0,0,0,0,0,0,0,0,0,0,0,0,0,0,0,0,0,0,0,0],"id":2,"left_children":[1,3,5,7,9,11,13,15,17,19,-1,-1,21,-1,23,25,27,-1,29,-1,-1,-1,-1,-1,-1,31,33,35,37,-1,-1,39,41,43,45,-1,47,49,-1,-1,-1,-1,-1,-1,-1,-1,-1,-1,-1,-1,-1],"loss_changes":[4.428034E5,7.376024E4,4.473736E5,9.01708E3,6.4734844E3,1.1832374E3,1.7825738E5,3.1604219E3,1.3050034E3,2.7427387E-1,0E0,0E0,3.275769E1,0E0,2.5609497E2,2.7064062E3,1.5502863E3,0E0,1.0370082E1,0E0,0E0,0E0,0E0,0E0,0E0,2.8399062E3,1.9895667E3,7.510555E2,2.4935162E2,0E0,0E0,2.0237383E3,7.849813E2,1.0222091E3,6.634314E2,0E0,5.7210274E0,1.5112011E0,0E0,0E0,0E0,0E0,0E0,0E0,0E0,0E0,0E0,0E0,0E0,0E0,0E0],"parents":[2147483647,0,0,1,1,2,2,3,3,4,4,5,5,6,6,7,7,8,8,9,9,12,12,14,14,15,15,16,16,18,18,25,25,26,26,27,27,28,28,31,31,32,32,33,33,34,34,36,36,37,37],"right_children":[2,4,6,8,10,12,14,16,18,20,-1,-1,22,-1,24,26,28,-1,30,-1,-1,-1,-1,-1,-1,32,34,36,38,-1,-1,40,42,44,46,-1,48,50,-1,-1,-1,-1,-1,-1,-1,-1,-1,-1,-1,-1,-1],"split_conditions":[4.6989675E0,9.277674E0,2.9048151E1,1.2557981E1,9.1E2,2.0127454E-1,-2.3547232E-2,1E0,2.1042751E-1,-2.8704113E-1,3.694718E0,2.1570854E-1,1.4223386E-1,1.3290874E1,-5.6925997E-2,3.81298E0,4.1830854E0,8.6495954E-1,1E0,-0E0,5.5434782E-2,-4.1056702E-1,-0E0,4.4002315E-1,-0E0,1E0,4.54E1,1.8703616E2,2.35E2,-4.8399117E-2,-0E0,1E0,8.180715E-2,5.831375E0,2E0,4.5057198E-1,2.17E2,2.77E2,-3.481671E-1,-6.770371E-1,1.0111568E-1,4.0408587E-1,-1.5452799E-1,-9.982462E-2,4.077046E-1,-4.3716526E-1,8.419435E-2,-0E0,-9.1687426E-2,-0E0,1.8670794E-2],"split_indices":[2488,3924,3862,3597,2563,4138,2309,519,3790,2985,0,0,2986,0,2985,4068,4180,0,3416,0,0,0,0,0,0,1631,4070,2700,2564,0,0,1146,2989,2719,3434,0,2563,2563,0,0,0,0,0,0,0,0,0,0,0,0,0],"split_type":[0,0,0,0,0,0,0,0,0,0,0,0,0,0,0,0,0,0,0,0,0,0,0,0,0,0,0,0,0,0,0,0,0,0,0,0,0,0,0,0,0,0,0,0,0,0,0,0,0,0,0],"sum_hessian":[3.66E2,3.4E2,2.6E1,3.36E2,4E0,1.7E1,9E0,3.27E2,9E0,2E0,2E0,3E0,1.4E1,5E0,4E0,3.01E2,2.6E1,5E0,4E0,1E0,1E0,1.3E1,1E0,2E0,2E0,2.46E2,5.5E1,1.3E1,1.3E1,2E0,2E0,2.4E2,6E0,2.1E1,3.4E1,9E0,4E0,3E0,1E1,2.35E2,5E0,3E0,3E0,1.3E1,8E0,3.2E1,2E0,1E0,3E0,2E0,1E0],"tree_param":{"num_deleted":"0","num_feature":"4336","num_nodes":"51","size_leaf_vector":"1"}},{"base_weights":[-1.2860513E0,1.11136826E2,-6.8267636E0,-2.3815921E-1,7.832313E0,-8.949688E0,3.2892768E0,6.6884494E0,-1.0351694E1,1.8732172E1,-2.0324771E0,-1.1007576E1,1.2818847E1,1.1248488E0,-0E0,-6.4886217E0,5.297038E0,-0E0,-1.1688376E1,6.868737E-1,-0E0,-3.3781108E-1,-0E0,3.030937E-1,-0E0,-3.838368E0,4.5815687E0,-1.2191493E1,-0E0,-2.3371308E-1,-0E0,-1.8905867E-2,3.0314264E-1,-6.319222E-1,-0E0,-9.648778E-2,1.2765038E-1],"categories":[],"categories_nodes":[],"categories_segments":[],"categories_sizes":[],"default_left":[0,0,0,0,0,0,0,0,0,0,0,0,0,0,0,0,0,0,0,0,0,0,0,0,0,0,0,0,0,0,0,0,0,0,0,0,0],"id":3,"left_children":[1,3,5,-1,-1,7,-1,9,11,13,15,17,19,-1,-1,21,23,25,27,-1,-1,-1,-1,-1,-1,29,31,33,35,-1,-1,-1,-1,-1,-1,-1,-1],"loss_changes":[2.5196767E5,1.091965E5,6.4667152E4,0E0,0E0,9.126186E3,0E0,4.433924E3,6.803117E3,1.1203931E3,1.335462E3,2.569914E3,1.5281665E2,0E0,0E0,3.9417175E1,6.551071E1,7.1669446E2,2.0445312E3,0E0,0E0,0E0,0E0,0E0,0E0,9.811386E1,2.1201276E2,1.6123242E3,1.6759283E2,0E0,0E0,0E0,0E0,0E0,0E0,0E0,0E0],"parents":[2147483647,0,0,1,1,2,2,5,5,7,7,8,8,9,9,10,10,11,11,12,12,15,15,16,16,17,17,18,18,25,25,26,26,27,27,28,28],"right_children":[2,4,6,-1,-1,8,-1,10,12,14,16,18,20,-1,-1,22,24,26,28,-1,-1,-1,-1,-1,-1,30,32,34,36,-1,-1,-1,-1,-1,-1,-1,-1],"split_conditions":[-2.4226944E0,1.15E2,4.2E1,-2.3815921E-1,7.832313E0,-2.1202493E0,3.2892768E0,5.379897E0,1E0,-2.5441602E-2,1.2900609E0,7.535293E0,3.590294E-2,1.1248488E0,-0E0,1.7326601E1,4.74044E-2,1.0704522E0,2.99106E1,6.868737E-1,-0E0,-3.3781108E-1,-0E0,3.030937E-1,-0E0,4.5623107E0,1.8222223E2,-1.9284573E0,1.477E3,-2.3371308E-1,-0E0,-1.8905867E-2,3.0314264E-1,-6.319222E-1,-0E0,-9.648778E-2,1.2765038E-1],"split_indices":[2299,2559,3291,0,0,2405,0,4117,717,3049,2489,2704,2984,0,0,3843,2982,3122,3881,0,0,0,0,0,0,2294,2570,2266,2567,0,0,0,0,0,0,0,0],"split_type":[0,0,0,0,0,0,0,0,0,0,0,0,0,0,0,0,0,0,0,0,0,0,0,0,0,0,0,0,0,0,0,0,0,0,0,0,0],"sum_hessian":[3.84E2,9E0,3.75E2,5E0,4E0,3.73E2,2E0,2.7E1,3.46E2,7E0,2E1,3.42E2,4E0,4E0,3E0,1.4E1,6E0,2.1E1,3.21E2,3E0,1E0,1.3E1,1E0,4E0,2E0,1.3E1,8E0,3.08E2,1.3E1,1E1,3E0,2E0,6E0,2.96E2,1.2E1,7E0,6E0],"tree_param":{"num_deleted":"0","num_feature":"4336","num_nodes":"37","size_leaf_vector":"1"}},{"base_weights":[1.0095305E0,1.5009753E2,-6.150332E0,-1.3144167E-1,9.859609E0,-9.232283E0,6.840777E0,-1.5479577E-1,1.2912144E-1,-1.0030217E1,2.8698318E0,1.9612867E1,-6.3985577E0,-1.0942588E1,-2.3757767E-2,-1.7999546E-1,6.2925963E0,3.1761312E0,3.9394257E1,4.260037E0,-8.512961E0,3.1712538E-1,-1.1511169E1,-3.152667E-1,4.3597436E0,-0E0,7.327319E0,-4.6658745E0,9.672532E0,2.1238956E0,-0E0,2.3734978E-1,-0E0,-9.538662E0,4.9794637E-2,1.3741668E-1,-1.5353355E0,-1.7241497E0,-1.236995E1,-1.1342618E0,6.8003755E0,-0E0,3.7963748E-1,-5.6586595E0,2.3590123E-2,1.3404675E1,-3.3891734E-1,-9.930669E0,-0E0,-9.142547E-2,-0E0,-3.7121174E-1,2.4540094E-1,1.9254446E-2,-6.275669E-1,-8.329032E-2,-0E0,3.558733E-1,-0E0,-2.9060313E-1,-0E0,7.041261E-1,-0E0,5.878957E-3,-6.3441195E-2,-0E0,-5.0560087E-1],"categories":[],"categories_nodes":[],"categories_segments":[],"categories_sizes":[],"default_left":[0,0,0,0,0,0,0,0,0,0,0,0,0,0,0,0,0,0,0,0,0,0,0,0,0,0,0,0,0,0,0,0,0,0,0,0,0,0,0,0,0,0,0,0,0,0,0,0,0,0,0,0,0,0,0,0,0,0,0,0,0,0,0,0,0,0,0],"id":4,"left_children":[1,3,5,7,-1,9,11,-1,-1,13,15,17,19,21,23,-1,25,27,29,31,33,35,37,-1,39,-1,41,43,45,-1,-1,-1,-1,47,-1,-1,49,51,53,55,57,-1,-1,59,-1,61,63,65,-1,-1,-1,-1,-1,-1,-1,-1,-1,-1,-1,-1,-1,-1,-1,-1,-1,-1,-1],"loss_changes":[3.960203E5,1.2250447E5,1.4828911E4,1.9771744E2,0E0,3.1695547E3,1.3730943E4,0E0,0E0,2.4075078E3,8.070646E2,1.1328742E4,1.3742572E3,1.7617656E3,1.2305525E3,0E0,1.8857037E2,2.1825535E3,2.487543E3,3.4484726E1,5.7055225E2,1.489042E2,1.6713652E3,0E0,4.6901636E2,0E0,1.7594604E1,1.8567905E2,9.980996E2,0E0,0E0,0E0,0E0,9.278369E1,0E0,0E0,1.2435616E1,1.5992705E3,6.766758E2,1.9550503E1,3.7605835E1,0E0,0E0,1.4129028E0,0E0,1.184292E2,1.9371805E1,2.859668E1,0E0,0E0,0E0,0E0,0E0,0E0,0E0,0E0,0E0,0E0,0E0,0E0,0E0,0E0,0E0,0E0,0E0,0E0,0E0],"parents":[2147483647,0,0,1,1,2,2,3,3,5,5,6,6,9,9,10,10,11,11,12,12,13,13,14,14,16,16,17,17,18,18,19,19,20,20,21,21,22,22,24,24,26,26,27,27,28,28,33,33,36,36,37,37,38,38,39,39,40,40,43,43,45,45,46,46,47,47],"right_children":[2,4,6,8,-1,10,12,-1,-1,14,16,18,20,22,24,-1,26,28,30,32,34,36,38,-1,40,-1,42,44,46,-1,-1,-1,-1,48,-1,-1,50,52,54,56,58,-1,-1,60,-1,62,64,66,-1,-1,-1,-1,-1,-1,-1,-1,-1,-1,-1,-1,-1,-1,-1,-1,-1,-1,-1],"split_conditions":[-6.192296E0,-7.9471595E-4,1.8763338E1,5.05E2,9.859609E0,1.3091762E1,1.5658499E2,-1.5479577E-1,1.2912144E-1,8.284752E-2,8.323355E-3,-3.267073E-1,-6.1124146E-1,6.169941E-2,1.2694468E0,-1.7999546E-1,-1.3196634E1,1.3653824E1,1E0,5.1065273E0,5.586508E-2,-4.0581036E0,-3.448972E0,-3.152667E-1,-5.1785374E-1,-0E0,3.97E2,5.369213E1,2.6517105E0,2.1238956E0,-0E0,2.3734978E-1,-0E0,1.7788331E-1,4.9794637E-2,1.3741668E-1,1.2266012E-2,-7.8604555E0,-1.2275561E1,2.26E2,1E0,-0E0,3.7963748E-1,1.411E3,2.3590123E-2,3.6443915E-2,4.5334766E1,-2.1046695E-1,-0E0,-9.142547E-2,-0E0,-3.7121174E-1,2.4540094E-1,1.9254446E-2,-6.275669E-1,-8.329032E-2,-0E0,3.558733E-1,-0E0,-2.9060313E-1,-0E0,7.041261E-1,-0E0,5.878957E-3,-6.3441195E-2,-0E0,-5.0560087E-1],"split_indices":[2514,3007,4220,2564,0,3677,2741,0,0,3760,2973,3658,2226,2928,2309,0,2844,3398,448,3864,2984,2263,2468,0,2819,0,2564,3867,3884,0,0,0,0,2997,0,0,3006,2848,2768,2564,2152,0,0,2564,0,3007,3864,3006,0,0,0,0,0,0,0,0,0,0,0,0,0,0,0,0,0,0,0],"split_type":[0,0,0,0,0,0,0,0,0,0,0,0,0,0,0,0,0,0,0,0,0,0,0,0,0,0,0,0,0,0,0,0,0,0,0,0,0,0,0,0,0,0,0,0,0,0,0,0,0,0,0,0,0,0,0,0,0,0,0,0,0,0,0,0,0,0,0],"sum_hessian":[3.51E2,7E0,3.44E2,4E0,3E0,2.81E2,6.3E1,3E0,1E0,2.66E2,1.5E1,3E1,3.3E1,2.42E2,2.4E1,4E0,1.1E1,2.3E1,7E0,3E0,3E1,1.1E1,2.31E2,9E0,1.5E1,2E0,9E0,1.1E1,1.2E1,6E0,1E0,2E0,1E0,2.8E1,2E0,5E0,6E0,2.2E1,2.09E2,5E0,1E1,1E0,8E0,1E1,1E0,7E0,5E0,2.6E1,2E0,5E0,1E0,1.2E1,1E1,2E0,2.07E2,4E0,1E0,9E0,1E0,9E0,1E0,6E0,1E0,2E0,3E0,1E0,2.5E1],"tree_param":{"num_deleted":"0","num_feature":"4336","num_nodes":"67","size_leaf_vector":"1"}},{"base_weights":[-1.4471335E0,7.5472016E0,-6.7181034E0,-1.0634367E1,1.6880151E0,-1.119195E1,4.1690326E0,-2.9506729E0,1.403906E1,-1.1626835E1,1.0707874E0,-7.303824E-2,7.3611126E0,-5.8450007E0,5.0544443E0,2.749911E1,-0E0,-1.1890102E1,1.448466E0,2.1622837E-1,-2.0011423E0,3.8527453E-1,-0E0,-8.3848E0,5.3398056E0,-2.265049E0,1.071269E1,1.7482287E0,1.5319365E0,4.6388316E0,-2.3993598E-1,5.070713E-2,-1.208156E1,-2.252682E-2,1.4077483E-1,-0E0,-1.0464176E-1,3.1253777E-2,-9.342614E0,3.808397E-1,-4.8805322E-2,8.162943E-2,-2.1886022E-1,5.512027E-1,-0E0,-1.9298105E-2,1.4465614E-1,-0E0,2.607312E-1,7.80506E-2,-6.1228985E-1,-0E0,-4.9483332E-1],"categories":[],"categories_nodes":[],"categories_segments":[],"categories_sizes":[],"default_left":[0,0,0,0,0,0,0,0,0,0,0,0,0,0,0,0,0,0,0,0,0,0,0,0,0,0,0,0,0,0,0,0,0,0,0,0,0,0,0,0,0,0,0,0,0,0,0,0,0,0,0,0,0],"id":5,"left_children":[1,-1,3,5,7,9,11,13,15,17,19,-1,21,23,25,27,29,31,33,-1,35,-1,-1,37,39,41,43,-1,45,47,-1,-1,49,-1,-1,-1,-1,-1,51,-1,-1,-1,-1,-1,-1,-1,-1,-1,-1,-1,-1,-1,-1],"loss_changes":[3.1232656E5,0E0,1.26141875E4,2.6663887E3,7.8012954E3,1.5739453E3,4.5406433E2,2.6202812E3,7.0752974E3,1.12E3,2.7969653E2,0E0,8.077332E0,2.7223477E3,1.6110044E3,2.7826836E3,8.463828E2,8.3109375E2,7.008237E1,0E0,8.7548065E-1,0E0,0E0,7.410293E2,4.2838E2,2.7178867E2,1.3831055E1,0E0,7.539722E1,5.341272E1,0E0,0E0,8.3575E2,0E0,0E0,0E0,0E0,0E0,3.8838135E2,0E0,0E0,0E0,0E0,0E0,0E0,0E0,0E0,0E0,0E0,0E0,0E0,0E0,0E0],"parents":[2147483647,0,0,2,2,3,3,4,4,5,5,6,6,7,7,8,8,9,9,10,10,12,12,13,13,14,14,15,15,16,16,17,17,18,18,20,20,23,23,24,24,25,25,26,26,28,28,29,29,32,32,38,38],"right_children":[2,-1,4,6,8,10,12,14,16,18,20,-1,22,24,26,28,30,32,34,-1,36,-1,-1,38,40,42,44,-1,46,48,-1,-1,50,-1,-1,-1,-1,-1,52,-1,-1,-1,-1,-1,-1,-1,-1,-1,-1,-1,-1,-1,-1],"split_conditions":[-1.08130245E1,7.5472016E0,9.495292E0,6.329407E-1,1.9630213E1,1E0,-1.7771444E-1,4.4823825E-2,9.1645867E-1,1E0,4.1286707E0,-7.303824E-2,2.4619318E2,-4.235214E0,9.674067E-1,1.5894365E0,1.4662426E-3,-2.6366584E3,2.2871217E2,2.1622837E-1,-7.966435E-2,3.8527453E-1,-0E0,-2.980249E1,1.0705564E0,1.5706065E2,3.4212277E0,1.7482287E0,-6.418827E-2,1.0616324E0,-2.3993598E-1,5.070713E-2,-2.7208647E-2,-2.252682E-2,1.4077483E-1,-0E0,-1.0464176E-1,3.1253777E-2,6.216535E0,3.808397E-1,-4.8805322E-2,8.162943E-2,-2.1886022E-1,5.512027E-1,-0E0,-1.9298105E-2,1.4465614E-1,-0E0,2.607312E-1,7.80506E-2,-6.1228985E-1,-0E0,-4.9483332E-1],"split_indices":[3873,0,2351,2887,4220,1151,3057,3027,3128,1775,2223,0,2604,2263,3155,2504,2859,2809,2604,0,3028,0,0,2773,3154,2743,3871,0,3028,3087,0,0,2921,0,0,0,0,0,2713,0,0,0,0,0,0,0,0,0,0,0,0,0,0],"split_type":[0,0,0,0,0,0,0,0,0,0,0,0,0,0,0,0,0,0,0,0,0,0,0,0,0,0,0,0,0,0,0,0,0,0,0,0,0,0,0,0,0,0,0,0,0,0,0,0,0,0,0,0,0],"sum_hessian":[3.68E2,3E0,3.65E2,2.48E2,1.17E2,2.42E2,6E0,9E1,2.7E1,2.35E2,7E0,3E0,3E0,6.9E1,2.1E1,9E0,1.8E1,2.32E2,3E0,3E0,4E0,2E0,1E0,5.9E1,1E1,1.1E1,1E1,4E0,5E0,9E0,9E0,2E0,2.3E2,1E0,2E0,1E0,3E0,5E0,5.4E1,7E0,3E0,3E0,8E0,9E0,1E0,2E0,3E0,2E0,7E0,1E0,2.29E2,3E0,5.1E1],"tree_param":{"num_deleted":"0","num_feature":"4336","num_nodes":"53","size_leaf_vector":"1"}},{"base_weights":[-1.7844914E0,-5.85878E0,5.880007E0,-8.0035305E0,3.6129856E0,-9.179379E0,1.7133871E1,-9.802089E0,2.8850217E0,1.4599326E0,-3.5064812E0,-1.0248073E1,1.6525474E0,-4.488839E0,8.80199E0,-2.030016E-1,-0E0,-1.0472488E1,3.8170927E0,2.3683622E-1,-1.0361365E-1,-0E0,-2.4052079E-1,4.88053E-1,-0E0,3.5177227E-2,-5.413918E-1,2.3788147E-1,-0E0],"categories":[],"categories_nodes":[],"categories_segments":[],"categories_sizes":[],"default_left":[0,0,0,0,0,0,0,0,0,0,0,0,0,0,0,0,0,0,0,0,0,0,0,0,0,0,0,0,0],"id":6,"left_children":[1,3,-1,5,-1,7,9,11,13,-1,15,17,19,21,23,-1,-1,25,27,-1,-1,-1,-1,-1,-1,-1,-1,-1,-1],"loss_changes":[1.9158016E5,6.8640195E4,0E0,1.266609E4,0E0,3.1166016E3,6.2611934E3,2.0586367E3,1.529011E3,0E0,5.053131E1,1.5458047E3,3.660505E2,2.7697113E1,2.2518079E2,0E0,0E0,1.5276836E3,7.414308E1,0E0,0E0,0E0,0E0,0E0,0E0,0E0,0E0,0E0,0E0],"parents":[2147483647,0,0,1,1,3,3,5,5,6,6,7,7,8,8,10,10,11,11,12,12,13,13,14,14,17,17,18,18],"right_children":[2,4,-1,6,-1,8,10,12,14,-1,16,18,20,22,24,-1,-1,26,28,-1,-1,-1,-1,-1,-1,-1,-1,-1,-1],"split_conditions":[8.277346E0,3.4977338E0,5.880007E0,2.142419E0,3.6129856E0,1.2920021E1,1.599825E0,1E0,1E0,1.4599326E0,1.35E2,1E0,-2.872382E0,1.41E2,1E0,-2.030016E-1,-0E0,-5.9757876E0,8.8E1,2.3683622E-1,-1.0361365E-1,-0E0,-2.4052079E-1,4.88053E-1,-0E0,3.5177227E-2,-5.413918E-1,2.3788147E-1,-0E0],"split_indices":[3922,3587,0,2731,0,2768,3491,1237,104,0,2559,827,2225,2559,1741,0,0,2225,2559,0,0,0,0,0,0,0,0,0,0],"split_type":[0,0,0,0,0,0,0,0,0,0,0,0,0,0,0,0,0,0,0,0,0,0,0,0,0,0,0,0,0],"sum_hessian":[3.72E2,3.69E2,3E0,3.68E2,1E0,3.58E2,1E1,3.43E2,1.5E1,4E0,6E0,3.32E2,1.1E1,7E0,8E0,5E0,1E0,3.3E2,2E0,6E0,5E0,1E0,6E0,7E0,1E0,9E0,3.21E2,1E0,1E0],"tree_param":{"num_deleted":"0","num_feature":"4336","num_nodes":"29","size_leaf_vector":"1"}},{"base_weights":[1.162391E0,-4.0926447E0,1.3278035E2,-6.0981374E0,3.354396E0,4.52892E-2,7.6198535E0,-7.2731857E0,1.6697052E1,2.7026394E-2,-0E0,-9.842111E0,-8.4633666E-1,2.771512E1,-3.4430432E0,-1.0262782E1,1.5702238E0,8.003809E0,-4.133745E0,1.4390763E0,1.2661024E-2,-1.9961824E-1,-0E0,-1.0621101E1,3.2884997E-1,3.245505E-1,-1.3732772E-1,-0E0,6.946332E-1,5.2092996E0,-6.4571953E0,-2.9587299E-2,-5.581189E-1,-1.476001E-1,1.9273742E-1,1.3766235E-1,-1.54497E-1,-1.01811886E-1,4.454374E-1,1.6011776E-1,-4.2330837E-1],"categories":[],"categories_nodes":[],"categories_segments":[],"categories_sizes":[],"default_left":[0,0,0,0,0,0,0,0,0,0,0,0,0,0,0,0,0,0,0,0,0,0,0,0,0,0,0,0,0,0,0,0,0,0,0,0,0,0,0,0,0],"id":7,"left_children":[1,3,5,7,-1,9,-1,11,13,-1,-1,15,17,19,21,23,25,27,29,-1,-1,-1,-1,31,33,-1,-1,35,-1,37,39,-1,-1,-1,-1,-1,-1,-1,-1,-1,-1],"loss_changes":[2.7024247E5,5.7156004E4,3.7463938E4,1.1164714E4,0E0,3.1892607E0,0E0,5.819492E3,5.8569688E3,0E0,0E0,1.4866934E3,3.6670654E3,7.6055664E1,4.941191E1,1.0904414E3,5.768368E2,1.6820496E3,2.3459988E3,0E0,0E0,0E0,0E0,1.1409961E3,3.1947488E2,0E0,0E0,2.9117767E2,0E0,8.666316E2,1.8568103E3,0E0,0E0,0E0,0E0,0E0,0E0,0E0,0E0,0E0,0E0],"parents":[2147483647,0,0,1,1,2,2,3,3,5,5,7,7,8,8,11,11,12,12,13,13,14,14,15,15,16,16,17,17,18,18,23,23,24,24,27,27,29,29,30,30],"right_children":[2,4,6,8,-1,10,-1,12,14,-1,-1,16,18,20,22,24,26,28,30,-1,-1,-1,-1,32,34,-1,-1,36,-1,38,40,-1,-1,-1,-1,-1,-1,-1,-1,-1,-1],"split_conditions":[7.596455E0,1E0,-1.7588235E-1,2.142419E0,3.354396E0,1.878E3,7.6198535E0,9.523591E0,1.1104962E0,2.7026394E-2,-0E0,1E0,4.54E1,2.5055556E2,-1.4448184E-1,1E0,1.13E2,1.1375922E0,-2.2699857E0,1.4390763E0,1.2661024E-2,-1.9961824E-1,-0E0,8.565205E-2,-4.0384617E-2,3.245505E-1,-1.3732772E-1,-3.0590136E0,6.946332E-1,1.0712999E0,1.0772039E4,-2.9587299E-2,-5.581189E-1,-1.476001E-1,1.9273742E-1,1.3766235E-1,-1.54497E-1,-1.01811886E-1,4.454374E-1,1.6011776E-1,-4.2330837E-1],"split_indices":[3920,535,2984,2731,0,2555,0,2351,3118,0,0,474,4070,2557,2983,1146,2560,3130,2817,0,0,0,0,2311,2998,0,0,2392,0,3065,2596,0,0,0,0,0,0,0,0,0,0],"split_type":[0,0,0,0,0,0,0,0,0,0,0,0,0,0,0,0,0,0,0,0,0,0,0,0,0,0,0,0,0,0,0,0,0,0,0,0,0,0,0,0,0],"sum_hessian":[3.71E2,3.66E2,5E0,3.65E2,1E0,2E0,3E0,3.54E2,1.1E1,1E0,1E0,2.48E2,1.06E2,5E0,6E0,2.41E2,7E0,2.4E1,8.2E1,4E0,1E0,5E0,1E0,2.34E2,7E0,2E0,5E0,1.4E1,1E1,1.3E1,6.9E1,1.4E1,2.2E2,3E0,4E0,7E0,7E0,5E0,8E0,1E1,5.9E1],"tree_param":{"num_deleted":"0","num_feature":"4336","num_nodes":"41","size_leaf_vector":"1"}},{"base_weights":[2.8727689E0,-4.2635736E0,1.6316203E2,-6.039661E0,2.36471E0,4.3036938E-2,9.285986E0,-7.293628E0,1.9712193E1,2.6903544E-2,-0E0,5.29824E-1,-8.352455E0,-8.435621E-1,1.4185182E0,8.793667E0,-5.238585E0,-8.810405E0,4.943881E0,-1.1624221E-1,3.153976E-2,5.8263135E-1,-1.0616777E0,-6.7249637E0,8.403212E-2,-9.267501E0,3.6867255E-1,-0E0,3.07597E-1,-0E0,-8.2203224E-2,-0E0,-3.459546E-1,-4.7623587E-1,1.9083665E-1,2.3147891E-1,-1.6351113E-1],"categories":[],"categories_nodes":[],"categories_segments":[],"categories_sizes":[],"default_left":[0,0,0,0,0,0,0,0,0,0,0,0,0,0,0,0,0,0,0,0,0,0,0,0,0,0,0,0,0,0,0,0,0,0,0,0,0],"id":8,"left_children":[1,3,5,7,-1,9,-1,11,13,-1,-1,15,17,19,-1,21,23,25,27,-1,-1,-1,29,31,-1,33,35,-1,-1,-1,-1,-1,-1,-1,-1,-1,-1],"loss_changes":[4.29493E5,3.5592605E4,5.6935875E4,1.290637E4,0E0,3.1624966E0,0E0,3.0217676E3,3.8961191E3,0E0,0E0,2.879676E3,2.3618496E3,6.4364586E1,0E0,9.340237E2,5.2342633E2,1.3986523E3,1.3877783E2,0E0,0E0,0E0,1.935809E1,3.688452E1,0E0,1.3999707E3,5.216058E2,0E0,0E0,0E0,0E0,0E0,0E0,0E0,0E0,0E0,0E0],"parents":[2147483647,0,0,1,1,2,2,3,3,5,5,7,7,8,8,11,11,12,12,13,13,15,15,16,16,17,17,18,18,22,22,23,23,25,25,26,26],"right_children":[2,4,6,8,-1,10,-1,12,14,-1,-1,16,18,20,-1,22,24,26,28,-1,-1,-1,30,32,-1,34,36,-1,-1,-1,-1,-1,-1,-1,-1,-1,-1],"split_conditions":[7.1657834E0,3.5284774E0,-1.02840155E-1,2.1024275E0,2.36471E0,-1.1847056E-1,9.285986E0,3.4099096E-1,-1.01828314E-1,2.6903544E-2,-0E0,1.6115938E2,1E0,-1.6329193E-1,1.4185182E0,-1.0567359E-2,-1.5688691E-2,2.180735E1,-4.64286E-2,-1.1624221E-1,3.153976E-2,5.8263135E-1,-9.8718956E-2,-3.1943473E-1,8.403212E-2,1E0,-2.4860468E0,-0E0,3.07597E-1,-0E0,-8.2203224E-2,-0E0,-3.459546E-1,-4.7623587E-1,1.9083665E-1,2.3147891E-1,-1.6351113E-1],"split_indices":[3919,3587,2990,2731,0,2990,0,4140,2990,0,0,2743,1613,2990,0,3055,2982,2852,3034,0,0,0,2990,2998,0,827,2230,0,0,0,0,0,0,0,0,0,0],"split_type":[0,0,0,0,0,0,0,0,0,0,0,0,0,0,0,0,0,0,0,0,0,0,0,0,0,0,0,0,0,0,0,0,0,0,0,0,0],"sum_hessian":[3.58E2,3.52E2,6E0,3.49E2,3E0,2E0,4E0,3.4E2,9E0,1E0,1E0,4E1,3E2,5E0,4E0,1.5E1,2.5E1,2.94E2,6E0,3E0,2E0,1.1E1,4E0,2.2E1,3E0,2.81E2,1.3E1,2E0,4E0,1E0,3E0,1E0,2.1E1,2.79E2,2E0,6E0,7E0],"tree_param":{"num_deleted":"0","num_feature":"4336","num_nodes":"37","size_leaf_vector":"1"}},{"base_weights":[6.816988E0,3.6562702E-1,1.719216E2,1.0801259E2,-4.9029737E0,9.492319E0,4.2008796E-1,7.898874E0,-0E0,-5.889039E0,2.1017061E1,-2.2423485E-1,2.991014E-1,1.0047224E1,-6.8902783E0,-8.179793E-2,1.4136171E0,-1.0029212E-1,9.1111326E-1,5.917913E0,-7.333956E0,1.64905E0,-1.2830311E-1,4.5146424E-1,-6.0790267E-2,2.3766785E0,-7.9778166E0,1.19576566E-1,-0E0,-1.4346747E-1,3.336033E-1,-4.244598E-1,1.1521298E-1],"categories":[],"categories_nodes":[],"categories_segments":[],"categories_sizes":[],"default_left":[0,0,0,0,0,0,0,0,0,0,0,0,0,0,0,0,0,0,0,0,0,0,0,0,0,0,0,0,0,0,0,0,0],"id":9,"left_children":[1,3,5,7,9,-1,-1,-1,11,13,15,-1,-1,17,19,-1,-1,21,-1,23,25,27,-1,-1,-1,29,31,-1,-1,-1,-1,-1,-1],"loss_changes":[4.247735E5,2.3091788E5,2.6032938E4,1.0277184E5,1.0977696E4,0E0,0E0,0E0,6.953189E2,6.739957E3,3.3585522E3,0E0,0E0,2.3563608E3,2.5223652E3,0E0,0E0,1.4206877E2,0E0,5.652395E2,2.4839395E3,4.2281475E1,0E0,0E0,0E0,8.8294995E2,2.0399375E3,0E0,0E0,0E0,0E0,0E0,0E0],"parents":[2147483647,0,0,1,1,2,2,3,3,4,4,8,8,9,9,10,10,13,13,14,14,17,17,19,19,20,20,21,21,25,25,26,26],"right_children":[2,4,6,8,10,-1,-1,-1,12,14,16,-1,-1,18,20,-1,-1,22,-1,24,26,28,-1,-1,-1,30,32,-1,-1,-1,-1,-1,-1],"split_conditions":[7.596455E0,-2.4226944E0,-9.413316E-2,1.0577657E0,1.9666809E0,9.492319E0,4.2008796E-1,7.898874E0,1E0,-7.128612E0,-1.5966642E-1,-2.2423485E-1,2.991014E-1,3.5788403E0,-2.8044498E-1,-8.179793E-2,1.4136171E0,1.6346477E2,9.1111326E-1,4.2655293E-2,-3.4688756E0,5.4525192E1,-1.2830311E-1,4.5146424E-1,-6.0790267E-2,7.2329247E-1,5.5052246E2,1.19576566E-1,-0E0,-1.4346747E-1,3.336033E-1,-4.244598E-1,1.1521298E-1],"split_indices":[3920,2299,3002,3066,2732,0,0,0,1264,2449,3023,0,0,2458,2966,0,0,2739,0,3012,2430,3810,0,0,0,3786,2805,0,0,0,0,0,0],"split_type":[0,0,0,0,0,0,0,0,0,0,0,0,0,0,0,0,0,0,0,0,0,0,0,0,0,0,0,0,0,0,0,0,0],"sum_hessian":[3.91E2,3.86E2,5E0,9E0,3.77E2,3E0,2E0,3E0,6E0,3.71E2,6E0,5E0,1E0,1.6E1,3.55E2,3E0,3E0,1.1E1,5E0,7E0,3.48E2,6E0,5E0,4E0,3E0,1.9E1,3.29E2,5E0,1E0,9E0,1E1,3.16E2,1.3E1],"tree_param":{"num_deleted":"0","num_feature":"4336","num_nodes":"33","size_leaf_vector":"1"}},{"base_weights":[2.7761707E0,-2.2177896E0,7.350152E0,-5.9012394E0,5.2627835E0,-6.898032E0,1.2818987E1,-8.905515E0,-2.5226004E0,1.2488703E0,-1.7204508E0,-9.359739E0,2.7920244E0,7.2670484E0,-5.1671243E0,-1.5611598E-1,4.329529E-2,1.9538283E-1,-9.737947E0,3.0256325E-1,-9.228481E-2,1.1937096E1,-1.4388222E0,-7.3958783E0,3.186639E0,-4.999497E-1,1.3061628E-1,-0E0,6.370465E-1,3.2024734E-2,-1.3242224E-1,-4.6379247E-1,8.393764E-2,-1.486232E-1,3.7123066E-1],"categories":[],"categories_nodes":[],"categories_segments":[],"categories_sizes":[],"default_left":[0,0,0,0,0,0,0,0,0,0,0,0,0,0,0,0,0,0,0,0,0,0,0,0,0,0,0,0,0,0,0,0,0,0,0],"id":10,"left_children":[1,3,-1,5,-1,7,9,11,13,-1,15,17,19,21,23,-1,-1,-1,25,-1,-1,27,29,31,33,-1,-1,-1,-1,-1,-1,-1,-1,-1,-1],"loss_changes":[2.7984866E5,1.5525377E5,0E0,7.8412783E3,0E0,2.8583008E3,4.551379E3,1.6234512E3,3.7200627E3,0E0,1.1848941E2,1.6330703E3,3.955908E2,1.5370984E3,2.3071877E3,0E0,0E0,0E0,1.0927109E3,0E0,0E0,2.74083E2,8.4831215E1,1.7670933E3,1.022177E3,0E0,0E0,0E0,0E0,0E0,0E0,0E0,0E0,0E0,0E0],"parents":[2147483647,0,0,1,1,3,3,5,5,6,6,7,7,8,8,10,10,11,11,12,12,13,13,14,14,18,18,21,21,22,22,23,23,24,24],"right_children":[2,4,-1,6,-1,8,10,12,14,-1,16,18,20,22,24,-1,-1,-1,26,-1,-1,28,30,32,34,-1,-1,-1,-1,-1,-1,-1,-1,-1,-1],"split_conditions":[7.1657834E0,3.5770993E0,7.350152E0,1.370202E0,5.2627835E0,8E0,1.7605152E-3,1E0,4.1165993E-2,1.2488703E0,6.572684E4,-4.678687E-1,3.7229367E-2,5.594936E0,-3.41538E0,-1.5611598E-1,4.329529E-2,1.9538283E-1,1E0,3.0256325E-1,-9.228481E-2,-1.6654687E-1,2.3070581E-2,9.214092E-2,-1.6720827E0,-4.999497E-1,1.3061628E-1,-0E0,6.370465E-1,3.2024734E-2,-1.3242224E-1,-4.6379247E-1,8.393764E-2,-1.486232E-1,3.7123066E-1],"split_indices":[3919,3666,0,3324,0,3300,3053,1046,3346,0,2598,2977,3029,2272,2447,0,0,0,975,0,0,3026,3053,4083,2345,0,0,0,0,0,0,0,0,0,0],"split_type":[0,0,0,0,0,0,0,0,0,0,0,0,0,0,0,0,0,0,0,0,0,0,0,0,0,0,0,0,0,0,0,0,0,0,0],"sum_hessian":[3.72E2,3.69E2,3E0,3.66E2,3E0,3.54E2,1.2E1,2.34E2,1.2E2,3E0,9E0,2.28E2,6E0,2.1E1,9.9E1,7E0,2E0,3E0,2.25E2,3E0,3E0,1.2E1,9E0,8E1,1.9E1,2.23E2,2E0,1E0,1.1E1,2E0,7E0,6.7E1,1.3E1,8E0,1.1E1],"tree_param":{"num_deleted":"0","num_feature":"4336","num_nodes":"35","size_leaf_vector":"1"}},{"base_weights":[2.1422617E0,-3.1785648E0,1.1442744E2,3.1989534E0,-5.2420015E0,7.724922E0,2.7476132E0,-6.2264786E0,1.4076665E1,-1.00227736E-1,3.2197255E-1,8.7678003E-1,-7.1716046E0,9.503684E-1,-1.2510928E0,-3.6757808E0,1.1820798E1,-8.695108E0,-2.7285042E0,-0E0,-7.3929906E-2,-6.0564575E0,3.5018969E0,6.5059775E-1,-0E0,-8.96529E0,1.5155183E-1,1.206498E0,-7.104806E0,1.50548415E-2,-3.3957443E-1,-2.7139751E-2,3.067895E-1,2.0558892E-2,-4.614667E-1,3.24825E-1,-1.9234876E-1,-4.136017E-1,2.3337403E-2],"categories":[],"categories_nodes":[],"categories_segments":[],"categories_sizes":[],"default_left":[0,0,0,0,0,0,0,0,0,0,0,0,0,0,0,0,0,0,0,0,0,0,0,0,0,0,0,0,0,0,0,0,0,0,0,0,0,0,0],"id":11,"left_children":[1,3,5,-1,7,-1,9,11,13,-1,-1,15,17,-1,19,21,23,25,27,-1,-1,29,31,-1,-1,33,-1,35,37,-1,-1,-1,-1,-1,-1,-1,-1,-1,-1],"loss_changes":[2.3775512E5,5.570226E4,7.4734734E4,0E0,8.025116E3,0E0,4.3659476E2,2.6030996E3,2.0024717E3,0E0,0E0,3.0569458E3,1.8687754E3,0E0,6.5080166E0,9.724089E2,3.6312354E2,1.0851094E3,1.8667781E3,0E0,0E0,2.5825378E2,2.596873E2,0E0,0E0,7.1041797E2,0E0,1.880387E3,5.585486E2,0E0,0E0,0E0,0E0,0E0,0E0,0E0,0E0,0E0,0E0],"parents":[2147483647,0,0,1,1,2,2,4,4,6,6,7,7,8,8,11,11,12,12,14,14,15,15,16,16,17,17,18,18,21,21,22,22,25,25,27,27,28,28],"right_children":[2,4,6,-1,8,-1,10,12,14,-1,-1,16,18,-1,20,22,24,26,28,-1,-1,30,32,-1,-1,34,-1,36,38,-1,-1,-1,-1,-1,-1,-1,-1,-1,-1],"split_conditions":[3.4813058E0,-1.08130245E1,5.3783027E-3,3.1989534E0,8.5516E2,7.724922E0,-1.0349346E-1,8.8166964E-1,-3.370147E-2,-1.00227736E-1,3.2197255E-1,1.8460054E1,9.35175E0,9.503684E-1,1.2356077E1,9.044562E-1,1E0,1E0,2.9527473E0,-0E0,-7.3929906E-2,8.192855E-1,9.1349506E-1,6.5059775E-1,-0E0,-2.4321625E0,1.5155183E-1,-7.738168E-2,3.577608E1,1.50548415E-2,-3.3957443E-1,-2.7139751E-2,3.067895E-1,2.0558892E-2,-4.614667E-1,3.24825E-1,-1.9234876E-1,-4.136017E-1,2.3337403E-2],"split_indices":[3587,3873,3869,0,3768,0,3033,2311,3058,0,0,4217,2351,0,3856,3794,1327,1775,4168,0,0,3151,3065,0,0,3582,0,2959,4174,0,0,0,0,0,0,0,0,0,0],"split_type":[0,0,0,0,0,0,0,0,0,0,0,0,0,0,0,0,0,0,0,0,0,0,0,0,0,0,0,0,0,0,0,0,0,0,0,0,0,0,0],"sum_hessian":[3.8E2,3.72E2,8E0,2E0,3.7E2,3E0,5E0,3.59E2,1.1E1,3E0,2E0,4.1E1,3.18E2,7E0,4E0,3.3E1,8E0,2.28E2,9E1,1E0,3E0,2.7E1,6E0,7E0,1E0,2.26E2,2E0,5E1,4E1,2E0,2.5E1,4E0,2E0,5E0,2.21E2,2.4E1,2.6E1,3.5E1,5E0],"tree_param":{"num_deleted":"0","num_feature":"4336","num_nodes":"39","size_leaf_vector":"1"}},{"base_weights":[6.238563E0,-2.5510612E-1,1.778258E2,1.2754066E2,-5.7717223E0,9.243664E0,3.4640282E-1,7.711202E0,1.9798435E0,-7.841548E0,-1.0289237E0,-1.0075205E-1,2.7235663E-1,3.6540598E-1,-8.349572E0,-3.4293854E0,3.9967966E0,-8.62634E0,2.3361711E-1,3.4120123E0,-5.222971E0,-1.9359504E-1,7.098702E0,1.3938335E0,-9.010338E0,-1.8886356E0,6.7836924E0,-7.4769197E0,-4.3429297E-1,1.0612865E1,-1.1049522E0,-5.2721597E-2,2.0629855E-1,-4.6377602E-1,2.8640447E-2,-1.0180801E-1,-0E0,-0E0,3.6726084E-1,-3.9335915E-1,-0E0,-1.3864928E-1,1.5096596E-1,-0E0,6.4093035E-1,-1.4262019E-1,4.2114165E-2],"categories":[],"categories_nodes":[],"categories_segments":[],"categories_sizes":[],"default_left":[0,0,0,0,0,0,0,0,0,0,0,0,0,0,0,0,0,0,0,0,0,0,0,0,0,0,0,0,0,0,0,0,0,0,0,0,0,0,0,0,0,0,0,0,0,0,0],"id":12,"left_children":[1,3,5,7,9,-1,-1,-1,11,13,15,-1,-1,-1,17,19,21,23,-1,25,27,-1,29,31,33,35,37,39,41,43,45,-1,-1,-1,-1,-1,-1,-1,-1,-1,-1,-1,-1,-1,-1,-1,-1],"loss_changes":[4.278655E5,2.726337E5,2.1354062E3,4.8990797E4,3.4824492E3,0E0,0E0,0E0,3.241513E2,2.5908906E3,1.6514617E3,0E0,0E0,0E0,1.354416E3,1.3252163E3,1.3810726E3,1.1713809E3,0E0,6.06E2,7.3030396E2,0E0,1.2501897E3,1.879339E2,7.6277344E2,5.1181107E0,8.88548E1,1.8161475E2,3.8010864E2,7.3819507E2,1.0877782E2,0E0,0E0,0E0,0E0,0E0,0E0,0E0,0E0,0E0,0E0,0E0,0E0,0E0,0E0,0E0,0E0],"parents":[2147483647,0,0,1,1,2,2,3,3,4,4,8,8,9,9,10,10,14,14,15,15,16,16,17,17,19,19,20,20,22,22,23,23,24,24,25,25,26,26,27,27,28,28,29,29,30,30],"right_children":[2,4,6,8,10,-1,-1,-1,12,14,16,-1,-1,-1,18,20,22,24,-1,26,28,-1,30,32,34,36,38,40,42,44,46,-1,-1,-1,-1,-1,-1,-1,-1,-1,-1,-1,-1,-1,-1,-1,-1],"split_conditions":[7.006412E0,-2.4226944E0,3.2960823E3,4.305216E0,9.495292E0,9.243664E0,3.4640282E-1,7.711202E0,6.1161487E2,1.3085178E-1,1.1435579E0,-1.0075205E-1,2.7235663E-1,3.6540598E-1,1E0,-5.863734E-2,-4.361762E0,-3.329456E-1,2.3361711E-1,-3.019068E-1,1.0162746E0,-1.9359504E-1,2.9403236E0,6.3154407E0,2.3309116E0,1.252447E3,-6.0785707E-2,7.978311E0,1.0932772E0,-2.2322898E-1,-1.0765324E-1,-5.2721597E-2,2.0629855E-1,-4.6377602E-1,2.8640447E-2,-1.0180801E-1,-0E0,-0E0,3.6726084E-1,-3.9335915E-1,-0E0,-1.3864928E-1,1.5096596E-1,-0E0,6.4093035E-1,-1.4262019E-1,4.2114165E-2],"split_indices":[3919,2299,2610,3860,2351,0,0,0,2610,2313,3138,0,0,0,1676,2969,2451,2311,0,2900,3074,0,4168,3870,3574,2610,3028,3923,3066,2961,3042,0,0,0,0,0,0,0,0,0,0,0,0,0,0,0,0],"split_type":[0,0,0,0,0,0,0,0,0,0,0,0,0,0,0,0,0,0,0,0,0,0,0,0,0,0,0,0,0,0,0,0,0,0,0,0,0,0,0,0,0,0,0,0,0,0,0],"sum_hessian":[3.72E2,3.68E2,4E0,6E0,3.62E2,3E0,1E0,3E0,3E0,2.46E2,1.16E2,2E0,1E0,3E0,2.43E2,8.2E1,3.4E1,2.42E2,1E0,1.4E1,6.8E1,8E0,2.6E1,7E0,2.35E2,6E0,8E0,4.1E1,2.7E1,1.7E1,9E0,5E0,2E0,2.3E2,5E0,5E0,1E0,1E0,7E0,3.9E1,2E0,1.9E1,8E0,4E0,1.3E1,5E0,4E0],"tree_param":{"num_deleted":"0","num_feature":"4336","num_nodes":"47","size_leaf_vector":"1"}},{"base_weights":[2.008083E0,-2.2288125E0,6.9433565E0,-4.300722E0,6.0395584E1,-5.3688393E0,2.1516441E1,3.4583614E0,1.1919221E0,-5.913578E0,1.23818865E1,1.3599306E0,-3.846958E-1,-0E0,1.0351067E-1,-7.476994E0,-1.6785946E0,7.6803225E-1,-8.177789E-2,-6.2304944E-2,-0E0,-7.9503303E0,3.6557882E0,3.498122E0,-6.1359134E0,-1.2847545E-2,-0E0,-4.188028E-1,4.5513045E-2,3.6806256E-1,-8.409952E-2,6.227112E-1,-6.1280545E-2,1.9774385E-1,-3.7815434E-1],"categories":[],"categories_nodes":[],"categories_segments":[],"categories_sizes":[],"default_left":[0,0,0,0,0,0,0,0,0,0,0,0,0,0,0,0,0,0,0,0,0,0,0,0,0,0,0,0,0,0,0,0,0,0,0],"id":13,"left_children":[1,3,-1,5,7,9,11,-1,13,15,17,-1,19,-1,-1,21,23,-1,25,-1,-1,27,29,31,33,-1,-1,-1,-1,-1,-1,-1,-1,-1,-1],"loss_changes":[2.317656E5,5.263982E4,0E0,1.1665527E4,5.2230664E3,4.3419424E3,2.488352E3,0E0,3.0095478E1,2.2724463E3,6.8511816E2,0E0,1.6709267E1,0E0,0E0,1.7563701E3,2.9176357E3,0E0,6.4601E-1,0E0,0E0,1.1429863E3,5.1685016E2,2.7609944E3,1.3000806E3,0E0,0E0,0E0,0E0,0E0,0E0,0E0,0E0,0E0,0E0],"parents":[2147483647,0,0,1,1,3,3,4,4,5,5,6,6,8,8,9,9,10,10,12,12,15,15,16,16,18,18,21,21,22,22,23,23,24,24],"right_children":[2,4,-1,6,8,10,12,-1,14,16,18,-1,20,-1,-1,22,24,-1,26,-1,-1,28,30,32,34,-1,-1,-1,-1,-1,-1,-1,-1,-1,-1],"split_conditions":[1.2741302E2,1E0,6.9433565E0,2.142419E0,1.86E2,1E0,-1.0991212E-1,3.4583614E0,4.07E2,9.523591E0,4.841701E2,1.3599306E0,3.43E2,-0E0,1.0351067E-1,6.329407E-1,7.136992E1,7.6803225E-1,1.125E3,-6.2304944E-2,-0E0,4.0378797E-1,2.790356E-1,-8.9379646E-2,-7.325926E-1,-1.2847545E-2,-0E0,-4.188028E-1,4.5513045E-2,3.6806256E-1,-8.409952E-2,6.227112E-1,-6.1280545E-2,1.9774385E-1,-3.7815434E-1],"split_indices":[3849,1804,0,2731,2555,235,3027,0,2555,2351,2568,0,2555,0,0,2887,4119,0,2555,0,0,2382,2989,3042,2871,0,0,0,0,0,0,0,0,0,0],"split_type":[0,0,0,0,0,0,0,0,0,0,0,0,0,0,0,0,0,0,0,0,0,0,0,0,0,0,0,0,0,0,0,0,0,0,0],"sum_hessian":[3.82E2,3.8E2,2E0,3.77E2,3E0,3.7E2,7E0,1E0,2E0,3.66E2,4E0,4E0,3E0,1E0,1E0,2.6E2,1.06E2,2E0,2E0,2E0,1E0,2.53E2,7E0,4.9E1,5.7E1,1E0,1E0,2.43E2,1E1,3E0,4E0,1.2E1,3.7E1,4E0,5.3E1],"tree_param":{"num_deleted":"0","num_feature":"4336","num_nodes":"35","size_leaf_vector":"1"}},{"base_weights":[3.5591903E0,-3.9326227E0,8.433504E1,-4.8559637E0,1.8906273E1,4.2294855E0,1.7118536E2,7.243472E0,-5.913799E0,1.3031119E0,-1.7604759E-2,-4.750588E0,1.342282E1,3.6775823E0,9.588696E0,-1.6248493E-1,1.3653415E1,2.6236825E0,-6.733517E0,-6.1785735E-2,1.9092124E-2,-0E0,-2.7127013E-1,6.9351953E-1,-0E0,2.682881E-1,-2.2238169E-2,-0E0,7.625815E-1,8.956288E0,-3.8577406E0,2.5865188E0,-7.124842E0,-0E0,5.656707E-1,-0E0,-2.343339E-1,-2.1553472E-2,2.1726277E-1,-1.7776232E0,-7.8934894E0,-0E0,-5.086268E-3,2.2560023E-1,-2.5998768E-1,-4.1322327E-1,-0E0],"categories":[],"categories_nodes":[],"categories_segments":[],"categories_sizes":[],"default_left":[0,0,0,0,0,0,0,0,0,0,0,0,0,0,0,0,0,0,0,0,0,0,0,0,0,0,0,0,0,0,0,0,0,0,0,0,0,0,0,0,0,0,0,0,0,0,0],"id":14,"left_children":[1,3,5,7,9,11,13,15,17,-1,19,21,23,25,-1,-1,27,29,31,-1,-1,-1,-1,-1,-1,-1,-1,-1,-1,33,35,37,39,41,-1,-1,-1,-1,-1,43,45,-1,-1,-1,-1,-1,-1],"loss_changes":[2.4255269E5,8.580172E3,2.2755016E5,5.0739795E3,2.431732E3,3.0359758E3,4.617275E4,2.7673325E3,2.6041953E3,0E0,2.0069195E1,1.1477011E2,1.5278076E1,1.5658607E2,0E0,0E0,5.9729443E2,1.8740907E3,1.3785254E3,0E0,0E0,0E0,0E0,0E0,0E0,0E0,0E0,0E0,0E0,5.391481E2,1.0409204E2,1.5870865E2,1.0206699E3,1.3452463E-1,0E0,0E0,0E0,0E0,0E0,1.3822587E3,8.251621E2,0E0,0E0,0E0,0E0,0E0,0E0],"parents":[2147483647,0,0,1,1,2,2,3,3,4,4,5,5,6,6,7,7,8,8,10,10,11,11,12,12,13,13,16,16,17,17,18,18,29,29,30,30,31,31,32,32,33,33,39,39,40,40],"right_children":[2,4,6,8,10,12,14,16,18,-1,20,22,24,26,-1,-1,28,30,32,-1,-1,-1,-1,-1,-1,-1,-1,-1,-1,34,36,38,40,42,-1,-1,-1,-1,-1,44,46,-1,-1,-1,-1,-1,-1],"split_conditions":[2.664614E0,2.142419E0,2.0823102E0,-1.8214912E1,1.9773492E-1,9.952856E0,4.483031E0,9.872192E-1,-2.2223926E0,1.3031119E0,3.3E1,3.453032E0,4E0,5.9E1,9.588696E0,-1.6248493E-1,-8.374656E-2,7.263093E-1,6.5344E0,-6.1785735E-2,1.9092124E-2,-0E0,-2.7127013E-1,6.9351953E-1,-0E0,2.682881E-1,-2.2238169E-2,-0E0,7.625815E-1,4.335879E-2,1E0,4.9001613E0,-3.0592945E0,3.3E1,5.656707E-1,-0E0,-2.343339E-1,-2.1553472E-2,2.1726277E-1,-2.9986742E-1,2.4305556E-2,-0E0,-5.086268E-3,2.2560023E-1,-2.5998768E-1,-4.1322327E-1,-0E0],"split_indices":[2841,2731,3570,2474,2980,2394,3823,3159,2219,0,2533,3816,4256,2533,0,0,2981,3132,2892,0,0,0,0,0,0,0,0,0,0,4131,120,2218,2489,2533,0,0,0,0,0,2872,4088,0,0,0,0,0,0],"split_type":[0,0,0,0,0,0,0,0,0,0,0,0,0,0,0,0,0,0,0,0,0,0,0,0,0,0,0,0,0,0,0,0,0,0,0,0,0,0,0,0,0,0,0,0,0,0,0],"sum_hessian":[3.84E2,3.6E2,2.4E1,3.54E2,6E0,1.8E1,6E0,2.3E1,3.31E2,2E0,4E0,1.1E1,7E0,2E0,4E0,1E1,1.3E1,2.6E1,3.05E2,2E0,2E0,1E0,1E1,6E0,1E0,1E0,1E0,2E0,1.1E1,1.2E1,1.4E1,9E0,2.96E2,4E0,8E0,3E0,1.1E1,4E0,5E0,4.3E1,2.53E2,1E0,3E0,1.3E1,3E1,2.42E2,1.1E1],"tree_param":{"num_deleted":"0","num_feature":"4336","num_nodes":"47","size_leaf_vector":"1"}},{"base_weights":[3.1065326E0,-1.9600816E0,1.2022205E2,3.0963628E0,-3.9951549E0,7.4864397E0,-4.9698066E-2,-4.7966466E0,1.4975195E1,-5.664457E0,2.5945296E0,1.0624889E0,-8.3348614E-1,-6.3931756E0,1.3736037E0,-5.986773E0,1.0585266E1,-6.8963446E-2,-0E0,-7.004707E0,6.622004E-1,-2.6580381E0,5.5933867E0,-0E0,-3.194104E-1,-2.2915216E-1,8.337669E-1,-3.7242267E-1,2.1696856E-2,2.996095E-1,-1.597271E-1,-1.9636455E-1,3.8267102E-2,-0E0,3.5207906E-1,1.105029E-1,-1.3463952E-1],"categories":[],"categories_nodes":[],"categories_segments":[],"categories_sizes":[],"default_left":[0,0,0,0,0,0,0,0,0,0,0,0,0,0,0,0,0,0,0,0,0,0,0,0,0,0,0,0,0,0,0,0,0,0,0,0,0],"id":15,"left_children":[1,3,5,-1,7,-1,-1,9,11,13,15,-1,17,19,21,23,25,-1,-1,27,29,31,33,-1,-1,35,-1,-1,-1,-1,-1,-1,-1,-1,-1,-1,-1],"loss_changes":[2.2902316E5,5.0520535E4,6.020264E4,0E0,6.272622E3,0E0,0E0,2.5188262E3,2.067556E3,1.8356338E3,3.6968215E3,0E0,1.5005188E1,1.4171289E3,8.245088E2,9.331995E1,1.9809092E3,0E0,0E0,1.0300127E3,8.772042E2,1.7030505E2,2.2251599E2,0E0,0E0,1.7851686E2,0E0,0E0,0E0,0E0,0E0,0E0,0E0,0E0,0E0,0E0,0E0],"parents":[2147483647,0,0,1,1,2,2,4,4,7,7,8,8,9,9,10,10,12,12,13,13,14,14,15,15,16,16,19,19,20,20,21,21,22,22,25,25],"right_children":[2,4,6,-1,8,-1,-1,10,12,14,16,-1,18,20,22,24,26,-1,-1,28,30,32,34,-1,-1,36,-1,-1,-1,-1,-1,-1,-1,-1,-1,-1,-1],"split_conditions":[1E0,-1.08130245E1,3.6844446E2,3.0963628E0,1.22925825E1,7.4864397E0,-4.9698066E-2,2.850097E0,4.9839787E0,6.2290606E0,-1.233521E0,1.0624889E0,9.665781E0,2.01202E0,-2.3768883E-2,-3.9523926E-1,9.345206E0,-6.8963446E-2,-0E0,1.4142135E0,1.6944444E0,5.2E2,5.4688263E0,-0E0,-3.194104E-1,3.2746184E0,8.337669E-1,-3.7242267E-1,2.1696856E-2,2.996095E-1,-1.597271E-1,-1.9636455E-1,3.8267102E-2,-0E0,3.5207906E-1,1.105029E-1,-1.3463952E-1],"split_indices":[1142,4230,2550,0,3538,0,0,2913,3824,3599,2244,0,3824,2284,3007,2978,3328,0,0,3891,4074,2560,3678,0,0,3867,0,0,0,0,0,0,0,0,0,0,0],"split_type":[0,0,0,0,0,0,0,0,0,0,0,0,0,0,0,0,0,0,0,0,0,0,0,0,0,0,0,0,0,0,0,0,0,0,0,0,0],"sum_hessian":[3.7E2,3.64E2,6E0,2E0,3.62E2,3E0,3E0,3.55E2,7E0,3.21E2,3.4E1,3E0,4E0,2.93E2,2.8E1,1.7E1,1.7E1,3E0,1E0,2.71E2,2.2E1,1.5E1,1.3E1,1E0,1.6E1,9E0,8E0,2.57E2,1.4E1,8E0,1.4E1,1.2E1,3E0,4E0,9E0,3E0,6E0],"tree_param":{"num_deleted":"0","num_feature":"4336","num_nodes":"37","size_leaf_vector":"1"}},{"base_weights":[3.6940289E0,-8.4271383E-1,1.356301E2,-4.276671E0,4.398784E1,7.362437E0,-0E0,-5.1582856E0,1.7607573E1,2.3571064E0,4.834895E0,-5.7856236E0,1.2460905E1,1.274924E0,-1.0186156E0,9.16495E0,-2.6023427E-1,-0E0,-6.4887342E0,7.026364E-1,-0E0,-1.0161245E-1,1.0530631E-2,4.951199E-1,-0E0,3.778011E0,-3.1927085E0,-1.2016861E0,-7.327528E0,1.3885065E-3,-0E0,3.0773365E-1,-7.798837E-2,-2.0302637E-1,3.658886E-2,-2.9647207E-1,2.7277163E-1,-3.8451287E-1,1.6495222E-1],"categories":[],"categories_nodes":[],"categories_segments":[],"categories_sizes":[],"default_left":[0,0,0,0,0,0,0,0,0,0,0,0,0,0,0,0,0,0,0,0,0,0,0,0,0,0,0,0,0,0,0,0,0,0,0,0,0,0,0],"id":16,"left_children":[1,3,5,7,9,-1,-1,11,13,15,-1,17,19,-1,21,23,-1,25,27,-1,-1,-1,29,-1,-1,31,33,35,37,-1,-1,-1,-1,-1,-1,-1,-1,-1,-1],"loss_changes":[2.3413358E5,6.0599453E4,2.1044453E4,7.845164E3,5.8172215E4,0E0,0E0,4.633337E3,2.856171E3,1.8550763E3,0E0,1.463792E3,4.3559595E2,0E0,3.5035667E1,1.5504382E2,0E0,7.01376E2,1.2324678E3,0E0,0E0,0E0,7.1522505E-3,0E0,0E0,4.8447223E2,1.685795E2,2.122191E3,1.3383516E3,0E0,0E0,0E0,0E0,0E0,0E0,0E0,0E0,0E0,0E0],"parents":[2147483647,0,0,1,1,2,2,3,3,4,4,7,7,8,8,9,9,11,11,12,12,14,14,15,15,17,17,18,18,22,22,25,25,26,26,27,27,28,28],"right_children":[2,4,6,8,10,-1,-1,12,14,16,-1,18,20,-1,22,24,-1,26,28,-1,-1,-1,30,-1,-1,32,34,36,38,-1,-1,-1,-1,-1,-1,-1,-1,-1,-1],"split_conditions":[6.408475E0,2.664614E0,1.6575555E3,1.9690374E0,1.8367562E0,7.362437E0,-0E0,1.2191535E5,-1.1295006E-1,-2.3147187E0,4.834895E0,1.5722856E2,2.1158333E3,1.274924E0,-1.8763098E-1,1.4653559E-1,-2.6023427E-1,-3.43863E0,4.276316E-2,7.026364E-1,-0E0,-1.0161245E-1,3.9722223E2,4.951199E-1,-0E0,4.285714E0,1E0,1.8772686E0,1E0,1.3885065E-3,-0E0,3.0773365E-1,-7.798837E-2,-2.0302637E-1,3.658886E-2,-2.9647207E-1,2.7277163E-1,-3.8451287E-1,1.6495222E-1],"split_indices":[2845,2841,2572,2732,3502,0,0,2528,3006,2216,0,2744,2572,0,3020,3005,0,2392,4084,0,0,0,2572,0,0,2660,992,3871,1689,0,0,0,0,0,0,0,0,0,0],"split_type":[0,0,0,0,0,0,0,0,0,0,0,0,0,0,0,0,0,0,0,0,0,0,0,0,0,0,0,0,0,0,0,0,0,0,0,0,0,0,0],"sum_hessian":[3.77E2,3.74E2,3E0,3.56E2,1.8E1,2E0,1E0,3.5E2,6E0,1.6E1,2E0,3.45E2,5E0,2E0,4E0,8E0,8E0,3.8E1,3.07E2,4E0,1E0,2E0,2E0,7E0,1E0,1.7E1,2.1E1,4.7E1,2.6E2,1E0,1E0,1.2E1,5E0,1.9E1,2E0,2.9E1,1.8E1,2.55E2,5E0],"tree_param":{"num_deleted":"0","num_feature":"4336","num_nodes":"39","size_leaf_vector":"1"}},{"base_weights":[6.4845653E0,3.671566E-1,1.4938919E2,6.948535E1,-3.0994675E0,3.466455E0,8.981397E0,-3.2807752E-1,6.0073667E0,-4.158124E0,1.9769363E1,-9.6698475E-1,3.0303514E-1,8.092023E0,-4.681452E0,-0E0,1.3055198E0,-0E0,-5.1930517E-2,4.7790954E-1,-0E0,-5.757953E0,-1.2589796E-1,-5.8352597E-2,1.7948397E-2,-6.159607E0,3.1779275E0,-3.8920438E0,5.930846E0,-2.5621383E-2,-3.4622714E-1,3.197027E-1,-5.306671E-2,1.6894598E-1,-2.7166376E-1,-1.6369559E-3,4.8265687E-1],"categories":[],"categories_nodes":[],"categories_segments":[],"categories_sizes":[],"default_left":[0,0,0,0,0,0,0,0,0,0,0,0,0,0,0,0,0,0,0,0,0,0,0,0,0,0,0,0,0,0,0,0,0,0,0,0,0],"id":17,"left_children":[1,3,5,7,9,11,-1,-1,-1,13,15,17,-1,19,21,23,-1,-1,-1,-1,-1,25,27,-1,-1,29,31,33,35,-1,-1,-1,-1,-1,-1,-1,-1],"loss_changes":[3.406427E5,9.5305766E4,6.2542688E4,8.222045E4,9.793182E3,2.5906198E2,0E0,0E0,0E0,2.7103198E3,2.5096401E3,6.451111E-1,0E0,2.830891E2,1.7042778E3,1.7890419E1,0E0,0E0,0E0,0E0,0E0,1.2664131E3,2.0581003E3,0E0,0E0,1.1083115E3,3.6660156E2,8.4288495E2,8.541035E2,0E0,0E0,0E0,0E0,0E0,0E0,0E0,0E0],"parents":[2147483647,0,0,1,1,2,2,3,3,4,4,5,5,9,9,10,10,11,11,13,13,14,14,15,15,21,21,22,22,25,25,26,26,27,27,28,28],"right_children":[2,4,6,8,10,12,-1,-1,-1,14,16,18,-1,20,22,24,-1,-1,-1,-1,-1,26,28,-1,-1,30,32,34,36,-1,-1,-1,-1,-1,-1,-1,-1],"split_conditions":[7.596455E0,-2.4226944E0,-2.350107E-2,5.001082E0,2.1198738E0,1.1046111E3,8.981397E0,-3.2807752E-1,6.0073667E0,-3.3120592E0,-1.3693318E0,9.7653705E2,3.0303514E-1,8.66578E0,2.8371713E0,2.0693816E-1,1.3055198E0,-0E0,-5.1930517E-2,4.7790954E-1,-0E0,1E0,1E0,-5.8352597E-2,1.7948397E-2,4.113E1,-1.6578135E-1,-2.345867E1,1.060733E0,-2.5621383E-2,-3.4622714E-1,3.197027E-1,-5.306671E-2,1.6894598E-1,-2.7166376E-1,-1.6369559E-3,4.8265687E-1],"split_indices":[3920,2299,2996,3851,2731,2575,0,0,0,2405,2407,2575,0,3872,3666,2989,0,0,0,0,0,825,4044,0,0,4071,3002,2855,3130,0,0,0,0,0,0,0,0],"split_type":[0,0,0,0,0,0,0,0,0,0,0,0,0,0,0,0,0,0,0,0,0,0,0,0,0,0,0,0,0,0,0,0,0,0,0,0,0],"sum_hessian":[3.82E2,3.76E2,6E0,9E0,3.67E2,3E0,3E0,7E0,2E0,3.59E2,8E0,2E0,1E0,8E0,3.51E2,4E0,4E0,1E0,1E0,6E0,2E0,2.8E2,7.1E1,2E0,2E0,2.72E2,8E0,4.7E1,2.4E1,3.6E1,2.36E2,3E0,5E0,5E0,4.2E1,1.2E1,1.2E1],"tree_param":{"num_deleted":"0","num_feature":"4336","num_nodes":"37","size_leaf_vector":"1"}},{"base_weights":[4.3318233E0,1.6761783E2,-1.7397014E0,8.930769E0,6.659059E-2,-3.1587129E0,4.0198944E1,-4.0430136E0,1.257426E1,2.8635476E-2,2.109527E0,-8.345149E-1,-6.251215E0,1.1831956E0,-1.1051127E0,3.749996E0,-4.7050595E0,-6.8903217E0,3.980349E0,-1.266332E-1,7.327291E-1,7.8549604E0,-3.057312E0,-6.377206E0,3.6682143E0,-7.3097806E0,-0E0,-0E0,2.8959492E-1,-0E0,4.10853E-2,-1.4316575E-1,6.152114E-1,1.2346538E-1,-2.3055187E-1,3.856587E-2,-3.4333453E-1,3.986814E-1,-1.3515185E-1,-0E0,-3.855848E-1,2.1361962E-1,-1.697843E-1,-0E0,-5.502E-3],"categories":[],"categories_nodes":[],"categories_segments":[],"categories_sizes":[],"default_left":[0,0,0,0,0,0,0,0,0,0,0,0,0,0,0,0,0,0,0,0,0,0,0,0,0,0,0,0,0,0,0,0,0,0,0,0,0,0,0,0,0,0,0,0,0],"id":18,"left_children":[1,3,5,-1,-1,7,9,11,13,-1,-1,15,17,-1,19,21,23,25,27,-1,29,31,33,35,37,39,41,43,-1,-1,-1,-1,-1,-1,-1,-1,-1,-1,-1,-1,-1,-1,-1,-1,-1],"loss_changes":[3.8725334E5,2.1424031E4,2.363273E4,0E0,0E0,5.6959697E3,3.566914E2,2.4771743E3,3.8244895E3,0E0,0E0,3.0783523E3,1.7027178E3,0E0,8.6405556E1,2.495684E3,1.5771455E3,5.858154E2,1.8446799E2,0E0,1.1228142E0,2.9742078E3,4.444046E2,4.043423E2,8.4428436E2,5.170752E2,4.6309897E2,1.5741444E-1,0E0,0E0,0E0,0E0,0E0,0E0,0E0,0E0,0E0,0E0,0E0,0E0,0E0,0E0,0E0,0E0,0E0],"parents":[2147483647,0,0,1,1,2,2,5,5,6,6,7,7,8,8,11,11,12,12,14,14,15,15,16,16,17,17,18,18,20,20,21,21,22,22,23,23,24,24,25,25,26,26,27,27],"right_children":[2,4,6,-1,-1,8,10,12,14,-1,-1,16,18,-1,20,22,24,26,28,-1,30,32,34,36,38,40,42,44,-1,-1,-1,-1,-1,-1,-1,-1,-1,-1,-1,-1,-1,-1,-1,-1,-1],"split_conditions":[-6.192296E0,1E0,3.5284774E0,8.930769E0,6.659059E-2,3.393113E-1,9.73E2,-4.414121E0,-1.3535032E-1,2.8635476E-2,2.109527E0,1.6666667E-1,1.4985907E-1,1.1831956E0,2.1306433E-2,-2.0052344E-2,1.0800647E-1,1E0,-1.020409E-2,-1.266332E-1,1E0,1.3768581E0,-2.5122336E-1,3.6764707E-2,8.637128E3,-2.9228392E0,-5.180157E-2,7.68E2,2.8959492E-1,-0E0,4.10853E-2,-1.4316575E-1,6.152114E-1,1.2346538E-1,-2.3055187E-1,3.856587E-2,-3.4333453E-1,3.986814E-1,-1.3515185E-1,-0E0,-3.855848E-1,2.1361962E-1,-1.697843E-1,-0E0,-5.502E-3],"split_indices":[2514,2167,3666,0,0,3325,2578,2386,2999,0,0,4067,2975,0,3011,2889,2993,2011,3015,0,862,3575,3018,4084,2590,2836,3024,2578,0,0,0,0,0,0,0,0,0,0,0,0,0,0,0,0,0],"split_type":[0,0,0,0,0,0,0,0,0,0,0,0,0,0,0,0,0,0,0,0,0,0,0,0,0,0,0,0,0,0,0,0,0,0,0,0,0,0,0,0,0,0,0,0,0],"sum_hessian":[3.76E2,4E0,3.72E2,3E0,1E0,3.69E2,3E0,3.57E2,1.2E1,1E0,2E0,1.53E2,2.04E2,3E0,9E0,6.9E1,8.4E1,1.96E2,8E0,6E0,3E0,4.3E1,2.6E1,7.3E1,1.1E1,1.84E2,1.2E1,4E0,4E0,1E0,2E0,1.3E1,3E1,3E0,2.3E1,3E0,7E1,6E0,5E0,1.1E1,1.73E2,4E0,8E0,1E0,3E0],"tree_param":{"num_deleted":"0","num_feature":"4336","num_nodes":"45","size_leaf_vector":"1"}},{"base_weights":[1.5308082E0,1.1024468E2,-3.5057244E0,7.214657E0,-0E0,-4.706312E0,8.975958E0,-1.7931055E-1,2.0440702E-1,-6.3165517E0,5.6896918E-2,2.0815886E1,-1.061126E0,-7.8929585E-1,-7.248649E0,5.258346E0,-4.157814E0,1.1827536E0,-0E0,-3.8682775E0,1.8973976E-1,-2.7804546E0,5.043711E0,-7.546853E0,2.4898388E0,-1.4610459E0,1.1890541E1,7.502081E-1,-6.3273954E0,-0E0,-2.0102556E-1,9.138888E-1,-3.9646466E0,2.648291E-1,-0E0,-0E0,-7.909801E0,1.7853896E-1,-2.188375E-3,-3.2582867E0,2.0813515E0,1.4018835E1,-0E0,-1.3678937E0,1.8704359E-1,-6.45845E0,-0E0,6.015991E-2,-0E0,-2.2026439E-1,-0E0,7.628203E-2,-3.3712074E-2,-4.044949E-1,-0E0,4.948389E-3,-2.0679234E-1,1.214995E-1,-0E0,7.294573E-1,-0E0,-7.786355E-2,-0E0,-3.2779178E-1,-0E0],"categories":[],"categories_nodes":[],"categories_segments":[],"categories_sizes":[],"default_left":[0,0,0,0,0,0,0,0,0,0,0,0,0,0,0,0,0,0,0,0,0,0,0,0,0,0,0,0,0,0,0,0,0,0,0,0,0,0,0,0,0,0,0,0,0,0,0,0,0,0,0,0,0,0,0,0,0,0,0,0,0,0,0,0,0],"id":19,"left_children":[1,3,5,-1,7,9,11,-1,-1,13,15,17,19,21,23,25,27,-1,-1,29,-1,31,33,35,37,39,41,43,45,-1,-1,47,49,-1,-1,51,53,-1,-1,55,57,59,-1,61,-1,63,-1,-1,-1,-1,-1,-1,-1,-1,-1,-1,-1,-1,-1,-1,-1,-1,-1,-1,-1],"loss_changes":[2.1026014E5,6.4050516E4,5.894351E3,0E0,3.5103363E2,2.6969688E3,4.5777725E3,0E0,0E0,1.1916084E3,2.312285E3,1.0273184E3,5.2920465E2,6.9832776E2,8.715586E2,2.4171086E3,7.1019666E2,0E0,0E0,1.2658051E1,0E0,2.636066E2,1.1167511E1,6.4305664E2,7.243575E1,2.8331506E2,6.476011E2,2.3326419E2,2.8665283E1,0E0,0E0,7.5170126E0,8.1929504E1,0E0,0E0,3.565918E1,3.3180273E2,0E0,0E0,1.24009125E2,1.7687569E1,1.4609619E2,0E0,6.2290115E0,0E0,8.984619E0,0E0,0E0,0E0,0E0,0E0,0E0,0E0,0E0,0E0,0E0,0E0,0E0,0E0,0E0,0E0,0E0,0E0,0E0,0E0],"parents":[2147483647,0,0,1,1,2,2,4,4,5,5,6,6,9,9,10,10,11,11,12,12,13,13,14,14,15,15,16,16,19,19,21,21,22,22,23,23,24,24,25,25,26,26,27,27,28,28,31,31,32,32,35,35,36,36,39,39,40,40,41,41,43,43,45,45],"right_children":[2,4,6,-1,8,10,12,-1,-1,14,16,18,20,22,24,26,28,-1,-1,30,-1,32,34,36,38,40,42,44,46,-1,-1,48,50,-1,-1,52,54,-1,-1,56,58,60,-1,62,-1,64,-1,-1,-1,-1,-1,-1,-1,-1,-1,-1,-1,-1,-1,-1,-1,-1,-1,-1,-1],"split_conditions":[-2.4226944E0,-1.2249207E-1,2.0135412E0,7.214657E0,5.26895E2,-5.463596E-1,5.729416E-4,-1.7931055E-1,2.0440702E-1,4.54E1,-4.258145E0,4.8146896E-2,4.7383726E-1,8.277778E0,1E0,1.2926295E0,-9.8059386E-2,1.1827536E0,-0E0,-2.1366613E1,1.8973976E-1,3.1290278E-2,1.0295016E3,-4.5342678E-1,8.18144E2,-1.7631512E0,4.079903E0,2.4565792E-1,1E0,-0E0,-2.0102556E-1,4.437385E1,-5.66743E-1,2.648291E-1,-0E0,-1.1778559E-1,1.5785458E1,1.7853896E-1,-2.188375E-3,-1.0912737E1,1E0,1.1371256E0,-0E0,-3.818246E-2,1.8704359E-1,1.3230929E3,-0E0,6.015991E-2,-0E0,-2.2026439E-1,-0E0,7.628203E-2,-3.3712074E-2,-4.044949E-1,-0E0,4.948389E-3,-2.0679234E-1,1.214995E-1,-0E0,7.294573E-1,-0E0,-7.786355E-2,-0E0,-3.2779178E-1,-0E0],"split_indices":[2299,2224,3320,0,2627,2424,2859,0,0,4070,2386,3022,3743,4126,975,2373,2994,0,0,2220,0,2919,2627,3659,2627,2244,2319,2244,494,0,0,3839,2382,0,0,3037,2389,0,0,2404,4260,2220,0,3042,0,2627,0,0,0,0,0,0,0,0,0,0,0,0,0,0,0,0,0,0,0],"split_type":[0,0,0,0,0,0,0,0,0,0,0,0,0,0,0,0,0,0,0,0,0,0,0,0,0,0,0,0,0,0,0,0,0,0,0,0,0,0,0,0,0,0,0,0,0,0,0,0,0,0,0,0,0,0,0,0,0,0,0,0,0,0,0,0,0],"sum_hessian":[3.65E2,7E0,3.58E2,3E0,4E0,3.33E2,2.5E1,3E0,1E0,2.48E2,8.5E1,7E0,1.8E1,4E1,2.08E2,3.8E1,4.7E1,5E0,2E0,1.4E1,4E0,3.5E1,5E0,2.05E2,3E0,2.2E1,1.6E1,1.5E1,3.2E1,1E0,1.3E1,7E0,2.8E1,4E0,1E0,9E0,1.96E2,2E0,1E0,1.7E1,5E0,1.2E1,4E0,1E1,5E0,3.1E1,1E0,5E0,2E0,2.5E1,3E0,2E0,7E0,1.92E2,4E0,3E0,1.4E1,4E0,1E0,1.1E1,1E0,8E0,2E0,3E1,1E0],"tree_param":{"num_deleted":"0","num_feature":"4336","num_nodes":"65","size_leaf_vector":"1"}},{"base_weights":[8.473253E0,-3.1110237E0,9.6715485E1,8.2476836E-1,-3.9407673E0,-1.0898131E0,2.102365E2,1.6575966E0,-4.8300343E0,-3.133852E0,1.8481435E-1,-0E0,2.4757324E2,6.212019E0,-3.9449716E0,-5.576765E0,6.27897E0,2.1353586E-1,-2.0577896E-1,-4.5249995E-2,3.1112108E-2,2.0347789E-1,1.2981188E1,9.142077E0,-1.3351399E0,-4.4891405E0,-0E0,-5.8599296E0,3.1938336E0,-8.6250854E-1,5.060546E-1,3.711712E-2,-0E0,-2.2326976E-1,1.08955E1,-7.156284E-2,-0E0,-2.3450387E-1,-0E0,-6.2678576E0,1.1700956E0,2.1657352E-1,-7.2520385E-3,-0E0,-5.207487E-2,-0E0,-3.1496815E-2,6.0090905E-1,-0E0,-0E0,-3.343645E-1,2.2932808E-1,-1.1763401E-1],"categories":[],"categories_nodes":[],"categories_segments":[],"categories_sizes":[],"default_left":[0,0,0,0,0,0,0,0,0,0,0,0,0,0,0,0,0,0,0,0,0,0,0,0,0,0,0,0,0,0,0,0,0,0,0,0,0,0,0,0,0,0,0,0,0,0,0,0,0,0,0,0,0],"id":20,"left_children":[1,3,5,-1,7,9,11,13,15,17,-1,19,21,23,25,27,29,31,-1,-1,-1,-1,-1,33,35,37,-1,39,41,43,-1,-1,-1,45,47,-1,-1,-1,-1,49,51,-1,-1,-1,-1,-1,-1,-1,-1,-1,-1,-1,-1],"loss_changes":[3.791005E5,5.9581016E3,4.8180975E5,0E0,1.7496938E3,4.3305005E2,1.5798506E5,1.5690724E3,2.7322275E3,1.4639536E2,0E0,1.4087337E1,3.6681312E4,9.298783E2,8.820355E1,8.9926855E2,7.835267E2,6.525573E0,0E0,0E0,0E0,0E0,0E0,5.580054E2,2.4717617E0,2.5958618E1,0E0,9.0434375E2,1.0132469E2,3.2833004E0,0E0,0E0,0E0,4.1137953E0,3.0279565E2,0E0,0E0,0E0,0E0,7.4199316E2,3.950257E2,0E0,0E0,0E0,0E0,0E0,0E0,0E0,0E0,0E0,0E0,0E0,0E0],"parents":[2147483647,0,0,1,1,2,2,4,4,5,5,6,6,7,7,8,8,9,9,11,11,12,12,13,13,14,14,15,15,16,16,17,17,23,23,24,24,25,25,27,27,28,28,29,29,33,33,34,34,39,39,40,40],"right_children":[2,4,6,-1,8,10,12,14,16,18,-1,20,22,24,26,28,30,32,-1,-1,-1,-1,-1,34,36,38,-1,40,42,44,-1,-1,-1,46,48,-1,-1,-1,-1,50,52,-1,-1,-1,-1,-1,-1,-1,-1,-1,-1,-1,-1],"split_conditions":[1E0,-1.5322051E1,1.0427917E1,8.2476836E-1,-6.8620515E-1,1E0,-4.2112365E0,-4.0886264E-2,4.590414E1,3.324863E0,1.8481435E-1,-1.0892517E-2,2.2913662E1,1.9935356E0,1E0,1E0,1.0197364E1,2.5173195E1,-2.0577896E-1,-4.5249995E-2,3.1112108E-2,2.0347789E-1,1.2981188E1,-2.0866599E2,-6.823734E-3,1.2343784E1,-0E0,4.9852E0,1E0,-2.7474642E-2,5.060546E-1,3.711712E-2,-0E0,2.7364958E1,2.8586621E0,-7.156284E-2,-0E0,-2.3450387E-1,-0E0,-5.750206E-1,1.1866826E0,2.1657352E-1,-7.2520385E-3,-0E0,-5.207487E-2,-0E0,-3.1496815E-2,6.0090905E-1,-0E0,-0E0,-3.343645E-1,2.2932808E-1,-1.1763401E-1],"split_indices":[1524,2216,2507,0,2494,476,2241,2994,2779,3773,0,2948,3829,2243,4324,1146,3837,3829,0,0,0,0,0,2804,2944,3847,0,4249,1648,2950,0,0,0,2519,3491,0,0,0,0,2272,3140,0,0,0,0,0,0,0,0,0,0,0,0],"split_type":[0,0,0,0,0,0,0,0,0,0,0,0,0,0,0,0,0,0,0,0,0,0,0,0,0,0,0,0,0,0,0,0,0,0,0,0,0,0,0,0,0,0,0,0,0,0,0,0,0,0,0,0,0],"sum_hessian":[3.57E2,3.24E2,3.3E1,5E0,3.19E2,2.3E1,1E1,4.1E1,2.78E2,2E1,3E0,3E0,7E0,2.3E1,1.8E1,2.66E2,1.2E1,4E0,1.6E1,2E0,1E0,1E0,6E0,1.6E1,7E0,1.6E1,2E0,2.62E2,4E0,6E0,6E0,3E0,1E0,3E0,1.3E1,6E0,1E0,1.5E1,1E0,2.5E2,1.2E1,3E0,1E0,2E0,4E0,1E0,2E0,1.1E1,2E0,1.5E1,2.35E2,6E0,6E0],"tree_param":{"num_deleted":"0","num_feature":"4336","num_nodes":"53","size_leaf_vector":"1"}},{"base_weights":[6.7438135E0,-2.456354E0,9.759732E1,-3.4235375E0,1.5261312E1,-2.5687187E0,2.1251456E2,6.2332053E0,-4.5472126E0,1.196305E0,-6.921476E-1,-2.1514729E-1,9.8652E-2,1.1340426E1,-0E0,-1.286476E0,8.4336054E-1,-0E0,-5.4349637E0,-7.568573E-2,9.803613E-3,1.7579527E0,-3.5445178E0,-3.5121748E0,4.4488235E0,-5.7795763E0,3.2881982E0,2.0574396E-3,-0E0,1.3290122E-1,-0E0,-3.8380165E0,-0E0,1.2213433E0,-5.093879E0,-2.25895E0,8.198896E0,-0E0,-6.3849716E0,-3.1628523E-3,2.1435285E-1,-0E0,-1.9702367E-1,1.1619486E-1,-1.2471112E-2,-0E0,-2.7637354E-1,-0E0,-1.1899634E-1,4.71356E-1,-0E0,9.772577E-2,-9.963488E-2,-3.5052976E-1,1.1520336E-2],"categories":[],"categories_nodes":[],"categories_segments":[],"categories_sizes":[],"default_left":[0,0,0,0,0,0,0,0,0,0,0,0,0,0,0,0,0,0,0,0,0,0,0,0,0,0,0,0,0,0,0,0,0,0,0,0,0,0,0,0,0,0,0,0,0,0,0,0,0,0,0,0,0,0,0],"id":21,"left_children":[1,3,5,7,9,11,13,15,17,-1,19,-1,-1,-1,-1,21,-1,23,25,-1,27,29,31,33,35,37,39,-1,-1,-1,-1,41,-1,43,45,47,49,51,53,-1,-1,-1,-1,-1,-1,-1,-1,-1,-1,-1,-1,-1,-1,-1,-1],"loss_changes":[3.0927625E5,6.2646914E3,3.9892572E5,3.8799734E3,3.024377E3,3.2873825E2,4.9032625E4,3.4114443E3,1.2554121E3,0E0,2.4414711E1,0E0,0E0,0E0,0E0,2.932845E2,0E0,1.0822971E3,9.8452295E2,0E0,1.7472126E-2,5.034924E1,2.0374847E1,3.8544617E2,1.0244026E3,9.1079297E2,9.516435E1,0E0,0E0,0E0,0E0,1.2088623E0,0E0,5.2486633E1,8.626453E1,4.4374695E0,3.2017847E2,1.6727986E2,1.0275859E3,0E0,0E0,0E0,0E0,0E0,0E0,0E0,0E0,0E0,0E0,0E0,0E0,0E0,0E0,0E0,0E0],"parents":[2147483647,0,0,1,1,2,2,3,3,4,4,5,5,6,6,7,7,8,8,10,10,15,15,17,17,18,18,20,20,21,21,22,22,23,23,24,24,25,25,26,26,31,31,33,33,34,34,35,35,36,36,37,37,38,38],"right_children":[2,4,6,8,10,12,14,16,18,-1,20,-1,-1,-1,-1,22,-1,24,26,-1,28,30,32,34,36,38,40,-1,-1,-1,-1,42,-1,44,46,48,50,52,54,-1,-1,-1,-1,-1,-1,-1,-1,-1,-1,-1,-1,-1,-1,-1,-1],"split_conditions":[4.6989675E0,1.3837507E0,3.69218E0,5.5451834E-1,1.0896238E-3,3.060903E0,1E0,1.8460054E1,-1.6578135E-1,1.196305E0,1.4033535E1,-2.1514729E-1,9.8652E-2,1.1340426E1,-0E0,8.1904763E-1,8.4336054E-1,6.2276278E0,1E0,-7.568573E-2,1E0,9.126648E0,4.234375E0,-5.409275E2,1.0302871E0,-1.9661125E0,3.012337E1,2.0574396E-3,-0E0,1.3290122E-1,-0E0,-2.1539347E-1,-0E0,4.1774664E0,-3.2288688E-1,1.7547724E1,3E0,1.0326531E0,1.2473519E-1,-3.1628523E-3,2.1435285E-1,-0E0,-1.9702367E-1,1.1619486E-1,-1.2471112E-2,-0E0,-2.7637354E-1,-0E0,-1.1899634E-1,4.71356E-1,-0E0,9.772577E-2,-9.963488E-2,-3.5052976E-1,1.1520336E-2],"split_indices":[2488,3324,4068,2311,3053,3587,1291,3860,3002,0,3858,0,0,0,0,3755,0,2332,1146,0,844,3867,2660,2797,3088,3661,3848,0,0,0,0,3014,0,3400,2215,3848,4278,3111,2456,0,0,0,0,0,0,0,0,0,0,0,0,0,0,0,0],"split_type":[0,0,0,0,0,0,0,0,0,0,0,0,0,0,0,0,0,0,0,0,0,0,0,0,0,0,0,0,0,0,0,0,0,0,0,0,0,0,0,0,0,0,0,0,0,0,0,0,0,0,0,0,0,0,0],"sum_hessian":[3.56E2,3.32E2,2.4E1,3.23E2,9E0,1.8E1,6E0,2.8E1,2.95E2,3E0,6E0,1.5E1,3E0,5E0,1E0,2.1E1,7E0,4.9E1,2.46E2,4E0,2E0,8E0,1.3E1,2.8E1,2.1E1,2.41E2,5E0,1E0,1E0,5E0,3E0,1.1E1,2E0,6E0,2.2E1,8E0,1.3E1,2.3E1,2.18E2,1E0,4E0,1E0,1E1,4E0,2E0,2E0,2E1,1E0,7E0,1.1E1,2E0,1.3E1,1E1,2E2,1.8E1],"tree_param":{"num_deleted":"0","num_feature":"4336","num_nodes":"55","size_leaf_vector":"1"}},{"base_weights":[2.8200986E0,-2.257507E0,7.012734E1,2.4099815E0,-3.793545E0,1.4694894E2,-5.4369324E-1,-2.2752893E-1,-5.134748E0,7.807523E0,7.8769825E-2,-5.5460114E0,3.7853816E-1,-2.1179972E0,6.8918195E0,-5.544513E-1,-5.8171206E0,-0E0,-2.8585854E-1,3.2920544E0,-3.8735578E0,-3.587886E-1,9.265197E0,-3.5587225E0,2.8411484E0,-6.352518E0,-0E0,-1.2886815E0,6.126945E0,8.6261116E-2,-4.502005E0,-1.9262696E-2,-0E0,-0E0,5.3987986E-1,-4.2876225E0,3.5533026E-2,3.0814493E-1,-1.6880037E0,-6.811849E0,7.67735E-1,5.0679874E0,-3.586074E0,-8.131435E-2,-0E0,3.474218E-1,-0E0,7.616705E-2,-2.5799012E-1,-2.2605243E-1,-0E0,3.4659863E-3,-0E0,-1.0184115E-1,-0E0,-3.499188E-1,3.5384197E-3,-7.9136446E-2,1.7148699E-1,-0E0,3.0795896E-1,-0E0,-1.8906803E-1],"categories":[],"categories_nodes":[],"categories_segments":[],"categories_sizes":[],"default_left":[0,0,0,0,0,0,0,0,0,0,0,0,0,0,0,0,0,0,0,0,0,0,0,0,0,0,0,0,0,0,0,0,0,0,0,0,0,0,0,0,0,0,0,0,0,0,0,0,0,0,0,0,0,0,0,0,0,0,0,0,0,0,0],"id":22,"left_children":[1,3,5,-1,7,9,11,13,15,-1,-1,17,-1,19,21,23,25,-1,-1,27,29,31,33,35,37,39,41,43,45,-1,47,-1,-1,-1,-1,49,51,-1,53,55,57,59,61,-1,-1,-1,-1,-1,-1,-1,-1,-1,-1,-1,-1,-1,-1,-1,-1,-1,-1,-1,-1],"loss_changes":[1.4135798E5,3.1455996E4,1.5970581E5,0E0,1.7808354E3,1.46899375E4,1.4144054E3,1.686381E3,7.7291113E2,0E0,0E0,9.725586E0,0E0,1.1020974E3,5.697258E2,6.0814813E2,7.904907E2,0E0,0E0,5.0393015E2,3.974762E2,1.4694893E-1,2.9586438E2,1.2787967E2,5.5498615E2,8.3225977E2,7.1955493E2,1.5069155E1,8.072504E1,0E0,4.2807886E2,0E0,0E0,0E0,0E0,1.874939E1,4.1248947E-2,0E0,1.9238605E1,3.4254297E2,2.0414946E2,1.3239594E2,1.7354034E1,0E0,0E0,0E0,0E0,0E0,0E0,0E0,0E0,0E0,0E0,0E0,0E0,0E0,0E0,0E0,0E0,0E0,0E0,0E0,0E0],"parents":[2147483647,0,0,1,1,2,2,4,4,5,5,6,6,7,7,8,8,11,11,13,13,14,14,15,15,16,16,19,19,20,20,21,21,22,22,23,23,24,24,25,25,26,26,27,27,28,28,30,30,35,35,36,36,38,38,39,39,40,40,41,41,42,42],"right_children":[2,4,6,-1,8,10,12,14,16,-1,-1,18,-1,20,22,24,26,-1,-1,28,30,32,34,36,38,40,42,44,46,-1,48,-1,-1,-1,-1,50,52,-1,54,56,58,60,62,-1,-1,-1,-1,-1,-1,-1,-1,-1,-1,-1,-1,-1,-1,-1,-1,-1,-1,-1,-1],"split_conditions":[2.7839074E0,-4.2424116E0,4.305216E0,2.4099815E0,-2.4860468E0,1.102469E-1,2.6400433E2,-2.4397269E-1,6.3049126E-1,7.807523E0,7.8769825E-2,-3.25483E-1,3.7853816E-1,1.6045123E2,-4.6311603E0,6.672135E-1,1.3714623E0,-0E0,-2.8585854E-1,9.623616E-1,4.096892E0,-1.1058003E-3,1.025506E0,8.7137675E-1,3.4683035E2,9.9740744E-1,9.717255E-1,5.66876E0,-7.206234E-2,8.6261116E-2,-8.91598E0,-1.9262696E-2,-0E0,-0E0,5.3987986E-1,2.4600334E0,4.83627E0,3.0814493E-1,6.678529E-2,1E0,1.0030881E0,6.3E1,1.24111115E2,-8.131435E-2,-0E0,3.474218E-1,-0E0,7.616705E-2,-2.5799012E-1,-2.2605243E-1,-0E0,3.4659863E-3,-0E0,-1.0184115E-1,-0E0,-3.499188E-1,3.5384197E-3,-7.9136446E-2,1.7148699E-1,-0E0,3.0795896E-1,-0E0,-1.8906803E-1],"split_indices":[2841,2494,3859,0,2230,2961,3396,2296,3116,0,0,2968,0,2746,2230,4132,3149,0,0,3145,3774,2961,3130,2821,2794,3651,3101,3833,3010,0,2383,0,0,0,0,2284,3833,0,2961,755,3080,2559,2568,0,0,0,0,0,0,0,0,0,0,0,0,0,0,0,0,0,0,0,0],"split_type":[0,0,0,0,0,0,0,0,0,0,0,0,0,0,0,0,0,0,0,0,0,0,0,0,0,0,0,0,0,0,0,0,0,0,0,0,0,0,0,0,0,0,0,0,0,0,0,0,0,0,0,0,0,0,0,0,0,0,0,0,0,0,0],"sum_hessian":[3.97E2,3.78E2,1.9E1,2E0,3.76E2,4E0,1.5E1,1.08E2,2.68E2,3E0,1E0,1.2E1,3E0,9.2E1,1.6E1,3.9E1,2.29E2,1E0,1.1E1,1.9E1,7.3E1,5E0,1.1E1,2.2E1,1.7E1,2.1E2,1.9E1,8E0,1.1E1,4E0,6.9E1,4E0,1E0,3E0,8E0,1.9E1,3E0,9E0,8E0,1.99E2,1.1E1,7E0,1.2E1,7E0,1E0,8E0,3E0,4E0,6.5E1,1.7E1,2E0,2E0,1E0,7E0,1E0,1.95E2,4E0,6E0,5E0,2E0,5E0,1E0,1.1E1],"tree_param":{"num_deleted":"0","num_feature":"4336","num_nodes":"63","size_leaf_vector":"1"}},{"base_weights":[3.5058968E0,-1.9736297E0,1.464948E2,-3.1743786E0,1.9131161E0,8.5227375E0,-7.0747757E-1,-4.0667253E0,8.263978E0,-0E0,-4.420206E-2,4.0865364E0,-4.5024414E0,1.1980154E1,-2.082533E0,-2.9748864E0,1.1465227E1,-1.0254724E0,-5.536293E0,-0E0,1.337069E1,-0E0,-1.0962949E-1,-1.5525426E-1,-0E0,5.971778E-1,-0E0,4.0387177E0,-3.5896432E0,1.7065649E0,-5.972998E0,6.9763625E-1,-0E0,3.030734E-1,-8.265686E-2,1.3213633E-1,-2.3626792E-1,-4.4415813E-2,2.0881934E-1,-0E0,-3.2424515E-1],"categories":[],"categories_nodes":[],"categories_segments":[],"categories_sizes":[],"default_left":[0,0,0,0,0,0,0,0,0,0,0,0,0,0,0,0,0,0,0,0,0,0,0,0,0,0,0,0,0,0,0,0,0,0,0,0,0,0,0,0,0],"id":23,"left_children":[1,3,5,7,-1,-1,9,11,13,-1,-1,15,17,19,21,23,25,27,29,-1,31,-1,-1,-1,-1,-1,-1,33,35,37,39,-1,-1,-1,-1,-1,-1,-1,-1,-1,-1],"loss_changes":[3.1852456E5,1.999577E4,5.580778E4,4.3156504E3,0E0,0E0,2.5905228E0,1.5132378E3,1.5404001E3,0E0,0E0,1.6243744E3,1.1716904E3,5.237312E2,2.7206573E0,5.3989105E0,1.4110596E1,1.4000732E3,1.00809375E3,0E0,1.7109424E2,0E0,0E0,0E0,0E0,0E0,0E0,5.5876294E2,6.4825653E2,2.1097592E2,7.8133105E2,0E0,0E0,0E0,0E0,0E0,0E0,0E0,0E0,0E0,0E0],"parents":[2147483647,0,0,1,1,2,2,3,3,6,6,7,7,8,8,11,11,12,12,13,13,14,14,15,15,16,16,17,17,18,18,20,20,27,27,28,28,29,29,30,30],"right_children":[2,4,6,8,-1,-1,10,12,14,-1,-1,16,18,20,22,24,26,28,30,-1,32,-1,-1,-1,-1,-1,-1,34,36,38,40,-1,-1,-1,-1,-1,-1,-1,-1,-1,-1],"split_conditions":[7.9919095E0,3.5770993E0,1E0,1.7751559E0,1.9131161E0,8.5227375E0,9.7653705E2,-2.269787E-1,2.97611E1,-0E0,-4.420206E-2,-1.6889481E-1,-9.064704E-2,7.2368667E-3,1.5733334E3,4.1177705E-1,3.035167E-1,-8.549543E0,7.3855023E0,-0E0,2.0946883E-1,-0E0,-1.0962949E-1,-1.5525426E-1,-0E0,5.971778E-1,-0E0,1E0,6.36409E-1,6.610603E0,1.7106118E0,6.9763625E-1,-0E0,3.030734E-1,-8.265686E-2,1.3213633E-1,-2.3626792E-1,-4.4415813E-2,2.0881934E-1,-0E0,-3.2424515E-1],"split_indices":[3921,3666,4258,3750,0,0,2575,3047,2853,0,0,2999,3051,4131,2575,2972,2972,2335,2705,0,2981,0,0,0,0,0,0,4270,2455,2454,2460,0,0,0,0,0,0,0,0,0,0],"split_type":[0,0,0,0,0,0,0,0,0,0,0,0,0,0,0,0,0,0,0,0,0,0,0,0,0,0,0,0,0,0,0,0,0,0,0,0,0,0,0,0,0],"sum_hessian":[3.91E2,3.86E2,5E0,3.84E2,2E0,3E0,2E0,3.63E2,2.1E1,1E0,1E0,1.3E1,3.5E2,1.5E1,6E0,9E0,4E0,8.7E1,2.63E2,2E0,1.3E1,1E0,5E0,8E0,1E0,3E0,1E0,2.6E1,6.1E1,1.2E1,2.51E2,1.2E1,1E0,2E1,6E0,6E0,5.5E1,7E0,5E0,2.1E1,2.3E2],"tree_param":{"num_deleted":"0","num_feature":"4336","num_nodes":"41","size_leaf_vector":"1"}},{"base_weights":[6.7257237E0,-2.0311522E0,9.9989494E1,1.231147E1,-2.9133089E0,1.786533E2,-3.5316496E0,-8.8878804E-1,1.730495E1,-3.8250804E0,1.0496744E1,1.101427E1,2.8618565E-1,-1.816061E-1,-0E0,-7.014229E-2,-0E0,9.525592E-1,-0E0,-4.169742E0,3.9483185E0,1.1368798E0,-2.8202233E0,-4.543924E0,2.9167516E0,2.4477749E-1,-0E0,-1.484721E-1,-0E0,-9.8918015E-3,-5.1524215E0,2.2425115E-1,-3.5668606E-1,2.035927E-1,-1.2630741E-1,-2.901066E-1,-5.352784E-2,-2.8891219E-2,-0E0],"categories":[],"categories_nodes":[],"categories_segments":[],"categories_sizes":[],"default_left":[0,0,0,0,0,0,0,0,0,0,0,0,0,0,0,0,0,0,0,0,0,0,0,0,0,0,0,0,0,0,0,0,0,0,0,0,0,0,0],"id":24,"left_children":[1,3,5,7,9,11,13,15,17,19,21,-1,-1,-1,-1,-1,-1,-1,-1,23,25,-1,27,29,31,-1,-1,-1,-1,33,35,-1,37,-1,-1,-1,-1,-1,-1],"loss_changes":[3.1417294E5,4.794262E3,2.7679172E5,1.7681011E3,4.5653022E3,1.21920375E5,4.081909E0,1.37345295E1,3.5337207E2,1.0563408E3,4.7526895E3,0E0,0E0,0E0,0E0,0E0,0E0,0E0,0E0,1.0079375E3,7.889023E1,0E0,8.460892E0,8.1141797E2,1.6508722E2,0E0,0E0,0E0,0E0,5.9066925E2,5.9581396E2,0E0,2.559304E0,0E0,0E0,0E0,0E0,0E0,0E0],"parents":[2147483647,0,0,1,1,2,2,3,3,4,4,5,5,6,6,7,7,8,8,9,9,10,10,19,19,20,20,22,22,23,23,24,24,29,29,30,30,32,32],"right_children":[2,4,6,8,10,12,14,16,18,20,22,-1,-1,-1,-1,-1,-1,-1,-1,24,26,-1,28,30,32,-1,-1,-1,-1,34,36,-1,38,-1,-1,-1,-1,-1,-1],"split_conditions":[4.6989675E0,-3.0527928E0,2.2224917E0,-1.4634547E-1,3.393113E-1,1.2719145E0,1.3201214E0,8.77605E3,2.0015383E1,1E0,4.0697172E-1,1.101427E1,2.8618565E-1,-1.816061E-1,-0E0,-7.014229E-2,-0E0,9.525592E-1,-0E0,1E0,9.645589E1,1.1368798E0,2.8793594E-2,-2.298236E0,1E0,2.4477749E-1,-0E0,-1.484721E-1,-0E0,-1.7220552E-1,1.0706342E0,2.2425115E-1,8.962954E-2,2.035927E-1,-1.2630741E-1,-2.901066E-1,-5.352784E-2,-2.8891219E-2,-0E0],"split_indices":[2488,2405,3173,3052,3325,2235,3063,2641,3864,2167,2849,0,0,0,0,0,0,0,0,1237,2686,0,3056,2349,109,0,0,0,0,2228,3572,0,3056,0,0,0,0,0,0],"split_type":[0,0,0,0,0,0,0,0,0,0,0,0,0,0,0,0,0,0,0,0,0,0,0,0,0,0,0,0,0,0,0,0,0,0,0,0,0,0,0],"sum_hessian":[3.71E2,3.48E2,2.3E1,1.2E1,3.36E2,9E0,1.4E1,5E0,7E0,3.22E2,1.4E1,5E0,4E0,1.3E1,1E0,3E0,2E0,5E0,2E0,3.14E2,8E0,4E0,1E1,3.03E2,1.1E1,5E0,3E0,9E0,1E0,3.9E1,2.64E2,7E0,4E0,1.1E1,2.8E1,2.22E2,4.2E1,3E0,1E0],"tree_param":{"num_deleted":"0","num_feature":"4336","num_nodes":"39","size_leaf_vector":"1"}},{"base_weights":[1.4314665E0,-2.649252E0,6.097581E0,8.390409E0,-3.643313E0,1.7157057E1,-5.212729E-1,-4.2112894E0,1.0610737E1,1.0406159E0,-0E0,1.4535677E-1,-3.5033634E0,-4.6697483E0,1.948964E-1,6.674296E-1,-0E0,-1.8325154E-1,-0E0,-5.343188E0,-4.8756248E-1,4.6022887E0,-3.7333257E0,-2.8296885E-1,-6.1217484E0,4.391233E0,-3.4432428E0,-0E0,7.3147078E0,-4.6561165E0,1.8624159E-3,2.8742886E-1,-1.2510698E-1,-3.2535443E-1,-5.36138E-3,3.277005E-1,-1.4829278E-2,4.3913126E-2,-2.2530709E-1,-0E0,-2.153293E-2,3.8072476E-1,-0E0,-0E0,-2.4573138E-1,-0E0,2.9156137E-2],"categories":[],"categories_nodes":[],"categories_segments":[],"categories_sizes":[],"default_left":[0,0,0,0,0,0,0,0,0,0,0,0,0,0,0,0,0,0,0,0,0,0,0,0,0,0,0,0,0,0,0,0,0,0,0,0,0,0,0,0,0,0,0,0,0,0,0],"id":25,"left_children":[1,3,-1,5,7,9,11,13,15,-1,-1,-1,17,19,21,-1,-1,-1,-1,23,25,27,29,31,33,35,37,39,41,43,45,-1,-1,-1,-1,-1,-1,-1,-1,-1,-1,-1,-1,-1,-1,-1,-1],"loss_changes":[1.9524566E5,4.483244E3,0E0,2.9120625E3,3.305498E3,1.1987251E3,3.7362924E2,7.709697E2,5.15E2,0E0,0E0,0E0,9.745483E0,8.281709E2,8.9035E2,0E0,0E0,0E0,0E0,1.00598535E3,9.780902E2,3.8005756E2,1.36246E2,7.6723944E2,4.761582E2,3.354802E2,2.7336743E2,2.596536E0,1.810437E1,3.275174E1,4.0803404E0,0E0,0E0,0E0,0E0,0E0,0E0,0E0,0E0,0E0,0E0,0E0,0E0,0E0,0E0,0E0,0E0],"parents":[2147483647,0,0,1,1,3,3,4,4,5,5,6,6,7,7,8,8,12,12,13,13,14,14,19,19,20,20,21,21,22,22,23,23,24,24,25,25,26,26,27,27,28,28,29,29,30,30],"right_children":[2,4,-1,6,8,10,12,14,16,-1,-1,-1,18,20,22,-1,-1,-1,-1,24,26,28,30,32,34,36,38,40,42,44,46,-1,-1,-1,-1,-1,-1,-1,-1,-1,-1,-1,-1,-1,-1,-1,-1],"split_conditions":[1.2741302E2,-2.4159346E0,6.097581E0,9.740037E-1,1E0,-4.736227E-3,1.6373441E0,4E0,4E0,1.0406159E0,-0E0,1.4535677E-1,1E0,1.5185375E1,1.5054914E1,6.674296E-1,-0E0,-1.8325154E-1,-0E0,-1.2785797E0,-6.232428E-2,4E0,1E0,8.9120406E-1,3.1456402E1,-6.269793E0,6.06037E0,1.281809E0,6.288553E1,1E0,-1.24222085E-1,2.8742886E-1,-1.2510698E-1,-3.2535443E-1,-5.36138E-3,3.277005E-1,-1.4829278E-2,4.3913126E-2,-2.2530709E-1,-0E0,-2.153293E-2,3.8072476E-1,-0E0,-0E0,-2.4573138E-1,-0E0,2.9156137E-2],"split_indices":[3849,2405,0,3135,921,3027,2243,3301,3422,0,0,0,846,3878,2350,0,0,0,0,2243,3019,4066,180,3353,4214,2371,2714,3077,3839,3414,2976,0,0,0,0,0,0,0,0,0,0,0,0,0,0,0,0],"split_type":[0,0,0,0,0,0,0,0,0,0,0,0,0,0,0,0,0,0,0,0,0,0,0,0,0,0,0,0,0,0,0,0,0,0,0,0,0,0,0,0,0,0,0,0,0,0,0],"sum_hessian":[3.78E2,3.75E2,3E0,2.4E1,3.51E2,8E0,1.6E1,3.45E2,6E0,5E0,3E0,6E0,1E1,3.14E2,3.1E1,3E0,3E0,9E0,1E0,2.66E2,4.8E1,1.5E1,1.6E1,3.9E1,2.27E2,1.5E1,3.3E1,8E0,7E0,1.3E1,3E0,5E0,3.4E1,2.11E2,1.6E1,9E0,6E0,5E0,2.8E1,4E0,4E0,6E0,1E0,1E0,1.2E1,1E0,2E0],"tree_param":{"num_deleted":"0","num_feature":"4336","num_nodes":"47","size_leaf_vector":"1"}},{"base_weights":[8.762173E0,-1.5445627E0,8.734373E1,-2.480907E0,1.7282337E1,-5.103671E-1,2.0373616E2,-3.202078E0,1.3318813E1,-1.6815919E0,1.2590078E0,2.6554303E0,-3.4844534E0,1.2170972E1,-5.278405E-2,-3.6920288E0,3.561973E0,-2.9261604E-2,8.2187074E-1,-9.451314E-2,-0E0,4.3714824E0,-3.0539874E-2,-3.9154983E0,-0E0,2.6245964E-1,-4.3490624E0,-1.9994895E0,8.912568E0,2.3371838E-1,-0E0,-0E0,-2.0267394E-1,7.2455163E0,-3.6666405E0,-4.6676273E0,1.8232104E0,-1.2392037E-1,-0E0,-0E0,4.8594627E-1,-0E0,5.091817E-1,4.4341423E-2,-2.626173E-1,-2.4377494E-1,1.4549693E-1,1.3237648E-1,-1.529185E-3],"categories":[],"categories_nodes":[],"categories_segments":[],"categories_sizes":[],"default_left":[0,0,0,0,0,0,0,0,0,0,0,0,0,0,0,0,0,0,0,0,0,0,0,0,0,0,0,0,0,0,0,0,0,0,0,0,0,0,0,0,0,0,0,0,0,0,0,0,0],"id":26,"left_children":[1,3,5,7,9,11,13,15,17,19,-1,21,23,-1,-1,25,27,-1,-1,-1,-1,29,-1,31,-1,33,35,37,39,-1,-1,-1,-1,41,43,45,47,-1,-1,-1,-1,-1,-1,-1,-1,-1,-1,-1,-1],"loss_changes":[3.0754666E5,6.3273057E3,4.5299634E5,4.153797E3,3.2045664E3,4.3035492E2,1.5940275E5,1.2264468E3,9.484973E2,6.8616905E0,0E0,1.8201309E2,3.0559662E1,0E0,0E0,8.68125E2,1.0210222E3,0E0,0E0,0E0,0E0,2.4727814E1,0E0,6.660187E0,0E0,1.7281865E3,6.483701E2,3.0605888E1,1.4592078E2,0E0,0E0,0E0,0E0,5.555659E2,3.718324E2,5.7579736E2,5.601341E1,0E0,0E0,0E0,0E0,0E0,0E0,0E0,0E0,0E0,0E0,0E0,0E0],"parents":[2147483647,0,0,1,1,2,2,3,3,4,4,5,5,6,6,7,7,8,8,9,9,11,11,12,12,15,15,16,16,21,21,23,23,25,25,26,26,27,27,28,28,33,33,34,34,35,35,36,36],"right_children":[2,4,6,8,10,12,14,16,18,20,-1,22,24,-1,-1,26,28,-1,-1,-1,-1,30,-1,32,-1,34,36,38,40,-1,-1,-1,-1,42,44,46,48,-1,-1,-1,-1,-1,-1,-1,-1,-1,-1,-1,-1],"split_conditions":[1E0,1.9666809E0,1.4709556E0,2.7320232E1,-1.1847056E-1,1.4785156E0,4.3314215E-2,4.0080413E-1,1.49613125E-2,2.16E2,1.2590078E0,1E0,1.1027838E-1,1.2170972E1,-5.278405E-2,4.0223098E-1,-1.8255581E-1,-2.9261604E-2,8.2187074E-1,-9.451314E-2,-0E0,1E0,-3.0539874E-2,-8.3291575E-2,-0E0,-1.776747E0,7.954406E-1,-7.2534285E-2,-2.6889178E-1,2.3371838E-1,-0E0,-0E0,-2.0267394E-1,1.2866667E1,4.9839787E0,1E0,3.4594595E-1,-1.2392037E-1,-0E0,-0E0,4.8594627E-1,-0E0,5.091817E-1,4.4341423E-2,-2.626173E-1,-2.4377494E-1,1.4549693E-1,1.3237648E-1,-1.529185E-3],"split_indices":[1524,2732,2410,3263,2990,2866,2969,2887,2968,2563,0,79,2991,0,0,4092,2819,0,0,0,0,450,0,2971,0,2356,2830,3032,2968,0,0,0,0,2681,3837,975,2972,0,0,0,0,0,0,0,0,0,0,0,0],"split_type":[0,0,0,0,0,0,0,0,0,0,0,0,0,0,0,0,0,0,0,0,0,0,0,0,0,0,0,0,0,0,0,0,0,0,0,0,0,0,0,0,0,0,0,0,0,0,0,0,0],"sum_hessian":[3.67E2,3.33E2,3.4E1,3.26E2,7E0,2.5E1,9E0,3.2E2,6E0,4E0,3E0,1.1E1,1.4E1,6E0,3E0,3.04E2,1.6E1,2E0,4E0,3E0,1E0,7E0,4E0,1.1E1,3E0,4.2E1,2.62E2,1E1,6E0,6E0,1E0,1E0,1E1,1.3E1,2.9E1,2.53E2,9E0,8E0,2E0,1E0,5E0,6E0,7E0,7E0,2.2E1,2.51E2,2E0,7E0,2E0],"tree_param":{"num_deleted":"0","num_feature":"4336","num_nodes":"49","size_leaf_vector":"1"}},{"base_weights":[3.0410266E0,-1.3954062E0,1.250086E2,-3.0444827E0,2.165194E1,-2.075386E-3,6.8148685E0,-3.9978542E0,7.2770977E0,2.2758336E0,-0E0,-4.6424093E0,2.5900753E0,8.974151E-1,-9.7619903E-1,-2.3516324E0,1.4206941E-1,4.5710593E-1,-5.0572186E0,5.6693E0,-1.9000323E0,-2.2495635E0,1.3563193E0,-1.3816705E-1,-0E0,1.7151444E-1,-1.5044229E0,-5.39753E0,1.8658401E-1,3.529079E-1,-0E0,-1.23544455E-1,-0E0,-0E0,-2.5719924E0,-0E0,7.204946E-2,4.086363E-2,-1.3806568E-1,-2.8220928E-1,4.735611E-2,2.015454E-1,-1.1449756E-1,-1.3703254E-1,-0E0],"categories":[],"categories_nodes":[],"categories_segments":[],"categories_sizes":[],"default_left":[0,0,0,0,0,0,0,0,0,0,0,0,0,0,0,0,0,0,0,0,0,0,0,0,0,0,0,0,0,0,0,0,0,0,0,0,0,0,0,0,0,0,0,0,0],"id":27,"left_children":[1,3,5,7,9,-1,-1,11,13,-1,15,17,19,-1,21,23,-1,25,27,29,31,33,35,-1,-1,-1,37,39,41,-1,-1,-1,-1,-1,43,-1,-1,-1,-1,-1,-1,-1,-1,-1,-1],"loss_changes":[2.0048236E5,1.423159E4,1.9770734E4,3.6727197E3,1.3141048E4,0E0,0E0,1.5208071E3,3.1632556E3,0E0,2.1810216E2,7.0583105E2,6.1549695E2,0E0,1.1963765E2,3.2375633E1,0E0,2.4582422E2,5.636323E2,2.2496875E2,3.1587532E1,1.7465195E1,1.0025768E0,0E0,0E0,0E0,1.0912457E2,5.167031E2,3.477305E2,0E0,0E0,0E0,0E0,0E0,3.794098E0,0E0,0E0,0E0,0E0,0E0,0E0,0E0,0E0,0E0,0E0],"parents":[2147483647,0,0,1,1,2,2,3,3,4,4,7,7,8,8,10,10,11,11,12,12,14,14,15,15,17,17,18,18,19,19,20,20,21,21,22,22,26,26,27,27,28,28,34,34],"right_children":[2,4,6,8,10,-1,-1,12,14,-1,16,18,20,-1,22,24,-1,26,28,30,32,34,36,-1,-1,-1,38,40,42,-1,-1,-1,-1,-1,44,-1,-1,-1,-1,-1,-1,-1,-1,-1,-1],"split_conditions":[1E0,1E0,-2.0805861E-1,3.69373E1,1.213514E0,-2.075386E-3,6.8148685E0,1E0,5.903761E0,2.2758336E0,-5.309335E0,-1.4435319E3,1.3305702E0,8.974151E-1,4.4380274E0,4.0166666E2,1.4206941E-1,1.4491324E2,1E0,5.2618175E0,1.0308601E0,-1.4942741E-1,1.24E2,-1.3816705E-1,-0E0,1.7151444E-1,2.6250145E0,1E0,-1.0834595E-1,3.529079E-1,-0E0,-1.23544455E-1,-0E0,-0E0,6.73518E1,-0E0,7.204946E-2,4.086363E-2,-1.3806568E-1,-2.8220928E-1,4.735611E-2,2.015454E-1,-1.1449756E-1,-1.3703254E-1,-0E0],"split_indices":[807,332,2977,2779,2309,0,0,519,4170,0,2229,2809,2307,0,2219,2556,0,2740,269,3678,3152,3027,2556,0,0,0,2378,1266,3059,0,0,0,0,0,2758,0,0,0,0,0,0,0,0,0,0],"split_type":[0,0,0,0,0,0,0,0,0,0,0,0,0,0,0,0,0,0,0,0,0,0,0,0,0,0,0,0,0,0,0,0,0,0,0,0,0,0,0,0,0,0,0,0,0],"sum_hessian":[3.55E2,3.52E2,3E0,3.37E2,1.5E1,1E0,2E0,3.15E2,2.2E1,2E0,1.3E1,2.91E2,2.4E1,5E0,1.7E1,9E0,4E0,2E1,2.71E2,1.4E1,1E1,1.4E1,3E0,8E0,1E0,7E0,1.3E1,2.56E2,1.5E1,1E1,4E0,7E0,3E0,3E0,1.1E1,1E0,2E0,3E0,1E1,2.49E2,7E0,5E0,1E1,9E0,2E0],"tree_param":{"num_deleted":"0","num_feature":"4336","num_nodes":"45","size_leaf_vector":"1"}},{"base_weights":[3.461455E0,-7.90048E-1,1.1922697E2,-1.903779E0,3.1946352E1,-0E0,6.415948E0,1.1043139E1,-2.5356555E0,1.7442831E0,-0E0,-0E0,8.2297754E-1,-3.2147565E0,8.820481E0,-2.1700343E-2,5.7214373E-3,1.0665888E0,-3.9995818E0,1.4355032E1,-9.887905E-1,5.0163274E0,-2.4849112E0,-1.5991868E0,-5.3988194E0,-0E0,7.5118023E-1,-0E0,-8.905477E-2,-2.7344678E-2,3.9894375E-1,1.3912392E-2,-1.8916093E-1,4.4546213E-2,-2.0553625E-1,-2.8531066E-1,6.5221E-2],"categories":[],"categories_nodes":[],"categories_segments":[],"categories_sizes":[],"default_left":[0,0,0,0,0,0,0,0,0,0,0,0,0,0,0,0,0,0,0,0,0,0,0,0,0,0,0,0,0,0,0,0,0,0,0,0,0],"id":28,"left_children":[1,3,5,7,9,-1,-1,11,13,-1,-1,15,-1,17,19,-1,-1,21,23,25,27,29,31,33,35,-1,-1,-1,-1,-1,-1,-1,-1,-1,-1,-1,-1],"loss_changes":[1.9456772E5,1.4417607E4,1.5043828E4,3.3363887E3,1.3367109E3,0E0,0E0,1.2048511E3,3.1194866E3,0E0,0E0,2.6189263E0,0E0,1.2883477E3,1.5242716E3,0E0,0E0,1.0196702E3,8.848877E2,8.8559326E1,3.0963503E1,6.783202E2,1.8189871E2,8.8809644E2,5.078911E2,0E0,0E0,0E0,0E0,0E0,0E0,0E0,0E0,0E0,0E0,0E0,0E0],"parents":[2147483647,0,0,1,1,2,2,3,3,4,4,7,7,8,8,11,11,13,13,14,14,17,17,18,18,19,19,20,20,21,21,22,22,23,23,24,24],"right_children":[2,4,6,8,10,-1,-1,12,14,-1,-1,16,-1,18,20,-1,-1,22,24,26,28,30,32,34,36,-1,-1,-1,-1,-1,-1,-1,-1,-1,-1,-1,-1],"split_conditions":[7.1657834E0,1E0,3.3941544E1,5.7808936E-1,-5.161756E-2,-0E0,6.415948E0,4.9108088E-1,1E0,1.7442831E0,-0E0,4.305216E0,8.2297754E-1,-2.19113E-1,-2.562203E0,-2.1700343E-2,5.7214373E-3,4.673959E-1,8.914225E1,-7.9031624E-2,-6.047824E-2,9.436534E-1,-3.5512538E0,-2.7391248E0,1.8361912E0,-0E0,7.5118023E-1,-0E0,-8.905477E-2,-2.7344678E-2,3.9894375E-1,1.3912392E-2,-1.8916093E-1,4.4546213E-2,-2.0553625E-1,-2.8531066E-1,6.5221E-2],"split_indices":[3919,1804,3849,3069,2971,0,0,3085,1813,0,0,3860,0,3659,2225,0,0,3156,2686,2992,2973,3155,2255,2377,3089,0,0,0,0,0,0,0,0,0,0,0,0],"split_type":[0,0,0,0,0,0,0,0,0,0,0,0,0,0,0,0,0,0,0,0,0,0,0,0,0,0,0,0,0,0,0,0,0,0,0,0,0],"sum_hessian":[3.81E2,3.77E2,4E0,3.74E2,3E0,1E0,3E0,9E0,3.65E2,2E0,1E0,6E0,3E0,3.52E2,1.3E1,3E0,3E0,5.2E1,3E2,6E0,7E0,2.4E1,2.8E1,1.21E2,1.79E2,1E0,5E0,2E0,5E0,1E1,1.4E1,9E0,1.9E1,6.2E1,5.9E1,1.74E2,5E0],"tree_param":{"num_deleted":"0","num_feature":"4336","num_nodes":"37","size_leaf_vector":"1"}},{"base_weights":[5.3405294E0,1.2930515E2,-2.124546E-1,8.015727E0,-4.005171E-1,-1.3794473E0,3.1678E1,-8.073408E-2,1.8952075E-2,-2.2242808E0,1.8980556E1,1.7297474E0,-0E0,7.9254174E-1,-2.853472E0,-0E0,1.1936024E0,-1.2095553E0,-4.9418955E0,-2.0728112E-4,-0E0,3.3362603E0,-2.2779226E0,-5.417426E0,1.8015679E0,3.3557472E-1,-1.04099214E-1,-1.6425864E-1,9.87721E-2,-2.8847834E-1,6.2964216E-2,1.0930604E-1,-0E0],"categories":[],"categories_nodes":[],"categories_segments":[],"categories_sizes":[],"default_left":[0,0,0,0,0,0,0,0,0,0,0,0,0,0,0,0,0,0,0,0,0,0,0,0,0,0,0,0,0,0,0,0,0],"id":29,"left_children":[1,3,5,-1,7,9,11,-1,-1,13,15,-1,-1,-1,17,19,-1,21,23,-1,-1,25,27,29,31,-1,-1,-1,-1,-1,-1,-1,-1],"loss_changes":[2.5695223E5,6.659475E4,1.3717811E4,0E0,3.0781376E1,6.481313E3,1.3162822E3,0E0,0E0,4.382381E3,1.4345747E3,0E0,0E0,0E0,1.094061E3,1.8904803E-4,0E0,1.1047268E3,6.1476587E2,0E0,0E0,9.724048E2,8.534345E2,4.5632227E2,1.4977379E1,0E0,0E0,0E0,0E0,0E0,0E0,0E0,0E0],"parents":[2147483647,0,0,1,1,2,2,4,4,5,5,6,6,9,9,10,10,14,14,15,15,17,17,18,18,21,21,22,22,23,23,24,24],"right_children":[2,4,6,-1,8,10,12,-1,-1,14,16,-1,-1,-1,18,20,-1,22,24,-1,-1,26,28,30,32,-1,-1,-1,-1,-1,-1,-1,-1],"split_conditions":[-6.192296E0,1.3971409E1,1E0,8.015727E0,1.4715884E-2,1.9690374E0,1E0,-8.073408E-2,1.8952075E-2,-1.7778614E1,1E0,1.7297474E0,-0E0,7.9254174E-1,-9.338843E0,7E0,1.1936024E0,-1.3368056E0,5.6184832E-2,-2.0728112E-4,-0E0,3.7635283E0,1.8929578E0,1E0,-8.4573455E-2,3.3557472E-1,-1.04099214E-1,-1.6425864E-1,9.87721E-2,-2.8847834E-1,6.2964216E-2,1.0930604E-1,-0E0],"split_indices":[2514,3860,1804,0,2982,2732,415,0,0,2216,4266,0,0,0,2764,2534,0,2777,2930,0,0,2274,3654,4286,2988,0,0,0,0,0,0,0,0],"split_type":[0,0,0,0,0,0,0,0,0,0,0,0,0,0,0,0,0,0,0,0,0,0,0,0,0,0,0,0,0,0,0,0,0],"sum_hessian":[3.61E2,6E0,3.55E2,3E0,3E0,3.52E2,3E0,2E0,1E0,3.47E2,5E0,2E0,1E0,3E0,3.44E2,3E0,2E0,2.04E2,1.4E2,1E0,2E0,3.3E1,1.71E2,1.34E2,6E0,2E1,1.3E1,1.42E2,2.9E1,1.3E2,4E0,4E0,2E0],"tree_param":{"num_deleted":"0","num_feature":"4336","num_nodes":"33","size_leaf_vector":"1"}},{"base_weights":[5.794961E0,1.181278E2,5.353654E-1,7.9232383E0,-2.9906652E0,-1.2510242E0,5.214842E1,-0E0,-1.9076742E-1,-1.8171159E0,1.505391E1,2.9758766E0,1.1030519E0,-2.3862147E0,9.425821E0,8.4177107E-1,-0E0,-0E0,7.5281814E-2,7.436469E-1,-3.3685985E0,-3.005119E-1,6.443259E-1,-3.4541814E0,4.3774915E0,-3.7695086E0,4.4392548E0,-1.6615853E-2,-0E0,-0E0,-2.8496915E-1,-5.5538654E-2,3.1999892E-1,8.59204E-3,-2.2397566E-1,2.905186E-1,-0E0],"categories":[],"categories_nodes":[],"categories_segments":[],"categories_sizes":[],"default_left":[0,0,0,0,0,0,0,0,0,0,0,0,0,0,0,0,0,0,0,0,0,0,0,0,0,0,0,0,0,0,0,0,0,0,0,0,0],"id":30,"left_children":[1,3,5,-1,7,9,11,-1,-1,13,15,-1,17,19,21,-1,-1,-1,-1,23,25,27,-1,29,31,33,35,-1,-1,-1,-1,-1,-1,-1,-1,-1,-1],"loss_changes":[2.2446706E5,8.93483E4,3.582895E4,0E0,6.402239E1,3.5840015E3,3.6273516E3,0E0,0E0,2.5219104E3,4.5511377E2,0E0,1.0335665E1,1.1612759E3,8.0412366E2,0E0,0E0,0E0,0E0,1.5638313E3,1.0339792E3,1.7134655E-1,0E0,3.8123157E2,7.344779E2,8.119321E2,1.3762735E2,0E0,0E0,0E0,0E0,0E0,0E0,0E0,0E0,0E0,0E0],"parents":[2147483647,0,0,1,1,2,2,4,4,5,5,6,6,9,9,10,10,12,12,13,13,14,14,19,19,20,20,21,21,23,23,24,24,25,25,26,26],"right_children":[2,4,6,-1,8,10,12,-1,-1,14,16,-1,18,20,22,-1,-1,-1,-1,24,26,28,-1,30,32,34,36,-1,-1,-1,-1,-1,-1,-1,-1,-1,-1],"split_conditions":[-6.192296E0,9.473726E0,1E0,7.9232383E0,5.256667E2,1.22925825E1,3.04E2,-0E0,-1.9076742E-1,1.2356235E1,3E0,2.9758766E0,4.0066666E2,-3.7650087E0,-3.9950323E-1,8.4177107E-1,-0E0,-0E0,7.5281814E-2,1.616761E0,1E0,1.349E3,6.443259E-1,1.240725E0,-6.858539E-3,-3.448972E0,1.3870226E-2,-1.6615853E-2,-0E0,-0E0,-2.8496915E-1,-5.5538654E-2,3.1999892E-1,8.59204E-3,-2.2397566E-1,2.905186E-1,-0E0],"split_indices":[2514,3863,1804,0,2552,3538,2552,0,0,3597,3412,0,2552,2464,2872,0,0,0,0,3180,1046,2552,0,2735,2920,2468,3006,0,0,0,0,0,0,0,0,0,0],"split_type":[0,0,0,0,0,0,0,0,0,0,0,0,0,0,0,0,0,0,0,0,0,0,0,0,0,0,0,0,0,0,0,0,0,0,0,0,0],"sum_hessian":[3.73E2,7E0,3.66E2,3E0,4E0,3.63E2,3E0,1E0,3E0,3.6E2,3E0,1E0,2E0,3.51E2,9E0,2E0,1E0,1E0,1E0,8.2E1,2.69E2,4E0,5E0,3.7E1,4.5E1,2.62E2,7E0,3E0,1E0,1.8E1,1.9E1,1.2E1,3.3E1,3.9E1,2.23E2,4E0,3E0],"tree_param":{"num_deleted":"0","num_feature":"4336","num_nodes":"37","size_leaf_vector":"1"}},{"base_weights":[1.1093073E0,6.772799E1,-1.6621003E0,-0E0,4.5546293E0,-2.8661623E0,2.7272932E1,-3.572061E-2,-0E0,1.0828388E1,-3.5189593E0,-0E0,1.6901797E0,7.961413E-1,-4.7867858E-1,3.3566031E0,-3.8110538E0,-5.7015426E-2,-0E0,-4.5980822E-2,2.8883365E-1,-4.063563E0,4.055865E0,-4.3210444E0,2.616394E0,2.4324237E-1,-0E0,-2.3216961E-1,2.4056265E-2,-1.0610153E-2,1.9951245E-1],"categories":[],"categories_nodes":[],"categories_segments":[],"categories_sizes":[],"default_left":[0,0,0,0,0,0,0,0,0,0,0,0,0,0,0,0,0,0,0,0,0,0,0,0,0,0,0,0,0,0,0],"id":31,"left_children":[1,3,5,7,-1,9,11,-1,-1,13,15,-1,-1,-1,17,19,21,-1,-1,-1,-1,23,25,27,29,-1,-1,-1,-1,-1,-1],"loss_changes":[7.397573E4,2.6181031E4,1.3950855E4,6.635001E0,0E0,3.696122E3,2.953872E3,0E0,0E0,1.3251208E3,8.755425E2,0E0,0E0,0E0,1.4767249E1,2.9832E2,8.820044E2,0E0,0E0,0E0,0E0,7.4241016E2,6.0916992E1,6.0265674E2,1.1619738E2,0E0,0E0,0E0,0E0,0E0,0E0],"parents":[2147483647,0,0,1,1,2,2,3,3,5,5,6,6,9,9,10,10,14,14,15,15,16,16,21,21,22,22,23,23,24,24],"right_children":[2,4,6,8,-1,10,12,-1,-1,14,16,-1,-1,-1,18,20,22,-1,-1,-1,-1,24,26,28,30,-1,-1,-1,-1,-1,-1],"split_conditions":[-2.3152847E0,5.022633E0,1.1096164E0,1.621497E-1,4.5546293E0,-2.2320924E0,4.2371683E0,-3.572061E-2,-0E0,-9.8285246E-1,-2.1625066E-2,-0E0,1.6901797E0,7.961413E-1,1E0,2.5E-1,1E0,-5.7015426E-2,-0E0,-4.5980822E-2,2.8883365E-1,1E0,4E0,1.8352903E0,6.9336617E-1,2.4324237E-1,-0E0,-2.3216961E-1,2.4056265E-2,-1.0610153E-2,1.9951245E-1],"split_indices":[2309,3830,3651,2989,0,2812,3830,0,0,2827,2939,0,0,0,1710,3890,1676,0,0,0,0,4061,3417,3089,3867,0,0,0,0,0,0],"split_type":[0,0,0,0,0,0,0,0,0,0,0,0,0,0,0,0,0,0,0,0,0,0,0,0,0,0,0,0,0,0,0],"sum_hessian":[3.81E2,6E0,3.75E2,4E0,2E0,3.69E2,6E0,3E0,1E0,9E0,3.6E2,3E0,3E0,4E0,5E0,9E0,3.51E2,4E0,1E0,4E0,5E0,3.46E2,5E0,3.38E2,8E0,3E0,2E0,3.19E2,1.9E1,3E0,5E0],"tree_param":{"num_deleted":"0","num_feature":"4336","num_nodes":"31","size_leaf_vector":"1"}},{"base_weights":[4.694035E0,1.707555E0,8.600301E1,6.745218E1,-8.059959E-1,-0E0,4.638084E0,4.1240144E0,-1.4763716E-1,-1.6421975E0,1.8044075E1,-2.6167E0,3.5484898E0,-0E0,1.1479782E0,-3.2169807E0,2.6179547E0,-1.4424423E0,7.0807247E0,-0E0,-2.7116029E-2,-0E0,-4.2515836E0,-2.959154E0,9.691765E0,5.618286E-1,-2.3920586E0,1.2464303E1,7.670957E-1,2.1382558E-1,-1.0920229E-1,5.890813E-2,-2.2964422E-1,-2.3400445E-1,8.624991E-2,5.195361E-1,-0E0,4.1685343E-2,-0E0,-0E0,-1.2657121E-1,-0E0,6.5045446E-1,-1.0667559E-1,1.55717E-1],"categories":[],"categories_nodes":[],"categories_segments":[],"categories_sizes":[],"default_left":[0,0,0,0,0,0,0,0,0,0,0,0,0,0,0,0,0,0,0,0,0,0,0,0,0,0,0,0,0,0,0,0,0,0,0,0,0,0,0,0,0,0,0,0,0],"id":32,"left_children":[1,3,5,7,9,-1,-1,-1,-1,11,13,15,17,19,-1,21,23,25,27,-1,-1,29,31,33,35,37,39,41,43,-1,-1,-1,-1,-1,-1,-1,-1,-1,-1,-1,-1,-1,-1,-1,-1],"loss_changes":[8.895754E4,6.28493E4,7.102008E3,1.8043445E4,5.948648E3,0E0,0E0,0E0,0E0,1.919712E3,1.6434224E3,1.0737373E3,1.2162668E3,3.5293393E0,0E0,9.342549E2,1.774371E3,9.264679E1,1.06369E3,0E0,0E0,8.396301E2,4.885454E2,3.2793268E2,1.5873206E2,4.996169E0,1.2118317E1,9.443652E1,2.7369766E2,0E0,0E0,0E0,0E0,0E0,0E0,0E0,0E0,0E0,0E0,0E0,0E0,0E0,0E0,0E0,0E0],"parents":[2147483647,0,0,1,1,2,2,3,3,4,4,9,9,10,10,11,11,12,12,13,13,15,15,16,16,17,17,18,18,21,21,22,22,23,23,24,24,25,25,26,26,27,27,28,28],"right_children":[2,4,6,8,10,-1,-1,-1,-1,12,14,16,18,20,-1,22,24,26,28,-1,-1,30,32,34,36,38,40,42,44,-1,-1,-1,-1,-1,-1,-1,-1,-1,-1,-1,-1,-1,-1,-1,-1],"split_conditions":[4.5188036E0,-3.0638275E0,1.5136213E4,5.593426E-2,2.142419E0,-0E0,4.638084E0,4.1240144E0,-1.4763716E-1,1.4905863E1,7.3080743E-3,7.915836E-2,1.4107374E0,6.3725845E3,1.1479782E0,-4.941451E-1,1.085667E0,3.5387454E0,-1.7092062E0,-0E0,-2.7116029E-2,8.5743046E-1,-2.2744896E0,2.8822481E1,1E0,3.1815393E4,-1.1642035E-1,-1.3104917E-1,-4.5690883E-2,2.1382558E-1,-1.0920229E-1,5.890813E-2,-2.2964422E-1,-2.3400445E-1,8.624991E-2,5.195361E-1,-0E0,4.1685343E-2,-0E0,-0E0,-1.2657121E-1,-0E0,6.5045446E-1,-1.0667559E-1,1.55717E-1],"split_indices":[3516,2299,2591,2997,2731,0,0,0,0,4179,2997,3046,3898,2591,0,2872,3871,2656,2499,0,0,3129,3661,3857,4264,2591,3002,2998,2995,0,0,0,0,0,0,0,0,0,0,0,0,0,0,0,0],"split_type":[0,0,0,0,0,0,0,0,0,0,0,0,0,0,0,0,0,0,0,0,0,0,0,0,0,0,0,0,0,0,0,0,0,0,0,0,0,0,0,0,0,0,0,0,0],"sum_hessian":[3.66E2,3.63E2,3E0,4E0,3.59E2,1E0,2E0,2E0,2E0,3.53E2,6E0,3.03E2,5E1,3E0,3E0,2.77E2,2.6E1,2.2E1,2.8E1,1E0,2E0,7.1E1,2.06E2,1.7E1,9E0,5E0,1.7E1,9E0,1.9E1,2E1,5.1E1,9E0,1.97E2,1.4E1,3E0,8E0,1E0,4E0,1E0,1E0,1.6E1,1E0,8E0,7E0,1.2E1],"tree_param":{"num_deleted":"0","num_feature":"4336","num_nodes":"45","size_leaf_vector":"1"}},{"base_weights":[4.628597E0,-6.510485E-1,1.3525659E2,-1.7886655E0,3.1896402E1,-6.91899E-1,7.8736606E0,-2.2967255E0,6.678165E-1,1.7327776E-2,1.6701714E0,-0E0,-4.352835E-2,3.7382228E0,-2.9451094E0,6.9155946E0,-1.8021885E0,-3.3758662E0,3.2206042E0,-0E0,9.310633E0,-0E0,-1.04012765E-1,-3.7738504E0,3.090468E0,-5.8796752E-2,5.303559E0,1.692946E-2,-1.983232E-2,4.7875834E-1,-0E0,-2.2385786E-1,4.365197E-3,2.2290456E-1,-0E0,2.8673336E-1,-0E0],"categories":[],"categories_nodes":[],"categories_segments":[],"categories_sizes":[],"default_left":[0,0,0,0,0,0,0,0,0,0,0,0,0,0,0,0,0,0,0,0,0,0,0,0,0,0,0,0,0,0,0,0,0,0,0,0,0],"id":33,"left_children":[1,3,5,7,9,11,-1,13,-1,-1,-1,-1,-1,15,17,19,21,23,25,27,29,-1,-1,31,33,-1,35,-1,-1,-1,-1,-1,-1,-1,-1,-1,-1],"loss_changes":[2.6637006E5,1.4265474E4,4.7962125E4,3.081624E3,1.6484277E2,2.5920653E0,0E0,1.5577864E3,0E0,0E0,0E0,0E0,0E0,8.623201E2,1.0212578E3,4.8133264E2,1.8343689E1,9.649973E2,3.4174524E2,3.7356377E0,1.3231323E1,0E0,0E0,9.0049805E2,1.3806955E2,0E0,3.415924E1,0E0,0E0,0E0,0E0,0E0,0E0,0E0,0E0,0E0,0E0],"parents":[2147483647,0,0,1,1,2,2,3,3,4,4,5,5,7,7,13,13,14,14,15,15,16,16,17,17,18,18,19,19,20,20,23,23,24,24,26,26],"right_children":[2,4,6,8,10,12,-1,14,-1,-1,-1,-1,-1,16,18,20,22,24,26,28,30,-1,-1,32,34,-1,36,-1,-1,-1,-1,-1,-1,-1,-1,-1,-1],"split_conditions":[7.596455E0,3.5770993E0,6.08E2,1E0,-3.0323997E-1,-1.1847056E-1,7.8736606E0,-2.2223926E0,6.678165E-1,1.7327776E-2,1.6701714E0,-0E0,-4.352835E-2,-2.0363696E0,1E0,1.0073873E0,-1.683903E-1,8.492928E1,1.0358471E0,4.7710657E0,4.911561E-2,-0E0,-1.04012765E-1,1.091896E0,7.218391E0,-5.8796752E-2,2.3939857E1,1.692946E-2,-1.983232E-2,4.7875834E-1,-0E0,-2.2385786E-1,4.365197E-3,2.2290456E-1,-0E0,2.8673336E-1,-0E0],"split_indices":[3920,3666,2561,1640,2990,2990,0,2219,0,0,0,0,0,2257,1237,3150,2990,2761,3063,3847,3002,0,0,3572,2650,0,3863,0,0,0,0,0,0,0,0,0,0],"split_type":[0,0,0,0,0,0,0,0,0,0,0,0,0,0,0,0,0,0,0,0,0,0,0,0,0,0,0,0,0,0,0,0,0,0,0,0,0],"sum_hessian":[3.73E2,3.68E2,5E0,3.65E2,3E0,2E0,3E0,3.62E2,3E0,1E0,2E0,1E0,1E0,2.9E1,3.33E2,1.8E1,1.1E1,3.17E2,1.6E1,7E0,1.1E1,1E0,1E1,3.04E2,1.3E1,5E0,1.1E1,2E0,5E0,1E1,1E0,2.58E2,4.6E1,8E0,5E0,9E0,2E0],"tree_param":{"num_deleted":"0","num_feature":"4336","num_nodes":"37","size_leaf_vector":"1"}},{"base_weights":[8.417413E0,2.9050136E0,1.48163E2,-1.4149594E0,1.0053376E2,7.78281E0,1.8523328E-1,3.7201042E0,-2.76688E0,-8.187836E-2,6.307033E0,-5.477533E-1,1.4145508E1,-3.7380605E0,3.6351344E-1,3.1316724E0,-3.391104E0,-1.07906125E-1,2.0098106E1,-4.3380303E0,5.5835193E-1,-1.3792503E0,6.14386E0,-5.0448652E-2,4.8598876E0,7.4801646E-2,-4.3816476E0,1.1307985E0,3.8494285E-2,-0E0,-4.631805E0,-1.665206E0,4.4804754E0,-2.7912107E0,3.3810945E0,3.863723E-1,-5.6134737E-3,2.9856545E-1,-0E0,1.29475435E-2,-2.4785963E-1,-1.6231753E-2,5.2831065E-2,2.8966129E-2,-2.4266139E-1,-0E0,-1.1517489E-1,2.6833782E-1,-0E0,-1.7974931E-1,7.942513E-2,-0E0,2.4661992E-1,-1.0451023E-2,-0E0],"categories":[],"categories_nodes":[],"categories_segments":[],"categories_sizes":[],"default_left":[0,0,0,0,0,0,0,0,0,0,0,0,0,0,0,0,0,0,0,0,0,0,0,0,0,0,0,0,0,0,0,0,0,0,0,0,0,0,0,0,0,0,0,0,0,0,0,0,0,0,0,0,0,0,0],"id":34,"left_children":[1,3,5,7,9,-1,-1,11,13,-1,-1,15,17,19,21,23,25,-1,27,29,31,33,35,-1,37,-1,39,-1,-1,41,43,45,47,49,51,-1,53,-1,-1,-1,-1,-1,-1,-1,-1,-1,-1,-1,-1,-1,-1,-1,-1,-1,-1],"loss_changes":[2.8383056E5,1.5930602E5,7.79425E3,2.6342432E3,4.517133E4,0E0,0E0,3.7284966E3,9.5026636E2,0E0,0E0,7.888159E2,2.9423164E3,6.548933E2,9.080663E2,3.1653378E2,3.0256665E2,0E0,5.166748E2,3.0420776E2,4.0799927E2,5.3208826E2,2.8215466E2,0E0,9.904932E1,0E0,1.6665399E2,0E0,0E0,1.7421877E1,2.947041E2,2.8480522E1,6.195981E1,2.813491E2,1.3482736E2,0E0,5.23865E-1,0E0,0E0,0E0,0E0,0E0,0E0,0E0,0E0,0E0,0E0,0E0,0E0,0E0,0E0,0E0,0E0,0E0,0E0],"parents":[2147483647,0,0,1,1,2,2,3,3,4,4,7,7,8,8,11,11,12,12,13,13,14,14,15,15,16,16,18,18,19,19,20,20,21,21,22,22,24,24,26,26,29,29,30,30,31,31,32,32,33,33,34,34,36,36],"right_children":[2,4,6,8,10,-1,-1,12,14,-1,-1,16,18,20,22,24,26,-1,28,30,32,34,36,-1,38,-1,40,-1,-1,42,44,46,48,50,52,-1,54,-1,-1,-1,-1,-1,-1,-1,-1,-1,-1,-1,-1,-1,-1,-1,-1,-1,-1],"split_conditions":[7.1657834E0,1E0,1.157E3,-3.3635247E0,-6.0970843E-2,7.78281E0,1.8523328E-1,1.0578119E0,2.8528426E0,-8.187836E-2,6.307033E0,-4.106949E-3,-8.626653E-2,3.7321724E-2,6.8272567E0,-1.835226E-2,6.1304533E-1,-1.07906125E-1,9.742978E-1,7.7493274E-1,1.1904415E0,1.387927E1,1E0,-5.0448652E-2,4.432099E-1,7.4801646E-2,-2.5534515E0,1.1307985E0,3.8494285E-2,2.2662401E-2,-3.3120592E0,2.4421322E0,-2.3306873E-1,5.6391127E-2,1.8548984E-2,3.863723E-1,3.78E2,2.9856545E-1,-0E0,1.29475435E-2,-2.4785963E-1,-1.6231753E-2,5.2831065E-2,2.8966129E-2,-2.4266139E-1,-0E0,-1.1517489E-1,2.6833782E-1,-0E0,-1.7974931E-1,7.942513E-2,-0E0,2.4661992E-1,-1.0451023E-2,-0E0],"split_indices":[3919,2148,2562,2267,2983,0,0,3126,3587,0,0,3659,2975,4086,3923,2857,2748,0,3120,3795,3081,2850,3992,0,3756,0,2816,0,0,3049,2405,2236,2256,2985,3025,0,2562,0,0,0,0,0,0,0,0,0,0,0,0,0,0,0,0,0,0],"split_type":[0,0,0,0,0,0,0,0,0,0,0,0,0,0,0,0,0,0,0,0,0,0,0,0,0,0,0,0,0,0,0,0,0,0,0,0,0,0,0,0,0,0,0,0,0,0,0,0,0,0,0,0,0,0,0],"sum_hessian":[3.66E2,3.62E2,4E0,3.56E2,6E0,3E0,1E0,6.9E1,2.87E2,3E0,3E0,5.5E1,1.4E1,2.2E2,6.7E1,2.2E1,3.3E1,5E0,9E0,1.95E2,2.5E1,5.6E1,1.1E1,6E0,1.6E1,3E0,3E1,6E0,3E0,1.1E1,1.84E2,1.8E1,7E0,4.8E1,8E0,8E0,3E0,1E1,6E0,2E0,2.8E1,7E0,4E0,5E0,1.79E2,8E0,1E1,4E0,3E0,4.4E1,4E0,4E0,4E0,2E0,1E0],"tree_param":{"num_deleted":"0","num_feature":"4336","num_nodes":"55","size_leaf_vector":"1"}},{"base_weights":[5.6742105E0,3.402339E-1,1.27184654E2,-1.3809285E0,5.4676365E1,1.9055581E0,7.6930084E0,-2.000781E0,1.2261129E1,2.9247835E0,1.2109029E-2,-2.4140961E-2,1.843913E-1,4.8896226E-1,-3.4397936E0,8.0285853E-1,-2.4466155E-2,-2.8438752E0,3.2810504E0,-4.894063E0,-6.898703E-1,-4.160162E0,3.9137795E0,7.559872E0,2.1419023E-1,-6.5146613E0,-2.19227E0,-2.687254E0,1.5703251E0,-2.3062335E-1,-0E0,2.1382026E-1,-0E0,-0E0,5.069915E-1,-1.258916E-1,1.2936436E-1,-3.39658E-1,-0E0,-1.7445211E-1,2.6967157E-2,4.6724632E-2,-1.6233508E-1,-6.634333E-2,2.1853781E-1],"categories":[],"categories_nodes":[],"categories_segments":[],"categories_sizes":[],"default_left":[0,0,0,0,0,0,0,0,0,0,0,0,0,0,0,0,0,0,0,0,0,0,0,0,0,0,0,0,0,0,0,0,0,0,0,0,0,0,0,0,0,0,0,0,0],"id":35,"left_children":[1,3,5,7,9,11,-1,13,15,-1,-1,-1,-1,17,19,-1,-1,21,23,25,27,29,31,33,35,37,39,41,43,-1,-1,-1,-1,-1,-1,-1,-1,-1,-1,-1,-1,-1,-1,-1,-1],"loss_changes":[2.465273E5,3.654553E4,4.898064E4,3.3137383E3,1.7657656E3,1.0519307E2,0E0,1.364788E3,1.0570715E3,0E0,0E0,0E0,0E0,1.4097671E3,8.5819165E2,0E0,0E0,7.701442E2,9.9523834E2,4.312683E2,4.8675775E2,1.22328735E2,2.6261993E1,5.815825E2,4.5483932E2,1.8399902E2,3.104436E2,1.689544E2,4.859889E2,0E0,0E0,0E0,0E0,0E0,0E0,0E0,0E0,0E0,0E0,0E0,0E0,0E0,0E0,0E0,0E0],"parents":[2147483647,0,0,1,1,2,2,3,3,4,4,5,5,7,7,8,8,13,13,14,14,17,17,18,18,19,19,20,20,21,21,22,22,23,23,24,24,25,25,26,26,27,27,28,28],"right_children":[2,4,6,8,10,12,-1,14,16,-1,-1,-1,-1,18,20,-1,-1,22,24,26,28,30,32,34,36,38,40,42,44,-1,-1,-1,-1,-1,-1,-1,-1,-1,-1,-1,-1,-1,-1,-1,-1],"split_conditions":[1.0166721E1,3.5770993E0,4.9379773E0,-1.4104615E0,2.2067592E2,9.7653705E2,7.6930084E0,-4.811184E0,1.54E2,2.9247835E0,1.2109029E-2,-2.4140961E-2,1.843913E-1,1.0924878E1,5.7336674E0,8.0285853E-1,-2.4466155E-2,8.234225E-1,4.5207872E0,6.7641884E-1,-1.9439465E2,1.0566643E1,-5.5333506E-2,-1.724716E-1,4.4854996E-1,1.2734052E0,1.5866186E1,-1.3684722E0,-5.1771545E-1,-2.3062335E-1,-0E0,2.1382026E-1,-0E0,-0E0,5.069915E-1,-1.258916E-1,1.2936436E-1,-3.39658E-1,-0E0,-1.7445211E-1,2.6967157E-2,4.6724632E-2,-1.6233508E-1,-6.634333E-2,2.1853781E-1],"split_indices":[3925,3666,3870,2317,2575,2575,0,2386,2575,0,0,0,0,3179,4191,0,0,4132,3326,4132,2797,3676,3022,2329,3156,3142,3859,3582,2964,0,0,0,0,0,0,0,0,0,0,0,0,0,0,0,0],"split_type":[0,0,0,0,0,0,0,0,0,0,0,0,0,0,0,0,0,0,0,0,0,0,0,0,0,0,0,0,0,0,0,0,0,0,0,0,0,0,0,0,0,0,0,0,0],"sum_hessian":[3.73E2,3.67E2,6E0,3.65E2,2E0,3E0,3E0,3.58E2,7E0,1E0,1E0,2E0,1E0,1.31E2,2.27E2,4E0,3E0,5.8E1,7.3E1,1.41E2,8.6E1,5.3E1,5E0,2.3E1,5E1,7.7E1,6.4E1,4.7E1,3.9E1,4.7E1,6E0,4E0,1E0,9E0,1.4E1,2.1E1,2.9E1,7.4E1,3E0,4.4E1,2E1,3E0,4.4E1,2E1,1.9E1],"tree_param":{"num_deleted":"0","num_feature":"4336","num_nodes":"45","size_leaf_vector":"1"}},{"base_weights":[8.189197E0,-2.4686733E-1,6.6962524E1,-1.2901706E0,1.1530143E1,1.6723157E2,-2.3546999E0,2.2172709E-1,-3.8110175E0,2.3677345E1,-4.421291E-1,1.5429868E0,1.0485993E1,-4.576389E0,1.0410578E0,3.082513E0,-2.3602495E0,-4.8591843E0,2.2874193E0,-0E0,1.238513E0,1.3312831E0,-1.1149504E-1,1.6123457E-1,-5.9120685E-1,-5.1993785E0,-0E0,1.007789E-1,-0E0,-1.2876034E-1,6.6479893E0,1.6890881E0,-3.3896003E0,-5.435685E0,-0E0,1.996588E-1,-6.1776817E-1,-0E0,7.108366E-2,-0E0,-3.459577E-2,-2.6714516E-1,-0E0,-2.0838842E0,2.8070982E0,9.845161E0,-9.509351E-1,-1.270659E0,4.430439E0,-3.832859E0,1.5172669E0,-5.626983E0,-0E0,2.2736308E-1,-4.0135957E-2,-0E0,-3.338513E-2,-1.5042184E-1,6.989684E-2,-1.6084576E-2,2.1652074E-1,1.5701996E-2,6.219718E-1,-9.9101655E-2,2.0668292E-2,-0E0,-8.4516354E-2,2.4807239E-1,-0E0,-2.1183954E-1,-0E0,7.931682E-2,-0E0,-2.9067484E-1,-0E0,-0E0,1.2541974E-2],"categories":[],"categories_nodes":[],"categories_segments":[],"categories_sizes":[],"default_left":[0,0,0,0,0,0,0,0,0,0,0,0,0,0,0,0,0,0,0,0,0,0,0,0,0,0,0,0,0,0,0,0,0,0,0,0,0,0,0,0,0,0,0,0,0,0,0,0,0,0,0,0,0,0,0,0,0,0,0,0,0,0,0,0,0,0,0,0,0,0,0,0,0,0,0,0,0],"id":36,"left_children":[1,3,5,7,9,11,13,15,17,19,21,23,-1,25,27,29,31,33,35,-1,-1,37,-1,-1,39,41,-1,-1,-1,43,45,47,49,51,53,-1,55,-1,-1,-1,-1,-1,-1,57,59,61,63,65,67,69,71,73,-1,75,-1,-1,-1,-1,-1,-1,-1,-1,-1,-1,-1,-1,-1,-1,-1,-1,-1,-1,-1,-1,-1,-1,-1],"loss_changes":[1.8180512E5,4.0887798E3,3.2530362E5,1.233457E3,4.2636367E3,1.28408125E5,3.6213593E2,1.5720471E3,9.039293E2,1.2772119E2,1.1159298E2,9.564661E1,0E0,1.0427826E2,3.8178493E1,1.2416235E3,5.327592E2,2.5093823E2,1.7240013E2,0E0,0E0,1.711443E0,0E0,0E0,1.0719085E0,7.767273E0,0E0,0E0,0E0,4.071425E2,1.3973167E3,3.069636E2,2.8358667E2,1.3560327E2,1.1188525E1,0E0,5.170126E-1,0E0,0E0,0E0,0E0,0E0,0E0,2.0302173E2,1.8270354E2,7.482759E2,5.623446E1,1.7895586E1,6.515323E1,1.3180933E2,2.702694E-1,9.491943E1,0E0,1.2792957E-1,0E0,0E0,0E0,0E0,0E0,0E0,0E0,0E0,0E0,0E0,0E0,0E0,0E0,0E0,0E0,0E0,0E0,0E0,0E0,0E0,0E0,0E0,0E0],"parents":[2147483647,0,0,1,1,2,2,3,3,4,4,5,5,6,6,7,7,8,8,9,9,10,10,11,11,13,13,14,14,15,15,16,16,17,17,18,18,21,21,24,24,25,25,29,29,30,30,31,31,32,32,33,33,34,34,36,36,43,43,44,44,45,45,46,46,47,47,48,48,49,49,50,50,51,51,53,53],"right_children":[2,4,6,8,10,12,14,16,18,20,22,24,-1,26,28,30,32,34,36,-1,-1,38,-1,-1,40,42,-1,-1,-1,44,46,48,50,52,54,-1,56,-1,-1,-1,-1,-1,-1,58,60,62,64,66,68,70,72,74,-1,76,-1,-1,-1,-1,-1,-1,-1,-1,-1,-1,-1,-1,-1,-1,-1,-1,-1,-1,-1,-1,-1,-1,-1],"split_conditions":[1E0,6.911199E0,-7.051763E0,3.93401E-2,9.558824E-3,-4.9286997E-1,1.0787739E0,-5.0367035E-2,1E0,9.507073E0,3.0413841E1,1.1567089E1,1.0485993E1,3.9575505E0,7.751273E0,-5.037037E0,-7.4518615E-1,6.9560555E1,1.1126112E0,-0E0,1.238513E0,1.5454509E1,-1.1149504E-1,1.6123457E-1,-1.6103077E1,2.1172916E1,-0E0,1.007789E-1,-0E0,1.8063817E0,1.2994937E0,1.7065312E0,1.6609447E1,4.590414E1,6.0692215E0,1.996588E-1,-2.078255E1,-0E0,7.108366E-2,-0E0,-3.459577E-2,-2.6714516E-1,-0E0,2.6166081E0,-9.469672E0,-7.2699294E0,3.1923077E1,4.417151E0,-9.000112E0,2.2781186E0,-9.246657E0,1.5572015E0,-0E0,-1.3515306E1,-4.0135957E-2,-0E0,-3.338513E-2,-1.5042184E-1,6.989684E-2,-1.6084576E-2,2.1652074E-1,1.5701996E-2,6.219718E-1,-9.9101655E-2,2.0668292E-2,-0E0,-8.4516354E-2,2.4807239E-1,-0E0,-2.1183954E-1,-0E0,7.931682E-2,-0E0,-2.9067484E-1,-0E0,-0E0,1.2541974E-2],"split_indices":[1524,2463,2248,2502,4090,4139,3074,2978,4021,3863,3863,2245,0,2273,2707,2771,2467,2792,3110,0,0,3863,0,0,2242,3865,0,0,0,2361,3074,2278,2854,2779,4186,0,2242,0,0,0,0,0,0,2907,2380,2854,2676,3863,2242,2914,2242,3087,0,2242,0,0,0,0,0,0,0,0,0,0,0,0,0,0,0,0,0,0,0,0,0,0,0],"split_type":[0,0,0,0,0,0,0,0,0,0,0,0,0,0,0,0,0,0,0,0,0,0,0,0,0,0,0,0,0,0,0,0,0,0,0,0,0,0,0,0,0,0,0,0,0,0,0,0,0,0,0,0,0,0,0,0,0,0,0,0,0,0,0,0,0,0,0,0,0,0,0,0,0,0,0,0,0],"sum_hessian":[3.55E2,3.19E2,3.6E1,3.02E2,1.7E1,9E0,2.7E1,1.92E2,1.1E2,4E0,1.3E1,4E0,5E0,1.6E1,1.1E1,9.2E1,1E2,9.7E1,1.3E1,1E0,3E0,5E0,8E0,2E0,2E0,1.4E1,2E0,5E0,6E0,5.2E1,4E1,1.7E1,8.3E1,8.4E1,1.3E1,8E0,5E0,1E0,4E0,1E0,1E0,1.3E1,1E0,3.5E1,1.7E1,2.7E1,1.3E1,9E0,8E0,8E1,3E0,8.2E1,2E0,7E0,6E0,1E0,4E0,3.1E1,4E0,6E0,1.1E1,9E0,1.8E1,9E0,4E0,2E0,7E0,7E0,1E0,7.1E1,9E0,2E0,1E0,7.9E1,3E0,1E0,6E0],"tree_param":{"num_deleted":"0","num_feature":"4336","num_nodes":"77","size_leaf_vector":"1"}},{"base_weights":[6.4272923E0,1.2391207E0,1.3256357E2,5.871903E1,-1.0726168E0,2.7340317E0,7.483251E0,-2.0427895E-1,3.9329083E0,-2.3965063E0,4.0477943E0,-0E0,1.7792355E-1,2.2537854E0,-3.3051298E0,1.7006014E1,-1.2056704E0,-1.9394199E0,6.8822103E0,-3.6833196E0,2.2948117E0,2.4661919E1,-6.51934E-2,-3.1573753E0,2.3402019E0,2.4791187E-2,-2.7361686E0,9.183036E0,-7.139926E-2,1.2899426E-1,-4.1193247E0,-1.7515132E-1,1.9005725E-1,-0E0,1.2910337E0,-0E0,-3.14344E-2,-4.2282085E0,1.7611125E-1,4.3648214E0,-1.1547375E0,-0E0,-1.6143367E-1,-0E0,5.004104E-1,1.4462283E-1,-8.4791385E-2,-2.2370636E-1,6.4497374E-2,-1.1225678E-2,-0E0,-2.2536421E-1,-0E0,-3.0800596E-2,7.323427E-2,2.2720626E-1,-0E0,-6.1857045E-2,-0E0],"categories":[],"categories_nodes":[],"categories_segments":[],"categories_sizes":[],"default_left":[0,0,0,0,0,0,0,0,0,0,0,0,0,0,0,0,0,0,0,0,0,0,0,0,0,0,0,0,0,0,0,0,0,0,0,0,0,0,0,0,0,0,0,0,0,0,0,0,0,0,0,0,0,0,0,0,0,0,0],"id":37,"left_children":[1,3,5,7,9,11,-1,-1,-1,13,15,-1,-1,17,19,21,23,25,27,29,31,33,35,37,39,-1,41,43,-1,45,47,49,-1,-1,-1,-1,-1,51,53,55,57,-1,-1,-1,-1,-1,-1,-1,-1,-1,-1,-1,-1,-1,-1,-1,-1,-1,-1],"loss_changes":[2.4831539E5,5.1567227E4,2.7688188E4,2.274341E4,2.615786E3,4.959072E1,0E0,0E0,0E0,1.37374E3,5.741008E3,0E0,0E0,1.2309314E3,6.51167E2,3.3987378E3,5.3189294E2,1.03879715E2,7.631719E2,4.6076392E2,1.2105002E2,3.277422E2,