{"learner":{"attributes":{"scikit_learn":"{\"_estimator_type\": \"regressor\"}"},"feature_names":[],"feature_types":[],"gradient_booster":{"model":{"gbtree_model_param":{"num_parallel_tree":"1","num_trees":"500"},"iteration_indptr":[0,1,2,3,4,5,6,7,8,9,10,11,12,13,14,15,16,17,18,19,20,21,22,23,24,25,26,27,28,29,30,31,32,33,34,35,36,37,38,39,40,41,42,43,44,45,46,47,48,49,50,51,52,53,54,55,56,57,58,59,60,61,62,63,64,65,66,67,68,69,70,71,72,73,74,75,76,77,78,79,80,81,82,83,84,85,86,87,88,89,90,91,92,93,94,95,96,97,98,99,100,101,102,103,104,105,106,107,108,109,110,111,112,113,114,115,116,117,118,119,120,121,122,123,124,125,126,127,128,129,130,131,132,133,134,135,136,137,138,139,140,141,142,143,144,145,146,147,148,149,150,151,152,153,154,155,156,157,158,159,160,161,162,163,164,165,166,167,168,169,170,171,172,173,174,175,176,177,178,179,180,181,182,183,184,185,186,187,188,189,190,191,192,193,194,195,196,197,198,199,200,201,202,203,204,205,206,207,208,209,210,211,212,213,214,215,216,217,218,219,220,221,222,223,224,225,226,227,228,229,230,231,232,233,234,235,236,237,238,239,240,241,242,243,244,245,246,247,248,249,250,251,252,253,254,255,256,257,258,259,260,261,262,263,264,265,266,267,268,269,270,271,272,273,274,275,276,277,278,279,280,281,282,283,284,285,286,287,288,289,290,291,292,293,294,295,296,297,298,299,300,301,302,303,304,305,306,307,308,309,310,311,312,313,314,315,316,317,318,319,320,321,322,323,324,325,326,327,328,329,330,331,332,333,334,335,336,337,338,339,340,341,342,343,344,345,346,347,348,349,350,351,352,353,354,355,356,357,358,359,360,361,362,363,364,365,366,367,368,369,370,371,372,373,374,375,376,377,378,379,380,381,382,383,384,385,386,387,388,389,390,391,392,393,394,395,396,397,398,399,400,401,402,403,404,405,406,407,408,409,410,411,412,413,414,415,416,417,418,419,420,421,422,423,424,425,426,427,428,429,430,431,432,433,434,435,436,437,438,439,440,441,442,443,444,445,446,447,448,449,450,451,452,453,454,455,456,457,458,459,460,461,462,463,464,465,466,467,468,469,470,471,472,473,474,475,476,477,478,479,480,481,482,483,484,485,486,487,488,489,490,491,492,493,494,495,496,497,498,499,500],"tree_info":[0,0,0,0,0,0,0,0,0,0,0,0,0,0,0,0,0,0,0,0,0,0,0,0,0,0,0,0,0,0,0,0,0,0,0,0,0,0,0,0,0,0,0,0,0,0,0,0,0,0,0,0,0,0,0,0,0,0,0,0,0,0,0,0,0,0,0,0,0,0,0,0,0,0,0,0,0,0,0,0,0,0,0,0,0,0,0,0,0,0,0,0,0,0,0,0,0,0,0,0,0,0,0,0,0,0,0,0,0,0,0,0,0,0,0,0,0,0,0,0,0,0,0,0,0,0,0,0,0,0,0,0,0,0,0,0,0,0,0,0,0,0,0,0,0,0,0,0,0,0,0,0,0,0,0,0,0,0,0,0,0,0,0,0,0,0,0,0,0,0,0,0,0,0,0,0,0,0,0,0,0,0,0,0,0,0,0,0,0,0,0,0,0,0,0,0,0,0,0,0,0,0,0,0,0,0,0,0,0,0,0,0,0,0,0,0,0,0,0,0,0,0,0,0,0,0,0,0,0,0,0,0,0,0,0,0,0,0,0,0,0,0,0,0,0,0,0,0,0,0,0,0,0,0,0,0,0,0,0,0,0,0,0,0,0,0,0,0,0,0,0,0,0,0,0,0,0,0,0,0,0,0,0,0,0,0,0,0,0,0,0,0,0,0,0,0,0,0,0,0,0,0,0,0,0,0,0,0,0,0,0,0,0,0,0,0,0,0,0,0,0,0,0,0,0,0,0,0,0,0,0,0,0,0,0,0,0,0,0,0,0,0,0,0,0,0,0,0,0,0,0,0,0,0,0,0,0,0,0,0,0,0,0,0,0,0,0,0,0,0,0,0,0,0,0,0,0,0,0,0,0,0,0,0,0,0,0,0,0,0,0,0,0,0,0,0,0,0,0,0,0,0,0,0,0,0,0,0,0,0,0,0,0,0,0,0,0,0,0,0,0,0,0,0,0,0,0,0,0,0,0,0,0,0,0,0,0,0,0,0,0,0,0,0,0,0,0,0,0,0,0,0,0,0,0,0,0,0,0,0,0,0,0,0,0,0,0,0,0,0,0,0,0,0,0,0,0,0,0,0,0,0,0,0,0,0,0,0,0,0,0,0,0,0,0,0,0,0,0,0],"trees":[{"base_weights":[-0E0,1.7302759E-1,-3.0763355E-1,2.142848E-1,-0E0,-4.4092172E-1,-0E0,-0E0,2.4420328E-1,-4.9572372E-1,-0E0,-1.1365393E-1,7.3077977E-3,-0E0,2.6506543E-1,-0E0,-5.485941E-1,-0E0,-2.5804718E-3,-0E0,1.0569673E-4,2.720577E-1,-0E0,-5.776923E-3,-0E0,2.794145E-3,-0E0],"categories":[],"categories_nodes":[],"categories_segments":[],"categories_sizes":[],"default_left":[0,0,0,0,0,0,0,0,0,0,0,0,0,0,0,0,0,0,0,0,0,0,0,0,0,0,0],"id":0,"left_children":[1,3,5,7,-1,9,11,-1,13,15,-1,17,19,-1,21,-1,23,-1,-1,-1,-1,25,-1,-1,-1,-1,-1],"loss_changes":[1.4550381E1,1.548111E0,3.4822369E0,1.2383676E0,0E0,1.775382E0,2.0898718E-1,0E0,9.288087E-1,1.56781E0,0E0,5.97752E-1,7.7864504E-4,0E0,2.3277187E-1,0E0,4.708748E-1,0E0,0E0,0E0,0E0,2.4492264E-1,0E0,0E0,0E0,0E0,0E0],"parents":[2147483647,0,0,1,1,2,2,3,3,5,5,6,6,8,8,9,9,11,11,12,12,14,14,16,16,21,21],"right_children":[2,4,6,8,-1,10,12,-1,14,16,-1,18,20,-1,22,-1,24,-1,-1,-1,-1,26,-1,-1,-1,-1,-1],"split_conditions":[-4.626063E0,9.208541E-1,4.8123628E-1,-5.0767905E-1,-0E0,2.4701937E1,1.9110291E0,-0E0,6.1286473E0,4.4102564E0,-0E0,7.231081E-2,4.1669054E0,-0E0,3.903755E1,-0E0,1E0,-0E0,-2.5804718E-3,-0E0,1.0569673E-4,1E0,-0E0,-5.776923E-3,-0E0,2.794145E-3,-0E0],"split_indices":[3819,2349,3743,4139,0,3879,3491,0,3198,2649,0,3902,2295,0,2855,0,1194,0,0,0,0,623,0,0,0,0,0],"split_type":[0,0,0,0,0,0,0,0,0,0,0,0,0,0,0,0,0,0,0,0,0,0,0,0,0,0,0],"sum_hessian":[2.63E2,1.6E2,1.03E2,1.38E2,2.2E1,6.8E1,3.5E1,1.1E1,1.27E2,6.1E1,7E0,1.6E1,1.9E1,6E0,1.21E2,6E0,5.5E1,4E0,1.2E1,3E0,1.6E1,1.18E2,3E0,5.1E1,4E0,1.15E2,3E0],"tree_param":{"num_deleted":"0","num_feature":"4336","num_nodes":"27","size_leaf_vector":"1"}},{"base_weights":[-0E0,-4.4571352E-1,1.24122754E-1,-0E0,-5.016245E-1,-2.027299E-1,1.845269E-1,-0E0,-5.3531453E-3,-0E0,-3.1421985E-3,-0E0,2.0775959E-1,2.2832651E-1,-0E0,-0E0,2.4502644E-1,2.7210915E-3,-0E0],"categories":[],"categories_nodes":[],"categories_segments":[],"categories_sizes":[],"default_left":[0,0,0,0,0,0,0,0,0,0,0,0,0,0,0,0,0,0,0],"id":1,"left_children":[1,3,5,-1,7,9,11,-1,-1,-1,-1,-1,13,15,-1,-1,17,-1,-1],"loss_changes":[1.3508456E1,1.3027658E0,3.705406E0,0E0,7.8573036E-1,6.8935126E-1,1.2505255E0,0E0,0E0,0E0,0E0,0E0,1.185914E0,1.0333366E0,0E0,0E0,1.0896015E0,0E0,0E0],"parents":[2147483647,0,0,1,1,2,2,4,4,5,5,6,6,12,12,13,13,16,16],"right_children":[2,4,6,-1,8,10,12,-1,-1,-1,-1,-1,14,16,-1,-1,18,-1,-1],"split_conditions":[1.64E2,-2.5172105E0,-5.894458E-1,-0E0,2.7592592E-2,1.7415936E-1,1.7553904E0,-0E0,-5.3531453E-3,-0E0,-3.1421985E-3,-0E0,2.2727556E0,2.2311926E0,-0E0,-0E0,8.854555E-1,2.7210915E-3,-0E0],"split_indices":[2566,2485,3658,0,4085,2867,2384,0,0,0,0,0,3595,2367,0,0,3793,0,0],"split_type":[0,0,0,0,0,0,0,0,0,0,0,0,0,0,0,0,0,0,0],"sum_hessian":[2.45E2,5.3E1,1.92E2,6E0,4.7E1,1.7E1,1.75E2,3E0,4.4E1,3E0,1.4E1,8E0,1.67E2,1.61E2,6E0,4E0,1.57E2,1.42E2,1.5E1],"tree_param":{"num_deleted":"0","num_feature":"4336","num_nodes":"19","size_leaf_vector":"1"}},{"base_weights":[-0E0,-4.3972906E-1,1.4367242E-1,-5.1420456E-1,-0E0,1.9599299E-1,-0E0,-5.4534078E-3,-0E0,2.180176E-1,-0E0,-0E0,-1.7286883E-3,-0E0,2.5848925E-1,2.7256376E-1,-0E0,2.7940045E-3,-0E0],"categories":[],"categories_nodes":[],"categories_segments":[],"categories_sizes":[],"default_left":[0,0,0,0,0,0,0,0,0,0,0,0,0,0,0,0,0,0,0],"id":2,"left_children":[1,3,5,7,-1,9,11,-1,-1,13,-1,-1,-1,-1,15,17,-1,-1,-1],"loss_changes":[1.5676471E1,1.9611721E0,2.3647137E0,8.26602E-1,0E0,1.2879682E0,3.61592E-1,0E0,0E0,1.3117275E0,0E0,0E0,0E0,0E0,7.644825E-1,2.529812E-1,0E0,0E0,0E0],"parents":[2147483647,0,0,1,1,2,2,3,3,5,5,6,6,9,9,14,14,15,15],"right_children":[2,4,6,8,-1,10,12,-1,-1,14,-1,-1,-1,-1,16,18,-1,-1,-1],"split_conditions":[1.4036341E4,1.6024794E1,3.3272743E-2,1.8933775E2,-0E0,2.3374225E-3,-8.9717543E-1,-5.4534078E-3,-0E0,-1.6745031E-1,-0E0,-0E0,-1.7286883E-3,-0E0,1E0,1E0,-0E0,2.7940045E-3,-0E0],"split_indices":[2647,2760,3751,2803,0,2864,2505,0,0,2416,0,0,0,0,1805,1417,0,0,0],"split_type":[0,0,0,0,0,0,0,0,0,0,0,0,0,0,0,0,0,0,0],"sum_hessian":[2.48E2,6.1E1,1.87E2,5.2E1,9E0,1.62E2,2.5E1,4.9E1,3E0,1.58E2,4E0,1.3E1,1.2E1,2.6E1,1.32E2,1.29E2,3E0,1.26E2,3E0],"tree_param":{"num_deleted":"0","num_feature":"4336","num_nodes":"19","size_leaf_vector":"1"}},{"base_weights":[3.4762874E-2,-4.0559682E-1,1.7562617E-1,-4.8292208E-1,-0E0,2.3906891E-1,-0E0,-0E0,-5.284329E-3,2.6548254E-1,-0E0,-1.5015647E-1,5.2737426E-2,2.7672717E-1,-0E0,-0E0,-2.5975242E-1,-0E0,1.3349277E-3,2.8245465E-3,-0E0,-3.1403874E-3,-0E0],"categories":[],"categories_nodes":[],"categories_segments":[],"categories_sizes":[],"default_left":[0,0,0,0,0,0,0,0,0,0,0,0,0,0,0,0,0,0,0,0,0,0,0],"id":3,"left_children":[1,3,5,7,-1,9,11,-1,-1,13,-1,15,17,19,-1,-1,21,-1,-1,-1,-1,-1,-1],"loss_changes":[1.5921865E1,2.126049E0,2.7969184E0,9.0977764E-1,0E0,1.4383297E0,5.594561E-1,0E0,0E0,4.8616886E-1,0E0,6.780187E-1,3.9921558E-1,1.5840054E-1,0E0,0E0,2.367872E-1,0E0,0E0,0E0,0E0,0E0,0E0],"parents":[2147483647,0,0,1,1,2,2,3,3,5,5,6,6,9,9,11,11,12,12,13,13,16,16],"right_children":[2,4,6,8,-1,10,12,-1,-1,14,-1,16,18,20,-1,-1,22,-1,-1,-1,-1,-1,-1],"split_conditions":[6.020562E2,2E0,1.315402E1,-8.541962E0,-0E0,6.772959E-1,-2.277148E-2,-0E0,-5.284329E-3,2.7683198E0,-0E0,1.4536682E1,5.9709063E0,1E0,-0E0,-0E0,4.444254E0,-0E0,1.3349277E-3,2.8245465E-3,-0E0,-3.1403874E-3,-0E0],"split_indices":[2611,3423,3867,2318,0,2874,3002,0,0,2449,0,3822,2287,852,0,0,2228,0,0,0,0,0,0],"split_type":[0,0,0,0,0,0,0,0,0,0,0,0,0,0,0,0,0,0,0,0,0,0,0],"sum_hessian":[2.75E2,5.8E1,2.17E2,5E1,8E0,1.66E2,5.1E1,5E0,4.5E1,1.55E2,1.1E1,2.1E1,3E1,1.49E2,6E0,4E0,1.7E1,3E0,2.7E1,1.45E2,4E0,1.4E1,3E0],"tree_param":{"num_deleted":"0","num_feature":"4336","num_nodes":"23","size_leaf_vector":"1"}},{"base_weights":[-5.300779E-3,-4.7285452E-1,8.817792E-2,-5.2641807E-3,-0E0,1.7752823E-1,-9.4750114E-2,2.1703452E-1,-0E0,-0E0,-2.587437E-1,2.4489051E-1,-0E0,-0E0,-3.7855336E-1,2.60897E-1,-0E0,-0E0,-4.3181353E-3,2.684537E-3,-0E0],"categories":[],"categories_nodes":[],"categories_segments":[],"categories_sizes":[],"default_left":[0,0,0,0,0,0,0,0,0,0,0,0,0,0,0,0,0,0,0,0,0],"id":4,"left_children":[1,3,5,-1,-1,7,9,11,-1,-1,13,15,-1,-1,17,19,-1,-1,-1,-1,-1],"loss_changes":[1.2202908E1,1.743185E0,3.473662E0,0E0,0E0,1.2099013E0,1.5612617E0,1.0913358E0,0E0,0E0,1.5053982E0,7.195401E-1,0E0,0E0,4.8077393E-1,2.2821474E-1,0E0,0E0,0E0,0E0,0E0],"parents":[2147483647,0,0,1,1,2,2,5,5,6,6,7,7,10,10,11,11,14,14,15,15],"right_children":[2,4,6,-1,-1,8,10,12,-1,-1,14,16,-1,-1,18,20,-1,-1,-1,-1,-1],"split_conditions":[1.3707794E4,1.3770738E0,2.369184E1,-5.2641807E-3,-0E0,-3.727323E0,-9.990715E0,2.73E2,-0E0,-0E0,1.2436851E1,1.0907765E1,-0E0,-0E0,-1.0243763E1,3.3242707E0,-0E0,-0E0,-4.3181353E-3,2.684537E-3,-0E0],"split_indices":[2643,3150,3835,0,0,2498,2246,3913,0,0,4128,3597,0,0,2909,2222,0,0,0,0,0],"split_type":[0,0,0,0,0,0,0,0,0,0,0,0,0,0,0,0,0,0,0,0,0],"sum_hessian":[2.35E2,4.8E1,1.87E2,4.5E1,3E0,1.44E2,4.3E1,1.22E2,2.2E1,1.4E1,2.9E1,1.14E2,8E0,5E0,2.4E1,1.11E2,3E0,3E0,2.1E1,1.08E2,3E0],"tree_param":{"num_deleted":"0","num_feature":"4336","num_nodes":"21","size_leaf_vector":"1"}},{"base_weights":[-0E0,1.8627091E-1,-2.9021603E-1,-0E0,2.1398567E-1,-0E0,-4.03955E-1,-0E0,2.3898743E-1,5.41964E-4,-0E0,-0E0,-4.6046302E-1,-0E0,2.6989914E-3,-4.9940875E-1,-0E0,-0E0,-5.225188E-1,-5.474608E-3,-0E0],"categories":[],"categories_nodes":[],"categories_segments":[],"categories_sizes":[],"default_left":[0,0,0,0,0,0,0,0,0,0,0,0,0,0,0,0,0,0,0,0,0],"id":5,"left_children":[1,3,5,-1,7,9,11,-1,13,-1,-1,-1,15,-1,-1,17,-1,-1,19,-1,-1],"loss_changes":[1.4362284E1,1.2876496E0,4.697606E0,0E0,1.2552843E0,5.6101482E-2,2.0365791E0,0E0,8.139787E-1,0E0,0E0,0E0,1.3110008E0,0E0,0E0,8.128433E-1,0E0,0E0,8.649025E-1,0E0,0E0],"parents":[2147483647,0,0,1,1,2,2,4,4,5,5,6,6,8,8,12,12,15,15,18,18],"right_children":[2,4,6,-1,8,10,12,-1,14,-1,-1,-1,16,-1,-1,18,-1,-1,20,-1,-1],"split_conditions":[-4.658163E0,-5.0767905E-1,1.2760122E1,-0E0,2.6847532E0,-1.3329523E0,-2.7124574E0,-0E0,6.635114E-1,5.41964E-4,-0E0,-0E0,1.4558618E1,-0E0,2.6989914E-3,-8.452776E-2,-0E0,-0E0,1.3146795E0,-5.474608E-3,-0E0],"split_indices":[3819,4139,3802,0,2360,2441,2485,0,3088,0,0,0,2852,0,0,2439,0,0,3070,0,0],"split_type":[0,0,0,0,0,0,0,0,0,0,0,0,0,0,0,0,0,0,0,0,0],"sum_hessian":[2.58E2,1.49E2,1.09E2,8E0,1.41E2,2.4E1,8.5E1,6E0,1.35E2,1.9E1,5E0,1E1,7.5E1,1.8E1,1.17E2,6.9E1,6E0,3E0,6.6E1,6.3E1,3E0],"tree_param":{"num_deleted":"0","num_feature":"4336","num_nodes":"21","size_leaf_vector":"1"}},{"base_weights":[1.4347397E-3,1.6821595E-1,-2.153666E-1,2.0546469E-1,-0E0,-3.7619025E-1,-0E0,2.2328949E-1,-0E0,-4.5987755E-1,-0E0,-1.3638242E-2,6.591868E-4,-0E0,2.3609002E-1,-0E0,-4.889709E-1,-1.2895682E-1,-0E0,-0E0,2.489824E-1,-5.2188216E-3,-0E0,-2.013558E-3,-0E0,2.5533393E-3,-0E0],"categories":[],"categories_nodes":[],"categories_segments":[],"categories_sizes":[],"default_left":[0,0,0,0,0,0,0,0,0,0,0,0,0,0,0,0,0,0,0,0,0,0,0,0,0,0,0],"id":6,"left_children":[1,3,5,7,-1,9,11,13,-1,15,-1,17,-1,-1,19,-1,21,23,-1,-1,25,-1,-1,-1,-1,-1,-1],"loss_changes":[9.1726675E0,1.4685693E0,3.862383E0,8.3670235E-1,0E0,2.3017054E0,9.107862E-2,6.389742E-1,0E0,6.9334793E-1,0E0,2.4737228E-1,0E0,0E0,5.9065676E-1,0E0,7.831297E-1,1.9892931E-1,0E0,0E0,2.2114754E-1,0E0,0E0,0E0,0E0,0E0,0E0],"parents":[2147483647,0,0,1,1,2,2,3,3,5,5,6,6,7,7,9,9,11,11,14,14,16,16,17,17,20,20],"right_children":[2,4,6,8,-1,10,12,14,-1,16,-1,18,-1,-1,20,-1,22,24,-1,-1,26,-1,-1,-1,-1,-1,-1],"split_conditions":[-4.658163E0,1.7949445E2,9.778282E-1,4.5302634E0,-0E0,1.0987507E1,5.9564392E1,1.4286084E0,-0E0,-3.409198E0,-0E0,1.1669405E0,6.591868E-4,-0E0,-4.1022806E0,-0E0,1E0,4.924317E0,-0E0,-0E0,-4.120639E-2,-5.2188216E-3,-0E0,-2.013558E-3,-0E0,2.5533393E-3,-0E0],"split_indices":[3819,2701,3161,2250,0,2852,2631,2218,0,4129,0,3134,0,0,2252,0,1684,2355,0,0,2297,0,0,0,0,0,0],"split_type":[0,0,0,0,0,0,0,0,0,0,0,0,0,0,0,0,0,0,0,0,0,0,0,0,0,0,0],"sum_hessian":[2.6E2,1.6E2,1E2,1.42E2,1.8E1,6E1,4E1,1.37E2,5E0,5.1E1,9E0,2E1,2E1,3E0,1.34E2,3E0,4.8E1,1.5E1,5E0,4E0,1.3E2,4.5E1,3E0,1.1E1,4E0,1.27E2,3E0],"tree_param":{"num_deleted":"0","num_feature":"4336","num_nodes":"27","size_leaf_vector":"1"}},{"base_weights":[-0E0,1.9284539E-1,-2.8097877E-1,-0E0,2.1426071E-1,-3.9697382E-1,-0E0,2.4093531E-1,-0E0,-4.8371077E-1,-0E0,3.9765402E-4,-0E0,2.5470576E-1,-0E0,-0E0,-5.2111596E-1,2.6875404E-3,-0E0,-0E0,-5.48885E-3],"categories":[],"categories_nodes":[],"categories_segments":[],"categories_sizes":[],"default_left":[0,0,0,0,0,0,0,0,0,0,0,0,0,0,0,0,0,0,0,0,0],"id":7,"left_children":[1,3,5,-1,7,9,11,13,-1,15,-1,-1,-1,17,-1,-1,19,-1,-1,-1,-1],"loss_changes":[1.4028425E1,1.0221376E0,3.8525028E0,0E0,9.153652E-1,3.0817947E0,2.8621301E-2,7.069845E-1,0E0,1.3605862E0,0E0,0E0,0E0,6.604481E-1,0E0,0E0,9.1163445E-1,0E0,0E0,0E0,0E0],"parents":[2147483647,0,0,1,1,2,2,4,4,5,5,6,6,7,7,9,9,13,13,16,16],"right_children":[2,4,6,-1,8,10,12,14,-1,16,-1,-1,-1,18,-1,-1,20,-1,-1,-1,-1],"split_conditions":[-4.7142186E0,3.0460114E1,5.453137E0,-0E0,2.947229E-3,8.200757E-1,1.0536784E0,2.2978294E0,-0E0,2.7592592E-2,-0E0,3.9765402E-4,-0E0,1.1549618E-1,-0E0,-0E0,1.5550725E1,2.6875404E-3,-0E0,-0E0,-5.48885E-3],"split_indices":[3819,2691,2455,0,2920,4132,3075,3674,0,4085,0,0,0,2971,0,0,2678,0,0,0,0],"split_type":[0,0,0,0,0,0,0,0,0,0,0,0,0,0,0,0,0,0,0,0,0],"sum_hessian":[2.59E2,1.54E2,1.05E2,7E0,1.47E2,7.7E1,2.8E1,1.32E2,1.5E1,6.5E1,1.2E1,1.8E1,1E1,1.29E2,3E0,4E0,6.1E1,1.25E2,4E0,3E0,5.8E1],"tree_param":{"num_deleted":"0","num_feature":"4336","num_nodes":"21","size_leaf_vector":"1"}},{"base_weights":[-0E0,1.7208654E-1,-2.79589E-1,-0E0,2.0174582E-1,-0E0,-4.0809634E-1,2.2210786E-1,-0E0,-4.962122E-2,-0E0,-0E0,-4.488062E-1,2.4302216E-1,-0E0,-0E0,-1.0087595E-3,1.11116344E-4,-0E0,-0E0,-4.9067447E-1,2.6459305E-3,-0E0,-5.372997E-3,-0E0],"categories":[],"categories_nodes":[],"categories_segments":[],"categories_sizes":[],"default_left":[0,0,0,0,0,0,0,0,0,0,0,0,0,0,0,0,0,0,0,0,0,0,0,0,0],"id":8,"left_children":[1,3,5,-1,7,9,11,13,-1,15,17,-1,19,21,-1,-1,-1,-1,-1,-1,23,-1,-1,-1,-1],"loss_changes":[1.1192009E1,1.2684627E0,2.6330075E0,0E0,1.0007262E0,3.225568E-2,1.4225016E0,1.0293574E0,0E0,6.0345523E-2,1.9878417E-3,0E0,1.2042828E0,9.607029E-1,0E0,0E0,0E0,0E0,0E0,0E0,1.005744E0,0E0,0E0,0E0,0E0],"parents":[2147483647,0,0,1,1,2,2,4,4,5,5,6,6,7,7,9,9,10,10,12,12,13,13,20,20],"right_children":[2,4,6,-1,8,10,12,14,-1,16,18,-1,20,22,-1,-1,-1,-1,-1,-1,24,-1,-1,-1,-1],"split_conditions":[-4.546048E0,-1.5651809E1,-5.440853E0,-0E0,2.2944393E0,-1.6306028E0,-3.7672174E-1,-3.1693387E-1,-0E0,8.5721713E-1,8.175926E-1,-0E0,-4.2695816E1,4.2935085E-1,-0E0,-0E0,-1.0087595E-3,1.11116344E-4,-0E0,-0E0,8.64066E-1,2.6459305E-3,-0E0,-5.372997E-3,-0E0],"split_indices":[3819,2849,2343,0,3595,2826,3054,3157,0,3138,3579,0,2779,2830,0,0,0,0,0,0,3085,0,0,0,0],"split_type":[0,0,0,0,0,0,0,0,0,0,0,0,0,0,0,0,0,0,0,0,0,0,0,0,0],"sum_hessian":[2.3E2,1.4E2,9E1,7E0,1.33E2,3.2E1,5.8E1,1.3E2,3E0,1.3E1,1.9E1,3E0,5.5E1,1.26E2,4E0,4E0,9E0,1.6E1,3E0,4E0,5.1E1,1.2E2,6E0,4.6E1,5E0],"tree_param":{"num_deleted":"0","num_feature":"4336","num_nodes":"25","size_leaf_vector":"1"}},{"base_weights":[-0E0,-3.8995096E-1,1.0573115E-1,-4.7713038E-1,-0E0,1.8393566E-1,-8.6472556E-2,-5.1969574E-3,-0E0,-0E0,2.3112369E-1,-0E0,-2.172518E-1,-2.3689257E-2,-0E0,2.5512317E-1,-0E0,-0E0,-3.594491E-1,-1.2844376E-1,-0E0,2.681697E-3,-0E0,-0E0,-4.1142767E-3,-1.6212125E-3,-0E0],"categories":[],"categories_nodes":[],"categories_segments":[],"categories_sizes":[],"default_left":[0,0,0,0,0,0,0,0,0,0,0,0,0,0,0,0,0,0,0,0,0,0,0,0,0,0,0],"id":9,"left_children":[1,3,5,7,-1,9,11,-1,-1,13,15,-1,17,19,-1,21,-1,-1,23,25,-1,-1,-1,-1,-1,-1,-1],"loss_changes":[1.2089149E1,2.9486055E0,3.8423653E0,9.874897E-1,0E0,1.9195237E0,1.1231555E0,0E0,0E0,9.596192E-3,1.2075768E0,0E0,1.5167357E0,2.0652497E-1,0E0,6.6882324E-1,0E0,0E0,4.1777754E-1,4.934013E-2,0E0,0E0,0E0,0E0,0E0,0E0,0E0],"parents":[2147483647,0,0,1,1,2,2,3,3,5,5,6,6,9,9,10,10,12,12,13,13,15,15,18,18,19,19],"right_children":[2,4,6,8,-1,10,12,-1,-1,14,16,-1,18,20,-1,22,-1,-1,24,26,-1,-1,-1,-1,-1,-1,-1],"split_conditions":[6.960931E2,1E0,3.4668064E-1,1.3400627E0,-0E0,5.6490955E0,2.0979435E1,-5.1969574E-3,-0E0,-9.2290413E-1,1E0,-0E0,-9.009799E0,4.815139E2,-0E0,3.5558634E0,-0E0,-0E0,-3.342204E0,1.0040628E0,-0E0,2.681697E-3,-0E0,-0E0,-4.1142767E-3,-1.6212125E-3,-0E0],"split_indices":[2610,4022,3884,3118,0,2364,3866,0,0,2356,540,0,2268,2572,0,4168,0,0,2342,3132,0,0,0,0,0,0,0],"split_type":[0,0,0,0,0,0,0,0,0,0,0,0,0,0,0,0,0,0,0,0,0,0,0,0,0,0,0],"sum_hessian":[2.86E2,6.3E1,2.23E2,5.5E1,8E0,1.77E2,4.6E1,5E1,5E0,2.9E1,1.48E2,1.5E1,3.1E1,1.7E1,1.2E1,1.4E2,8E0,8E0,2.3E1,1.3E1,4E0,1.36E2,4E0,3E0,2E1,1E1,3E0],"tree_param":{"num_deleted":"0","num_feature":"4336","num_nodes":"27","size_leaf_vector":"1"}},{"base_weights":[-9.1560455E-3,1.6317527E-1,-2.8780362E-1,2.1854965E-1,-0E0,-0E0,-3.6626753E-1,2.4647614E-1,-0E0,-1.4132166E-1,-0E0,-4.2433217E-1,-0E0,2.6007784E-3,-0E0,-0E0,-1.7811372E-3,-0E0,-4.762583E-1,-5.1383734E-1,-0E0,-0E0,-5.3554927E-3],"categories":[],"categories_nodes":[],"categories_segments":[],"categories_sizes":[],"default_left":[0,0,0,0,0,0,0,0,0,0,0,0,0,0,0,0,0,0,0,0,0,0,0],"id":10,"left_children":[1,3,5,7,9,-1,11,13,-1,15,-1,17,-1,-1,-1,-1,-1,-1,19,21,-1,-1,-1],"loss_changes":[1.3693999E1,2.1744103E0,3.7606144E0,1.485506E0,2.6163074E-1,0E0,2.9287539E0,5.5129623E-1,0E0,5.878672E-2,0E0,2.625698E0,0E0,0E0,0E0,0E0,0E0,0E0,1.5077152E0,8.96225E-1,0E0,0E0,0E0],"parents":[2147483647,0,0,1,1,2,2,3,3,4,4,6,6,7,7,9,9,11,11,18,18,19,19],"right_children":[2,4,6,8,10,-1,12,14,-1,16,-1,18,-1,-1,-1,-1,-1,-1,20,22,-1,-1,-1],"split_conditions":[-4.7123456E0,3.6014605E-1,-2.5222955E0,2.2727556E0,1.75825E1,-0E0,3.107198E1,4.5337895E-1,-0E0,8.998386E-1,-0E0,-4.43899E0,-0E0,2.6007784E-3,-0E0,-0E0,-1.7811372E-3,-0E0,1E0,-2.8138914E0,-0E0,-0E0,-5.3554927E-3],"split_indices":[3819,3884,2502,3595,2790,0,3862,2972,0,3146,0,2392,0,0,0,0,0,0,2072,2344,0,0,0],"split_type":[0,0,0,0,0,0,0,0,0,0,0,0,0,0,0,0,0,0,0,0,0,0,0],"sum_hessian":[2.72E2,1.57E2,1.15E2,1.33E2,2.4E1,1.6E1,9.9E1,1.29E2,4E0,1.3E1,1.1E1,9E1,9E0,1.24E2,5E0,3E0,1E1,7E0,8.3E1,7.7E1,6E0,3E0,7.4E1],"tree_param":{"num_deleted":"0","num_feature":"4336","num_nodes":"23","size_leaf_vector":"1"}},{"base_weights":[-3.0173906E-3,-4.0578803E-1,9.116631E-2,-4.8465744E-1,-0E0,-4.4423796E-2,1.7161891E-1,-0E0,-5.180855E-3,-0E0,-2.1769468E-1,2.1288642E-1,-0E0,-0E0,4.0846536E-4,-3.548323E-3,-0E0,-0E0,2.3299217E-1,-0E0,2.4656513E-1,2.5428438E-3,-0E0],"categories":[],"categories_nodes":[],"categories_segments":[],"categories_sizes":[],"default_left":[0,0,0,0,0,0,0,0,0,0,0,0,0,0,0,0,0,0,0,0,0,0,0],"id":11,"left_children":[1,3,5,7,-1,9,11,-1,-1,13,15,17,-1,-1,-1,-1,-1,-1,19,-1,21,-1,-1],"loss_changes":[1.0988339E1,1.8960352E0,2.721367E0,8.0706406E-1,0E0,1.1893713E0,1.3642383E0,0E0,0E0,3.0198758E-2,1.2464142E0,7.235594E-1,0E0,0E0,0E0,0E0,0E0,0E0,3.9093065E-1,0E0,2.3168612E-1,0E0,0E0],"parents":[2147483647,0,0,1,1,2,2,3,3,5,5,6,6,9,9,10,10,11,11,18,18,20,20],"right_children":[2,4,6,8,-1,10,12,-1,-1,14,16,18,-1,-1,-1,-1,-1,-1,20,-1,22,-1,-1],"split_conditions":[4.59114E2,3.2654798E0,7.9954333E0,7.2269E-1,-0E0,1.2281883E0,1.3838749E1,-0E0,-5.180855E-3,1.620918E2,1.6435728E2,-7.4337544E0,-0E0,-0E0,4.0846536E-4,-3.548323E-3,-0E0,-0E0,1.3299327E0,-0E0,8.6179477E-1,2.5428438E-3,-0E0],"split_indices":[2620,2466,3870,3126,0,2379,3867,0,0,2739,2744,2271,0,0,0,0,0,0,3493,0,2491,0,0],"split_type":[0,0,0,0,0,0,0,0,0,0,0,0,0,0,0,0,0,0,0,0,0,0,0],"sum_hessian":[2.48E2,5.7E1,1.91E2,4.8E1,9E0,4.8E1,1.43E2,3E0,4.5E1,2.1E1,2.7E1,1.23E2,2E1,3E0,1.8E1,2E1,7E0,7E0,1.16E2,6E0,1.1E2,1.07E2,3E0],"tree_param":{"num_deleted":"0","num_feature":"4336","num_nodes":"23","size_leaf_vector":"1"}},{"base_weights":[-0E0,-2.7963424E-1,1.3276908E-1,-4.1600016E-1,-0E0,-9.104101E-2,1.8427095E-1,-4.6094128E-1,-0E0,-0E0,-1.5820791E-3,2.1890633E-1,-0E0,-5.0954716E-3,-0E0,-0E0,2.5423288E-1,2.60839E-3,-0E0],"categories":[],"categories_nodes":[],"categories_segments":[],"categories_sizes":[],"default_left":[0,0,0,0,0,0,0,0,0,0,0,0,0,0,0,0,0,0,0],"id":12,"left_children":[1,3,5,7,-1,9,11,13,-1,-1,-1,15,-1,-1,-1,-1,17,-1,-1],"loss_changes":[9.218964E0,2.4848638E0,2.4515615E0,1.12461E0,0E0,1.3593301E-1,1.53686E0,8.764124E-1,0E0,0E0,0E0,1.3097572E0,0E0,0E0,0E0,0E0,2.2836399E-1,0E0,0E0],"parents":[2147483647,0,0,1,1,2,2,3,3,5,5,6,6,7,7,11,11,16,16],"right_children":[2,4,6,8,-1,10,12,14,-1,-1,-1,16,-1,-1,-1,-1,18,-1,-1],"split_conditions":[9.665233E0,4.968811E1,-5.079548E-1,1.8933775E2,-0E0,7.0718207E0,1.1282355E-1,1.1762204E1,-0E0,-0E0,-1.5820791E-3,-2.255291E0,-0E0,-5.0954716E-3,-0E0,-0E0,1.6203724E0,2.60839E-3,-0E0],"split_indices":[3878,2910,4139,2803,0,2367,3003,2855,0,0,0,2226,0,0,0,0,3078,0,0],"split_type":[0,0,0,0,0,0,0,0,0,0,0,0,0,0,0,0,0,0,0],"sum_hessian":[2.51E2,7.9E1,1.72E2,5E1,2.9E1,1.4E1,1.58E2,4.6E1,4E0,4E0,1E1,1.44E2,1.4E1,4.1E1,5E0,1.7E1,1.27E2,1.24E2,3E0],"tree_param":{"num_deleted":"0","num_feature":"4336","num_nodes":"19","size_leaf_vector":"1"}},{"base_weights":[-1.026655E-2,-3.8818324E-1,9.1067664E-2,-0E0,-4.5210767E-1,1.7957208E-1,-3.5556525E-2,-4.8696315E-1,-0E0,-0E0,2.0300204E-1,-2.712428E-1,-0E0,-5.143088E-3,-0E0,2.2078696E-1,-0E0,-3.8583428E-3,-0E0,-0E0,1.0303814E-3,2.394944E-1,-0E0,2.5289706E-3,-0E0],"categories":[],"categories_nodes":[],"categories_segments":[],"categories_sizes":[],"default_left":[0,0,0,0,0,0,0,0,0,0,0,0,0,0,0,0,0,0,0,0,0,0,0,0,0],"id":13,"left_children":[1,3,5,-1,7,9,11,13,-1,-1,15,17,19,-1,-1,21,-1,-1,-1,-1,-1,23,-1,-1,-1],"loss_changes":[1.2292385E1,2.3346214E0,3.0976777E0,0E0,8.797083E-1,1.162684E0,1.8392069E0,7.9726315E-1,0E0,0E0,8.423543E-1,9.231343E-1,2.664832E-1,0E0,0E0,8.53601E-1,0E0,0E0,0E0,0E0,0E0,6.8650293E-1,0E0,0E0,0E0],"parents":[2147483647,0,0,1,1,2,2,4,4,5,5,6,6,7,7,10,10,11,11,12,12,15,15,21,21],"right_children":[2,4,6,-1,8,10,12,14,-1,-1,16,18,20,-1,-1,22,-1,-1,-1,-1,-1,24,-1,-1,-1],"split_conditions":[1.1888602E4,-2.206786E0,-1.0528183E0,-0E0,4.357686E0,8.0454916E-1,2.9815533E0,5.3166404E0,-0E0,-0E0,2.2417824E0,5.2142233E-2,3.9799247E0,-5.143088E-3,-0E0,-3.1992033E-1,-0E0,-3.8583428E-3,-0E0,-0E0,1.0303814E-3,5.882353E-2,-0E0,2.5289706E-3,-0E0],"split_indices":[2648,2508,2485,0,2254,3061,2479,3678,0,0,3595,2839,2365,0,0,3157,0,0,0,0,0,3887,0,0,0],"split_type":[0,0,0,0,0,0,0,0,0,0,0,0,0,0,0,0,0,0,0,0,0,0,0,0,0],"sum_hessian":[2.82E2,7E1,2.12E2,7E0,6.3E1,1.48E2,6.4E1,5.8E1,5E0,4E0,1.44E2,2.6E1,3.8E1,5.5E1,3E0,1.39E2,5E0,1.9E1,7E0,1.3E1,2.5E1,1.33E2,6E0,1.3E2,3E0],"tree_param":{"num_deleted":"0","num_feature":"4336","num_nodes":"25","size_leaf_vector":"1"}},{"base_weights":[-0E0,-3.4986347E-1,1.2018598E-1,-0E0,-4.0409145E-1,1.7894173E-1,-0E0,-0E0,-4.5133665E-1,2.1157473E-1,-0E0,-1.0980171E-1,-0E0,-4.929382E-3,-0E0,-0E0,2.3039107E-1,-1.4634085E-3,-0E0,-0E0,1.0948597E-3,2.4511124E-1,-0E0,-0E0,2.523684E-3],"categories":[],"categories_nodes":[],"categories_segments":[],"categories_sizes":[],"default_left":[0,0,0,0,0,0,0,0,0,0,0,0,0,0,0,0,0,0,0,0,0,0,0,0,0],"id":14,"left_children":[1,3,5,-1,7,9,11,-1,13,15,-1,17,19,-1,-1,-1,21,-1,-1,-1,-1,23,-1,-1,-1],"loss_changes":[1.1017048E1,1.9269648E0,1.8103921E0,0E0,1.4912424E0,1.2096767E0,1.5793905E-1,0E0,1.2711239E0,7.1037436E-1,0E0,5.8358938E-2,2.8889096E-1,0E0,0E0,0E0,6.813965E-1,0E0,0E0,0E0,0E0,2.4252653E-1,0E0,0E0,0E0],"parents":[2147483647,0,0,1,1,2,2,4,4,5,5,6,6,8,8,9,9,11,11,12,12,16,16,21,21],"right_children":[2,4,6,-1,8,10,12,-1,14,16,-1,18,20,-1,-1,-1,22,-1,-1,-1,-1,24,-1,-1,-1],"split_conditions":[7.3314986E0,-5.5356116E0,-4.626063E0,-0E0,2.95E1,1.2456217E0,-4.8433056E0,-0E0,1.171202E1,8.775082E-1,-0E0,3.236161E0,3.6662087E0,-4.929382E-3,-0E0,-0E0,2.2978294E0,-1.4634085E-3,-0E0,-0E0,1.0948597E-3,-1.9983897E-1,-0E0,-0E0,2.523684E-3],"split_indices":[3878,2377,3819,0,4070,3090,2330,0,2234,3146,0,2670,3746,0,0,0,3595,0,0,0,0,2993,0,0,0],"split_type":[0,0,0,0,0,0,0,0,0,0,0,0,0,0,0,0,0,0,0,0,0,0,0,0,0],"sum_hessian":[2.61E2,6.7E1,1.94E2,5E0,6.2E1,1.44E2,5E1,5E0,5.7E1,1.3E2,1.4E1,1.3E1,3.7E1,5.3E1,4E0,7E0,1.23E2,1E1,3E0,1.3E1,2.4E1,1.2E2,3E0,3E0,1.17E2],"tree_param":{"num_deleted":"0","num_feature":"4336","num_nodes":"25","size_leaf_vector":"1"}},{"base_weights":[-0E0,1.7454593E-1,-2.3127182E-1,2.0320514E-1,-0E0,-0E0,-3.3805242E-1,-0E0,2.2201751E-1,-0E0,-4.100122E-1,-0E0,2.4495283E-1,-4.6285427E-1,-0E0,2.51917E-3,-0E0,-5.02872E-1,-0E0,-5.3120805E-3,-0E0],"categories":[],"categories_nodes":[],"categories_segments":[],"categories_sizes":[],"default_left":[0,0,0,0,0,0,0,0,0,0,0,0,0,0,0,0,0,0,0,0,0],"id":15,"left_children":[1,3,5,7,-1,-1,9,-1,11,-1,13,-1,15,17,-1,-1,-1,19,-1,-1,-1],"loss_changes":[1.0545139E1,1.0922127E0,3.1968036E0,9.968462E-1,0E0,0E0,2.6911774E0,0E0,6.6046095E-1,0E0,1.6875362E0,0E0,2.4595642E-1,1.6412868E0,0E0,0E0,0E0,8.8518906E-1,0E0,0E0,0E0],"parents":[2147483647,0,0,1,1,2,2,3,3,6,6,8,8,10,10,12,12,13,13,17,17],"right_children":[2,4,6,8,-1,-1,10,-1,12,-1,14,-1,16,18,-1,-1,-1,20,-1,-1,-1],"split_conditions":[-4.658163E0,4.7819065E1,5.9920736E-2,-6.453241E-2,-0E0,-0E0,-7.096635E0,-0E0,-7.222694E-1,-0E0,5.654894E1,-0E0,1E0,1E0,-0E0,2.51917E-3,-0E0,1.3549473E0,-0E0,-5.3120805E-3,-0E0],"split_indices":[3819,3829,2919,3028,0,0,2263,0,2483,0,2764,0,1879,1901,0,0,0,3062,0,0,0],"split_type":[0,0,0,0,0,0,0,0,0,0,0,0,0,0,0,0,0,0,0,0,0],"sum_hessian":[2.65E2,1.58E2,1.07E2,1.43E2,1.5E1,2.9E1,7.8E1,3E0,1.4E2,9E0,6.9E1,1.4E1,1.26E2,6.2E1,7E0,1.23E2,3E0,5.9E1,3E0,5.6E1,3E0],"tree_param":{"num_deleted":"0","num_feature":"4336","num_nodes":"21","size_leaf_vector":"1"}},{"base_weights":[-0E0,1.4576533E-1,-2.3744199E-1,1.898977E-1,-0E0,-3.571386E-1,-0E0,2.1834464E-1,-0E0,-1.0056654E-1,-0E0,-0E0,-4.122142E-1,2.3118667E-1,-0E0,-0E0,-1.2704871E-3,-4.5294452E-1,-0E0,2.444281E-1,-0E0,-0E0,-4.817274E-1,2.5069236E-3,-0E0,-5.129846E-3,-0E0],"categories":[],"categories_nodes":[],"categories_segments":[],"categories_sizes":[],"default_left":[0,0,0,0,0,0,0,0,0,0,0,0,0,0,0,0,0,0,0,0,0,0,0,0,0,0,0],"id":16,"left_children":[1,3,5,7,9,11,-1,13,-1,15,-1,-1,17,19,-1,-1,-1,21,-1,23,-1,-1,25,-1,-1,-1,-1],"loss_changes":[8.630183E0,1.6820083E0,2.9685574E0,1.2560124E0,1.22374915E-1,1.6541853E0,0E0,6.2534904E-1,0E0,2.4511598E-2,0E0,0E0,1.3966255E0,6.5900373E-1,0E0,0E0,0E0,7.592449E-1,0E0,2.1497345E-1,0E0,0E0,7.993374E-1,0E0,0E0,0E0,0E0],"parents":[2147483647,0,0,1,1,2,2,3,3,4,4,5,5,7,7,9,9,12,12,13,13,17,17,19,19,22,22],"right_children":[2,4,6,8,10,12,-1,14,-1,16,-1,-1,18,20,-1,-1,-1,22,-1,24,-1,-1,26,-1,-1,-1,-1],"split_conditions":[-4.378946E0,1.3537245E1,4.3856554E0,1.793545E2,5.3423376E0,-2.6704458E1,-0E0,2.2978294E0,-0E0,-5.016072E0,-0E0,-0E0,1E0,1.6595E-1,-0E0,-0E0,-1.2704871E-3,-9.48625E-1,-0E0,1.937288E2,-0E0,-0E0,1E0,2.5069236E-3,-0E0,-5.129846E-3,-0E0],"split_indices":[3819,3867,2274,2701,2486,2853,0,3595,0,2321,0,0,1914,2971,0,0,0,2336,0,2700,0,0,4007,0,0,0,0],"split_type":[0,0,0,0,0,0,0,0,0,0,0,0,0,0,0,0,0,0,0,0,0,0,0,0,0,0,0],"sum_hessian":[2.57E2,1.67E2,9E1,1.45E2,2.2E1,6.3E1,2.7E1,1.36E2,9E0,1.2E1,1E1,6E0,5.7E1,1.33E2,3E0,3E0,9E0,5.4E1,3E0,1.3E2,3E0,3E0,5.1E1,1.27E2,3E0,4.8E1,3E0],"tree_param":{"num_deleted":"0","num_feature":"4336","num_nodes":"27","size_leaf_vector":"1"}},{"base_weights":[-0E0,-4.6033445E-3,6.460271E-2,1.259921E-1,-1.5517116E-1,-0E0,1.7684288E-1,-3.2959573E-3,-0E0,-0E0,-1.1211574E-1,2.0298493E-1,-0E0,-2.2144616E-1,-0E0,-0E0,2.2056682E-1,-0E0,-2.7122465E-3,2.4362553E-3,-0E0],"categories":[],"categories_nodes":[],"categories_segments":[],"categories_sizes":[],"default_left":[0,0,0,0,0,0,0,0,0,0,0,0,0,0,0,0,0,0,0,0,0],"id":17,"left_children":[1,-1,3,5,7,9,11,-1,-1,-1,13,15,-1,17,-1,-1,19,-1,-1,-1,-1],"loss_changes":[9.623828E0,0E0,2.8121095E0,1.9738233E0,1.3501467E0,2.5265574E-1,1.332562E0,0E0,0E0,0E0,5.368625E-1,9.941621E-1,0E0,1.7415446E-1,0E0,0E0,1.0724411E0,0E0,0E0,0E0,0E0],"parents":[2147483647,0,0,2,2,3,3,4,4,5,5,6,6,10,10,11,11,13,13,16,16],"right_children":[2,-1,4,6,8,10,12,-1,-1,-1,14,16,-1,18,-1,-1,20,-1,-1,-1,-1],"split_conditions":[4.3304386E1,-4.6033445E-3,-1.9401512E0,-3.8730764E-1,-2.0739011E-1,-1.0571885E1,4.5337895E-1,-3.2959573E-3,-0E0,-0E0,1E0,-6.453241E-2,-0E0,-1.8491536E-1,-0E0,-0E0,7.6759334E0,-0E0,-2.7122465E-3,2.4362553E-3,-0E0],"split_indices":[3371,0,2257,3658,2872,2268,2972,0,0,0,180,3028,0,2887,0,0,2460,0,0,0,0],"split_type":[0,0,0,0,0,0,0,0,0,0,0,0,0,0,0,0,0,0,0,0,0],"sum_hessian":[2.6E2,4.1E1,2.19E2,1.89E2,3E1,3E1,1.59E2,1.9E1,1.1E1,1E1,2E1,1.53E2,6E0,1.6E1,4E0,3E0,1.5E2,3E0,1.3E1,1.41E2,9E0],"tree_param":{"num_deleted":"0","num_feature":"4336","num_nodes":"21","size_leaf_vector":"1"}},{"base_weights":[9.844105E-3,-2.986478E-1,1.2201606E-1,-3.968073E-1,-0E0,1.8427752E-1,-1.5941357E-2,-0E0,-4.4899693E-1,-0E0,2.1277362E-1,-1.5575698E-1,-0E0,-0E0,-4.8558232E-3,-0E0,2.3026814E-1,-2.4078865E-1,-0E0,2.4266073E-1,-0E0,-0E0,-3.1025994E-3,2.4891268E-3,-0E0],"categories":[],"categories_nodes":[],"categories_segments":[],"categories_sizes":[],"default_left":[0,0,0,0,0,0,0,0,0,0,0,0,0,0,0,0,0,0,0,0,0,0,0,0,0],"id":18,"left_children":[1,3,5,7,-1,9,11,-1,13,-1,15,17,-1,-1,-1,-1,19,21,-1,23,-1,-1,-1,-1,-1],"loss_changes":[7.8095846E0,2.3443265E0,2.5263617E0,1.4301615E0,0E0,1.2681646E0,5.9975797E-1,0E0,7.6630497E-1,0E0,9.357996E-1,6.1442864E-1,0E0,0E0,0E0,0E0,6.090064E-1,4.2270637E-1,0E0,2.4469662E-1,0E0,0E0,0E0,0E0,0E0],"parents":[2147483647,0,0,1,1,2,2,3,3,5,5,6,6,8,8,10,10,11,11,16,16,17,17,19,19],"right_children":[2,4,6,8,-1,10,12,-1,14,-1,16,18,-1,-1,-1,-1,20,22,-1,24,-1,-1,-1,-1,-1],"split_conditions":[3.870977E0,3.2105E0,2.5241635E0,-4.837829E0,-0E0,-6.0534697E0,4.034353E0,-0E0,-9.0984866E-2,-0E0,-2.741574E0,1.6597193E0,-0E0,-0E0,-4.8558232E-3,-0E0,9.9294186E-1,-3.2444742E-1,-0E0,6.3725963E0,-0E0,-0E0,-3.1025994E-3,2.4891268E-3,-0E0],"split_indices":[3796,4068,2520,2388,0,2345,2445,0,2951,0,2826,3798,0,0,0,0,3161,2956,0,3696,0,0,0,0,0],"split_type":[0,0,0,0,0,0,0,0,0,0,0,0,0,0,0,0,0,0,0,0,0,0,0,0,0],"sum_hessian":[2.51E2,5.5E1,1.96E2,4.6E1,9E0,1.6E2,3.6E1,3E0,4.3E1,1.2E1,1.48E2,2.5E1,1.1E1,3E0,4E1,4E0,1.44E2,2.1E1,4E0,1.4E2,4E0,4E0,1.7E1,1.37E2,3E0],"tree_param":{"num_deleted":"0","num_feature":"4336","num_nodes":"25","size_leaf_vector":"1"}},{"base_weights":[-0E0,-4.0095752E-1,8.344031E-2,-0E0,-4.7290362E-3,-1.59322E-1,1.696428E-1,-3.0269295E-1,-0E0,2.1006097E-1,-0E0,-0E0,-3.978684E-3,-0E0,2.270241E-1,-0E0,-2.1202277E-2,2.3839378E-1,-0E0,-1.1223408E-3,-0E0,2.5019906E-3,-0E0],"categories":[],"categories_nodes":[],"categories_segments":[],"categories_sizes":[],"default_left":[0,0,0,0,0,0,0,0,0,0,0,0,0,0,0,0,0,0,0,0,0,0,0],"id":19,"left_children":[1,3,5,-1,-1,7,9,11,-1,13,15,-1,-1,-1,17,-1,19,21,-1,-1,-1,-1,-1],"loss_changes":[8.663996E0,1.6544185E0,4.785837E0,0E0,0E0,1.8216871E0,1.8239121E0,1.0322127E0,0E0,1.0324144E0,6.3384655E-3,0E0,0E0,0E0,6.608238E-1,0E0,1.3348258E-1,7.010479E-1,0E0,0E0,0E0,0E0,0E0],"parents":[2147483647,0,0,1,1,2,2,5,5,6,6,7,7,9,9,10,10,14,14,16,16,17,17],"right_children":[2,4,6,-1,-1,8,10,12,-1,14,16,-1,-1,-1,18,-1,20,22,-1,-1,-1,-1,-1],"split_conditions":[5.554618E2,-2.2251978E0,-3.5754487E-1,-0E0,-4.7290362E-3,1.1987262E3,-1.9401512E0,9.082774E-1,-0E0,-6.453241E-2,-4.4241853E0,-0E0,-3.978684E-3,-0E0,1E0,-0E0,2.0054989E-2,1E0,-0E0,-1.1223408E-3,-0E0,2.5019906E-3,-0E0],"split_indices":[2611,2845,3658,0,0,3285,2257,3081,0,3028,2357,0,0,0,268,0,2952,2190,0,0,0,0,0],"split_type":[0,0,0,0,0,0,0,0,0,0,0,0,0,0,0,0,0,0,0,0,0,0,0],"sum_hessian":[2.7E2,4.4E1,2.26E2,5E0,3.9E1,4.4E1,1.82E2,3.2E1,1.2E1,1.6E2,2.2E1,7E0,2.5E1,3E0,1.57E2,8E0,1.4E1,1.54E2,3E0,1.1E1,3E0,1.51E2,3E0],"tree_param":{"num_deleted":"0","num_feature":"4336","num_nodes":"23","size_leaf_vector":"1"}},{"base_weights":[-6.274006E-3,1.5291835E-1,-2.7108702E-1,1.9953217E-1,-0E0,-3.6256906E-1,-0E0,2.2050154E-1,-0E0,-4.3638596E-1,-0E0,-0E0,2.3639477E-3,-0E0,-4.7761667E-1,-5.0488818E-3,-0E0],"categories":[],"categories_nodes":[],"categories_segments":[],"categories_sizes":[],"default_left":[0,0,0,0,0,0,0,0,0,0,0,0,0,0,0,0,0],"id":20,"left_children":[1,3,5,7,-1,9,-1,11,-1,13,-1,-1,-1,-1,15,-1,-1],"loss_changes":[1.0843163E1,1.3461978E0,2.2957392E0,6.822438E-1,0E0,1.382204E0,0E0,5.687065E-1,0E0,1.5428286E0,0E0,0E0,0E0,0E0,4.835167E-1,0E0,0E0],"parents":[2147483647,0,0,1,1,2,2,3,3,5,5,7,7,9,9,14,14],"right_children":[2,4,6,8,-1,10,-1,12,-1,14,-1,-1,-1,-1,16,-1,-1],"split_conditions":[-4.626063E0,2.0860551E-1,2.9815533E0,4.2194242E0,-0E0,9.2978325E0,-0E0,6.7793894E0,-0E0,2.98E1,-0E0,-0E0,2.3639477E-3,-0E0,2.4990694E-1,-5.0488818E-3,-0E0],"split_indices":[3819,2750,2479,2286,0,2529,0,2387,0,4070,0,0,0,0,2973,0,0],"split_type":[0,0,0,0,0,0,0,0,0,0,0,0,0,0,0,0,0],"sum_hessian":[2.43E2,1.4E2,1.03E2,1.16E2,2.4E1,7.5E1,2.8E1,1.09E2,7E0,5.9E1,1.6E1,4E0,1.05E2,3E0,5.6E1,5.2E1,4E0],"tree_param":{"num_deleted":"0","num_feature":"4336","num_nodes":"17","size_leaf_vector":"1"}},{"base_weights":[8.466923E-3,-2.3844874E-1,9.818796E-2,-3.547624E-1,-0E0,1.392083E-1,-2.7339814E-2,-4.0545106E-1,-0E0,-0E0,1.7658821E-1,-0E0,-1.4187184E-3,-0E0,-4.4192197E-3,-0E0,-4.8332657E-3,2.0340909E-1,-0E0,-1.6965572E-4,-0E0,2.211045E-1,-0E0,2.3266405E-3,-0E0],"categories":[],"categories_nodes":[],"categories_segments":[],"categories_sizes":[],"default_left":[0,0,0,0,0,0,0,0,0,0,0,0,0,0,0,0,0,0,0,0,0,0,0,0,0],"id":21,"left_children":[1,3,5,7,-1,9,11,13,-1,15,17,-1,-1,-1,-1,-1,19,21,-1,-1,-1,23,-1,-1,-1],"loss_changes":[4.863789E0,2.4621174E0,1.5849268E0,1.1676526E0,0E0,1.4711297E0,2.2926757E-1,6.5338516E-1,0E0,2.5930104E-4,1.3318977E0,0E0,0E0,0E0,0E0,0E0,2.072127E-3,9.9590445E-1,0E0,0E0,0E0,5.655532E-1,0E0,0E0,0E0],"parents":[2147483647,0,0,1,1,2,2,3,3,5,5,6,6,7,7,9,9,10,10,16,16,17,17,21,21],"right_children":[2,4,6,8,-1,10,12,14,-1,16,18,-1,-1,-1,-1,-1,20,22,-1,-1,-1,24,-1,-1,-1],"split_conditions":[1.1580324E0,1.0627561E0,2.8076598E-3,3.969202E-2,-0E0,2E1,-4.403997E0,-2.0089383E0,-0E0,1.6005146E1,2.2727556E0,-0E0,-1.4187184E-3,-0E0,-4.4192197E-3,-0E0,3.723443E-2,1E0,-0E0,-1.6965572E-4,-0E0,1E0,-0E0,2.3266405E-3,-0E0],"split_indices":[3493,3745,2858,2990,0,3728,2248,2814,0,3166,3595,0,0,0,0,0,2990,176,0,0,0,912,0,0,0],"split_type":[0,0,0,0,0,0,0,0,0,0,0,0,0,0,0,0,0,0,0,0,0,0,0,0,0],"sum_hessian":[2.51E2,5.2E1,1.99E2,4.3E1,9E0,1.8E2,1.9E1,4E1,3E0,2.1E1,1.59E2,7E0,1.2E1,3E0,3.7E1,1E1,1.1E1,1.52E2,7E0,8E0,3E0,1.49E2,3E0,1.45E2,4E0],"tree_param":{"num_deleted":"0","num_feature":"4336","num_nodes":"25","size_leaf_vector":"1"}},{"base_weights":[-0E0,-3.71565E-1,9.180859E-2,-4.2349744E-1,-0E0,-1.9764364E-1,1.596826E-1,-0E0,-4.6451506E-1,-3.4098534E-3,-0E0,-0E0,1.9564587E-1,-0E0,-4.9063326E-3,-6.784626E-4,-0E0,-0E0,2.1035144E-1,-0E0,2.2462547E-1,2.4041308E-3,-0E0],"categories":[],"categories_nodes":[],"categories_segments":[],"categories_sizes":[],"default_left":[0,0,0,0,0,0,0,0,0,0,0,0,0,0,0,0,0,0,0,0,0,0,0],"id":22,"left_children":[1,3,5,7,-1,9,11,-1,13,-1,-1,15,17,-1,-1,-1,-1,-1,19,-1,21,-1,-1],"loss_changes":[1.0256968E1,1.8053904E0,4.0589123E0,1.2167215E0,0E0,1.3947107E0,1.8805847E0,0E0,1.21068954E-1,0E0,0E0,4.188834E-2,8.684287E-1,0E0,0E0,0E0,0E0,0E0,7.0914173E-1,0E0,6.846113E-1,0E0,0E0],"parents":[2147483647,0,0,1,1,2,2,3,3,5,5,6,6,8,8,11,11,12,12,18,18,20,20],"right_children":[2,4,6,8,-1,10,12,-1,14,-1,-1,16,18,-1,-1,-1,-1,-1,20,-1,22,-1,-1],"split_conditions":[9.202948E1,1.8685278E1,-6.424074E-1,-1.4710152E0,-0E0,6.399905E0,5.6206465E-1,-0E0,5.4182035E-1,-3.4098534E-3,-0E0,9.009115E0,8E1,-0E0,-4.9063326E-3,-6.784626E-4,-0E0,-0E0,-5.0767905E-1,-0E0,6.73343E1,2.4041308E-3,-0E0],"split_indices":[2638,3837,3500,2278,0,2305,3572,0,3087,0,0,3164,2557,0,0,0,0,0,4139,0,3858,0,0],"split_type":[0,0,0,0,0,0,0,0,0,0,0,0,0,0,0,0,0,0,0,0,0,0,0],"sum_hessian":[2.77E2,6.1E1,2.16E2,5.7E1,4E0,2.7E1,1.89E2,4E0,5.3E1,2.1E1,6E0,1.4E1,1.75E2,5E0,4.8E1,9E0,5E0,4E0,1.71E2,7E0,1.64E2,1.55E2,9E0],"tree_param":{"num_deleted":"0","num_feature":"4336","num_nodes":"23","size_leaf_vector":"1"}},{"base_weights":[2.3463483E-3,-3.515208E-1,1.0155416E-1,-3.969235E-1,-0E0,1.6652876E-1,-3.934095E-2,-4.4559464E-3,-0E0,-0E0,1.9180606E-1,-0E0,-1.8842523E-1,2.0738827E-1,-0E0,-0E0,2.971366E-4,-2.8379086E-1,-0E0,-0E0,2.2304432E-1,-3.3765545E-3,-0E0,2.3789124E-3,-0E0],"categories":[],"categories_nodes":[],"categories_segments":[],"categories_sizes":[],"default_left":[0,0,0,0,0,0,0,0,0,0,0,0,0,0,0,0,0,0,0,0,0,0,0,0,0],"id":23,"left_children":[1,3,5,7,-1,9,11,-1,-1,-1,13,15,17,19,-1,-1,-1,21,-1,-1,23,-1,-1,-1,-1],"loss_changes":[8.55193E0,1.2298231E0,2.7339137E0,1.1371803E0,0E0,1.2724605E0,7.8120315E-1,0E0,0E0,0E0,9.352684E-1,1.598052E-2,7.631506E-1,9.835577E-1,0E0,0E0,0E0,3.3079278E-1,0E0,0E0,7.337122E-1,0E0,0E0,0E0,0E0],"parents":[2147483647,0,0,1,1,2,2,3,3,5,5,6,6,10,10,11,11,12,12,13,13,17,17,20,20],"right_children":[2,4,6,8,-1,10,12,-1,-1,-1,14,16,18,20,-1,-1,-1,22,-1,-1,24,-1,-1,-1,-1],"split_conditions":[1.152138E4,5.042443E0,3.6014605E-1,4.476438E0,-0E0,-5.7108176E-1,2.3324848E1,-4.4559464E-3,-0E0,-0E0,2.2417824E0,2.1820696E-1,9.304517E0,-8.1025936E-2,-0E0,-0E0,2.971366E-4,1.6446176E2,-0E0,-0E0,9.089677E-2,-3.3765545E-3,-0E0,2.3789124E-3,-0E0],"split_indices":[2647,3599,3884,2439,0,2314,3866,0,0,0,3595,4138,2359,3036,0,0,0,2744,0,0,2998,0,0,0,0],"split_type":[0,0,0,0,0,0,0,0,0,0,0,0,0,0,0,0,0,0,0,0,0,0,0,0,0],"sum_hessian":[2.79E2,5E1,2.29E2,4.7E1,3E0,1.81E2,4.8E1,4.3E1,4E0,1E1,1.71E2,2.4E1,2.4E1,1.68E2,3E0,6E0,1.8E1,2E1,4E0,3E0,1.65E2,1.7E1,3E0,1.58E2,7E0],"tree_param":{"num_deleted":"0","num_feature":"4336","num_nodes":"25","size_leaf_vector":"1"}},{"base_weights":[-0E0,-3.4479058E-1,8.4818445E-2,-4.13923E-1,-0E0,-1.46221E-1,1.4705248E-1,-4.4743675E-3,-0E0,-0E0,-2.5582945E-1,2.0174369E-1,-0E0,-3.535933E-3,-0E0,2.1933846E-1,-0E0,-0E0,-1.05060115E-1,2.3024079E-1,-0E0,-2.190123E-3,-0E0,2.365716E-3,-0E0],"categories":[],"categories_nodes":[],"categories_segments":[],"categories_sizes":[],"default_left":[0,0,0,0,0,0,0,0,0,0,0,0,0,0,0,0,0,0,0,0,0,0,0,0,0],"id":24,"left_children":[1,3,5,7,-1,9,11,-1,-1,-1,13,15,17,-1,-1,19,-1,-1,21,23,-1,-1,-1,-1,-1],"loss_changes":[7.5359316E0,1.6522899E0,2.9265845E0,7.013211E-1,0E0,8.229346E-1,1.9945567E0,0E0,0E0,0E0,8.8204324E-1,7.715492E-1,1.9978106E-1,0E0,0E0,2.4790335E-1,0E0,0E0,4.7654504E-1,1.5766525E-1,0E0,0E0,0E0,0E0,0E0],"parents":[2147483647,0,0,1,1,2,2,3,3,5,5,6,6,10,10,11,11,12,12,15,15,18,18,19,19],"right_children":[2,4,6,8,-1,10,12,-1,-1,-1,14,16,18,-1,-1,20,-1,-1,22,24,-1,-1,-1,-1,-1],"split_conditions":[5.486282E2,3.7698414E-2,-5.894458E-1,3.217974E0,-0E0,9.9767584E-1,-2.1162353E0,-4.4743675E-3,-0E0,-0E0,1E0,6.8392024E0,4.3640785E-2,-3.535933E-3,-0E0,6.5694517E-3,-0E0,-0E0,-5.120204E0,1E0,-0E0,-2.190123E-3,-0E0,2.365716E-3,-0E0],"split_indices":[2619,2974,3658,2914,0,3114,2257,0,0,0,4334,2292,2966,0,0,2927,0,0,2301,852,0,0,0,0,0],"split_type":[0,0,0,0,0,0,0,0,0,0,0,0,0,0,0,0,0,0,0,0,0,0,0,0,0],"sum_hessian":[2.54E2,5.1E1,2.03E2,4.5E1,6E0,2.6E1,1.77E2,4.2E1,3E0,5E0,2.1E1,1.43E2,3.4E1,1.8E1,3E0,1.37E2,6E0,1.6E1,1.8E1,1.29E2,8E0,1.4E1,4E0,1.25E2,4E0],"tree_param":{"num_deleted":"0","num_feature":"4336","num_nodes":"25","size_leaf_vector":"1"}},{"base_weights":[-0E0,-2.7915114E-1,1.4055195E-1,-3.4439933E-1,-0E0,-0E0,1.7396486E-1,-4.0644217E-1,-0E0,1.9797274E-1,-0E0,-4.637984E-1,-0E0,2.3834086E-3,-0E0,-4.874583E-3,-0E0],"categories":[],"categories_nodes":[],"categories_segments":[],"categories_sizes":[],"default_left":[0,0,0,0,0,0,0,0,0,0,0,0,0,0,0,0,0],"id":25,"left_children":[1,3,5,7,-1,-1,9,11,-1,13,-1,15,-1,-1,-1,-1,-1],"loss_changes":[1.0405505E1,2.316916E0,1.3912072E0,2.0583124E0,0E0,0E0,1.1874919E0,2.0585575E0,0E0,1.0588689E0,0E0,6.623087E-1,0E0,0E0,0E0,0E0,0E0],"parents":[2147483647,0,0,1,1,2,2,3,3,6,6,7,7,9,9,11,11],"right_children":[2,4,6,8,-1,-1,10,12,-1,14,-1,16,-1,-1,-1,-1,-1],"split_conditions":[9.1081505E0,1.2713166E1,-5.7108176E-1,5.5131373E0,-0E0,-0E0,-8.3972734E-1,1.8933775E2,-0E0,8.529037E-2,-0E0,1E0,-0E0,2.3834086E-3,-0E0,-4.874583E-3,-0E0],"split_indices":[3878,2529,2314,3663,0,0,2402,2803,0,3000,0,2156,0,0,0,0,0],"split_type":[0,0,0,0,0,0,0,0,0,0,0,0,0,0,0,0,0],"sum_hessian":[2.73E2,8.6E1,1.87E2,7.6E1,1E1,1.9E1,1.68E2,6.7E1,9E0,1.6E2,8E0,6.1E1,6E0,1.29E2,3.1E1,5.8E1,3E0],"tree_param":{"num_deleted":"0","num_feature":"4336","num_nodes":"17","size_leaf_vector":"1"}},{"base_weights":[-0E0,-2.909987E-1,1.0382579E-1,-3.5761046E-1,-0E0,1.8359867E-1,-0E0,-3.980926E-1,-0E0,-0E0,2.0441388E-1,-0E0,-1.0233405E-1,-4.4231337E-1,-0E0,2.1761133E-1,-0E0,-0E0,5.9557524E-2,-2.3910128E-1,-0E0,-4.6810526E-1,-0E0,-0E0,2.2442723E-3,7.4543135E-4,-0E0,-3.186145E-3,-0E0,-4.9590645E-3,-0E0],"categories":[],"categories_nodes":[],"categories_segments":[],"categories_sizes":[],"default_left":[0,0,0,0,0,0,0,0,0,0,0,0,0,0,0,0,0,0,0,0,0,0,0,0,0,0,0,0,0,0,0],"id":26,"left_children":[1,3,5,7,-1,9,11,13,-1,-1,15,17,19,21,-1,23,-1,-1,25,27,-1,29,-1,-1,-1,-1,-1,-1,-1,-1,-1],"loss_changes":[8.767447E0,1.9260983E0,2.1986609E0,1.2909594E0,0E0,8.351612E-1,3.361595E-1,1.3668041E0,0E0,0E0,3.8478756E-1,8.903218E-2,8.129458E-1,7.069025E-1,0E0,1.423006E-1,0E0,0E0,3.377042E-2,4.8528957E-1,0E0,7.389469E-1,0E0,0E0,0E0,0E0,0E0,0E0,0E0,0E0,0E0],"parents":[2147483647,0,0,1,1,2,2,3,3,5,5,6,6,7,7,10,10,11,11,12,12,13,13,15,15,18,18,19,19,21,21],"right_children":[2,4,6,8,-1,10,12,14,-1,-1,16,18,20,22,-1,24,-1,-1,26,28,-1,30,-1,-1,-1,-1,-1,-1,-1,-1,-1],"split_conditions":[9.741124E0,1.11056175E-2,-5.068318E0,6.177769E2,-0E0,-3.292683E-1,1.8103749E0,1.4558618E1,-0E0,-0E0,6.5420675E0,-9.4990835E-2,6.610115E0,1.18358E-1,-0E0,-3.9580188E0,-0E0,-0E0,2.3832195E-1,-5.6637464E0,-0E0,1E0,-0E0,-0E0,2.2442723E-3,7.4543135E-4,-0E0,-3.186145E-3,-0E0,-4.9590645E-3,-0E0],"split_indices":[3878,4091,3819,2801,0,3764,2250,2852,0,0,2848,3022,2852,3030,0,2240,0,0,2357,2462,0,1202,0,0,0,0,0,0,0,0,0],"split_type":[0,0,0,0,0,0,0,0,0,0,0,0,0,0,0,0,0,0,0,0,0,0,0,0,0,0,0,0,0,0,0],"sum_hessian":[2.64E2,8E1,1.84E2,6.8E1,1.2E1,1.24E2,6E1,6.3E1,5E0,4E0,1.2E2,2.8E1,3.2E1,5.8E1,5E0,1.14E2,6E0,3E0,2.5E1,2E1,1.2E1,5.5E1,3E0,4E0,1.1E2,2.2E1,3E0,1.6E1,4E0,5.2E1,3E0],"tree_param":{"num_deleted":"0","num_feature":"4336","num_nodes":"31","size_leaf_vector":"1"}},{"base_weights":[-0E0,-2.714565E-1,9.986769E-2,-3.1626964E-1,-0E0,-1.561812E-2,1.471085E-1,-3.8324067E-1,-0E0,-1.4704785E-1,-0E0,1.8313871E-1,-0E0,-4.2711586E-1,-0E0,-0E0,-2.1995276E-3,-0E0,2.0096909E-1,-0E0,-4.60911E-3,2.1358317E-1,-0E0,2.1973646E-3,-0E0],"categories":[],"categories_nodes":[],"categories_segments":[],"categories_sizes":[],"default_left":[0,0,0,0,0,0,0,0,0,0,0,0,0,0,0,0,0,0,0,0,0,0,0,0,0],"id":27,"left_children":[1,3,5,7,-1,9,11,13,-1,15,-1,17,-1,19,-1,-1,-1,-1,21,-1,-1,23,-1,-1,-1],"loss_changes":[6.2747927E0,1.1827984E0,1.667521E0,1.4531255E0,0E0,3.4249672E-1,1.1238527E0,9.80463E-1,0E0,2.3725718E-1,0E0,8.246517E-1,0E0,6.8616676E-1,0E0,0E0,0E0,0E0,5.696106E-1,0E0,0E0,2.0737171E-1,0E0,0E0,0E0],"parents":[2147483647,0,0,1,1,2,2,3,3,5,5,6,6,7,7,9,9,11,11,13,13,18,18,21,21],"right_children":[2,4,6,8,-1,10,12,14,-1,16,-1,18,-1,20,-1,-1,-1,-1,22,-1,-1,24,-1,-1,-1],"split_conditions":[7.6877623E0,1.5112941E2,8.713095E-1,5.886558E0,-0E0,4.818895E0,-1.8949741E-1,1.5403849E0,-0E0,4.003139E-2,-0E0,4.6884766E0,-0E0,-3.2141006E0,-0E0,-0E0,-2.1995276E-3,-0E0,1E0,-0E0,-4.60911E-3,6.382098E0,-0E0,2.1973646E-3,-0E0],"split_indices":[3878,2803,3061,4222,0,2273,2451,3898,0,2885,0,3921,0,2815,0,0,0,0,916,0,0,3696,0,0,0],"split_type":[0,0,0,0,0,0,0,0,0,0,0,0,0,0,0,0,0,0,0,0,0,0,0,0,0],"sum_hessian":[2.45E2,6E1,1.85E2,5.6E1,4E0,2.3E1,1.62E2,4.8E1,8E0,1.6E1,7E0,1.38E2,2.4E1,4.4E1,4E0,4E0,1.2E1,3E0,1.35E2,3E0,4.1E1,1.32E2,3E0,1.29E2,3E0],"tree_param":{"num_deleted":"0","num_feature":"4336","num_nodes":"25","size_leaf_vector":"1"}},{"base_weights":[-0E0,1.4150152E-1,-2.2378524E-1,1.6721417E-1,-0E0,-3.2659367E-1,-0E0,-0E0,1.9666956E-1,-0E0,-4.0301E-1,2.0974298E-1,-0E0,-4.3703094E-1,-0E0,-0E0,2.2291802E-1,-4.705572E-1,-0E0,-0E0,2.2922584E-3,-4.938926E-3,-0E0],"categories":[],"categories_nodes":[],"categories_segments":[],"categories_sizes":[],"default_left":[0,0,0,0,0,0,0,0,0,0,0,0,0,0,0,0,0,0,0,0,0,0,0],"id":28,"left_children":[1,3,5,7,-1,9,-1,-1,11,-1,13,15,-1,17,-1,-1,19,21,-1,-1,-1,-1,-1],"loss_changes":[9.080014E0,1.0872188E0,2.629313E0,9.727173E-1,0E0,2.516862E0,0E0,0E0,5.858364E-1,0E0,1.3732405E0,5.5424356E-1,0E0,1.095171E0,0E0,0E0,2.0771313E-1,3.993864E-1,0E0,0E0,0E0,0E0,0E0],"parents":[2147483647,0,0,1,1,2,2,3,3,5,5,8,8,10,10,11,11,13,13,16,16,17,17],"right_children":[2,4,6,8,-1,10,-1,-1,12,-1,14,16,-1,18,-1,-1,20,22,-1,-1,-1,-1,-1],"split_conditions":[-4.658163E0,1E0,4.5120144E0,-2.444859E0,-0E0,-2.3758295E0,-0E0,-0E0,1.4049397E0,-0E0,1E0,9.628049E0,-0E0,2.1393962E0,-0E0,-0E0,2.1755199E-1,1E0,-0E0,-0E0,2.2922584E-3,-4.938926E-3,-0E0],"split_indices":[3819,1331,2274,2344,0,2485,0,0,3090,0,286,2682,0,2827,0,0,2946,2166,0,0,0,0,0],"split_type":[0,0,0,0,0,0,0,0,0,0,0,0,0,0,0,0,0,0,0,0,0,0,0],"sum_hessian":[2.76E2,1.58E2,1.18E2,1.52E2,6E0,8E1,3.8E1,1.7E1,1.35E2,1.2E1,6.8E1,1.32E2,3E0,6.5E1,3E0,4E0,1.28E2,6.1E1,4E0,3E0,1.25E2,5.7E1,4E0],"tree_param":{"num_deleted":"0","num_feature":"4336","num_nodes":"23","size_leaf_vector":"1"}},{"base_weights":[-1.0422145E-2,1.3247132E-1,-2.521246E-1,-0E0,1.7572375E-1,-0E0,-3.2941228E-1,1.969804E-1,-0E0,-4.121036E-1,-0E0,-0E0,2.1242784E-1,-0E0,-4.4575682E-1,2.2002622E-3,-0E0,-4.715134E-3,-0E0],"categories":[],"categories_nodes":[],"categories_segments":[],"categories_sizes":[],"default_left":[0,0,0,0,0,0,0,0,0,0,0,0,0,0,0,0,0,0,0],"id":29,"left_children":[1,3,5,-1,7,-1,9,11,-1,13,-1,-1,15,-1,17,-1,-1,-1,-1],"loss_changes":[9.066797E0,1.1706758E0,2.8341293E0,0E0,7.4163413E-1,0E0,1.9441166E0,5.7990265E-1,0E0,1.1423655E0,0E0,0E0,2.1654749E-1,0E0,8.238096E-1,0E0,0E0,0E0,0E0],"parents":[2147483647,0,0,1,1,2,2,4,4,6,6,7,7,9,9,12,12,14,14],"right_children":[2,4,6,-1,8,-1,10,12,-1,14,-1,-1,16,-1,18,-1,-1,-1,-1],"split_conditions":[-4.626063E0,-4.9311125E-1,9.910597E-1,-0E0,-3.1693387E-1,-0E0,2.948261E0,1.5219156E2,-0E0,-4.2683253E-1,-0E0,-0E0,1E0,-0E0,1.3838737E0,2.2002622E-3,-0E0,-4.715134E-3,-0E0],"split_indices":[3819,4139,3375,0,3157,0,2479,2742,0,2756,0,0,1216,0,2867,0,0,0,0],"split_type":[0,0,0,0,0,0,0,0,0,0,0,0,0,0,0,0,0,0,0],"sum_hessian":[2.45E2,1.41E2,1.04E2,2.3E1,1.18E2,1.7E1,8.7E1,1.13E2,5E0,6.7E1,2E1,3E0,1.1E2,4E0,6.3E1,1.07E2,3E0,6E1,3E0],"tree_param":{"num_deleted":"0","num_feature":"4336","num_nodes":"19","size_leaf_vector":"1"}},{"base_weights":[-0E0,-2.7981615E-1,1.05153546E-1,-0E0,-3.4242314E-1,1.5903954E-1,-2.430064E-2,-4.0346643E-1,-0E0,-0E0,1.829073E-1,-1.3959134E-1,-0E0,-4.4167924E-1,-0E0,2.0232971E-1,-0E0,-0E0,-2.3319847E-3,-4.6752104E-1,-0E0,-0E0,2.1390699E-1,-4.814261E-3,-0E0,2.2550502E-3,-0E0],"categories":[],"categories_nodes":[],"categories_segments":[],"categories_sizes":[],"default_left":[0,0,0,0,0,0,0,0,0,0,0,0,0,0,0,0,0,0,0,0,0,0,0,0,0,0,0],"id":30,"left_children":[1,3,5,-1,7,9,11,13,-1,-1,15,17,-1,19,-1,21,-1,-1,-1,23,-1,-1,25,-1,-1,-1,-1],"loss_changes":[8.273171E0,1.674418E0,1.9862223E0,0E0,1.9156718E0,1.0724716E0,3.3609828E-1,1.3557119E0,0E0,0E0,7.770934E-1,3.5970607E-1,0E0,6.858578E-1,0E0,5.571327E-1,0E0,0E0,0E0,1.8546104E-2,0E0,0E0,5.665326E-1,0E0,0E0,0E0,0E0],"parents":[2147483647,0,0,1,1,2,2,4,4,5,5,6,6,7,7,10,10,11,11,13,13,15,15,19,19,22,22],"right_children":[2,4,6,-1,8,10,12,14,-1,-1,16,18,-1,20,-1,22,-1,-1,-1,24,-1,-1,26,-1,-1,-1,-1],"split_conditions":[5.9066586E0,2.789256E0,2.3333906E-1,-0E0,3.7107437E1,1.9609839E0,1.2859728E0,1.4043569E1,-0E0,-0E0,3.617867E0,-4.531302E-1,-0E0,1.2692466E0,-0E0,-7.0636384E-2,-0E0,-0E0,-2.3319847E-3,1E0,-0E0,-0E0,5.416667E-1,-4.814261E-3,-0E0,2.2550502E-3,-0E0],"split_indices":[2364,2865,2750,0,2764,3894,2475,2387,0,0,2438,2839,0,3145,0,3028,0,0,0,1776,0,0,3769,0,0,0,0],"split_type":[0,0,0,0,0,0,0,0,0,0,0,0,0,0,0,0,0,0,0,0,0,0,0,0,0,0,0],"sum_hessian":[2.67E2,7.9E1,1.88E2,1.2E1,6.7E1,1.6E2,2.8E1,6E1,7E0,7E0,1.53E2,1.8E1,1E1,5.7E1,3E0,1.44E2,9E0,5E0,1.3E1,5.4E1,3E0,3E0,1.41E2,5.1E1,3E0,1.38E2,3E0],"tree_param":{"num_deleted":"0","num_feature":"4336","num_nodes":"27","size_leaf_vector":"1"}},{"base_weights":[1.0265213E-2,-3.2610583E-1,1.053586E-1,-0E0,-3.9406222E-1,1.6252293E-1,-0E0,-4.288013E-3,-0E0,1.9167987E-1,-0E0,-0E0,-1.0526504E-1,-0E0,2.0794158E-1,-0E0,-2.117891E-1,2.2005235E-1,-0E0,-2.90001E-1,-0E0,2.3166144E-3,-0E0,-3.388616E-3,-0E0],"categories":[],"categories_nodes":[],"categories_segments":[],"categories_sizes":[],"default_left":[0,0,0,0,0,0,0,0,0,0,0,0,0,0,0,0,0,0,0,0,0,0,0,0,0],"id":31,"left_children":[1,3,5,-1,7,9,11,-1,-1,13,-1,-1,15,-1,17,-1,19,21,-1,23,-1,-1,-1,-1,-1],"loss_changes":[7.1234703E0,1.5860558E0,2.0065002E0,0E0,6.232543E-1,1.1172056E0,3.2244924E-1,0E0,0E0,7.527323E-1,0E0,0E0,7.1369267E-1,0E0,5.53226E-1,0E0,6.542796E-1,4.1268063E-1,0E0,2.731235E-1,0E0,0E0,0E0,0E0,0E0],"parents":[2147483647,0,0,1,1,2,2,4,4,5,5,6,6,9,9,12,12,14,14,16,16,17,17,19,19],"right_children":[2,4,6,-1,8,10,12,-1,-1,14,-1,-1,16,-1,18,-1,20,22,-1,24,-1,-1,-1,-1,-1],"split_conditions":[4.59114E2,-1.4710152E0,2.9516044E-1,-0E0,3.6065416E0,-1.6910146E0,-4.950866E-1,-4.288013E-3,-0E0,-1.3582424E-2,-0E0,-0E0,-1.307999E1,-0E0,1E0,-0E0,1.1110939E-1,1E0,-0E0,7.452719E-1,-0E0,2.3166144E-3,-0E0,-3.388616E-3,-0E0],"split_indices":[2620,2278,3884,0,2846,2257,2964,0,0,2857,0,0,2239,0,852,0,2886,2171,0,3085,0,0,0,0,0],"split_type":[0,0,0,0,0,0,0,0,0,0,0,0,0,0,0,0,0,0,0,0,0,0,0,0,0],"sum_hessian":[2.57E2,4.5E1,2.12E2,4E0,4.1E1,1.65E2,4.7E1,3.8E1,3E0,1.49E2,1.6E1,1.8E1,2.9E1,5E0,1.44E2,6E0,2.3E1,1.4E2,4E0,2E1,3E0,1.34E2,6E0,1.7E1,3E0],"tree_param":{"num_deleted":"0","num_feature":"4336","num_nodes":"25","size_leaf_vector":"1"}},{"base_weights":[-0E0,1.2625936E-1,-2.1768957E-1,1.747921E-1,-0E0,-3.161276E-1,-0E0,1.9974783E-1,-0E0,-0E0,-5.486783E-2,-3.8713562E-1,-0E0,-0E0,1.6358044E-2,2.1306159E-1,-0E0,-1.0233398E-3,-0E0,-4.358589E-1,-0E0,-0E0,2.3286922E-4,2.2007157E-3,-0E0,-4.7564846E-3,-0E0],"categories":[],"categories_nodes":[],"categories_segments":[],"categories_sizes":[],"default_left":[0,0,0,0,0,0,0,0,0,0,0,0,0,0,0,0,0,0,0,0,0,0,0,0,0,0,0],"id":32,"left_children":[1,3,5,7,9,11,13,15,-1,-1,17,19,-1,-1,21,23,-1,-1,-1,25,-1,-1,-1,-1,-1,-1,-1],"loss_changes":[7.3906136E0,1.5753906E0,2.4669795E0,9.834738E-1,3.9437275E-2,2.15168E0,5.3784703E-3,5.6785727E-1,0E0,0E0,5.586013E-2,1.7703562E0,0E0,0E0,3.8945284E-3,2.3454237E-1,0E0,0E0,0E0,1.2385035E0,0E0,0E0,0E0,0E0,0E0,0E0,0E0],"parents":[2147483647,0,0,1,1,2,2,3,3,4,4,5,5,6,6,7,7,10,10,11,11,14,14,15,15,19,19],"right_children":[2,4,6,8,10,12,14,16,-1,-1,18,20,-1,-1,22,24,-1,-1,-1,26,-1,-1,-1,-1,-1,-1,-1],"split_conditions":[-4.556207E0,2.3333906E-1,9.2978325E0,-3.4851224E0,9.739411E-1,1.5339913E0,-3.468904E1,2.869989E1,-0E0,-0E0,-5.5513005E0,2.1600509E0,-0E0,-0E0,-8.364614E-2,1E0,-0E0,-1.0233398E-3,-0E0,6.6943294E-6,-0E0,-0E0,2.3286922E-4,2.2007157E-3,-0E0,-4.7564846E-3,-0E0],"split_indices":[3819,2750,2529,2263,3151,2827,2764,3867,0,0,3819,3593,0,0,2971,799,0,0,0,3889,0,0,0,0,0,0,0],"split_type":[0,0,0,0,0,0,0,0,0,0,0,0,0,0,0,0,0,0,0,0,0,0,0,0,0,0,0],"sum_hessian":[2.62E2,1.6E2,1.02E2,1.35E2,2.5E1,7.3E1,2.9E1,1.28E2,7E0,1.2E1,1.3E1,6.3E1,1E1,9E0,2E1,1.25E2,3E0,9E0,4E0,5.9E1,4E0,3E0,1.7E1,1.22E2,3E0,5.5E1,4E0],"tree_param":{"num_deleted":"0","num_feature":"4336","num_nodes":"27","size_leaf_vector":"1"}},{"base_weights":[-0E0,1.1951804E-1,-2.6908663E-1,1.6692089E-1,-2.8759057E-2,-3.266523E-1,-0E0,1.891448E-1,-0E0,-1.9200043E-3,-0E0,-0E0,-3.7980637E-1,2.1378072E-1,-0E0,-4.1302782E-1,-0E0,-0E0,2.25107E-3,-0E0,-4.4780827E-1,-0E0,-4.7310516E-3],"categories":[],"categories_nodes":[],"categories_segments":[],"categories_sizes":[],"default_left":[0,0,0,0,0,0,0,0,0,0,0,0,0,0,0,0,0,0,0,0,0,0,0],"id":33,"left_children":[1,3,5,7,9,11,-1,13,-1,-1,-1,-1,15,17,-1,19,-1,-1,-1,-1,21,-1,-1],"loss_changes":[8.921221E0,2.013398E0,1.6723018E0,1.008223E0,4.6629626E-1,1.7727704E0,0E0,9.394655E-1,0E0,0E0,0E0,0E0,1.255579E0,4.679222E-1,0E0,1.1170425E0,0E0,0E0,0E0,0E0,7.286205E-1,0E0,0E0],"parents":[2147483647,0,0,1,1,2,2,3,3,4,4,5,5,7,7,12,12,13,13,15,15,20,20],"right_children":[2,4,6,8,10,12,-1,14,-1,-1,-1,-1,16,18,-1,20,-1,-1,-1,-1,22,-1,-1],"split_conditions":[-4.255003E0,1.9784258E-3,2.8213467E1,5.0767857E-1,1.019436E1,-4.967749E0,-0E0,1E0,-0E0,-1.9200043E-3,-0E0,-0E0,1E0,5.06545E0,-0E0,2.7592592E-2,-0E0,-0E0,2.25107E-3,-0E0,-5.4732996E-1,-0E0,-4.7310516E-3],"split_indices":[3819,2920,3862,4140,2399,2377,0,1317,0,0,0,0,767,2353,0,4085,0,0,0,0,2752,0,0],"split_type":[0,0,0,0,0,0,0,0,0,0,0,0,0,0,0,0,0,0,0,0,0,0,0],"sum_hessian":[2.74E2,1.88E2,8.6E1,1.68E2,2E1,7.4E1,1.2E1,1.59E2,9E0,1.3E1,7E0,7E0,6.7E1,1.45E2,1.4E1,6.4E1,3E0,5E0,1.4E2,4E0,6E1,3E0,5.7E1],"tree_param":{"num_deleted":"0","num_feature":"4336","num_nodes":"23","size_leaf_vector":"1"}},{"base_weights":[-6.4188284E-3,1.2924439E-1,-2.5768033E-1,1.652001E-1,-0E0,-3.397391E-1,-0E0,1.9185963E-1,-0E0,-0E0,-4.0515223E-1,2.0642038E-1,-0E0,-0E0,-4.4363272E-1,-0E0,2.134708E-3,-0E0,-4.6862178E-3],"categories":[],"categories_nodes":[],"categories_segments":[],"categories_sizes":[],"default_left":[0,0,0,0,0,0,0,0,0,0,0,0,0,0,0,0,0,0,0],"id":34,"left_children":[1,3,5,7,-1,9,-1,11,-1,-1,13,15,-1,-1,17,-1,-1,-1,-1],"loss_changes":[9.409265E0,1.085629E0,2.399603E0,7.243521E-1,0E0,2.0972958E0,0E0,5.628629E-1,0E0,0E0,8.792515E-1,2.0699406E-1,0E0,0E0,5.372305E-1,0E0,0E0,0E0,0E0],"parents":[2147483647,0,0,1,1,2,2,3,3,5,5,7,7,10,10,11,11,14,14],"right_children":[2,4,6,8,-1,10,-1,12,-1,-1,14,16,-1,-1,18,-1,-1,-1,-1],"split_conditions":[-4.7045746E0,8.262174E-1,8.3490455E-1,6.3926773E-3,-0E0,-4.939048E0,-0E0,1E0,-0E0,-0E0,-3.2250133E0,-3.6743295E0,-0E0,-0E0,-5.2627176E-1,-0E0,2.134708E-3,-0E0,-4.6862178E-3],"split_indices":[3819,2293,3869,2938,0,2257,0,1742,0,0,2304,2251,0,0,2278,0,0,0,0],"split_type":[0,0,0,0,0,0,0,0,0,0,0,0,0,0,0,0,0,0,0],"sum_hessian":[2.57E2,1.54E2,1.03E2,1.34E2,2E1,8E1,2.3E1,1.19E2,1.5E1,1.1E1,6.9E1,1.16E2,3E0,7E0,6.2E1,3E0,1.13E2,4E0,5.8E1],"tree_param":{"num_deleted":"0","num_feature":"4336","num_nodes":"19","size_leaf_vector":"1"}},{"base_weights":[-0E0,-3.6794037E-1,9.263225E-2,-4.071673E-1,-0E0,-7.576414E-2,1.610517E-1,-0E0,-4.30466E-3,-0E0,-2.4095163E-1,1.9146316E-1,-0E0,-3.267137E-3,-0E0,-0E0,2.0633991E-1,2.1651521E-1,-0E0,-0E0,2.279822E-3],"categories":[],"categories_nodes":[],"categories_segments":[],"categories_sizes":[],"default_left":[0,0,0,0,0,0,0,0,0,0,0,0,0,0,0,0,0,0,0,0,0],"id":35,"left_children":[1,3,5,7,-1,9,11,-1,-1,-1,13,15,-1,-1,-1,-1,17,19,-1,-1,-1],"loss_changes":[9.711301E0,1.2691803E0,2.9059522E0,3.3411503E-1,0E0,1.1632677E0,1.3165646E0,0E0,0E0,0E0,8.530626E-1,7.7125216E-1,0E0,0E0,0E0,0E0,4.798293E-1,3.5435677E-1,0E0,0E0,0E0],"parents":[2147483647,0,0,1,1,2,2,3,3,5,5,6,6,10,10,11,11,16,16,17,17],"right_children":[2,4,6,8,-1,10,12,-1,-1,-1,14,16,-1,-1,-1,-1,18,20,-1,-1,-1],"split_conditions":[1.0763254E4,8.508776E2,-3.5754487E-1,-1.4579817E0,-0E0,-2.27315E-1,-3.819885E0,-0E0,-4.30466E-3,-0E0,4.6551723E-2,2.9103582E0,-0E0,-3.267137E-3,-0E0,-0E0,1E0,-1.0232165E1,-0E0,-0E0,2.279822E-3],"split_indices":[2648,2810,3658,2282,0,2243,2385,0,0,0,3753,2359,0,0,0,0,471,2372,0,0,0],"split_type":[0,0,0,0,0,0,0,0,0,0,0,0,0,0,0,0,0,0,0,0,0],"sum_hessian":[2.73E2,5.8E1,2.15E2,5.5E1,3E0,4.1E1,1.74E2,4E0,5.1E1,1.7E1,2.4E1,1.59E2,1.5E1,2.1E1,3E0,4E0,1.55E2,1.51E2,4E0,8E0,1.43E2],"tree_param":{"num_deleted":"0","num_feature":"4336","num_nodes":"21","size_leaf_vector":"1"}},{"base_weights":[-1.2065063E-2,-3.2748717E-1,6.939177E-2,-0E0,-3.6942548E-1,-1.3277833E-1,1.3824037E-1,-4.019144E-1,-0E0,-3.0478004E-3,-0E0,1.6226295E-1,-0E0,-4.2965153E-1,-0E0,1.8551078E-1,-0E0,-0E0,-4.437403E-3,1.9813046E-1,-0E0,-0E0,2.1120994E-3],"categories":[],"categories_nodes":[],"categories_segments":[],"categories_sizes":[],"default_left":[0,0,0,0,0,0,0,0,0,0,0,0,0,0,0,0,0,0,0,0,0,0,0],"id":36,"left_children":[1,3,5,-1,7,9,11,13,-1,-1,-1,15,-1,17,-1,19,-1,-1,-1,21,-1,-1,-1],"loss_changes":[7.487402E0,1.1326413E0,2.5220613E0,0E0,7.847862E-1,1.2964404E0,8.8735485E-1,6.709652E-1,0E0,0E0,0E0,9.929755E-1,0E0,2.5765419E-2,0E0,5.556755E-1,0E0,0E0,0E0,5.948448E-1,0E0,0E0,0E0],"parents":[2147483647,0,0,1,1,2,2,4,4,5,5,6,6,7,7,11,11,13,13,15,15,19,19],"right_children":[2,4,6,-1,8,10,12,14,-1,-1,-1,16,-1,18,-1,20,-1,-1,-1,22,-1,-1,-1],"split_conditions":[1.1275156E4,-1.4579817E0,-3.5754487E-1,-0E0,1.3727371E1,6.622712E1,-2.1543731E-1,1E0,-0E0,-3.0478004E-3,-0E0,5.50746E-1,-0E0,4.1445136E-1,-0E0,1E0,-0E0,-0E0,-4.437403E-3,2.857574E0,-0E0,-0E0,2.1120994E-3],"split_indices":[2648,2282,3658,0,2529,3841,2402,4051,0,0,0,2382,0,2302,0,1331,0,0,0,2295,0,0,0],"split_type":[0,0,0,0,0,0,0,0,0,0,0,0,0,0,0,0,0,0,0,0,0,0,0],"sum_hessian":[2.41E2,6.2E1,1.79E2,5E0,5.7E1,2.7E1,1.52E2,5.3E1,4E0,1.9E1,8E0,1.44E2,8E0,5E1,3E0,1.39E2,5E0,3E0,4.7E1,1.36E2,3E0,3E0,1.33E2],"tree_param":{"num_deleted":"0","num_feature":"4336","num_nodes":"23","size_leaf_vector":"1"}},{"base_weights":[-0E0,-3.2989678E-1,6.0702402E-2,-3.9208156E-1,-0E0,-1.1227351E-1,1.3153628E-1,-4.2600273E-3,-0E0,-3.0801162E-1,-0E0,1.6738123E-1,-0E0,-3.5204806E-3,-0E0,-0E0,1.9466077E-1,-0E0,-3.095229E-4,-0E0,2.1447438E-1,2.207994E-3,-0E0],"categories":[],"categories_nodes":[],"categories_segments":[],"categories_sizes":[],"default_left":[0,0,0,0,0,0,0,0,0,0,0,0,0,0,0,0,0,0,0,0,0,0,0],"id":37,"left_children":[1,3,5,7,-1,9,11,-1,-1,13,-1,15,17,-1,-1,-1,19,-1,-1,-1,21,-1,-1],"loss_changes":[6.073601E0,1.5894856E0,2.525021E0,7.0710707E-1,0E0,1.7238655E0,1.1938224E0,0E0,0E0,2.9962683E-1,0E0,1.0244997E0,8.718204E-3,0E0,0E0,0E0,8.868642E-1,0E0,0E0,0E0,2.0641708E-1,0E0,0E0],"parents":[2147483647,0,0,1,1,2,2,3,3,5,5,6,6,9,9,11,11,12,12,16,16,20,20],"right_children":[2,4,6,8,-1,10,12,-1,-1,14,-1,16,18,-1,-1,-1,20,-1,-1,-1,22,-1,-1],"split_conditions":[5.199783E2,1.0000541E1,-3.5754487E-1,1.2744409E0,-0E0,1.14817705E1,6.7809067E0,-4.2600273E-3,-0E0,9.113011E-1,-0E0,3.5258417E0,1.7354201E0,-3.5204806E-3,-0E0,-0E0,-7.717793E-2,-0E0,-3.095229E-4,-0E0,1E0,2.207994E-3,-0E0],"split_indices":[2612,2851,3658,3126,0,2347,2254,0,0,3125,0,3746,3654,0,0,0,3020,0,0,0,1205,0,0],"split_type":[0,0,0,0,0,0,0,0,0,0,0,0,0,0,0,0,0,0,0,0,0,0,0],"sum_hessian":[2.47E2,4.9E1,1.98E2,4.5E1,4E0,3.7E1,1.61E2,4.2E1,3E0,2.3E1,1.4E1,1.42E2,1.9E1,2E1,3E0,1E1,1.32E2,1E1,9E0,4E0,1.28E2,1.25E2,3E0],"tree_param":{"num_deleted":"0","num_feature":"4336","num_nodes":"23","size_leaf_vector":"1"}},{"base_weights":[-0E0,-3.3095095E-1,8.796665E-2,-3.696353E-1,-0E0,1.3995713E-1,-8.550958E-2,-4.0856156E-1,-0E0,-0E0,1.8019593E-1,-2.2260697E-1,-0E0,-0E0,-4.2285053E-3,-6.599246E-2,-0E0,2.0308867E-1,-0E0,-2.6863185E-3,-0E0,-1.6967425E-3,-0E0,2.1399532E-1,-0E0,2.2012366E-3,-0E0],"categories":[],"categories_nodes":[],"categories_segments":[],"categories_sizes":[],"default_left":[0,0,0,0,0,0,0,0,0,0,0,0,0,0,0,0,0,0,0,0,0,0,0,0,0,0,0],"id":38,"left_children":[1,3,5,7,-1,9,11,13,-1,15,17,19,-1,-1,-1,21,-1,23,-1,-1,-1,-1,-1,25,-1,-1,-1],"loss_changes":[7.644132E0,1.056313E0,2.2765794E0,7.1332407E-1,0E0,1.5135076E0,6.8414897E-1,1.1261463E-2,0E0,7.447057E-2,6.474557E-1,1.927374E-1,0E0,0E0,0E0,3.026699E-1,0E0,5.1812696E-1,0E0,0E0,0E0,0E0,0E0,2.300229E-1,0E0,0E0,0E0],"parents":[2147483647,0,0,1,1,2,2,3,3,5,5,6,6,7,7,9,9,10,10,11,11,15,15,17,17,23,23],"right_children":[2,4,6,8,-1,10,12,14,-1,16,18,20,-1,-1,-1,22,-1,24,-1,-1,-1,-1,-1,26,-1,-1,-1],"split_conditions":[2.5025364E1,5.518929E0,-1.9401512E0,1E0,-0E0,-3.8439098E-1,6.0520153E0,-7.726485E-1,-0E0,4E1,7.1969385E0,8.44179E-2,-0E0,-0E0,-4.2285053E-3,1.8027516E-2,-0E0,3.294778E-3,-0E0,-2.6863185E-3,-0E0,-1.6967425E-3,-0E0,7.4149117E0,-0E0,2.2012366E-3,-0E0],"split_indices":[3366,3599,2257,1312,0,3658,3872,2312,0,3728,2460,2971,0,0,0,3015,0,2864,0,0,0,0,0,2848,0,0,0],"split_type":[0,0,0,0,0,0,0,0,0,0,0,0,0,0,0,0,0,0,0,0,0,0,0,0,0,0,0],"sum_hessian":[2.76E2,5.4E1,2.22E2,5.1E1,3E0,1.93E2,2.9E1,4.6E1,5E0,3E1,1.63E2,1.8E1,1.1E1,3E0,4.3E1,1.7E1,1.3E1,1.44E2,1.9E1,1.5E1,3E0,1.3E1,4E0,1.41E2,3E0,1.38E2,3E0],"tree_param":{"num_deleted":"0","num_feature":"4336","num_nodes":"27","size_leaf_vector":"1"}},{"base_weights":[-0E0,1.2775773E-1,-2.1235661E-1,-0E0,1.5406013E-1,-0E0,-3.4398118E-1,1.7660116E-1,-0E0,1.3010047E-2,-0E0,-0E0,-3.8735205E-1,-0E0,1.9517857E-1,-0E0,9.330339E-4,-4.288312E-3,-0E0,-0E0,2.0916231E-3],"categories":[],"categories_nodes":[],"categories_segments":[],"categories_sizes":[],"default_left":[0,0,0,0,0,0,0,0,0,0,0,0,0,0,0,0,0,0,0,0,0],"id":39,"left_children":[1,3,5,-1,7,9,11,13,-1,15,-1,-1,17,-1,19,-1,-1,-1,-1,-1,-1],"loss_changes":[6.6405716E0,9.257319E-1,3.0592952E0,0E0,7.1744084E-1,4.4177207E-3,1.2195153E0,5.4189754E-1,0E0,1.9667986E-1,0E0,0E0,1.3814106E0,0E0,4.9842072E-1,0E0,0E0,0E0,0E0,0E0,0E0],"parents":[2147483647,0,0,1,1,2,2,4,4,5,5,6,6,7,7,9,9,12,12,14,14],"right_children":[2,4,6,-1,8,10,12,14,-1,16,-1,-1,18,-1,20,-1,-1,-1,-1,-1,-1],"split_conditions":[-4.658163E0,7.974E-1,1.9808884E0,-0E0,1E0,1.0702405E0,2.9516773E0,-4.5173123E-1,-0E0,4.1666668E-2,-0E0,-0E0,1E0,-0E0,2.857574E0,-0E0,9.330339E-4,-4.288312E-3,-0E0,-0E0,2.0916231E-3],"split_indices":[3819,3061,4153,0,541,3131,2865,2224,0,4067,0,0,4007,0,2295,0,0,0,0,0,0],"split_type":[0,0,0,0,0,0,0,0,0,0,0,0,0,0,0,0,0,0,0,0,0],"sum_hessian":[2.39E2,1.44E2,9.5E1,6E0,1.38E2,3.3E1,6.2E1,1.28E2,1E1,2.6E1,7E0,5E0,5.7E1,9E0,1.19E2,3E0,2.3E1,5.4E1,3E0,4E0,1.15E2],"tree_param":{"num_deleted":"0","num_feature":"4336","num_nodes":"21","size_leaf_vector":"1"}},{"base_weights":[-1.2139488E-2,1.1031135E-1,-2.510076E-1,1.4374492E-1,-0E0,-3.1827238E-1,-0E0,1.7314565E-1,-0E0,-2.7680994E-4,-0E0,-3.6999166E-1,-0E0,1.9539559E-1,-0E0,-3.9601183E-1,-0E0,-0E0,2.084993E-3,-4.235255E-1,-0E0,-4.436332E-3,-0E0],"categories":[],"categories_nodes":[],"categories_segments":[],"categories_sizes":[],"default_left":[0,0,0,0,0,0,0,0,0,0,0,0,0,0,0,0,0,0,0,0,0,0,0],"id":40,"left_children":[1,3,5,7,9,11,-1,13,-1,-1,-1,15,-1,17,-1,19,-1,-1,-1,21,-1,-1,-1],"loss_changes":[8.752815E0,1.1592283E0,2.3790727E0,9.9534726E-1,6.206522E-3,2.1120968E0,0E0,6.906686E-1,0E0,0E0,0E0,1.1659021E0,0E0,4.6061277E-1,0E0,1.2454643E0,0E0,0E0,0E0,7.364912E-1,0E0,0E0,0E0],"parents":[2147483647,0,0,1,1,2,2,3,3,4,4,5,5,7,7,11,11,13,13,15,15,19,19],"right_children":[2,4,6,8,10,12,-1,14,-1,-1,-1,16,-1,18,-1,20,-1,-1,-1,22,-1,-1,-1],"split_conditions":[-4.626063E0,1E0,7.6603136E0,2.2231627E0,6.673004E1,1.8674812E0,-0E0,1.5854658E0,-0E0,-2.7680994E-4,-0E0,1E0,-0E0,9.9571824E-1,-0E0,1E0,-0E0,-0E0,2.084993E-3,3.6421494E0,-0E0,-4.436332E-3,-0E0],"split_indices":[3819,2517,2852,3570,3841,3516,0,3590,0,0,0,1055,0,2319,0,196,0,0,0,2307,0,0,0],"split_type":[0,0,0,0,0,0,0,0,0,0,0,0,0,0,0,0,0,0,0,0,0,0,0],"sum_hessian":[2.75E2,1.68E2,1.07E2,1.55E2,1.3E1,9E1,1.7E1,1.4E2,1.5E1,8E0,5E0,8.2E1,8E0,1.28E2,1.2E1,7.9E1,3E0,5E0,1.23E2,7.6E1,3E0,7.3E1,3E0],"tree_param":{"num_deleted":"0","num_feature":"4336","num_nodes":"23","size_leaf_vector":"1"}},{"base_weights":[-0E0,-2.7660668E-1,7.117932E-2,-0E0,-3.3760217E-1,1.251392E-1,-2.8086118E-2,-3.9590155E-3,-0E0,1.4884126E-1,-0E0,-0E0,-1.6812888E-1,-0E0,1.6517338E-1,-0E0,-2.4273024E-1,1.9637665E-1,-0E0,-0E0,-2.884097E-3,-0E0,2.0976039E-3],"categories":[],"categories_nodes":[],"categories_segments":[],"categories_sizes":[],"default_left":[0,0,0,0,0,0,0,0,0,0,0,0,0,0,0,0,0,0,0,0,0,0,0],"id":41,"left_children":[1,3,5,-1,7,9,11,-1,-1,13,-1,-1,15,-1,17,-1,19,21,-1,-1,-1,-1,-1],"loss_changes":[5.036022E0,1.1915102E0,1.5145724E0,0E0,1.1876764E0,8.8726854E-1,5.9701985E-1,0E0,0E0,6.930733E-1,0E0,0E0,5.006255E-1,0E0,6.68138E-1,0E0,2.138673E-1,3.116951E-1,0E0,0E0,0E0,0E0,0E0],"parents":[2147483647,0,0,1,1,2,2,4,4,5,5,6,6,9,9,12,12,14,14,16,16,17,17],"right_children":[2,4,6,-1,8,10,12,-1,-1,14,-1,-1,16,-1,18,-1,20,22,-1,-1,-1,-1,-1],"split_conditions":[1.3827262E4,-2.5961432E-1,2E0,-0E0,2.038847E-1,3.456872E1,-9.753221E0,-3.9590155E-3,-0E0,2.9219277E0,-0E0,-0E0,1.0032854E0,-0E0,3.3357022E0,-0E0,-1.0295085E3,-8.176648E0,-0E0,-0E0,-2.884097E-3,-0E0,2.0976039E-3],"split_indices":[2647,2755,4261,0,2966,2855,2380,0,0,2295,0,0,2311,0,2286,0,2805,2393,0,0,0,0,0],"split_type":[0,0,0,0,0,0,0,0,0,0,0,0,0,0,0,0,0,0,0,0,0,0,0],"sum_hessian":[2.45E2,5.3E1,1.92E2,7E0,4.6E1,1.57E2,3.5E1,4.1E1,5E0,1.51E2,6E0,1.3E1,2.2E1,3E0,1.48E2,3E0,1.9E1,1.22E2,2.6E1,3E0,1.6E1,8E0,1.14E2],"tree_param":{"num_deleted":"0","num_feature":"4336","num_nodes":"23","size_leaf_vector":"1"}},{"base_weights":[-0E0,-2.7052566E-1,6.672327E-2,-0E0,-3.244043E-1,1.3540357E-1,-3.329319E-2,-0E0,-3.6392325E-1,1.8642521E-1,-0E0,-0E0,-1.4968844E-1,-3.9207467E-1,-0E0,2.0134402E-3,-0E0,-0E0,-3.235247E-2,-0E0,-2.4275036E-1,-4.050092E-3,-0E0,-0E0,-1.2096222E-3,-0E0,-3.1362786E-3],"categories":[],"categories_nodes":[],"categories_segments":[],"categories_sizes":[],"default_left":[0,0,0,0,0,0,0,0,0,0,0,0,0,0,0,0,0,0,0,0,0,0,0,0,0,0,0],"id":42,"left_children":[1,3,5,-1,7,9,11,-1,13,15,17,-1,19,21,-1,-1,-1,-1,23,-1,25,-1,-1,-1,-1,-1,-1],"loss_changes":[5.1601033E0,1.2950177E0,1.686316E0,0E0,1.074307E0,1.3185878E0,6.0758454E-1,0E0,6.2636423E-1,4.9796128E-1,1.2664856E-2,0E0,6.502701E-1,3.809452E-3,0E0,0E0,0E0,0E0,1.2048507E-1,0E0,4.7805715E-1,0E0,0E0,0E0,0E0,0E0,0E0],"parents":[2147483647,0,0,1,1,2,2,4,4,5,5,6,6,8,8,9,9,10,10,12,12,13,13,18,18,20,20],"right_children":[2,4,6,-1,8,10,12,-1,14,16,18,-1,20,22,-1,-1,-1,-1,24,-1,26,-1,-1,-1,-1,-1,-1],"split_conditions":[2.1E2,-5.628746E0,1.315402E1,-0E0,-3.6362464E0,3.206421E-1,-8.005006E0,-0E0,2.0105453E-2,1.1463E2,1.0009134E0,-0E0,-6.042806E-2,2.0955544E0,-0E0,2.0134402E-3,-0E0,-0E0,-3.961494E0,-0E0,2.230744E0,-4.050092E-3,-0E0,-0E0,-1.2096222E-3,-0E0,-3.1362786E-3],"split_indices":[2566,2247,3867,0,2487,3317,2263,0,4090,4070,3145,0,2876,3090,0,0,0,0,2333,0,2777,0,0,0,0,0,0],"split_type":[0,0,0,0,0,0,0,0,0,0,0,0,0,0,0,0,0,0,0,0,0,0,0,0,0,0,0],"sum_hessian":[2.31E2,6E1,1.71E2,6E0,5.4E1,1.31E2,4E1,3E0,5.1E1,1.07E2,2.4E1,1.1E1,2.9E1,4.8E1,3E0,1.04E2,3E0,1.2E1,1.2E1,7E0,2.2E1,4.5E1,3E0,3E0,9E0,4E0,1.8E1],"tree_param":{"num_deleted":"0","num_feature":"4336","num_nodes":"27","size_leaf_vector":"1"}},{"base_weights":[-5.546813E-3,-3.4962395E-1,5.748085E-2,-3.91803E-1,-0E0,1.2897676E-1,-7.647357E-2,-4.050913E-3,-0E0,-0E0,1.5676726E-1,-1.7395799E-1,-0E0,1.7255728E-1,-0E0,-2.958393E-1,-0E0,1.9318211E-1,-0E0,-0E0,-3.5025792E-3,-0E0,2.0615608E-3],"categories":[],"categories_nodes":[],"categories_segments":[],"categories_sizes":[],"default_left":[0,0,0,0,0,0,0,0,0,0,0,0,0,0,0,0,0,0,0,0,0,0,0],"id":43,"left_children":[1,3,5,7,-1,9,11,-1,-1,-1,13,15,-1,17,-1,19,-1,21,-1,-1,-1,-1,-1],"loss_changes":[7.0382924E0,1.0152688E0,2.2277846E0,1.7050743E-2,0E0,1.083435E0,8.169853E-1,0E0,0E0,0E0,6.368456E-1,1.1918595E0,0E0,7.288847E-1,0E0,3.0426598E-1,0E0,5.351329E-1,0E0,0E0,0E0,0E0,0E0],"parents":[2147483647,0,0,1,1,2,2,3,3,5,5,6,6,10,10,11,11,13,13,15,15,17,17],"right_children":[2,4,6,8,-1,10,12,-1,-1,-1,14,16,-1,18,-1,20,-1,22,-1,-1,-1,-1,-1],"split_conditions":[1.152138E4,4.657999E0,4.9329105E-1,1E0,-0E0,-1.159323E0,1.6446176E2,-4.050913E-3,-0E0,-0E0,-8.6602256E-2,1.8740655E-1,-0E0,1E0,-0E0,-3.2838583E0,-0E0,5.3066004E-2,-0E0,-0E0,-3.5025792E-3,-0E0,2.0615608E-3],"split_indices":[2647,2439,4092,917,0,3869,2744,0,0,0,2402,2898,0,1317,0,2255,0,3296,0,0,0,0,0],"split_type":[0,0,0,0,0,0,0,0,0,0,0,0,0,0,0,0,0,0,0,0,0,0,0],"sum_hessian":[2.57E2,5.2E1,2.05E2,4.8E1,4E0,1.58E2,4.7E1,4.5E1,3E0,7E0,1.51E2,3.6E1,1.1E1,1.46E2,5E0,2.6E1,1E1,1.36E2,1E1,5E0,2.1E1,4E0,1.32E2],"tree_param":{"num_deleted":"0","num_feature":"4336","num_nodes":"23","size_leaf_vector":"1"}},{"base_weights":[-0E0,1.1150298E-1,-1.7996144E-1,1.4721625E-1,-0E0,-0E0,-3.4201142E-1,1.7126171E-1,-0E0,3.8494589E-3,-9.4787344E-2,-0E0,-3.828466E-3,1.8765122E-1,-0E0,-0E0,6.516136E-2,-0E0,-2.3750131E-1,2.011589E-3,-0E0,7.66771E-4,-0E0,-3.102337E-3,-0E0],"categories":[],"categories_nodes":[],"categories_segments":[],"categories_sizes":[],"default_left":[0,0,0,0,0,0,0,0,0,0,0,0,0,0,0,0,0,0,0,0,0,0,0,0,0],"id":44,"left_children":[1,3,5,7,-1,9,11,13,-1,15,17,-1,-1,19,-1,-1,21,-1,23,-1,-1,-1,-1,-1,-1],"loss_changes":[5.5041847E0,1.1733469E0,2.1974185E0,9.1856813E-1,0E0,3.157773E-1,8.966594E-1,5.071273E-1,0E0,1.0191227E-1,1.1568583E0,0E0,0E0,5.408726E-1,0E0,0E0,2.1726184E-2,0E0,7.5103915E-1,0E0,0E0,0E0,0E0,0E0,0E0],"parents":[2147483647,0,0,1,1,2,2,3,3,5,5,6,6,7,7,9,9,10,10,13,13,16,16,18,18],"right_children":[2,4,6,8,-1,10,12,14,-1,16,18,-1,-1,20,-1,-1,22,-1,24,-1,-1,-1,-1,-1,-1],"split_conditions":[-4.658163E0,1E0,-1.8193002E-1,1.2242614E0,-0E0,-3.46545E0,-4.43899E0,1.7113842E-2,-0E0,1.1921031E0,-2.6145544E0,-0E0,-3.828466E-3,2.2417824E0,-0E0,-0E0,7.310969E0,-0E0,1E0,2.011589E-3,-0E0,7.66771E-4,-0E0,-3.102337E-3,-0E0],"split_indices":[3819,2517,2442,3070,0,2472,2392,2953,0,2733,2502,0,0,3595,0,0,2218,0,286,0,0,0,0,0,0],"split_type":[0,0,0,0,0,0,0,0,0,0,0,0,0,0,0,0,0,0,0,0,0,0,0,0,0],"sum_hessian":[2.61E2,1.48E2,1.13E2,1.39E2,9E0,6.3E1,5E1,1.34E2,5E0,2.8E1,3.5E1,4E0,4.6E1,1.26E2,8E0,4E0,2.4E1,9E0,2.6E1,1.23E2,3E0,2.1E1,3E0,2.3E1,3E0],"tree_param":{"num_deleted":"0","num_feature":"4336","num_nodes":"25","size_leaf_vector":"1"}},{"base_weights":[-0E0,1.3626154E-1,-1.550485E-1,1.6586801E-1,-0E0,-2.6376796E-1,-0E0,1.8054038E-1,-0E0,-3.2609E-1,-0E0,-0E0,3.6861986E-2,-0E0,1.9499386E-3,-3.605649E-1,-0E0,-1.9327413E-4,-0E0,-0E0,1.013155E-3,-3.9646414E-1,-0E0,-0E0,-4.2492533E-3],"categories":[],"categories_nodes":[],"categories_segments":[],"categories_sizes":[],"default_left":[0,0,0,0,0,0,0,0,0,0,0,0,0,0,0,0,0,0,0,0,0,0,0,0,0],"id":45,"left_children":[1,3,5,7,-1,9,11,13,-1,15,-1,17,19,-1,-1,21,-1,-1,-1,-1,-1,23,-1,-1,-1],"loss_changes":[5.2099657E0,8.163843E-1,2.4769104E0,4.821434E-1,0E0,1.2392664E0,4.0900063E-2,4.8895884E-1,0E0,9.500241E-1,0E0,3.7728439E-3,2.2701205E-1,0E0,0E0,9.502349E-1,0E0,0E0,0E0,0E0,0E0,5.4249E-1,0E0,0E0,0E0],"parents":[2147483647,0,0,1,1,2,2,3,3,5,5,6,6,7,7,9,9,11,11,12,12,15,15,21,21],"right_children":[2,4,6,8,-1,10,12,14,-1,16,-1,18,20,-1,-1,22,-1,-1,-1,-1,-1,24,-1,-1,-1],"split_conditions":[-5.0221157E0,1E0,2.8911762E0,1E0,-0E0,9.769279E-1,9.727444E-1,-2.3175533E0,-0E0,1.44889E0,-0E0,1.9392006E0,2.6464646E0,-0E0,1.9499386E-3,1.1974151E1,-0E0,-1.9327413E-4,-0E0,-0E0,1.013155E-3,2.9247312E-2,-0E0,-0E0,-4.2492533E-3],"split_indices":[3819,4245,2479,1966,0,2369,3161,2361,0,3152,0,3506,2661,0,0,2529,0,0,0,0,0,4085,0,0,0],"split_type":[0,0,0,0,0,0,0,0,0,0,0,0,0,0,0,0,0,0,0,0,0,0,0,0,0],"sum_hessian":[2.45E2,1.25E2,1.2E2,1.14E2,1.1E1,7.7E1,4.3E1,1.11E2,3E0,6.2E1,1.5E1,1.3E1,3E1,3E0,1.08E2,5.8E1,4E0,1E1,3E0,4E0,2.6E1,5.4E1,4E0,4E0,5E1],"tree_param":{"num_deleted":"0","num_feature":"4336","num_nodes":"25","size_leaf_vector":"1"}},{"base_weights":[1.3951232E-2,-2.4721019E-1,7.890635E-2,-3.2192847E-1,-0E0,1.4425252E-1,-4.387248E-3,-0E0,-3.5868438E-3,1.7992721E-1,-0E0,-1.7797275E-1,1.9603712E-2,-0E0,1.9719152E-1,-0E0,-2.8500155E-1,7.9899386E-4,-0E0,-0E0,2.0969268E-3,-3.2279056E-3,-0E0],"categories":[],"categories_nodes":[],"categories_segments":[],"categories_sizes":[],"default_left":[0,0,0,0,0,0,0,0,0,0,0,0,0,0,0,0,0,0,0,0,0,0,0],"id":46,"left_children":[1,3,5,7,-1,9,11,-1,-1,13,-1,15,17,-1,19,-1,21,-1,-1,-1,-1,-1,-1],"loss_changes":[3.5387812E0,1.1206031E0,1.9082615E0,4.1706753E-1,0E0,1.0190833E0,1.0591375E0,0E0,0E0,6.721506E-1,0E0,9.091244E-1,1.6105208E-1,0E0,4.756999E-1,0E0,2.4094439E-1,0E0,0E0,0E0,0E0,0E0,0E0],"parents":[2147483647,0,0,1,1,2,2,3,3,5,5,6,6,9,9,11,11,12,12,14,14,16,16],"right_children":[2,4,6,8,-1,10,12,-1,-1,14,-1,16,18,-1,20,-1,22,-1,-1,-1,-1,-1,-1],"split_conditions":[8.242945E-1,4.3146544E0,-2.0309505E0,-4.236066E0,-0E0,1.546815E0,-3.878788E-2,-0E0,-3.5868438E-3,5.7791796E0,-0E0,7.402652E0,2.9439434E-1,-0E0,2.1293533E0,-0E0,1.2580657E1,7.9899386E-4,-0E0,-0E0,2.0969268E-3,-3.2279056E-3,-0E0],"split_indices":[3061,2445,2401,2397,0,3590,2868,0,0,2454,0,2709,2898,0,2663,0,3677,0,0,0,0,0,0],"split_type":[0,0,0,0,0,0,0,0,0,0,0,0,0,0,0,0,0,0,0,0,0,0,0],"sum_hessian":[2.58E2,3.6E1,2.22E2,3.2E1,4E0,1.58E2,6.4E1,3E0,2.9E1,1.33E2,2.5E1,3.3E1,3.1E1,5E0,1.28E2,9E0,2.4E1,2.7E1,4E0,4E0,1.24E2,2.1E1,3E0],"tree_param":{"num_deleted":"0","num_feature":"4336","num_nodes":"23","size_leaf_vector":"1"}},{"base_weights":[-6.1972784E-3,1.1858909E-1,-2.3285268E-1,-0E0,1.4602587E-1,-3.054524E-1,-0E0,-0E0,1.7220145E-1,-3.5657683E-1,-0E0,1.8561701E-1,-0E0,-0E0,-3.8512155E-1,1.9954988E-3,-0E0,-0E0,-4.0509206E-1,-4.2181397E-3,-0E0],"categories":[],"categories_nodes":[],"categories_segments":[],"categories_sizes":[],"default_left":[0,0,0,0,0,0,0,0,0,0,0,0,0,0,0,0,0,0,0,0,0],"id":47,"left_children":[1,3,5,-1,7,9,-1,-1,11,13,-1,15,-1,-1,17,-1,-1,-1,19,-1,-1],"loss_changes":[8.128602E0,7.213638E-1,2.3043919E0,0E0,7.351968E-1,1.8374977E0,0E0,0E0,4.9236107E-1,1.2297163E0,0E0,4.906006E-1,0E0,0E0,7.086334E-1,0E0,0E0,0E0,2.990799E-1,0E0,0E0],"parents":[2147483647,0,0,1,1,2,2,4,4,5,5,8,8,9,9,11,11,14,14,18,18],"right_children":[2,4,6,-1,8,10,-1,-1,12,14,-1,16,-1,-1,18,-1,-1,-1,20,-1,-1],"split_conditions":[-4.626063E0,7.216978E-1,3.9469714E0,-0E0,-7.360399E-2,2.799892E1,-0E0,-0E0,3.3575296E0,-3.556797E0,-0E0,1.960456E0,-0E0,-0E0,-2.7313682E-1,1.9954988E-3,-0E0,-0E0,1E0,-4.2181397E-3,-0E0],"split_indices":[3819,3067,2479,0,3020,3862,0,0,3587,2369,0,2505,0,0,3054,0,0,0,1405,0,0],"split_type":[0,0,0,0,0,0,0,0,0,0,0,0,0,0,0,0,0,0,0,0,0],"sum_hessian":[2.67E2,1.58E2,1.09E2,2E1,1.38E2,8.8E1,2.1E1,1.4E1,1.24E2,7.9E1,9E0,1.21E2,3E0,3E0,7.6E1,1.17E2,4E0,3E0,7.3E1,6.9E1,4E0],"tree_param":{"num_deleted":"0","num_feature":"4336","num_nodes":"21","size_leaf_vector":"1"}},{"base_weights":[-0E0,-2.560393E-1,8.0533884E-2,-0E0,-3.0385327E-1,-7.320307E-2,1.4086087E-1,-3.508684E-1,-0E0,-0E0,-2.0413186E-1,1.7485327E-1,-0E0,-3.7886985E-3,-0E0,-0E0,-2.7010956E-1,1.909562E-1,-0E0,-3.218819E-3,-0E0,-0E0,1.9751616E-1,2.0405287E-3,-0E0],"categories":[],"categories_nodes":[],"categories_segments":[],"categories_sizes":[],"default_left":[0,0,0,0,0,0,0,0,0,0,0,0,0,0,0,0,0,0,0,0,0,0,0,0,0],"id":48,"left_children":[1,3,5,-1,7,9,11,13,-1,-1,15,17,-1,-1,-1,-1,19,21,-1,-1,-1,-1,23,-1,-1],"loss_changes":[5.1721573E0,1.2128406E0,2.1951451E0,0E0,1.0805359E0,8.268699E-1,9.6780825E-1,5.931034E-1,0E0,0E0,5.351962E-1,5.335593E-1,0E0,0E0,0E0,0E0,3.3586514E-1,2.1960068E-1,0E0,0E0,0E0,0E0,2.1396685E-1,0E0,0E0],"parents":[2147483647,0,0,1,1,2,2,4,4,5,5,6,6,7,7,10,10,11,11,16,16,17,17,22,22],"right_children":[2,4,6,-1,8,10,12,14,-1,-1,16,18,-1,-1,-1,-1,20,22,-1,-1,-1,-1,24,-1,-1],"split_conditions":[2.5025364E1,-2.7313682E-1,-3.8439098E-1,-0E0,5.2883453E0,-1.31949005E1,-1.5203611E0,1E0,-0E0,-0E0,2.352399E-1,-3.1693387E-1,-0E0,-3.7886985E-3,-0E0,-0E0,5.770023E0,1.1656605E-1,-0E0,-3.218819E-3,-0E0,-0E0,1E0,2.0405287E-3,-0E0],"split_indices":[3366,3054,3658,0,3678,2242,2401,364,0,0,2336,3157,0,0,0,0,2273,2526,0,0,0,0,1216,0,0],"split_type":[0,0,0,0,0,0,0,0,0,0,0,0,0,0,0,0,0,0,0,0,0,0,0,0,0],"sum_hessian":[2.59E2,5.9E1,2E2,4E0,5.5E1,3.3E1,1.67E2,5E1,5E0,9E0,2.4E1,1.4E2,2.7E1,4.7E1,3E0,3E0,2.1E1,1.32E2,8E0,1.8E1,3E0,3E0,1.29E2,1.26E2,3E0],"tree_param":{"num_deleted":"0","num_feature":"4336","num_nodes":"25","size_leaf_vector":"1"}},{"base_weights":[-0E0,-2.4040586E-1,7.373589E-2,-2.9803532E-1,-0E0,-7.784877E-4,1.0875156E-1,-3.3798805E-1,-0E0,-0E0,-8.953575E-2,-0E0,1.3983549E-1,-0E0,-3.6808977E-1,-1.1413053E-3,-0E0,-2.1465925E-4,-0E0,1.7216195E-1,-0E0,-0E0,-3.924176E-3,1.8839589E-1,-0E0,-0E0,2.0068313E-3],"categories":[],"categories_nodes":[],"categories_segments":[],"categories_sizes":[],"default_left":[0,0,0,0,0,0,0,0,0,0,0,0,0,0,0,0,0,0,0,0,0,0,0,0,0,0,0],"id":49,"left_children":[1,3,5,7,-1,9,11,13,-1,-1,15,17,19,-1,21,-1,-1,-1,-1,23,-1,-1,-1,25,-1,-1,-1],"loss_changes":[5.4807005E0,1.3843136E0,1.0593596E0,1.0830679E0,0E0,1.0500716E-1,1.008292E0,5.999255E-1,0E0,0E0,2.6542231E-2,5.114724E-3,1.0913024E0,0E0,5.574579E-1,0E0,0E0,0E0,0E0,6.6013813E-1,0E0,0E0,0E0,4.991212E-1,0E0,0E0,0E0],"parents":[2147483647,0,0,1,1,2,2,3,3,5,5,6,6,7,7,10,10,11,11,12,12,14,14,19,19,23,23],"right_children":[2,4,6,8,-1,10,12,14,-1,-1,16,18,20,-1,22,-1,-1,-1,-1,24,-1,-1,-1,26,-1,-1,-1],"split_conditions":[7.784999E0,1.024054E0,1.5051462E2,1.8933775E2,-0E0,-1.6058153E0,-1.1115904E0,-2.7544875E0,-0E0,-0E0,1E0,3.4516804E1,5.9657097E-1,-0E0,-2.111111E1,-1.1413053E-3,-0E0,-2.1465925E-4,-0E0,2.9110706E0,-0E0,-0E0,-3.924176E-3,3.638569E-2,-0E0,-0E0,2.0068313E-3],"split_indices":[3878,3133,2741,2803,0,2431,2817,2424,0,0,87,3810,3311,0,2771,0,0,0,0,2256,0,0,0,3725,0,0,0],"split_type":[0,0,0,0,0,0,0,0,0,0,0,0,0,0,0,0,0,0,0,0,0,0,0,0,0,0,0],"sum_hessian":[2.75E2,7.6E1,1.99E2,6.5E1,1.1E1,1.8E1,1.81E2,6E1,5E0,5E0,1.3E1,2E1,1.61E2,5E0,5.5E1,1E1,3E0,1.1E1,9E0,1.43E2,1.8E1,3E0,5.2E1,1.38E2,5E0,4E0,1.34E2],"tree_param":{"num_deleted":"0","num_feature":"4336","num_nodes":"27","size_leaf_vector":"1"}},{"base_weights":[-6.158828E-3,1.1420897E-1,-2.0955577E-1,-0E0,1.405619E-1,-2.7273616E-1,-0E0,1.5765938E-1,-0E0,-3.2790664E-1,-0E0,1.7337714E-1,-0E0,-3.6407712E-1,-0E0,1.845169E-1,-0E0,-3.936304E-1,-0E0,1.961402E-3,-0E0,-4.2233337E-3,-0E0],"categories":[],"categories_nodes":[],"categories_segments":[],"categories_sizes":[],"default_left":[0,0,0,0,0,0,0,0,0,0,0,0,0,0,0,0,0,0,0,0,0,0,0],"id":50,"left_children":[1,3,5,-1,7,9,-1,11,-1,13,-1,15,-1,17,-1,19,-1,21,-1,-1,-1,-1,-1],"loss_changes":[7.43459E0,8.9747024E-1,2.202385E0,0E0,7.060621E-1,1.7373843E0,0E0,5.705757E-1,0E0,1.2271662E0,0E0,4.6837997E-1,0E0,1.3064308E0,0E0,4.6598625E-1,0E0,1.0688496E0,0E0,0E0,0E0,0E0,0E0],"parents":[2147483647,0,0,1,1,2,2,4,4,5,5,7,7,9,9,11,11,13,13,15,15,17,17],"right_children":[2,4,6,-1,8,10,-1,12,-1,14,-1,16,-1,18,-1,20,-1,22,-1,-1,-1,-1,-1],"split_conditions":[-4.658163E0,8.713095E-1,7.845625E-1,-0E0,2.093054E-3,1E0,-0E0,7.6739974E0,-0E0,2.7068722E0,-0E0,1.0775768E0,-0E0,3.2538897E-1,-0E0,-3.144477E-1,-0E0,1.339752E0,-0E0,1.961402E-3,-0E0,-4.2233337E-3,-0E0],"split_indices":[3819,3061,3085,0,2864,1312,0,2460,0,2834,0,2489,0,2967,0,3157,0,3150,0,0,0,0,0],"split_type":[0,0,0,0,0,0,0,0,0,0,0,0,0,0,0,0,0,0,0,0,0,0,0],"sum_hessian":[2.84E2,1.63E2,1.21E2,1E1,1.53E2,1.01E2,2E1,1.5E2,3E0,8.6E1,1.5E1,1.43E2,7E0,7.9E1,7E0,1.4E2,3E0,7.6E1,3E0,1.36E2,4E0,7.2E1,4E0],"tree_param":{"num_deleted":"0","num_feature":"4336","num_nodes":"23","size_leaf_vector":"1"}},{"base_weights":[-0E0,1.3687168E-1,-1.6746591E-1,-0E0,1.7188846E-1,-3.0568278E-1,-0E0,-0E0,1.849752E-1,-3.5067743E-1,-0E0,3.6943596E-2,-0E0,1.9172385E-3,-0E0,-3.88029E-3,-0E0,-0E0,9.6406054E-4,-0E0,-9.323854E-4],"categories":[],"categories_nodes":[],"categories_segments":[],"categories_sizes":[],"default_left":[0,0,0,0,0,0,0,0,0,0,0,0,0,0,0,0,0,0,0,0,0],"id":51,"left_children":[1,3,5,-1,7,9,11,-1,13,15,-1,17,19,-1,-1,-1,-1,-1,-1,-1,-1],"loss_changes":[5.7034855E0,9.166429E-1,2.687088E0,0E0,4.613874E-1,1.2534847E0,3.8351707E-2,0E0,2.052145E-1,7.6747894E-1,0E0,1.7634264E-1,9.649702E-2,0E0,0E0,0E0,0E0,0E0,0E0,0E0,0E0],"parents":[2147483647,0,0,1,1,2,2,4,4,5,5,6,6,8,8,9,9,11,11,12,12],"right_children":[2,4,6,-1,8,10,12,-1,14,16,-1,18,20,-1,-1,-1,-1,-1,-1,-1,-1],"split_conditions":[-4.658163E0,-4.126913E-1,3.1005144E0,-0E0,-9.138629E0,2.0437312E0,3.9199367E-1,-0E0,4.93575E0,1E0,-0E0,5.4791665E0,1.0032854E0,1.9172385E-3,-0E0,-3.88029E-3,-0E0,-0E0,9.6406054E-4,-0E0,-9.323854E-4],"split_indices":[3819,3500,2309,0,2271,3502,2867,0,3774,500,0,4126,2311,0,0,0,0,0,0,0,0],"split_type":[0,0,0,0,0,0,0,0,0,0,0,0,0,0,0,0,0,0,0,0,0],"sum_hessian":[2.54E2,1.53E2,1.01E2,2.5E1,1.28E2,5.9E1,4.2E1,4E0,1.24E2,5.5E1,4E0,2.8E1,1.4E1,1.21E2,3E0,5E1,5E0,5E0,2.3E1,3E0,1.1E1],"tree_param":{"num_deleted":"0","num_feature":"4336","num_nodes":"21","size_leaf_vector":"1"}},{"base_weights":[-0E0,-2.4315026E-1,6.0112547E-2,-2.9350847E-1,-0E0,1.3472082E-1,-6.69889E-2,-3.3025834E-1,-0E0,1.5282081E-1,-0E0,-0E0,-2.0748205E-1,-3.7375435E-1,-0E0,1.6992813E-1,-0E0,-3.1452847E-1,-0E0,-3.8860096E-3,-0E0,1.8201034E-1,-0E0,-3.6473498E-3,-0E0,-0E0,1.9358777E-3],"categories":[],"categories_nodes":[],"categories_segments":[],"categories_sizes":[],"default_left":[0,0,0,0,0,0,0,0,0,0,0,0,0,0,0,0,0,0,0,0,0,0,0,0,0,0,0],"id":52,"left_children":[1,3,5,7,-1,9,11,13,-1,15,-1,-1,17,19,-1,21,-1,23,-1,-1,-1,25,-1,-1,-1,-1,-1],"loss_changes":[4.44152E0,1.1613796E0,2.360351E0,9.587879E-1,0E0,6.4120245E-1,1.1390921E0,6.4816904E-1,0E0,5.166476E-1,0E0,0E0,1.10123E0,6.874657E-2,0E0,4.9634886E-1,0E0,4.569018E-1,0E0,0E0,0E0,4.0879297E-1,0E0,0E0,0E0,0E0,0E0],"parents":[2147483647,0,0,1,1,2,2,3,3,5,5,6,6,7,7,9,9,12,12,13,13,15,15,17,17,21,21],"right_children":[2,4,6,8,-1,10,12,14,-1,16,-1,-1,18,20,-1,22,-1,24,-1,-1,-1,26,-1,-1,-1,-1,-1],"split_conditions":[4.228041E2,1.9092155E-1,2.9516044E-1,1E0,-0E0,1.7160206E-1,1.9564902E-2,3.6787145E0,-0E0,-1.9401512E0,-0E0,-0E0,1.903519E-2,1E0,-0E0,1E0,-0E0,3.1592782E0,-0E0,-3.8860096E-3,-0E0,-1.3582424E-2,-0E0,-3.6473498E-3,-0E0,-0E0,1.9358777E-3],"split_indices":[2621,3660,3884,1914,0,2812,2856,3493,0,2257,0,0,2879,1594,0,644,0,2883,0,0,0,2857,0,0,0,0,0],"split_type":[0,0,0,0,0,0,0,0,0,0,0,0,0,0,0,0,0,0,0,0,0,0,0,0,0,0,0],"sum_hessian":[2.75E2,6.2E1,2.13E2,5.6E1,6E0,1.59E2,5.4E1,5.3E1,3E0,1.51E2,8E0,2.2E1,3.2E1,4.6E1,7E0,1.4E2,1.1E1,2.5E1,7E0,4.3E1,3E0,1.37E2,3E0,2.2E1,3E0,5E0,1.32E2],"tree_param":{"num_deleted":"0","num_feature":"4336","num_nodes":"27","size_leaf_vector":"1"}},{"base_weights":[-1.0917005E-2,6.7074865E-2,-1.8927492E-1,1.19408496E-1,-1.2697944E-2,-2.8817013E-1,-0E0,1.6078429E-1,-0E0,-1.6706347E-1,-0E0,-0E0,-3.582377E-1,-0E0,1.7571793E-1,-0E0,-2.0013917E-3,-3.9947154E-3,-0E0,-0E0,1.8289655E-3],"categories":[],"categories_nodes":[],"categories_segments":[],"categories_sizes":[],"default_left":[0,0,0,0,0,0,0,0,0,0,0,0,0,0,0,0,0,0,0,0,0],"id":53,"left_children":[1,3,5,7,9,11,-1,13,-1,15,-1,-1,17,-1,19,-1,-1,-1,-1,-1,-1],"loss_changes":[4.0217257E0,1.1645167E0,1.9518621E0,1.0572052E0,3.8997054E-1,1.2348857E0,0E0,4.7069502E-1,0E0,5.108431E-2,0E0,0E0,1.1177998E0,0E0,1.8050909E-1,0E0,0E0,0E0,0E0,0E0,0E0],"parents":[2147483647,0,0,1,1,2,2,3,3,4,4,5,5,7,7,9,9,12,12,14,14],"right_children":[2,4,6,8,10,12,-1,14,-1,16,-1,-1,18,-1,20,-1,-1,-1,-1,-1,-1],"split_conditions":[-4.546048E0,3.6014605E-1,9.189101E0,6.7809067E0,3.1913611E4,5.808582E0,-0E0,7.93E2,-0E0,1.6216215E-1,-0E0,-0E0,2.573602E1,-0E0,1.0751145E0,-0E0,-2.0013917E-3,-3.9947154E-3,-0E0,-0E0,1.8289655E-3],"split_indices":[3819,3884,2529,2254,2599,2718,0,2577,0,4067,0,0,3522,0,2419,0,0,0,0,0,0],"split_type":[0,0,0,0,0,0,0,0,0,0,0,0,0,0,0,0,0,0,0,0,0],"sum_hessian":[2.45E2,1.51E2,9.4E1,1.29E2,2.2E1,6.4E1,3E1,1.12E2,1.7E1,1.4E1,8E0,1.3E1,5.1E1,3E0,1.09E2,3E0,1.1E1,4.8E1,3E0,3E0,1.06E2],"tree_param":{"num_deleted":"0","num_feature":"4336","num_nodes":"21","size_leaf_vector":"1"}},{"base_weights":[-0E0,-2.8142202E-1,5.3531893E-2,-0E0,-3.3362028E-1,1.3138619E-1,-1.1245502E-1,-3.6329364E-3,-0E0,1.5288669E-1,-0E0,-2.1945453E-1,-0E0,1.7223363E-1,-0E0,-3.2545546E-1,-0E0,1.8266839E-1,-0E0,-3.6168396E-3,-0E0,1.9281864E-3,-0E0],"categories":[],"categories_nodes":[],"categories_segments":[],"categories_sizes":[],"default_left":[0,0,0,0,0,0,0,0,0,0,0,0,0,0,0,0,0,0,0,0,0,0,0],"id":54,"left_children":[1,3,5,-1,7,9,11,-1,-1,13,-1,15,-1,17,-1,19,-1,21,-1,-1,-1,-1,-1],"loss_changes":[4.689231E0,1.0840101E0,2.9921312E0,0E0,5.5739117E-1,7.774968E-1,1.18869E0,0E0,0E0,7.463529E-1,0E0,1.3533227E0,0E0,4.2980242E-1,0E0,3.5686445E-1,0E0,2.2984076E-1,0E0,0E0,0E0,0E0,0E0],"parents":[2147483647,0,0,1,1,2,2,4,4,5,5,6,6,9,9,11,11,13,13,15,15,17,17],"right_children":[2,4,6,-1,8,10,12,-1,-1,14,-1,16,-1,18,-1,20,-1,22,-1,-1,-1,-1,-1],"split_conditions":[8.594018E1,-8.452776E-2,2.9516044E-1,-0E0,5.9378157E0,-1.6910146E0,2.5818508E1,-3.6329364E-3,-0E0,4.46407E-1,-0E0,9.6340396E-2,-0E0,1.3846992E0,-0E0,3.1912693E1,-0E0,9.002334E-1,-0E0,-3.6168396E-3,-0E0,1.9281864E-3,-0E0],"split_indices":[2638,2439,3884,0,3491,2257,3879,0,0,2830,0,2886,0,2899,0,3840,0,3793,0,0,0,0,0],"split_type":[0,0,0,0,0,0,0,0,0,0,0,0,0,0,0,0,0,0,0,0,0,0,0],"sum_hessian":[2.75E2,5.1E1,2.24E2,5E0,4.6E1,1.73E2,5.1E1,4.3E1,3E0,1.61E2,1.2E1,3.8E1,1.3E1,1.52E2,9E0,3E1,8E0,1.48E2,4E0,2.7E1,3E0,1.39E2,9E0],"tree_param":{"num_deleted":"0","num_feature":"4336","num_nodes":"23","size_leaf_vector":"1"}},{"base_weights":[-0E0,-2.6295355E-1,4.7066882E-2,-3.1277764E-1,-0E0,1.0953869E-1,-7.054135E-2,-0E0,-3.44189E-1,-0E0,1.4443146E-1,-1.8967551E-1,-0E0,-3.5806815E-3,-0E0,-0E0,-6.3787764E-3,1.5930246E-1,-0E0,-0E0,-3.0950739E-3,-0E0,-1.0424433E-4,-0E0,1.9129363E-3],"categories":[],"categories_nodes":[],"categories_segments":[],"categories_sizes":[],"default_left":[0,0,0,0,0,0,0,0,0,0,0,0,0,0,0,0,0,0,0,0,0,0,0,0,0],"id":55,"left_children":[1,3,5,7,-1,9,11,-1,13,15,17,19,-1,-1,-1,-1,21,23,-1,-1,-1,-1,-1,-1,-1],"loss_changes":[4.192862E0,7.6923585E-1,1.6953226E0,5.9593105E-1,0E0,1.0521353E0,8.324558E-1,0E0,3.5447598E-2,4.5164555E-4,4.9409413E-1,9.743458E-1,0E0,0E0,0E0,0E0,4.285717E-4,5.496936E-1,0E0,0E0,0E0,0E0,0E0,0E0,0E0],"parents":[2147483647,0,0,1,1,2,2,3,3,5,5,6,6,8,8,9,9,10,10,11,11,16,16,17,17],"right_children":[2,4,6,8,-1,10,12,-1,14,16,18,20,-1,-1,-1,-1,22,24,-1,-1,-1,-1,-1,-1,-1],"split_conditions":[4.59114E2,1.864664E0,2.9516044E-1,3.501629E0,-0E0,5.570157E0,-7.582505E-3,-0E0,9.128767E-1,5.8356416E-1,3.4889603E0,-9.604689E-2,-0E0,-3.5806815E-3,-0E0,-0E0,-6.1951466E0,8.63377E-1,-0E0,-0E0,-3.0950739E-3,-0E0,-1.0424433E-4,-0E0,1.9129363E-3],"split_indices":[2620,3654,3884,3775,0,2364,2977,0,3795,2874,2435,2981,0,0,0,0,2283,2370,0,0,0,0,0,0,0],"split_type":[0,0,0,0,0,0,0,0,0,0,0,0,0,0,0,0,0,0,0,0,0,0,0,0,0],"sum_hessian":[2.58E2,5.4E1,2.04E2,4.6E1,8E0,1.61E2,4.3E1,3E0,4.3E1,1.8E1,1.43E2,2.9E1,1.4E1,4E1,3E0,7E0,1.1E1,1.37E2,6E0,8E0,2.1E1,3E0,8E0,2.7E1,1.1E2],"tree_param":{"num_deleted":"0","num_feature":"4336","num_nodes":"25","size_leaf_vector":"1"}},{"base_weights":[4.2682388E-4,-3.2021734E-1,7.4081354E-2,-3.5240354E-3,-0E0,1.2964489E-1,-9.833421E-4,-0E0,1.5319745E-1,-0E0,-1.0125718E-1,-0E0,1.7076547E-1,3.2664075E-2,-0E0,-1.7327589E-1,-0E0,-0E0,1.8600318E-1,-0E0,7.848206E-4,-0E0,-2.5256085E-1,1.9204451E-3,-0E0,-2.9116243E-3,-0E0],"categories":[],"categories_nodes":[],"categories_segments":[],"categories_sizes":[],"default_left":[0,0,0,0,0,0,0,0,0,0,0,0,0,0,0,0,0,0,0,0,0,0,0,0,0,0,0],"id":56,"left_children":[1,3,5,-1,-1,7,9,-1,11,13,15,-1,17,19,-1,21,-1,-1,23,-1,-1,-1,25,-1,-1,-1,-1],"loss_changes":[5.315934E0,4.7391558E-1,1.6364021E0,0E0,0E0,7.440071E-1,3.7007293E-1,0E0,6.8999124E-1,2.4646355E-2,5.0358003E-1,0E0,5.3921556E-1,9.915826E-2,0E0,6.635524E-1,0E0,0E0,2.1390057E-1,0E0,0E0,0E0,2.5149775E-1,0E0,0E0,0E0,0E0],"parents":[2147483647,0,0,1,1,2,2,5,5,6,6,8,8,9,9,10,10,12,12,13,13,15,15,18,18,22,22],"right_children":[2,4,6,-1,-1,8,10,-1,12,14,16,-1,18,20,-1,22,-1,-1,24,-1,-1,-1,26,-1,-1,-1,-1],"split_conditions":[8.158324E-1,4.0047482E2,-4.348291E0,-3.5240354E-3,-0E0,-8.475012E1,9.7830915E-1,-0E0,7.6877623E0,1.888941E-2,1.024054E0,-0E0,-8.35256E-1,7.502199E-1,-0E0,-9.6805656E-1,-0E0,-0E0,8.091281E-2,-0E0,7.848206E-4,-0E0,-1.7692499E0,1.9204451E-3,-0E0,-2.9116243E-3,-0E0],"split_indices":[3061,2800,3819,0,0,2764,3152,0,3878,3020,3133,0,2215,2292,0,2405,0,0,2217,0,0,0,2386,0,0,0,0],"split_type":[0,0,0,0,0,0,0,0,0,0,0,0,0,0,0,0,0,0,0,0,0,0,0,0,0,0,0],"sum_hessian":[2.77E2,3.9E1,2.38E2,3.6E1,3E0,1.75E2,6.3E1,1.8E1,1.57E2,2.7E1,3.6E1,7E0,1.5E2,2.3E1,4E0,2.9E1,7E0,8E0,1.42E2,3E0,2E1,5E0,2.4E1,1.39E2,3E0,2.1E1,3E0],"tree_param":{"num_deleted":"0","num_feature":"4336","num_nodes":"27","size_leaf_vector":"1"}},{"base_weights":[-1.1271911E-2,1.0725556E-1,-2.1255656E-1,1.4409105E-1,-0E0,-2.8858808E-1,-0E0,1.6189745E-1,-0E0,-3.3162042E-1,-0E0,-0E0,1.69038E-1,-3.6256105E-1,-0E0,-0E0,1.7622885E-3,-3.9012182E-1,-0E0,-4.09843E-3,-0E0],"categories":[],"categories_nodes":[],"categories_segments":[],"categories_sizes":[],"default_left":[0,0,0,0,0,0,0,0,0,0,0,0,0,0,0,0,0,0,0,0,0],"id":57,"left_children":[1,3,5,7,-1,9,-1,11,-1,13,-1,-1,15,17,-1,-1,-1,19,-1,-1,-1],"loss_changes":[6.5433264E0,8.473567E-1,1.9083719E0,4.971068E-1,0E0,1.0914478E0,0E0,1.839037E-1,0E0,1.1542425E0,0E0,0E0,1.8266535E-1,6.7247105E-1,0E0,0E0,0E0,3.393736E-1,0E0,0E0,0E0],"parents":[2147483647,0,0,1,1,2,2,3,3,5,5,7,7,9,9,12,12,13,13,17,17],"right_children":[2,4,6,8,-1,10,-1,12,-1,14,-1,-1,16,18,-1,-1,-1,20,-1,-1,-1],"split_conditions":[-4.7045746E0,7.056443E0,5.1553173E0,2.4724226E0,-0E0,1.0935259E-2,-0E0,6.6505047E-3,-0E0,7.92283E2,-0E0,-0E0,-2.916312E-1,5.661107E0,-0E0,-0E0,1.7622885E-3,3.0885424E1,-0E0,-4.09843E-3,-0E0],"split_indices":[3819,2460,2455,2442,0,4091,0,2856,0,2810,0,0,3035,3678,0,0,0,3858,0,0,0],"split_type":[0,0,0,0,0,0,0,0,0,0,0,0,0,0,0,0,0,0,0,0,0],"sum_hessian":[2.52E2,1.43E2,1.09E2,1.2E2,2.3E1,8.2E1,2.7E1,1.14E2,6E0,7.2E1,1E1,3E0,1.11E2,6.9E1,3E0,3E0,1.08E2,6.4E1,5E0,6E1,4E0],"tree_param":{"num_deleted":"0","num_feature":"4336","num_nodes":"21","size_leaf_vector":"1"}},{"base_weights":[-0E0,7.656648E-2,-1.714277E-1,1.2614208E-1,-2.7302774E-2,-0E0,-2.5336838E-1,-0E0,1.5392746E-1,-1.0526936E-1,-0E0,-0E0,-3.2397175E-1,-0E0,1.6617939E-1,-0E0,-2.0234776E-3,-3.6353117E-1,-0E0,1.7876318E-1,-0E0,-3.7752008E-3,-0E0,-0E0,1.8546848E-3],"categories":[],"categories_nodes":[],"categories_segments":[],"categories_sizes":[],"default_left":[0,0,0,0,0,0,0,0,0,0,0,0,0,0,0,0,0,0,0,0,0,0,0,0,0],"id":58,"left_children":[1,3,5,7,9,-1,11,-1,13,15,-1,-1,17,-1,19,-1,-1,21,-1,23,-1,-1,-1,-1,-1],"loss_changes":[3.4804087E0,1.3807493E0,1.2582757E0,7.574794E-1,1.8335794E-1,0E0,1.3187044E0,0E0,4.352398E-1,3.7674156E-1,0E0,0E0,7.7956676E-1,0E0,4.3255758E-1,0E0,0E0,2.9598236E-2,0E0,2.0233369E-1,0E0,0E0,0E0,0E0,0E0],"parents":[2147483647,0,0,1,1,2,2,3,3,4,4,6,6,8,8,9,9,12,12,14,14,17,17,19,19],"right_children":[2,4,6,8,10,-1,12,-1,14,16,-1,-1,18,-1,20,-1,-1,22,-1,24,-1,-1,-1,-1,-1],"split_conditions":[-4.358006E0,2.3333906E-1,-9.8894405E-1,-1.8957359E0,7.68609E-4,-0E0,6.42355E1,-0E0,3.342814E-1,-3.275713E1,-0E0,-0E0,2.511563E0,-0E0,9.654321E1,-0E0,-2.0234776E-3,1.5903884E0,-0E0,2.510974E-1,-0E0,-3.7752008E-3,-0E0,-0E0,1.8546848E-3],"split_indices":[3819,2750,2344,2409,2863,0,2687,0,2748,2855,0,0,2827,0,2762,0,0,3129,0,2273,0,0,0,0,0],"split_type":[0,0,0,0,0,0,0,0,0,0,0,0,0,0,0,0,0,0,0,0,0,0,0,0,0],"sum_hessian":[2.56E2,1.72E2,8.4E1,1.49E2,2.3E1,2.6E1,5.8E1,1.7E1,1.32E2,1.8E1,5E0,1E1,4.8E1,3E0,1.29E2,4E0,1.4E1,4.4E1,4E0,1.25E2,4E0,4.1E1,3E0,3E0,1.22E2],"tree_param":{"num_deleted":"0","num_feature":"4336","num_nodes":"25","size_leaf_vector":"1"}},{"base_weights":[-0E0,1.02318496E-1,-1.9529425E-1,1.2908667E-1,-0E0,-0E0,-2.525118E-1,-0E0,1.4849025E-1,-2.9701656E-1,-0E0,1.6766262E-1,-0E0,-3.522771E-1,-0E0,1.791464E-3,-0E0,-3.8348294E-3,-0E0],"categories":[],"categories_nodes":[],"categories_segments":[],"categories_sizes":[],"default_left":[0,0,0,0,0,0,0,0,0,0,0,0,0,0,0,0,0,0,0],"id":59,"left_children":[1,3,5,7,-1,-1,9,-1,11,13,-1,15,-1,17,-1,-1,-1,-1,-1],"loss_changes":[5.354803E0,8.0457044E-1,1.5571213E0,6.051116E-1,0E0,0E0,1.1501565E0,0E0,4.655788E-1,1.3818617E0,0E0,2.6959682E-1,0E0,7.134819E-1,0E0,0E0,0E0,0E0,0E0],"parents":[2147483647,0,0,1,1,2,2,3,3,6,6,8,8,9,9,11,11,13,13],"right_children":[2,4,6,8,-1,-1,10,-1,12,14,-1,16,-1,18,-1,-1,-1,-1,-1],"split_conditions":[-4.378946E0,3.0380862E-3,-7.408371E0,-1.4309953E-1,-0E0,-0E0,1.8933775E2,-0E0,-1.3817949E0,1.9356922E0,-0E0,6.564542E-1,-0E0,3.1912693E1,-0E0,1.791464E-3,-0E0,-3.8348294E-3,-0E0],"split_indices":[3819,2858,2268,2988,0,0,2803,0,2402,3654,0,3311,0,3840,0,0,0,0,0],"split_type":[0,0,0,0,0,0,0,0,0,0,0,0,0,0,0,0,0,0,0],"sum_hessian":[2.52E2,1.54E2,9.8E1,1.45E2,9E0,1.5E1,8.3E1,8E0,1.37E2,7.3E1,1E1,1.24E2,1.3E1,6.3E1,1E1,1.17E2,7E0,5.8E1,5E0],"tree_param":{"num_deleted":"0","num_feature":"4336","num_nodes":"19","size_leaf_vector":"1"}},{"base_weights":[8.251806E-3,-2.3287009E-1,8.6063944E-2,-2.9091573E-1,-0E0,-3.615526E-2,1.4746203E-1,-3.3468409E-3,-0E0,-2.1155757E-1,-0E0,-0E0,1.6933647E-1,-2.8355008E-3,-0E0,1.8437256E-1,-0E0,1.9592406E-1,-0E0,2.0094884E-3,-0E0],"categories":[],"categories_nodes":[],"categories_segments":[],"categories_sizes":[],"default_left":[0,0,0,0,0,0,0,0,0,0,0,0,0,0,0,0,0,0,0,0,0],"id":60,"left_children":[1,3,5,7,-1,9,11,-1,-1,13,-1,-1,15,-1,-1,17,-1,19,-1,-1,-1],"loss_changes":[4.016689E0,1.0630727E0,2.1111503E0,5.9269357E-1,0E0,9.788442E-1,9.1470957E-1,0E0,0E0,5.821755E-1,0E0,0E0,5.29582E-1,0E0,0E0,3.4351206E-1,0E0,1.5824652E-1,0E0,0E0,0E0],"parents":[2147483647,0,0,1,1,2,2,3,3,5,5,6,6,9,9,12,12,15,15,17,17],"right_children":[2,4,6,8,-1,10,12,-1,-1,14,-1,-1,16,-1,-1,18,-1,20,-1,-1,-1],"split_conditions":[5.864838E2,6.2373476E0,-3.6995706E-1,5.0687847E0,-0E0,1.113517E1,-4.3670287E0,-3.3468409E-3,-0E0,5.065696E-2,-0E0,-0E0,1E0,-2.8355008E-3,-0E0,6.73343E1,-0E0,1E0,-0E0,2.0094884E-3,-0E0],"split_indices":[2611,3920,3658,2274,0,2281,2328,0,0,2960,0,0,965,0,0,3858,0,1723,0,0,0],"split_type":[0,0,0,0,0,0,0,0,0,0,0,0,0,0,0,0,0,0,0,0,0],"sum_hessian":[2.53E2,4.6E1,2.07E2,4.2E1,4E0,4.2E1,1.65E2,3.7E1,5E0,2.3E1,1.9E1,8E0,1.57E2,2E1,3E0,1.48E2,9E0,1.4E2,8E0,1.37E2,3E0],"tree_param":{"num_deleted":"0","num_feature":"4336","num_nodes":"21","size_leaf_vector":"1"}},{"base_weights":[-6.26051E-3,-2.4580304E-1,4.506247E-2,-3.0829895E-1,-0E0,1.091146E-1,-6.804516E-2,-3.4570608E-1,-0E0,1.5872732E-1,-0E0,-2.1283305E-1,-0E0,-3.740869E-3,-0E0,1.7632116E-3,-0E0,-0E0,-1.20341275E-2,-0E0,-3.0559131E-3,-1.2739445E-1,-0E0,-1.4938076E-3,-0E0],"categories":[],"categories_nodes":[],"categories_segments":[],"categories_sizes":[],"default_left":[0,0,0,0,0,0,0,0,0,0,0,0,0,0,0,0,0,0,0,0,0,0,0,0,0],"id":61,"left_children":[1,3,5,7,-1,9,11,13,-1,15,17,19,-1,-1,-1,-1,-1,-1,21,-1,-1,23,-1,-1,-1],"loss_changes":[4.20249E0,1.5197594E0,1.6340367E0,7.748914E-1,0E0,1.0399628E0,1.028014E0,6.240654E-1,0E0,4.549718E-1,2.7660665E-3,9.296446E-1,0E0,0E0,0E0,0E0,0E0,0E0,2.0983838E-1,0E0,0E0,1.2773141E-2,0E0,0E0,0E0],"parents":[2147483647,0,0,1,1,2,2,3,3,5,5,6,6,7,7,9,9,10,10,11,11,18,18,21,21],"right_children":[2,4,6,8,-1,10,12,14,-1,16,18,20,-1,-1,-1,-1,-1,-1,22,-1,-1,24,-1,-1,-1],"split_conditions":[1.4036341E4,1.152E1,3.6014605E-1,1.4033455E0,-0E0,2.7339554E0,2.4701937E1,1.4026605E0,-0E0,-4.7824153E-1,-7.6087123E-1,6.671314E0,-0E0,-3.740869E-3,-0E0,1.7632116E-3,-0E0,-0E0,6.103966E0,-0E0,-3.0559131E-3,1.099728E0,-0E0,-1.4938076E-3,-0E0],"split_indices":[2647,2767,3884,3062,0,2250,3879,3511,0,2393,2349,2454,0,0,0,0,0,0,3831,0,0,3154,0,0,0],"split_type":[0,0,0,0,0,0,0,0,0,0,0,0,0,0,0,0,0,0,0,0,0,0,0,0,0],"sum_hessian":[2.6E2,6.3E1,1.97E2,5.6E1,7E0,1.54E2,4.3E1,5.1E1,5E0,1.14E2,4E1,2.7E1,1.6E1,4.8E1,3E0,1.07E2,7E0,2.1E1,1.9E1,4E0,2.3E1,1.3E1,6E0,1E1,3E0],"tree_param":{"num_deleted":"0","num_feature":"4336","num_nodes":"25","size_leaf_vector":"1"}},{"base_weights":[1.9587254E-2,-2.1119533E-1,8.678397E-2,-0E0,-2.822596E-1,1.2706593E-1,-0E0,-0E0,-3.1277474E-3,-0E0,1.6361794E-1,-0E0,-1.1902613E-1,-1.0695161E-2,-0E0,-0E0,1.7353672E-1,-2.0073992E-3,-0E0,-1.1505412E-3,-0E0,-0E0,1.8294744E-1,1.9273389E-3,-0E0],"categories":[],"categories_nodes":[],"categories_segments":[],"categories_sizes":[],"default_left":[0,0,0,0,0,0,0,0,0,0,0,0,0,0,0,0,0,0,0,0,0,0,0,0,0],"id":62,"left_children":[1,3,5,-1,7,9,11,-1,-1,13,15,-1,17,19,-1,-1,21,-1,-1,-1,-1,-1,23,-1,-1],"loss_changes":[3.2893004E0,1.0875055E0,1.3104274E0,0E0,1.6634774E-1,1.3246179E0,2.564267E-1,0E0,0E0,1.6128494E-3,4.383669E-1,0E0,3.5205066E-1,1.320854E-1,0E0,0E0,3.529768E-1,0E0,0E0,0E0,0E0,0E0,2.9183054E-1,0E0,0E0],"parents":[2147483647,0,0,1,1,2,2,4,4,5,5,6,6,9,9,10,10,12,12,13,13,16,16,22,22],"right_children":[2,4,6,-1,8,10,12,-1,-1,14,16,-1,18,20,-1,-1,22,-1,-1,-1,-1,-1,24,-1,-1],"split_conditions":[5.720305E2,8.2944214E-1,1.45E2,-0E0,-1.2783018E0,-1.1115904E0,-2.0044045E0,-0E0,-3.1277474E-3,2.7519379E0,9.0529776E-1,-0E0,4.570057E-1,-6.1077528E-2,-0E0,-0E0,4.5617544E-3,-2.0073992E-3,-0E0,-1.1505412E-3,-0E0,-0E0,7.477244E0,1.9273389E-3,-0E0],"split_indices":[2611,2417,3909,0,2381,2817,2344,0,0,2664,2500,0,2344,2993,0,0,4089,0,0,0,0,0,2500,0,0],"split_type":[0,0,0,0,0,0,0,0,0,0,0,0,0,0,0,0,0,0,0,0,0,0,0,0,0],"sum_hessian":[2.52E2,4E1,2.12E2,4E0,3.6E1,1.8E2,3.2E1,5E0,3.1E1,2.2E1,1.58E2,1.4E1,1.8E1,1.4E1,8E0,3E0,1.55E2,1.5E1,3E0,1E1,4E0,5E0,1.5E2,1.43E2,7E0],"tree_param":{"num_deleted":"0","num_feature":"4336","num_nodes":"25","size_leaf_vector":"1"}},{"base_weights":[-0E0,-2.209848E-1,8.39132E-2,-2.709013E-1,-0E0,-1.7419552E-2,1.3328232E-1,-3.0572197E-1,-0E0,-1.4806966E-1,-0E0,1.5815523E-1,-0E0,-3.3325902E-1,-0E0,-0E0,-2.3999484E-3,-0E0,1.7200094E-1,-3.5320215E-3,-0E0,1.8547202E-3,-0E0],"categories":[],"categories_nodes":[],"categories_segments":[],"categories_sizes":[],"default_left":[0,0,0,0,0,0,0,0,0,0,0,0,0,0,0,0,0,0,0,0,0,0,0],"id":63,"left_children":[1,3,5,7,-1,9,11,13,-1,15,-1,17,-1,19,-1,-1,-1,-1,21,-1,-1,-1,-1],"loss_changes":[4.574474E0,1.0601497E0,1.6056013E0,7.72614E-1,0E0,3.8648838E-1,8.1506467E-1,6.011443E-1,0E0,4.7288695E-1,0E0,5.565076E-1,0E0,1.86872E-1,0E0,0E0,0E0,0E0,3.395996E-1,0E0,0E0,0E0,0E0],"parents":[2147483647,0,0,1,1,2,2,3,3,5,5,6,6,7,7,9,9,11,11,13,13,18,18],"right_children":[2,4,6,8,-1,10,12,14,-1,16,-1,18,-1,20,-1,-1,-1,-1,22,-1,-1,-1,-1],"split_conditions":[1.1591256E4,3.0331835E1,-4.1984832E-1,1.3770738E0,-0E0,6.475372E0,7.6759334E0,3.2538897E-1,-0E0,1.8525714E0,-0E0,4.168915E-1,-0E0,1.2622405E0,-0E0,-0E0,-2.3999484E-3,-0E0,-2.4006484E0,-3.5320215E-3,-0E0,1.8547202E-3,-0E0],"split_indices":[2648,3862,3658,3150,0,2264,2460,2967,0,2286,0,3341,0,3061,0,0,0,0,2472,0,0,0,0],"split_type":[0,0,0,0,0,0,0,0,0,0,0,0,0,0,0,0,0,0,0,0,0,0,0],"sum_hessian":[2.69E2,6.4E1,2.05E2,5.7E1,7E0,3.4E1,1.71E2,5.3E1,4E0,1.8E1,1.6E1,1.54E2,1.7E1,5E1,3E0,3E0,1.5E1,5E0,1.49E2,4.6E1,4E0,1.38E2,1.1E1],"tree_param":{"num_deleted":"0","num_feature":"4336","num_nodes":"23","size_leaf_vector":"1"}},{"base_weights":[-0E0,-2.5480965E-1,5.310434E-2,-3.0923432E-1,-0E0,-1.051824E-1,1.00165546E-1,-3.3711402E-3,-0E0,-2.0226117E-3,-0E0,1.3610946E-1,-0E0,1.5545666E-1,-0E0,-0E0,-6.4845127E-4,-0E0,1.6976286E-1,-0E0,1.8078872E-3],"categories":[],"categories_nodes":[],"categories_segments":[],"categories_sizes":[],"default_left":[0,0,0,0,0,0,0,0,0,0,0,0,0,0,0,0,0,0,0,0,0],"id":64,"left_children":[1,3,5,7,-1,9,11,-1,-1,-1,-1,13,15,17,-1,-1,-1,-1,19,-1,-1],"loss_changes":[4.2660427E0,7.965925E-1,1.451649E0,5.078049E-1,0E0,4.6611738E-1,1.1520578E0,0E0,0E0,0E0,0E0,6.9850564E-1,3.8264506E-2,5.5426645E-1,0E0,0E0,0E0,0E0,4.627781E-1,0E0,0E0],"parents":[2147483647,0,0,1,1,2,2,3,3,5,5,6,6,11,11,12,12,13,13,18,18],"right_children":[2,4,6,8,-1,10,12,-1,-1,-1,-1,14,16,18,-1,-1,-1,-1,20,-1,-1],"split_conditions":[9.451129E1,1.8433936E0,-6.424074E-1,4.3833334E2,-0E0,4E1,-2.0188973E0,-3.3711402E-3,-0E0,-2.0226117E-3,-0E0,2.8004668E0,2.3776267E0,7.4034976E3,-0E0,-0E0,-6.4845127E-4,-0E0,-6.453241E-2,-0E0,1.8078872E-3],"split_indices":[2638,3654,3500,2553,0,3728,2257,0,0,0,0,2243,2250,2603,0,0,0,0,3028,0,0],"split_type":[0,0,0,0,0,0,0,0,0,0,0,0,0,0,0,0,0,0,0,0,0],"sum_hessian":[2.55E2,5.7E1,1.98E2,4.7E1,1E1,2.1E1,1.77E2,4.4E1,3E0,1.7E1,4E0,1.58E2,1.9E1,1.5E2,8E0,1E1,9E0,5E0,1.45E2,3E0,1.42E2],"tree_param":{"num_deleted":"0","num_feature":"4336","num_nodes":"21","size_leaf_vector":"1"}},{"base_weights":[-7.4685467E-3,-2.2676949E-1,6.230798E-2,-2.911202E-1,-0E0,-0E0,1.02857545E-1,-0E0,-3.2495236E-1,-1.2503354E-3,-0E0,1.5258703E-1,-0E0,-3.523867E-1,-0E0,-0E0,1.6939206E-1,-1.2708106E-2,-0E0,-3.741249E-3,-0E0,-0E0,1.763119E-3,-0E0,-1.2574352E-1,-0E0,-2.031813E-3],"categories":[],"categories_nodes":[],"categories_segments":[],"categories_sizes":[],"default_left":[0,0,0,0,0,0,0,0,0,0,0,0,0,0,0,0,0,0,0,0,0,0,0,0,0,0,0],"id":65,"left_children":[1,3,5,7,-1,9,11,-1,13,-1,-1,15,17,19,-1,-1,21,23,-1,-1,-1,-1,-1,-1,25,-1,-1],