{"learner":{"attributes":{"scikit_learn":"{\"_estimator_type\": \"regressor\"}"},"feature_names":[],"feature_types":[],"gradient_booster":{"model":{"gbtree_model_param":{"num_parallel_tree":"1","num_trees":"500"},"iteration_indptr":[0,1,2,3,4,5,6,7,8,9,10,11,12,13,14,15,16,17,18,19,20,21,22,23,24,25,26,27,28,29,30,31,32,33,34,35,36,37,38,39,40,41,42,43,44,45,46,47,48,49,50,51,52,53,54,55,56,57,58,59,60,61,62,63,64,65,66,67,68,69,70,71,72,73,74,75,76,77,78,79,80,81,82,83,84,85,86,87,88,89,90,91,92,93,94,95,96,97,98,99,100,101,102,103,104,105,106,107,108,109,110,111,112,113,114,115,116,117,118,119,120,121,122,123,124,125,126,127,128,129,130,131,132,133,134,135,136,137,138,139,140,141,142,143,144,145,146,147,148,149,150,151,152,153,154,155,156,157,158,159,160,161,162,163,164,165,166,167,168,169,170,171,172,173,174,175,176,177,178,179,180,181,182,183,184,185,186,187,188,189,190,191,192,193,194,195,196,197,198,199,200,201,202,203,204,205,206,207,208,209,210,211,212,213,214,215,216,217,218,219,220,221,222,223,224,225,226,227,228,229,230,231,232,233,234,235,236,237,238,239,240,241,242,243,244,245,246,247,248,249,250,251,252,253,254,255,256,257,258,259,260,261,262,263,264,265,266,267,268,269,270,271,272,273,274,275,276,277,278,279,280,281,282,283,284,285,286,287,288,289,290,291,292,293,294,295,296,297,298,299,300,301,302,303,304,305,306,307,308,309,310,311,312,313,314,315,316,317,318,319,320,321,322,323,324,325,326,327,328,329,330,331,332,333,334,335,336,337,338,339,340,341,342,343,344,345,346,347,348,349,350,351,352,353,354,355,356,357,358,359,360,361,362,363,364,365,366,367,368,369,370,371,372,373,374,375,376,377,378,379,380,381,382,383,384,385,386,387,388,389,390,391,392,393,394,395,396,397,398,399,400,401,402,403,404,405,406,407,408,409,410,411,412,413,414,415,416,417,418,419,420,421,422,423,424,425,426,427,428,429,430,431,432,433,434,435,436,437,438,439,440,441,442,443,444,445,446,447,448,449,450,451,452,453,454,455,456,457,458,459,460,461,462,463,464,465,466,467,468,469,470,471,472,473,474,475,476,477,478,479,480,481,482,483,484,485,486,487,488,489,490,491,492,493,494,495,496,497,498,499,500],"tree_info":[0,0,0,0,0,0,0,0,0,0,0,0,0,0,0,0,0,0,0,0,0,0,0,0,0,0,0,0,0,0,0,0,0,0,0,0,0,0,0,0,0,0,0,0,0,0,0,0,0,0,0,0,0,0,0,0,0,0,0,0,0,0,0,0,0,0,0,0,0,0,0,0,0,0,0,0,0,0,0,0,0,0,0,0,0,0,0,0,0,0,0,0,0,0,0,0,0,0,0,0,0,0,0,0,0,0,0,0,0,0,0,0,0,0,0,0,0,0,0,0,0,0,0,0,0,0,0,0,0,0,0,0,0,0,0,0,0,0,0,0,0,0,0,0,0,0,0,0,0,0,0,0,0,0,0,0,0,0,0,0,0,0,0,0,0,0,0,0,0,0,0,0,0,0,0,0,0,0,0,0,0,0,0,0,0,0,0,0,0,0,0,0,0,0,0,0,0,0,0,0,0,0,0,0,0,0,0,0,0,0,0,0,0,0,0,0,0,0,0,0,0,0,0,0,0,0,0,0,0,0,0,0,0,0,0,0,0,0,0,0,0,0,0,0,0,0,0,0,0,0,0,0,0,0,0,0,0,0,0,0,0,0,0,0,0,0,0,0,0,0,0,0,0,0,0,0,0,0,0,0,0,0,0,0,0,0,0,0,0,0,0,0,0,0,0,0,0,0,0,0,0,0,0,0,0,0,0,0,0,0,0,0,0,0,0,0,0,0,0,0,0,0,0,0,0,0,0,0,0,0,0,0,0,0,0,0,0,0,0,0,0,0,0,0,0,0,0,0,0,0,0,0,0,0,0,0,0,0,0,0,0,0,0,0,0,0,0,0,0,0,0,0,0,0,0,0,0,0,0,0,0,0,0,0,0,0,0,0,0,0,0,0,0,0,0,0,0,0,0,0,0,0,0,0,0,0,0,0,0,0,0,0,0,0,0,0,0,0,0,0,0,0,0,0,0,0,0,0,0,0,0,0,0,0,0,0,0,0,0,0,0,0,0,0,0,0,0,0,0,0,0,0,0,0,0,0,0,0,0,0,0,0,0,0,0,0,0,0,0,0,0,0,0,0,0,0,0,0,0,0,0,0,0,0,0,0,0,0,0,0,0,0,0,0,0,0,0,0,0,0],"trees":[{"base_weights":[8.721053E-3,-7.8045124E-1,3.0503505E-1,-1.2730286E0,-4.6221733E-1,5.2010965E-1,-9.784124E-1,-1.4552996E0,-4.4834405E-1,-3.6964503E-1,-2.0061548E0,-7.7893205E-2,6.0769606E-1,-1.5358548E0,-4.6273433E-2,-8.047692E-2,-1.6836865E-2,1.5104936E-2,-3.3475336E-2,-4.3435212E-2,-6.4636148E-3,8.781721E-3,-1.0689099E-1,-1.2795596E-2,3.0691354E-2,1.779246E-2,3.9383E-2,-3.32086E-2,-8.802362E-2,-4.3657254E-2,6.1908187E-3],"categories":[],"categories_nodes":[],"categories_segments":[],"categories_sizes":[],"default_left":[0,0,0,0,0,0,0,0,0,0,0,0,0,0,0,0,0,0,0,0,0,0,0,0,0,0,0,0,0,0,0],"id":0,"left_children":[1,3,5,7,9,11,13,15,17,19,21,23,25,27,29,-1,-1,-1,-1,-1,-1,-1,-1,-1,-1,-1,-1,-1,-1,-1,-1],"loss_changes":[6.4163824E2,1.1429382E2,5.5319226E2,4.0289215E1,6.2229248E1,8.9958954E1,1.4913525E2,3.7811523E1,1.1006219E1,5.248109E1,9.255234E0,2.8209667E1,6.6197266E1,2.9154388E1,1.650808E1,0E0,0E0,0E0,0E0,0E0,0E0,0E0,0E0,0E0,0E0,0E0,0E0,0E0,0E0,0E0,0E0],"parents":[2147483647,0,0,1,1,2,2,3,3,4,4,5,5,6,6,7,7,8,8,9,9,10,10,11,11,12,12,13,13,14,14],"right_children":[2,4,6,8,10,12,14,16,18,20,22,24,26,28,30,-1,-1,-1,-1,-1,-1,-1,-1,-1,-1,-1,-1,-1,-1,-1,-1],"split_conditions":[2.47258E0,1.61678E0,1E0,2.9893162E0,1E0,-7.394526E-1,4.8098E0,1.1702045E1,1.5426308E-2,5.4411764E0,1.5687245E2,4.4245E0,3.4248E0,7.2569447E0,-3.9284177E0,-8.047692E-2,-1.6836865E-2,1.5104936E-2,-3.3475336E-2,-4.3435212E-2,-6.4636148E-3,8.781721E-3,-1.0689099E-1,-1.2795596E-2,3.0691354E-2,1.779246E-2,3.9383E-2,-3.32086E-2,-8.802362E-2,-4.3657254E-2,6.1908187E-3],"split_indices":[4249,4249,4259,4168,4259,2475,4249,4198,3760,2651,4097,4249,4249,2649,2407,0,0,0,0,0,0,0,0,0,0,0,0,0,0,0,0],"split_type":[0,0,0,0,0,0,0,0,0,0,0,0,0,0,0,0,0,0,0,0,0,0,0,0,0,0,0,0,0,0,0],"sum_hessian":[2.734E3,7.44E2,1.99E3,2.86E2,4.58E2,1.707E3,2.83E2,2.31E2,5.5E1,4.38E2,2E1,2.18E2,1.489E3,1.75E2,1.08E2,2.01E2,3E1,1.2E1,4.3E1,1.38E2,3E2,1E0,1.9E1,1.76E2,4.2E1,6.27E2,8.62E2,4E1,1.35E2,1.5E1,9.3E1],"tree_param":{"num_deleted":"0","num_feature":"4336","num_nodes":"31","size_leaf_vector":"1"}},{"base_weights":[-2.063793E-3,-8.303985E-1,2.6720282E-1,-1.2613014E0,-5.020262E-1,4.6837536E-1,-8.310617E-1,-1.3984101E0,-4.0369955E-1,-4.304366E-1,-1.6288475E0,1.4306305E-1,6.3853467E-1,-3.5258234E-1,-1.6511612E0,-7.1539134E-2,1.0992721E-2,-3.1881373E-2,4.5628897E-3,-4.253794E-2,-1.1559028E-2,-8.837705E-2,8.708539E-3,5.5878155E-4,5.0293542E-2,3.5925716E-2,5.852117E-3,-4.058695E-2,8.197687E-3,-9.217146E-2,-2.38498E-2],"categories":[],"categories_nodes":[],"categories_segments":[],"categories_sizes":[],"default_left":[0,0,0,0,0,0,0,0,0,0,0,0,0,0,0,0,0,0,0,0,0,0,0,0,0,0,0,0,0,0,0],"id":1,"left_children":[1,3,5,7,9,11,13,15,17,19,21,23,25,27,29,-1,-1,-1,-1,-1,-1,-1,-1,-1,-1,-1,-1,-1,-1,-1,-1],"loss_changes":[6.00036E2,9.004541E1,4.504195E2,3.0155975E1,2.7184593E1,9.462021E1,1.20887375E2,1.4319366E1,5.6716585E0,2.9645302E1,6.95002E0,6.777681E1,4.650177E1,4.958743E1,2.133319E1,0E0,0E0,0E0,0E0,0E0,0E0,0E0,0E0,0E0,0E0,0E0,0E0,0E0,0E0,0E0,0E0],"parents":[2147483647,0,0,1,1,2,2,3,3,4,4,5,5,6,6,7,7,8,8,9,9,10,10,11,11,12,12,13,13,14,14],"right_children":[2,4,6,8,10,12,14,16,18,20,22,24,26,28,30,-1,-1,-1,-1,-1,-1,-1,-1,-1,-1,-1,-1,-1,-1,-1,-1],"split_conditions":[2.3506E0,1.61678E0,1E0,5.6719527E0,1E0,3.2714286E0,6.6943294E-1,3.5103939E0,3.0065027E1,5.4954953E0,9.584671E-2,4.9103E0,1.0023292E1,4.62332E0,4.0353145E-2,-7.1539134E-2,1.0992721E-2,-3.1881373E-2,4.5628897E-3,-4.253794E-2,-1.1559028E-2,-8.837705E-2,8.708539E-3,5.5878155E-4,5.0293542E-2,3.5925716E-2,5.852117E-3,-4.058695E-2,8.197687E-3,-9.217146E-2,-2.38498E-2],"split_indices":[4249,4249,2517,3663,2517,2658,3884,2832,4214,2651,3030,4249,4177,4249,2974,0,0,0,0,0,0,0,0,0,0,0,0,0,0,0,0],"split_type":[0,0,0,0,0,0,0,0,0,0,0,0,0,0,0,0,0,0,0,0,0,0,0,0,0,0,0,0,0,0,0],"sum_hessian":[2.68E3,6.55E2,2.025E3,2.77E2,3.78E2,1.714E3,3.11E2,2.36E2,4.1E1,3.62E2,1.6E1,5.92E2,1.122E3,2.01E2,1.1E2,2.32E2,4E0,2.7E1,1.4E1,1.11E2,2.51E2,1.5E1,1E0,5.18E2,7.4E1,9.71E2,1.51E2,1.05E2,9.6E1,9.2E1,1.8E1],"tree_param":{"num_deleted":"0","num_feature":"4336","num_nodes":"31","size_leaf_vector":"1"}},{"base_weights":[7.055065E-3,-7.205593E-1,2.7484688E-1,-6.2570953E-1,-1.9989787E0,4.770423E-1,-7.977499E-1,-9.660068E-1,-2.71039E-1,1.1015278E-2,-2.1215894E0,-3.1195918E-2,5.722254E-1,-1.2266333E0,3.7298195E-2,-7.244677E-2,-3.544174E-2,-3.2316532E-2,-4.3384223E-3,-1.0762664E-1,-5.2428585E-3,1.506625E-2,-1.8785328E-2,1.6171414E-2,3.8302317E-2,-7.728775E-2,-9.537577E-3,1.7048974E-2,-1.4752097E-2],"categories":[],"categories_nodes":[],"categories_segments":[],"categories_sizes":[],"default_left":[0,0,0,0,0,0,0,0,0,0,0,0,0,0,0,0,0,0,0,0,0,0,0,0,0,0,0,0,0],"id":2,"left_children":[1,3,5,7,9,11,13,15,17,-1,19,21,23,25,27,-1,-1,-1,-1,-1,-1,-1,-1,-1,-1,-1,-1,-1,-1],"loss_changes":[5.2801263E2,8.188052E1,4.3149844E2,8.1362854E1,1.5588303E1,8.0930786E1,1.1351941E2,3.786902E1,2.3366516E1,0E0,1.5162964E0,3.1274763E1,6.650073E1,6.744168E1,1.1811264E1,0E0,0E0,0E0,0E0,0E0,0E0,0E0,0E0,0E0,0E0,0E0,0E0,0E0,0E0],"parents":[2147483647,0,0,1,1,2,2,3,3,4,4,5,5,6,6,7,7,8,8,10,10,11,11,12,12,13,13,14,14],"right_children":[2,4,6,8,10,12,14,16,18,-1,20,22,24,26,28,-1,-1,-1,-1,-1,-1,-1,-1,-1,-1,-1,-1,-1,-1],"split_conditions":[2.47258E0,1E0,1E0,2.652174E0,1.86E2,-5.8147067E-1,4.8098E0,1.3838E0,1.61678E0,1.1015278E-2,1.3319705E0,9.673627E0,3.47022E0,-2.1314567E-3,5.661158E-1,-7.244677E-2,-3.544174E-2,-3.2316532E-2,-4.3384223E-3,-1.0762664E-1,-5.2428585E-3,1.506625E-2,-1.8785328E-2,1.6171414E-2,3.8302317E-2,-7.728775E-2,-9.537577E-3,1.7048974E-2,-1.4752097E-2],"split_indices":[4249,2517,2517,2663,2584,2475,4249,4249,4249,0,3061,4197,4249,2929,3791,0,0,0,0,0,0,0,0,0,0,0,0,0,0],"split_type":[0,0,0,0,0,0,0,0,0,0,0,0,0,0,0,0,0,0,0,0,0,0,0,0,0,0,0,0,0],"sum_hessian":[2.7E3,7.24E2,1.976E3,6.81E2,4.3E1,1.665E3,3.11E2,3.43E2,3.38E2,2E0,4.1E1,2.63E2,1.402E3,2.04E2,1.07E2,1.11E2,2.32E2,1.07E2,2.31E2,4E1,1E0,1.34E2,1.29E2,6.2E2,7.82E2,1.54E2,5E1,5.6E1,5.1E1],"tree_param":{"num_deleted":"0","num_feature":"4336","num_nodes":"29","size_leaf_vector":"1"}},{"base_weights":[7.079435E-4,-9.146535E-1,2.1947822E-1,-1.1984E0,-5.8497417E-1,3.9444152E-1,-9.3157405E-1,-1.5025591E0,-8.665285E-1,-8.218407E-1,-5.7673953E-2,6.243913E-1,5.828899E-2,-1.4300593E0,4.3600993E-3,-7.773037E-2,4.222953E-3,-1.5736548E-2,-5.182692E-2,-5.0413396E-2,-3.904889E-3,1.2420262E-2,-1.3801894E-2,1.1818547E-2,4.1003536E-2,-5.5595315E-3,3.5844147E-2,-3.752945E-2,-8.375611E-2,-2.313246E-2,1.2596167E-2],"categories":[],"categories_nodes":[],"categories_segments":[],"categories_sizes":[],"default_left":[0,0,0,0,0,0,0,0,0,0,0,0,0,0,0,0,0,0,0,0,0,0,0,0,0,0,0,0,0,0,0],"id":3,"left_children":[1,3,5,7,9,11,13,15,17,19,21,23,25,27,29,-1,-1,-1,-1,-1,-1,-1,-1,-1,-1,-1,-1,-1,-1,-1,-1],"loss_changes":[5.3881616E2,4.4866547E1,4.3920676E2,2.0911102E1,3.0900002E1,1.4576608E2,1.3453992E2,1.2037323E1,1.1648697E1,2.3346107E1,5.8930516E0,8.403998E1,8.674002E1,2.4775238E1,1.2701192E1,0E0,0E0,0E0,0E0,0E0,0E0,0E0,0E0,0E0,0E0,0E0,0E0,0E0,0E0,0E0,0E0],"parents":[2147483647,0,0,1,1,2,2,3,3,4,4,5,5,6,6,7,7,8,8,9,9,10,10,11,11,12,12,13,13,14,14],"right_children":[2,4,6,8,10,12,14,16,18,20,22,24,26,28,30,-1,-1,-1,-1,-1,-1,-1,-1,-1,-1,-1,-1,-1,-1,-1,-1],"split_conditions":[2.0868E0,2.652174E0,1E0,1.3838E0,6.4121523E0,1E0,4.8098E0,1.4091784E0,3.9874077E0,6.173477E0,-7.342233E-2,3.0071E0,4.6504E0,1.2598151E-1,4.8077488E-1,-7.773037E-2,4.222953E-3,-1.5736548E-2,-5.182692E-2,-5.0413396E-2,-3.904889E-3,1.2420262E-2,-1.3801894E-2,1.1818547E-2,4.1003536E-2,-5.5595315E-3,3.5844147E-2,-3.752945E-2,-8.375611E-2,-2.313246E-2,1.2596167E-2],"split_indices":[4068,2663,4260,4068,4225,2518,4068,3080,2223,2334,2982,4068,4068,2937,4140,0,0,0,0,0,0,0,0,0,0,0,0,0,0,0,0],"split_type":[0,0,0,0,0,0,0,0,0,0,0,0,0,0,0,0,0,0,0,0,0,0,0,0,0,0,0,0,0,0,0],"sum_hessian":[2.681E3,5.14E2,2.167E3,2.69E2,2.45E2,1.884E3,2.83E2,1.31E2,1.38E2,1.67E2,7.8E1,1.116E3,7.68E2,1.83E2,1E2,1.27E2,4E0,3.6E1,1.02E2,1.32E2,3.5E1,3.2E1,4.6E1,3.78E2,7.38E2,6.14E2,1.54E2,5.4E1,1.29E2,3.3E1,6.7E1],"tree_param":{"num_deleted":"0","num_feature":"4336","num_nodes":"31","size_leaf_vector":"1"}},{"base_weights":[-1.3479997E-2,-8.2440823E-1,1.7532599E-1,-1.1071343E0,-4.017416E-1,3.4372538E-1,-8.725236E-1,-1.3995378E0,-7.5491947E-1,-2.8355902E-1,-7.955826E-2,3.4088371E-3,4.9203917E-1,-1.3779768E0,5.1927413E-3,-7.192673E-2,1.1155417E-2,-1.1257436E-2,-4.6661254E-2,-3.1538446E-2,-4.339719E-3,-2.7774593E-2,7.0461403E-3,2.6829138E-2,-2.167341E-2,-8.2424626E-2,-4.258779E-2,1.9433537E-2,-1.917213E-2],"categories":[],"categories_nodes":[],"categories_segments":[],"categories_sizes":[],"default_left":[0,0,0,0,0,0,0,0,0,0,0,0,0,0,0,0,0,0,0,0,0,0,0,0,0,0,0,0,0],"id":4,"left_children":[1,3,5,7,9,11,13,15,17,19,-1,21,23,25,27,-1,-1,-1,-1,-1,-1,-1,-1,-1,-1,-1,-1,-1,-1],"loss_changes":[4.1264844E2,5.8450134E1,3.8718216E2,2.5604462E1,2.7357243E1,9.518582E1,1.35041E2,1.1787445E1,1.28138275E1,1.3249914E1,0E0,4.4773098E1,5.5343506E1,2.0203186E1,1.803353E1,0E0,0E0,0E0,0E0,0E0,0E0,0E0,0E0,0E0,0E0,0E0,0E0,0E0,0E0],"parents":[2147483647,0,0,1,1,2,2,3,3,4,4,5,5,6,6,7,7,8,8,9,9,11,11,12,12,13,13,14,14],"right_children":[2,4,6,8,10,12,14,16,18,20,-1,22,24,26,28,-1,-1,-1,-1,-1,-1,-1,-1,-1,-1,-1,-1,-1,-1],"split_conditions":[2.0868E0,2.70625E0,1E0,1.47082E0,1E0,2.99557E0,4.8098E0,1E0,-1.0302963E0,6.237062E0,-7.955826E-2,6.169697E0,4E0,-2.879031E0,1.3272174E-1,-7.192673E-2,1.1155417E-2,-1.1257436E-2,-4.6661254E-2,-3.1538446E-2,-4.339719E-3,-2.7774593E-2,7.0461403E-3,2.6829138E-2,-2.167341E-2,-8.2424626E-2,-4.258779E-2,1.9433537E-2,-1.917213E-2],"split_indices":[4249,2663,4260,4249,2517,4249,4249,1358,2431,2281,0,2650,4242,2464,3900,0,0,0,0,0,0,0,0,0,0,0,0,0,0],"split_type":[0,0,0,0,0,0,0,0,0,0,0,0,0,0,0,0,0,0,0,0,0,0,0,0,0,0,0,0,0],"sum_hessian":[2.685E3,5.04E2,2.181E3,2.97E2,2.07E2,1.882E3,2.99E2,1.54E2,1.43E2,1.94E2,1.3E1,5.73E2,1.309E3,1.88E2,1.11E2,1.51E2,3E0,3.9E1,1.04E2,6.6E1,1.28E2,1.1E2,4.63E2,1.251E3,5.8E1,1.17E2,7.1E1,5.6E1,5.5E1],"tree_param":{"num_deleted":"0","num_feature":"4336","num_nodes":"29","size_leaf_vector":"1"}},{"base_weights":[-1.4584162E-2,-6.320221E-1,2.25446E-1,-1.0271076E0,-3.7436545E-1,4.0910733E-1,-8.274991E-1,-1.124053E0,1.3961855E-1,-4.9904573E-1,2.7494872E-1,-9.658816E-2,4.9642482E-1,-1.2236565E0,-7.0285544E-2,-5.875743E-2,1.1688451E-2,-7.494114E-3,2.5836399E-2,-1.7352981E-2,-4.74276E-2,-1.4045141E-2,2.4628079E-2,1.2190273E-2,-2.2662021E-2,1.5052143E-2,3.3265997E-2,-3.7509557E-2,-8.2357205E-2,4.450273E-3,-3.6670163E-2],"categories":[],"categories_nodes":[],"categories_segments":[],"categories_sizes":[],"default_left":[0,0,0,0,0,0,0,0,0,0,0,0,0,0,0,0,0,0,0,0,0,0,0,0,0,0,0,0,0,0,0],"id":5,"left_children":[1,3,5,7,9,11,13,15,17,19,21,23,25,27,29,-1,-1,-1,-1,-1,-1,-1,-1,-1,-1,-1,-1,-1,-1,-1,-1],"loss_changes":[3.9971753E2,7.479361E1,3.772051E2,3.4250153E1,3.8353325E1,7.344635E1,8.643358E1,2.0408112E1,3.371611E0,2.5005356E1,1.0147888E1,3.0681194E1,4.556256E1,3.1678162E1,1.1481835E1,0E0,0E0,0E0,0E0,0E0,0E0,0E0,0E0,0E0,0E0,0E0,0E0,0E0,0E0,0E0,0E0],"parents":[2147483647,0,0,1,1,2,2,3,3,4,4,5,5,6,6,7,7,8,8,9,9,10,10,11,11,12,12,13,13,14,14],"right_children":[2,4,6,8,10,12,14,16,18,20,22,24,26,28,30,-1,-1,-1,-1,-1,-1,-1,-1,-1,-1,-1,-1,-1,-1,-1,-1],"split_conditions":[2.47258E0,1.61678E0,1E0,5.9634686E0,1.1531432E1,-5.8147067E-1,4.8098E0,6.347827E0,-1.498939E0,8.272925E-1,1.5425848E0,9.673627E0,3.5433E0,1.0229852E0,7.2112477E-1,-5.875743E-2,1.1688451E-2,-7.494114E-3,2.5836399E-2,-1.7352981E-2,-4.74276E-2,-1.4045141E-2,2.4628079E-2,1.2190273E-2,-2.2662021E-2,1.5052143E-2,3.3265997E-2,-3.7509557E-2,-8.2357205E-2,4.450273E-3,-3.6670163E-2],"split_indices":[4068,4068,4259,3663,3513,2475,4068,2419,2499,3092,3060,3844,4068,3745,3884,0,0,0,0,0,0,0,0,0,0,0,0,0,0,0,0],"split_type":[0,0,0,0,0,0,0,0,0,0,0,0,0,0,0,0,0,0,0,0,0,0,0,0,0,0,0,0,0,0,0],"sum_hessian":[2.687E3,7.5E2,1.937E3,2.9E2,4.6E2,1.652E3,2.85E2,2.68E2,2.2E1,3.87E2,7.3E1,2.43E2,1.409E3,1.85E2,1E2,2.59E2,9E0,1.4E1,8E0,2.96E2,9.1E1,2E1,5.3E1,1.25E2,1.18E2,6.6E2,7.49E2,9.4E1,9.1E1,8.4E1,1.6E1],"tree_param":{"num_deleted":"0","num_feature":"4336","num_nodes":"31","size_leaf_vector":"1"}},{"base_weights":[-1.9619528E-2,-6.0284644E-1,2.0502312E-1,-1.020385E0,-3.563153E-1,3.6514395E-1,-7.3237824E-1,-1.1493566E0,-1.4799003E-1,-2.5326604E-1,-1.695147E0,-1.7600098E-1,4.485872E-1,-1.1761831E0,-1.3822415E-3,-6.2196303E-2,-1.2657388E-2,-2.638712E-2,1.4768693E-2,-3.8077433E-2,-5.4347673E-3,-9.0993844E-2,2.6880864E-3,1.1763817E-2,-2.4160221E-2,1.13182375E-2,2.9370103E-2,-3.6984242E-2,-7.424204E-2,1.8957688E-2,-1.8852312E-2],"categories":[],"categories_nodes":[],"categories_segments":[],"categories_sizes":[],"default_left":[0,0,0,0,0,0,0,0,0,0,0,0,0,0,0,0,0,0,0,0,0,0,0,0,0,0,0,0,0,0,0],"id":6,"left_children":[1,3,5,7,9,11,13,15,17,19,21,23,25,27,29,-1,-1,-1,-1,-1,-1,-1,-1,-1,-1,-1,-1,-1,-1,-1,-1],"loss_changes":[3.500818E2,7.452606E1,2.9083844E2,2.9736206E1,6.3192215E1,7.497275E1,9.168486E1,1.8362488E1,7.705751E0,3.2345886E1,7.864464E0,2.8894688E1,4.3427795E1,1.79982E1,1.6725391E1,0E0,0E0,0E0,0E0,0E0,0E0,0E0,0E0,0E0,0E0,0E0,0E0,0E0,0E0,0E0,0E0],"parents":[2147483647,0,0,1,1,2,2,3,3,4,4,5,5,6,6,7,7,8,8,9,9,10,10,11,11,12,12,13,13,14,14],"right_children":[2,4,6,8,10,12,14,16,18,20,22,24,26,28,30,-1,-1,-1,-1,-1,-1,-1,-1,-1,-1,-1,-1,-1,-1,-1,-1],"split_conditions":[2.47258E0,1.5612E0,1E0,5.812724E0,1E0,-7.054069E-1,4.8098E0,7.538275E1,2.9286474E1,6.2105265E0,8.442605E-2,5.3572307E0,3.3694E0,9.9584496E-1,1.3272174E-1,-6.2196303E-2,-1.2657388E-2,-2.638712E-2,1.4768693E-2,-3.8077433E-2,-5.4347673E-3,-9.0993844E-2,2.6880864E-3,1.1763817E-2,-2.4160221E-2,1.13182375E-2,2.9370103E-2,-3.6984242E-2,-7.424204E-2,1.8957688E-2,-1.8852312E-2],"split_indices":[4249,4249,4260,3584,2517,2475,4249,4119,3857,2650,3038,4197,4249,3745,3900,0,0,0,0,0,0,0,0,0,0,0,0,0,0,0,0],"split_type":[0,0,0,0,0,0,0,0,0,0,0,0,0,0,0,0,0,0,0,0,0,0,0,0,0,0,0,0,0,0,0],"sum_hessian":[2.662E3,7.38E2,1.924E3,2.68E2,4.7E2,1.646E3,2.78E2,2.32E2,3.6E1,4.42E2,2.8E1,2.19E2,1.427E3,1.71E2,1.07E2,2.08E2,2.4E1,1.9E1,1.7E1,9.3E1,3.49E2,2.6E1,2E0,9.4E1,1.25E2,5.54E2,8.73E2,7.8E1,9.3E1,5.3E1,5.4E1],"tree_param":{"num_deleted":"0","num_feature":"4336","num_nodes":"31","size_leaf_vector":"1"}},{"base_weights":[2.4287265E-3,-5.875954E-1,1.4336215E-1,-5.0499868E-2,-7.62997E-1,-6.9775856E-1,2.3931095E-1,-8.234091E-1,1.20335475E-1,-1.002161E0,-4.2261553E-1,-1.0187029E0,-1.7733344E-1,4.3299773E-1,-3.7337907E-2,-5.3068567E-2,8.908726E-3,-1.3640421E-2,2.251774E-2,1.4334832E-2,-5.43811E-2,-5.9139626E-3,-3.9696928E-2,-5.5896927E-2,1.2618142E-2,1.6460847E-2,-2.4512645E-2,2.7008703E-2,-9.3717305E-3,9.9960845E-3,-2.194946E-2],"categories":[],"categories_nodes":[],"categories_segments":[],"categories_sizes":[],"default_left":[0,0,0,0,0,0,0,0,0,0,0,0,0,0,0,0,0,0,0,0,0,0,0,0,0,0,0,0,0,0,0],"id":7,"left_children":[1,3,5,7,9,11,13,15,17,19,21,23,25,27,29,-1,-1,-1,-1,-1,-1,-1,-1,-1,-1,-1,-1,-1,-1,-1,-1],"loss_changes":[2.2514235E2,4.8902267E1,1.7720915E2,1.825912E1,2.9732819E1,3.6558342E1,1.0546503E2,6.992344E0,1.5422998E1,2.6642532E1,1.8763454E1,1.890384E1,1.54059725E1,7.7477005E1,7.803336E1,0E0,0E0,0E0,0E0,0E0,0E0,0E0,0E0,0E0,0E0,0E0,0E0,0E0,0E0,0E0,0E0],"parents":[2147483647,0,0,1,1,2,2,3,3,4,4,5,5,6,6,7,7,8,8,9,9,10,10,11,11,12,12,13,13,14,14],"right_children":[2,4,6,8,10,12,14,16,18,20,22,24,26,28,30,-1,-1,-1,-1,-1,-1,-1,-1,-1,-1,-1,-1,-1,-1,-1,-1],"split_conditions":[8.902E1,8.3475363E-1,-8.7222874E-1,1.8922482E0,-1.3540387E-1,3.5705906E1,1E0,1.0004115E1,1.1293614E0,-1.9337858E0,1E0,1.02997265E1,3.5077212E0,6.0088134E-1,-3.1743813E0,-5.3068567E-2,8.908726E-3,-1.3640421E-2,2.251774E-2,1.4334832E-2,-5.43811E-2,-5.9139626E-3,-3.9696928E-2,-5.5896927E-2,1.2618142E-2,1.6460847E-2,-2.4512645E-2,2.7008703E-2,-9.3717305E-3,9.9960845E-3,-2.194946E-2],"split_indices":[3768,3140,3658,2731,2884,3810,2518,2650,3120,4225,2518,3597,2299,3884,2402,0,0,0,0,0,0,0,0,0,0,0,0,0,0,0,0],"split_type":[0,0,0,0,0,0,0,0,0,0,0,0,0,0,0,0,0,0,0,0,0,0,0,0,0,0,0,0,0,0,0],"sum_hessian":[2.698E3,5.17E2,2.181E3,1.29E2,3.88E2,2.2E2,1.961E3,2E1,1.09E2,2.22E2,1.66E2,1.33E2,8.7E1,1.152E3,8.09E2,1.6E1,4E0,5E1,5.9E1,1.3E1,2.09E2,9.5E1,7.1E1,1.24E2,9E0,3.3E1,5.4E1,9.83E2,1.69E2,5.1E2,2.99E2],"tree_param":{"num_deleted":"0","num_feature":"4336","num_nodes":"31","size_leaf_vector":"1"}},{"base_weights":[-1.5478771E-2,-5.580606E-1,1.9439721E-1,-9.507382E-1,-3.4560257E-1,3.452223E-1,-7.0027435E-1,-7.100446E-1,-1.414459E0,-2.7036515E-1,-1.4658966E0,5.556897E-1,5.1804163E-2,-1.115017E0,8.217134E-3,-7.0506395E-3,-4.539345E-2,-8.6834185E-2,-3.70421E-2,-3.906663E-3,-3.1030321E-2,2.7678227E-3,-7.94007E-2,-1.5470067E-2,3.1978317E-2,-1.5448577E-2,1.3851354E-2,-6.357533E-2,-2.0684494E-2,9.670889E-3,-2.9317925E-2],"categories":[],"categories_nodes":[],"categories_segments":[],"categories_sizes":[],"default_left":[0,0,0,0,0,0,0,0,0,0,0,0,0,0,0,0,0,0,0,0,0,0,0,0,0,0,0,0,0,0,0],"id":8,"left_children":[1,3,5,7,9,11,13,15,17,19,21,23,25,27,29,-1,-1,-1,-1,-1,-1,-1,-1,-1,-1,-1,-1,-1,-1,-1,-1],"loss_changes":[3.070161E2,6.0964966E1,2.6349445E2,2.3897324E1,3.965162E1,1.0274086E2,8.301984E1,1.9742455E1,1.155191E1,3.1398949E1,6.1659546E0,7.1406494E1,5.7465748E1,1.6736984E1,1.2530387E1,0E0,0E0,0E0,0E0,0E0,0E0,0E0,0E0,0E0,0E0,0E0,0E0,0E0,0E0,0E0,0E0],"parents":[2147483647,0,0,1,1,2,2,3,3,4,4,5,5,6,6,7,7,8,8,9,9,10,10,11,11,12,12,13,13,14,14],"right_children":[2,4,6,8,10,12,14,16,18,20,22,24,26,28,30,-1,-1,-1,-1,-1,-1,-1,-1,-1,-1,-1,-1,-1,-1,-1,-1],"split_conditions":[2.499E0,1.5612E0,1E0,1E0,1E0,1E0,4.8098E0,-7.2916665E0,7.6797366E0,1E0,1.0419762E0,-3.72875E0,8.807282E0,-1.2883408E-1,6.6943294E-1,-7.0506395E-3,-4.539345E-2,-8.6834185E-2,-3.70421E-2,-3.906663E-3,-3.1030321E-2,2.7678227E-3,-7.94007E-2,-1.5470067E-2,3.1978317E-2,-1.5448577E-2,1.3851354E-2,-6.357533E-2,-2.0684494E-2,9.670889E-3,-2.9317925E-2],"split_indices":[4249,4249,4260,2518,2517,2518,4249,2772,2351,2518,2254,3616,2399,4226,3884,0,0,0,0,0,0,0,0,0,0,0,0,0,0,0,0],"split_type":[0,0,0,0,0,0,0,0,0,0,0,0,0,0,0,0,0,0,0,0,0,0,0,0,0,0,0,0,0,0,0],"sum_hessian":[2.686E3,7.47E2,1.939E3,2.56E2,4.91E2,1.662E3,2.77E2,1.77E2,7.9E1,4.66E2,2.5E1,9.65E2,6.97E2,1.73E2,1.04E2,4.8E1,1.29E2,4.8E1,3.1E1,3.05E2,1.61E2,2E0,2.3E1,8.4E1,8.81E2,2.67E2,4.3E2,1.38E2,3.5E1,8.2E1,2.2E1],"tree_param":{"num_deleted":"0","num_feature":"4336","num_nodes":"31","size_leaf_vector":"1"}},{"base_weights":[-6.170072E-3,-5.3097016E-1,1.979585E-1,-4.589681E-1,-1.7527361E0,3.3769467E-1,-6.223707E-1,-8.367541E-1,-3.0350542E-1,-9.645661E-2,1.4605598E-1,4.2827109E-1,-9.208957E-2,-1.0003668E0,2.6006917E-2,-4.76057E-2,-2.8795763E-3,-4.0451054E-2,-8.601152E-3,1.358399E-2,-5.277589E-3,2.4422362E-2,-4.571888E-3,-1.3601835E-2,2.002613E-2,-7.774627E-2,-3.4890026E-2,8.205124E-3,-2.934947E-2],"categories":[],"categories_nodes":[],"categories_segments":[],"categories_sizes":[],"default_left":[0,0,0,0,0,0,0,0,0,0,0,0,0,0,0,0,0,0,0,0,0,0,0,0,0,0,0,0,0],"id":9,"left_children":[1,3,5,7,9,11,13,15,17,-1,19,21,23,25,27,-1,-1,-1,-1,-1,-1,-1,-1,-1,-1,-1,-1,-1,-1],"loss_changes":[2.8765842E2,6.190979E1,2.2260153E2,4.072673E1,1.498468E1,6.465718E1,6.958638E1,1.8141006E1,3.3502705E1,0E0,4.1285768E-1,4.3045944E1,2.6416023E1,2.438414E1,9.66642E0,0E0,0E0,0E0,0E0,0E0,0E0,0E0,0E0,0E0,0E0,0E0,0E0,0E0,0E0],"parents":[2147483647,0,0,1,1,2,2,3,3,4,4,5,5,6,6,7,7,8,8,10,10,11,11,12,12,13,13,14,14],"right_children":[2,4,6,8,10,12,14,16,18,-1,20,22,24,26,28,-1,-1,-1,-1,-1,-1,-1,-1,-1,-1,-1,-1,-1,-1],"split_conditions":[2.499E0,1E0,1E0,1.3432E0,1.3134749E-1,2.3684211E-1,4.8098E0,5.812724E0,6.2608695E0,-9.645661E-2,5.3E1,9.104103E2,4.4492E0,-5.7760057E0,7.844099E-3,-4.76057E-2,-2.8795763E-3,-4.0451054E-2,-8.601152E-3,1.358399E-2,-5.277589E-3,2.4422362E-2,-4.571888E-3,-1.3601835E-2,2.002613E-2,-7.774627E-2,-3.4890026E-2,8.205124E-3,-2.934947E-2],"split_indices":[4068,4259,4259,4068,2954,4067,4068,3584,2650,0,2565,2807,4068,2453,2923,0,0,0,0,0,0,0,0,0,0,0,0,0,0],"split_type":[0,0,0,0,0,0,0,0,0,0,0,0,0,0,0,0,0,0,0,0,0,0,0,0,0,0,0,0,0],"sum_hessian":[2.675E3,7.47E2,1.928E3,7.12E2,3.5E1,1.65E3,2.78E2,2.01E2,5.11E2,3.2E1,3E0,1.363E3,2.87E2,1.74E2,1.04E2,1.74E2,2.7E1,1E2,4.11E2,2E0,1E0,1.222E3,1.41E2,2.12E2,7.5E1,5.4E1,1.2E2,8.8E1,1.6E1],"tree_param":{"num_deleted":"0","num_feature":"4336","num_nodes":"29","size_leaf_vector":"1"}},{"base_weights":[-1.3240941E-2,9.5745146E-2,-7.3918486E-1,1.9366704E-1,-6.7095286E-1,-1.4966124E-1,-1.1189299E0,2.9181236E-1,-1.9653617E-1,-7.5084704E-1,2.835778E-1,-5.505665E-1,9.440432E-2,-5.8240557E-1,-1.4026362E0,1.7713495E-2,-8.317065E-3,1.0973479E-2,-2.1527218E-2,-1.0143051E-2,-4.6670444E-2,-1.5355713E-2,2.856701E-2,-3.2702066E-2,1.1604526E-2,-1.4970236E-3,2.6630996E-2,1.6326426E-2,-3.520414E-2,-8.0470234E-2,-2.4125282E-2],"categories":[],"categories_nodes":[],"categories_segments":[],"categories_sizes":[],"default_left":[0,0,0,0,0,0,0,0,0,0,0,0,0,0,0,0,0,0,0,0,0,0,0,0,0,0,0,0,0,0,0],"id":10,"left_children":[1,3,5,7,9,11,13,15,17,19,21,23,25,27,29,-1,-1,-1,-1,-1,-1,-1,-1,-1,-1,-1,-1,-1,-1,-1,-1],"loss_changes":[2.1213739E2,1.7560533E2,7.738986E1,7.96086E1,2.1320633E1,1.429764E1,2.7986603E1,4.7728714E1,4.1282684E1,2.3549774E1,4.9832516E0,5.2553673E0,5.197556E0,1.0256186E1,2.1592377E1,0E0,0E0,0E0,0E0,0E0,0E0,0E0,0E0,0E0,0E0,0E0,0E0,0E0,0E0,0E0,0E0],"parents":[2147483647,0,0,1,1,2,2,3,3,4,4,5,5,6,6,7,7,8,8,9,9,10,10,11,11,12,12,13,13,14,14],"right_children":[2,4,6,8,10,12,14,16,18,20,22,24,26,28,30,-1,-1,-1,-1,-1,-1,-1,-1,-1,-1,-1,-1,-1,-1,-1,-1],"split_conditions":[1E0,-3.0210636E0,2.1047229E-2,-1.7655412E0,4.546082E1,4.8178334E0,1.981102E0,1.0023292E1,1.6098604E2,8.440286E-1,2.0971425E-2,2.3486784E1,3.331824E-3,5.5891865E-1,1.0155954E0,1.7713495E-2,-8.317065E-3,1.0973479E-2,-2.1527218E-2,-1.0143051E-2,-4.6670444E-2,-1.5355713E-2,2.856701E-2,-3.2702066E-2,1.1604526E-2,-1.4970236E-3,2.6630996E-2,1.6326426E-2,-3.520414E-2,-8.0470234E-2,-2.4125282E-2],"split_indices":[2517,3819,2856,2402,2760,2415,2883,4177,2739,3140,3361,4214,2920,2309,2773,0,0,0,0,0,0,0,0,0,0,0,0,0,0,0,0],"split_type":[0,0,0,0,0,0,0,0,0,0,0,0,0,0,0,0,0,0,0,0,0,0,0,0,0,0,0,0,0,0,0],"sum_hessian":[2.671E3,2.326E3,3.45E2,2.066E3,2.6E2,1.38E2,2.07E2,1.652E3,4.14E2,2.41E2,1.9E1,5E1,8.8E1,7.7E1,1.3E2,1.455E3,1.97E2,1.49E2,2.65E2,6.3E1,1.78E2,6E0,1.3E1,4.5E1,5E0,7.2E1,1.6E1,8E0,6.9E1,1.03E2,2.7E1],"tree_param":{"num_deleted":"0","num_feature":"4336","num_nodes":"31","size_leaf_vector":"1"}},{"base_weights":[-1.5496041E-2,-5.0990343E-1,1.7781357E-1,-3.3891073E-1,-8.577294E-1,3.119161E-1,-6.0532856E-1,-5.361763E-1,4.378809E-2,-1.6975516E-1,-1.0215391E0,5.181234E-1,2.4789076E-2,-1.0872735E0,-1.3140249E-1,-5.9915077E-2,-2.1718873E-2,-1.724613E-2,9.239256E-3,1.089159E-2,-2.7244369E-2,-1.4504767E-2,-5.7074852E-2,3.0615348E-2,-2.5281848E-3,-2.3524458E-2,8.544656E-3,-2.50836E-2,-6.66027E-2,3.3860847E-3,-3.5724636E-2],"categories":[],"categories_nodes":[],"categories_segments":[],"categories_sizes":[],"default_left":[0,0,0,0,0,0,0,0,0,0,0,0,0,0,0,0,0,0,0,0,0,0,0,0,0,0,0,0,0,0,0],"id":11,"left_children":[1,3,5,7,9,11,13,15,17,19,21,23,25,27,29,-1,-1,-1,-1,-1,-1,-1,-1,-1,-1,-1,-1,-1,-1,-1,-1],"loss_changes":[2.6044702E2,4.398526E1,2.0665154E2,3.9574142E1,2.7075333E1,9.9113556E1,6.494477E1,2.048841E1,1.0277553E1,8.477577E0,1.5749603E1,5.2432922E1,5.145974E1,1.68302E1,1.7838821E1,0E0,0E0,0E0,0E0,0E0,0E0,0E0,0E0,0E0,0E0,0E0,0E0,0E0,0E0,0E0,0E0],"parents":[2147483647,0,0,1,1,2,2,3,3,4,4,5,5,6,6,7,7,8,8,9,9,10,10,11,11,12,12,13,13,14,14],"right_children":[2,4,6,8,10,12,14,16,18,20,22,24,26,28,30,-1,-1,-1,-1,-1,-1,-1,-1,-1,-1,-1,-1,-1,-1,-1,-1],"split_conditions":[2.499E0,1E0,1E0,4.16803E0,-2.7103038E0,1E0,4.3897E0,7.602E-1,5.6873865E0,-6.1683636E0,-8.31931E0,1.0023292E1,2.5562248E1,6.2071614E0,3.6946251E0,-5.9915077E-2,-2.1718873E-2,-1.724613E-2,9.239256E-3,1.089159E-2,-2.7244369E-2,-1.4504767E-2,-5.7074852E-2,3.0615348E-2,-2.5281848E-3,-2.3524458E-2,8.544656E-3,-2.50836E-2,-6.66027E-2,3.3860847E-3,-3.5724636E-2],"split_indices":[4068,2518,4259,3592,2349,2518,4068,4068,3853,2854,2316,3834,3811,2716,3773,0,0,0,0,0,0,0,0,0,0,0,0,0,0,0,0],"split_type":[0,0,0,0,0,0,0,0,0,0,0,0,0,0,0,0,0,0,0,0,0,0,0,0,0,0,0,0,0,0,0],"sum_hessian":[2.715E3,7.61E2,1.954E3,5.17E2,2.44E2,1.671E3,2.83E2,3.4E2,1.77E2,4.9E1,1.95E2,9.7E2,7.01E2,1.37E2,1.46E2,3.8E1,3.02E2,4.5E1,1.32E2,2.5E1,2.4E1,3E1,1.65E2,8.32E2,1.38E2,1.57E2,5.44E2,4.5E1,9.2E1,1.12E2,3.4E1],"tree_param":{"num_deleted":"0","num_feature":"4336","num_nodes":"31","size_leaf_vector":"1"}},{"base_weights":[-6.3531646E-3,-5.526406E-1,1.3986541E-1,-4.0461096E-1,-9.0424025E-1,2.5089824E-1,-5.6286645E-1,-6.1052483E-1,-6.566105E-2,-1.0788523E0,-2.912505E-1,-3.8144734E-2,3.7329698E-1,-8.7306124E-1,-4.303566E-2,-3.400516E-2,1.2194298E-2,-1.0014321E-2,1.3297277E-2,-5.7859905E-2,7.616114E-3,3.4011987E-3,-3.192097E-2,-1.2812436E-2,1.8172357E-2,2.183407E-2,-2.400908E-3,-6.0176373E-2,-3.0152319E-2,-1.891174E-2,1.09958155E-2],"categories":[],"categories_nodes":[],"categories_segments":[],"categories_sizes":[],"default_left":[0,0,0,0,0,0,0,0,0,0,0,0,0,0,0,0,0,0,0,0,0,0,0,0,0,0,0,0,0,0,0],"id":12,"left_children":[1,3,5,7,9,11,13,15,17,19,21,23,25,27,29,-1,-1,-1,-1,-1,-1,-1,-1,-1,-1,-1,-1,-1,-1,-1,-1],"loss_changes":[2.1865273E2,2.8123077E1,1.691337E2,2.8766449E1,1.6166824E1,6.619174E1,4.7450172E1,1.6210701E1,7.5365133E0,1.3328339E1,5.762251E0,4.950466E1,3.5207108E1,1.2698135E1,1.0656119E1,0E0,0E0,0E0,0E0,0E0,0E0,0E0,0E0,0E0,0E0,0E0,0E0,0E0,0E0,0E0,0E0],"parents":[2147483647,0,0,1,1,2,2,3,3,4,4,5,5,6,6,7,7,8,8,9,9,10,10,11,11,12,12,13,13,14,14],"right_children":[2,4,6,8,10,12,14,16,18,20,22,24,26,28,30,-1,-1,-1,-1,-1,-1,-1,-1,-1,-1,-1,-1,-1,-1,-1,-1],"split_conditions":[2.2089E0,4.774662E-1,1E0,7.2821126E0,8.653747E0,6.4863386E0,4.8098E0,1.6299786E1,7.748029E-1,4.9651685E0,9.334968E-1,4.1012E0,1.0023292E1,-6.2635183E0,4.8122194E-1,-3.400516E-2,1.2194298E-2,-1.0014321E-2,1.3297277E-2,-5.7859905E-2,7.616114E-3,3.4011987E-3,-3.192097E-2,-1.2812436E-2,1.8172357E-2,2.183407E-2,-2.400908E-3,-6.0176373E-2,-3.0152319E-2,-1.891174E-2,1.09958155E-2],"split_indices":[4249,4140,4260,2347,2650,2650,4249,4198,3124,2471,3516,4249,3834,2374,4140,0,0,0,0,0,0,0,0,0,0,0,0,0,0,0,0],"split_type":[0,0,0,0,0,0,0,0,0,0,0,0,0,0,0,0,0,0,0,0,0,0,0,0,0,0,0,0,0,0,0],"sum_hessian":[2.727E3,5.73E2,2.154E3,4.11E2,1.62E2,1.863E3,2.91E2,2.53E2,1.58E2,1.23E2,3.9E1,5.55E2,1.308E3,1.8E2,1.11E2,2.35E2,1.8E1,1.14E2,4.4E1,1.16E2,7E0,2.1E1,1.8E1,3.61E2,1.94E2,1.137E3,1.71E2,7.3E1,1.07E2,4.8E1,6.3E1],"tree_param":{"num_deleted":"0","num_feature":"4336","num_nodes":"31","size_leaf_vector":"1"}},{"base_weights":[2.989596E-3,-4.5008016E-1,1.7039612E-1,-3.6970642E-1,-1.5060215E0,2.8199476E-1,-4.44415E-1,-7.63877E-1,-2.2114274E-1,-1.6159818E0,1.4686385E-2,3.0874136E-1,-6.797069E-1,-9.0956646E-1,-6.633096E-2,-3.662296E-3,-4.806961E-2,3.0795357E-3,-2.0361088E-2,-8.386195E-2,-1.2828963E-2,-1.5169877E-2,1.7287245E-2,-4.7139E-2,1.2558363E-2,-1.3217452E-2,-5.8936477E-2,8.017277E-3,-2.6775187E-2],"categories":[],"categories_nodes":[],"categories_segments":[],"categories_sizes":[],"default_left":[0,0,0,0,0,0,0,0,0,0,0,0,0,0,0,0,0,0,0,0,0,0,0,0,0,0,0,0,0],"id":13,"left_children":[1,3,5,7,9,11,13,15,17,19,-1,21,23,25,27,-1,-1,-1,-1,-1,-1,-1,-1,-1,-1,-1,-1,-1,-1],"loss_changes":[2.0157713E2,5.7880264E1,1.3378642E2,3.846737E1,1.2202667E1,4.3350983E1,5.2360657E1,2.4371094E1,2.625491E1,1.5687332E0,0E0,3.688408E1,1.2517984E1,2.1569313E1,1.8652771E1,0E0,0E0,0E0,0E0,0E0,0E0,0E0,0E0,0E0,0E0,0E0,0E0,0E0,0E0],"parents":[2147483647,0,0,1,1,2,2,3,3,4,4,5,5,6,6,7,7,8,8,9,9,11,11,12,12,13,13,14,14],"right_children":[2,4,6,8,10,12,14,16,18,20,-1,22,24,26,28,-1,-1,-1,-1,-1,-1,-1,-1,-1,-1,-1,-1,-1,-1],"split_conditions":[2.47258E0,1E0,1E0,1.2994E0,1.6930344E-2,5E0,-1.27823865E-2,-5.936394E1,3.6890024E-1,-5.6113774E-1,1.4686385E-2,-3.855548E0,2E0,5.7528534E0,6.648514E-1,-3.662296E-3,-4.806961E-2,3.0795357E-3,-2.0361088E-2,-8.386195E-2,-1.2828963E-2,-1.5169877E-2,1.7287245E-2,-4.7139E-2,1.2558363E-2,-1.3217452E-2,-5.8936477E-2,8.017277E-3,-2.6775187E-2],"split_indices":[4249,2517,2517,4249,2862,3771,2857,2763,2306,2241,0,3537,3734,4193,4132,0,0,0,0,0,0,0,0,0,0,0,0,0,0],"split_type":[0,0,0,0,0,0,0,0,0,0,0,0,0,0,0,0,0,0,0,0,0,0,0,0,0,0,0,0,0],"sum_hessian":[2.648E3,7.12E2,1.936E3,6.68E2,4.4E1,1.641E3,2.95E2,1.77E2,4.91E2,4.2E1,2E0,1.6E3,4.1E1,1.29E2,1.66E2,4.1E1,1.36E2,1.96E2,2.95E2,3.9E1,3E0,8.9E1,1.511E3,3.2E1,9E0,4.1E1,8.8E1,1.14E2,5.2E1],"tree_param":{"num_deleted":"0","num_feature":"4336","num_nodes":"29","size_leaf_vector":"1"}},{"base_weights":[-1.3413234E-2,-5.6994456E-1,1.19030744E-1,-7.0623845E-1,-2.215611E-1,2.2079183E-1,-5.402931E-1,-9.3678975E-1,-4.9723127E-1,-6.200275E-1,-3.8370196E-2,6.31815E-2,4.0184936E-1,-8.763937E-1,7.819465E-2,-5.2392542E-2,-3.731147E-3,-3.7765447E-2,-1.111099E-2,4.666722E-3,-3.9958976E-2,-2.0401057E-2,6.124474E-3,-1.4436855E-2,9.772561E-3,-1.9824933E-2,2.2869742E-2,-2.2216368E-2,-5.5915117E-2,2.4291037E-2,-7.0283697E-3],"categories":[],"categories_nodes":[],"categories_segments":[],"categories_sizes":[],"default_left":[0,0,0,0,0,0,0,0,0,0,0,0,0,0,0,0,0,0,0,0,0,0,0,0,0,0,0,0,0,0,0],"id":14,"left_children":[1,3,5,7,9,11,13,15,17,19,21,23,25,27,29,-1,-1,-1,-1,-1,-1,-1,-1,-1,-1,-1,-1,-1,-1,-1,-1],"loss_changes":[1.9976775E2,2.386325E1,1.4743219E2,1.5453125E1,1.1056501E1,5.4045967E1,6.1537445E1,1.5870575E1,1.3683735E1,6.5779514E0,6.878719E0,4.7845074E1,4.0069153E1,1.7322723E1,1.0006675E1,0E0,0E0,0E0,0E0,0E0,0E0,0E0,0E0,0E0,0E0,0E0,0E0,0E0,0E0,0E0,0E0],"parents":[2147483647,0,0,1,1,2,2,3,3,4,4,5,5,6,6,7,7,8,8,9,9,10,10,11,11,12,12,13,13,14,14],"right_children":[2,4,6,8,10,12,14,16,18,20,22,24,26,28,30,-1,-1,-1,-1,-1,-1,-1,-1,-1,-1,-1,-1,-1,-1,-1,-1],"split_conditions":[2.0868E0,8.076799E0,1E0,1.47082E0,1.8085045E0,3.5433E0,4.8098E0,1.1704757E0,-4.1248784E0,-1.6675925E-1,1.5486975E0,6.4863386E0,-3.855548E0,6.049699E-1,-9.334992E-1,-5.2392542E-2,-3.731147E-3,-3.7765447E-2,-1.111099E-2,4.666722E-3,-3.9958976E-2,-2.0401057E-2,6.124474E-3,-1.4436855E-2,9.772561E-3,-1.9824933E-2,2.2869742E-2,-2.2216368E-2,-5.5915117E-2,2.4291037E-2,-7.0283697E-3],"split_indices":[4249,3513,4260,4249,2416,4249,4249,3884,2377,3576,3060,2650,3537,3791,2222,0,0,0,0,0,0,0,0,0,0,0,0,0,0,0,0],"split_type":[0,0,0,0,0,0,0,0,0,0,0,0,0,0,0,0,0,0,0,0,0,0,0,0,0,0,0,0,0,0,0],"sum_hessian":[2.7E3,5.16E2,2.184E3,3.67E2,1.49E2,1.895E3,2.89E2,1.66E2,2.01E2,4.3E1,1.06E2,1.017E3,8.78E2,1.86E2,1.03E2,1.46E2,2E1,9.9E1,1.02E2,9E0,3.4E1,3E1,7.6E1,2.76E2,7.41E2,5.5E1,8.23E2,7.2E1,1.14E2,3.4E1,6.9E1],"tree_param":{"num_deleted":"0","num_feature":"4336","num_nodes":"31","size_leaf_vector":"1"}},{"base_weights":[-9.269462E-3,-5.125814E-1,1.0953023E-1,-3.304246E-1,-8.7512946E-1,2.0523107E-1,-4.9972528E-1,-7.70842E-2,-5.372089E-1,-1.0267619E0,-3.4773007E-1,3.8903403E-1,-7.220298E-2,-8.060646E-1,1.1275226E-2,-1.7734064E-2,6.5597543E-3,-3.1575948E-2,2.257129E-3,-5.3390156E-2,1.1930145E-2,-2.8891979E-2,3.9683324E-3,2.4187665E-2,-6.8932585E-3,-9.661644E-3,2.5222523E-2,-4.787333E-2,-1.4459769E-2,7.6739327E-3,-2.636764E-2],"categories":[],"categories_nodes":[],"categories_segments":[],"categories_sizes":[],"default_left":[0,0,0,0,0,0,0,0,0,0,0,0,0,0,0,0,0,0,0,0,0,0,0,0,0,0,0,0,0,0,0],"id":15,"left_children":[1,3,5,7,9,11,13,15,17,19,21,23,25,27,29,-1,-1,-1,-1,-1,-1,-1,-1,-1,-1,-1,-1,-1,-1,-1,-1],"loss_changes":[1.5937123E2,3.2048294E1,1.2619166E2,1.7909748E1,1.1432503E1,9.537643E1,4.6147545E1,9.62148E0,1.0636284E1,7.952194E0,4.701709E0,5.6464096E1,5.2660896E1,1.2889786E1,9.175696E0,0E0,0E0,0E0,0E0,0E0,0E0,0E0,0E0,0E0,0E0,0E0,0E0,0E0,0E0,0E0,0E0],"parents":[2147483647,0,0,1,1,2,2,3,3,4,4,5,5,6,6,7,7,8,8,9,9,10,10,11,11,12,12,13,13,14,14],"right_children":[2,4,6,8,10,12,14,16,18,20,22,24,26,28,30,-1,-1,-1,-1,-1,-1,-1,-1,-1,-1,-1,-1,-1,-1,-1,-1],"split_conditions":[2.0868E0,1E0,1E0,5.388889E0,1.0969244E1,1E0,4.8098E0,5.3141804E0,8.0600786E-1,-2.8375976E0,9.910563E-1,1.0023292E1,4.85332E0,-1.2883408E-1,6.2757707E-3,-1.7734064E-2,6.5597543E-3,-3.1575948E-2,2.257129E-3,-5.3390156E-2,1.1930145E-2,-2.8891979E-2,3.9683324E-3,2.4187665E-2,-6.8932585E-3,-9.661644E-3,2.5222523E-2,-4.787333E-2,-1.4459769E-2,7.6739327E-3,-2.636764E-2],"split_indices":[4249,2518,4259,2667,3851,2518,4249,2281,2839,2335,3064,3834,4249,3869,2923,0,0,0,0,0,0,0,0,0,0,0,0,0,0,0,0],"split_type":[0,0,0,0,0,0,0,0,0,0,0,0,0,0,0,0,0,0,0,0,0,0,0,0,0,0,0,0,0,0,0],"sum_hessian":[2.655E3,5.04E2,2.151E3,3.42E2,1.62E2,1.862E3,2.89E2,1.57E2,1.85E2,1.22E2,4E1,1.119E3,7.43E2,1.79E2,1.1E2,6.6E1,9.1E1,1.59E2,2.6E1,1.19E2,3E0,2.5E1,1.5E1,9.49E2,1.7E2,6.17E2,1.26E2,1.35E2,4.4E1,9E1,2E1],"tree_param":{"num_deleted":"0","num_feature":"4336","num_nodes":"31","size_leaf_vector":"1"}},{"base_weights":[-2.0003136E-2,9.2972875E-2,-4.32135E-1,2.122299E-1,-2.10085E-1,-2.2869417E-1,-7.8973556E-1,4.2676315E-1,-7.150645E-2,-4.8772576E-1,4.067953E-3,-8.874509E-2,-7.759766E-1,-9.631322E-1,-9.849976E-2,2.6589384E-2,5.554982E-3,-3.1089371E-2,2.7860065E-3,-4.3555643E-2,-1.4420166E-2,7.229612E-3,-2.0284507E-2,2.179462E-2,-1.2706863E-2,-4.5169644E-2,9.553498E-3,-5.401513E-2,-9.0398835E-3,7.7338065E-3,-4.6540454E-2],"categories":[],"categories_nodes":[],"categories_segments":[],"categories_sizes":[],"default_left":[0,0,0,0,0,0,0,0,0,0,0,0,0,0,0,0,0,0,0,0,0,0,0,0,0,0,0,0,0,0,0],"id":16,"left_children":[1,3,5,7,9,11,13,15,17,19,21,23,25,27,29,-1,-1,-1,-1,-1,-1,-1,-1,-1,-1,-1,-1,-1,-1,-1,-1],"loss_changes":[1.2725324E2,7.774727E1,4.1772438E1,9.405101E1,3.6208508E1,2.8827225E1,2.4709518E1,2.878128E1,4.699676E1,1.887857E1,2.0305367E1,2.7434692E1,1.0422035E1,1.4297272E1,1.0912075E1,0E0,0E0,0E0,0E0,0E0,0E0,0E0,0E0,0E0,0E0,0E0,0E0,0E0,0E0,0E0,0E0],"parents":[2147483647,0,0,1,1,2,2,3,3,4,4,5,5,6,6,7,7,8,8,9,9,10,10,11,11,12,12,13,13,14,14],"right_children":[2,4,6,8,10,12,14,16,18,20,22,24,26,28,30,-1,-1,-1,-1,-1,-1,-1,-1,-1,-1,-1,-1,-1,-1,-1,-1],"split_conditions":[1.7258075E0,4.7495714E-1,1E0,1E0,-3.4213164E-3,9.857755E0,2.6402527E1,-4.1953344E0,5.4082527E0,5.127098E0,3.8502936E0,-6.8302827E0,1.6299786E1,5.9179063E0,2.797334E-1,2.6589384E-2,5.554982E-3,-3.1089371E-2,2.7860065E-3,-4.3555643E-2,-1.4420166E-2,7.229612E-3,-2.0284507E-2,2.179462E-2,-1.2706863E-2,-4.5169644E-2,9.553498E-3,-5.401513E-2,-9.0398835E-3,7.7338065E-3,-4.6540454E-2],"split_indices":[3180,3884,104,2518,2920,4180,4223,3819,2359,2417,2362,2433,4198,4191,3900,0,0,0,0,0,0,0,0,0,0,0,0,0,0,0,0],"split_type":[0,0,0,0,0,0,0,0,0,0,0,0,0,0,0,0,0,0,0,0,0,0,0,0,0,0,0,0,0,0,0],"sum_hessian":[2.723E3,2.14E3,5.83E2,1.537E3,6.03E2,3.77E2,2.06E2,8.74E2,6.63E2,2.6E2,3.43E2,3.05E2,7.2E1,1.63E2,4.3E1,6.53E2,2.21E2,1.21E2,5.42E2,8.3E1,1.77E2,2.58E2,8.5E1,7.1E1,2.34E2,6.4E1,8E0,1.4E2,2.3E1,3.6E1,7E0],"tree_param":{"num_deleted":"0","num_feature":"4336","num_nodes":"31","size_leaf_vector":"1"}},{"base_weights":[-1.1523654E-2,-3.5069814E-1,1.3050456E-1,-1.9310305E-1,-6.8534726E-1,2.9404393E-1,-2.384699E-1,-3.4790364E-1,1.00930795E-1,-1.8501723E-1,-9.1500795E-1,5.145327E-1,5.988835E-3,1.5656155E-1,-3.8475537E-1,-4.719188E-2,-1.3143684E-2,1.5446869E-2,-7.156368E-3,-2.0604584E-2,1.1954298E-2,-5.4644194E-2,-1.9194124E-2,1.71702E-2,3.322456E-2,7.492007E-3,-2.3090204E-2,-1.071777E-2,1.5239994E-2,-7.3247785E-3,-3.1405166E-2],"categories":[],"categories_nodes":[],"categories_segments":[],"categories_sizes":[],"default_left":[0,0,0,0,0,0,0,0,0,0,0,0,0,0,0,0,0,0,0,0,0,0,0,0,0,0,0,0,0,0,0],"id":17,"left_children":[1,3,5,7,9,11,13,15,17,19,21,23,25,27,29,-1,-1,-1,-1,-1,-1,-1,-1,-1,-1,-1,-1,-1,-1,-1,-1],"loss_changes":[1.3007533E2,4.128347E1,1.1518671E2,2.5188887E1,2.81148E1,8.383312E1,3.4245186E1,1.6931454E1,1.0035448E1,8.7919855E0,1.4004227E1,1.7953598E1,3.9209927E1,9.243148E0,2.4393875E1,0E0,0E0,0E0,0E0,0E0,0E0,0E0,0E0,0E0,0E0,0E0,0E0,0E0,0E0,0E0,0E0],"parents":[2147483647,0,0,1,1,2,2,3,3,4,4,5,5,6,6,7,7,8,8,9,9,10,10,11,11,12,12,13,13,14,14],"right_children":[2,4,6,8,10,12,14,16,18,20,22,24,26,28,30,-1,-1,-1,-1,-1,-1,-1,-1,-1,-1,-1,-1,-1,-1,-1,-1],"split_conditions":[2.5842E0,1E0,4.7495714E-1,4.1837544E0,-3.2200732E0,1E0,1.9722221E-2,7.602E-1,4.799107E-2,4.842161E1,2.8597778E-1,3.5433E0,-5.7136617E0,-1.7395695E0,1E0,-4.719188E-2,-1.3143684E-2,1.5446869E-2,-7.156368E-3,-2.0604584E-2,1.1954298E-2,-5.4644194E-2,-1.9194124E-2,1.71702E-2,3.322456E-2,7.492007E-3,-2.3090204E-2,-1.071777E-2,1.5239994E-2,-7.3247785E-3,-3.1405166E-2],"split_indices":[4249,2518,3884,3592,2300,2518,3762,4249,4084,4194,2837,4249,2301,2468,4259,0,0,0,0,0,0,0,0,0,0,0,0,0,0,0,0],"split_type":[0,0,0,0,0,0,0,0,0,0,0,0,0,0,0,0,0,0,0,0,0,0,0,0,0,0,0,0,0,0,0],"sum_hessian":[2.69E3,7.92E2,1.898E3,5.44E2,2.48E2,1.316E3,5.82E2,3.56E2,1.88E2,8.1E1,1.67E2,7.43E2,5.73E2,1.57E2,4.25E2,3.8E1,3.18E2,1.01E2,8.7E1,5.3E1,2.8E1,1.21E2,4.6E1,3.55E2,3.88E2,4.41E2,1.32E2,4.4E1,1.13E2,2.19E2,2.06E2],"tree_param":{"num_deleted":"0","num_feature":"4336","num_nodes":"31","size_leaf_vector":"1"}},{"base_weights":[-2.1481248E-2,-4.0238404E-1,1.3159755E-1,-3.4222546E-1,-1.3801627E0,2.2672811E-1,-3.920579E-1,-6.461295E-1,-2.1407565E-1,-1.4666932E0,9.820285E-2,2.950592E-1,-1.0172479E-1,2.3559898E-2,-6.790326E-1,1.6225679E-3,-3.7879363E-2,8.663853E-4,-1.9373948E-2,-1.2494456E-2,-7.6362245E-2,9.382962E-3,-2.8211297E-3,1.6423233E-2,-2.1189427E-2,-2.3024444E-2,8.14066E-3,-6.6222185E-3,3.11903E-2,-4.9948335E-2,-1.8620158E-2],"categories":[],"categories_nodes":[],"categories_segments":[],"categories_sizes":[],"default_left":[0,0,0,0,0,0,0,0,0,0,0,0,0,0,0,0,0,0,0,0,0,0,0,0,0,0,0,0,0,0,0],"id":18,"left_children":[1,3,5,7,9,11,13,15,17,19,21,23,25,27,29,-1,-1,-1,-1,-1,-1,-1,-1,-1,-1,-1,-1,-1,-1,-1,-1],"loss_changes":[1.5702414E2,4.287655E1,9.612375E1,2.7808182E1,6.3577194E0,3.6729935E1,3.5569263E1,1.6456558E1,2.1096663E1,9.3494415E-1,1.6289043E-1,3.3104607E1,2.7358147E1,1.2260994E1,1.5268585E1,0E0,0E0,0E0,0E0,0E0,0E0,0E0,0E0,0E0,0E0,0E0,0E0,0E0,0E0,0E0,0E0],"parents":[2147483647,0,0,1,1,2,2,3,3,4,4,5,5,6,6,7,7,8,8,9,9,10,10,11,11,12,12,13,13,14,14],"right_children":[2,4,6,8,10,12,14,16,18,20,22,24,26,28,30,-1,-1,-1,-1,-1,-1,-1,-1,-1,-1,-1,-1,-1,-1,-1,-1],"split_conditions":[2.499E0,1E0,1E0,1.3838E0,2.0354247E0,2.3684211E-1,3.800583E0,-7.622706E0,3.998017E-1,6.157171E-1,2.3E2,1E0,5.4788013E0,5.5146E0,3.9744E0,1.6225679E-3,-3.7879363E-2,8.663853E-4,-1.9373948E-2,-1.2494456E-2,-7.6362245E-2,9.382962E-3,-2.8211297E-3,1.6423233E-2,-2.1189427E-2,-2.3024444E-2,8.14066E-3,-6.6222185E-3,3.11903E-2,-4.9948335E-2,-1.8620158E-2],"split_indices":[4249,4260,4260,4249,3090,4067,2865,2433,2306,3100,2554,1475,2274,4249,4249,0,0,0,0,0,0,0,0,0,0,0,0,0,0,0,0],"split_type":[0,0,0,0,0,0,0,0,0,0,0,0,0,0,0,0,0,0,0,0,0,0,0,0,0,0,0,0,0,0,0],"sum_hessian":[2.683E3,7.67E2,1.916E3,7.29E2,3.8E1,1.624E3,2.92E2,2.1E2,5.19E2,3.6E1,2E0,1.345E3,2.79E2,1.21E2,1.71E2,3E1,1.8E2,2.24E2,2.95E2,3E0,3.3E1,1E0,1E0,1.288E3,5.7E1,1.17E2,1.62E2,9.9E1,2.2E1,7.8E1,9.3E1],"tree_param":{"num_deleted":"0","num_feature":"4336","num_nodes":"31","size_leaf_vector":"1"}},{"base_weights":[1.3353891E-3,1.0622258E-1,-3.3422494E-1,4.1170764E-1,1.5528094E-2,-2.4982616E-1,-9.390989E-1,-3.943088E-1,4.532785E-1,9.025643E-2,-4.5563096E-1,-3.0397266E-4,-4.8077357E-1,-1.21362016E-1,-1.1554058E0,-3.4548026E-2,4.97964E-3,2.3967698E-2,-3.0698633E-2,-9.499932E-3,9.41387E-3,-9.340225E-3,-3.9569836E-2,-7.1071633E-3,1.3339373E-2,-2.9416097E-2,1.1530027E-2,-1.2408297E-2,1.2157426E-2,-6.0430374E-3,-6.078246E-2],"categories":[],"categories_nodes":[],"categories_segments":[],"categories_sizes":[],"default_left":[0,0,0,0,0,0,0,0,0,0,0,0,0,0,0,0,0,0,0,0,0,0,0,0,0,0,0,0,0,0,0],"id":19,"left_children":[1,3,5,7,9,11,13,15,17,19,21,23,25,27,29,-1,-1,-1,-1,-1,-1,-1,-1,-1,-1,-1,-1,-1,-1,-1,-1],"loss_changes":[9.652131E1,5.7830452E1,3.2044106E1,1.6915817E1,5.7101925E1,3.337453E1,1.2968018E1,4.212646E0,1.4175964E1,3.8637913E1,1.9201328E1,1.0936219E1,2.3742744E1,1.3190775E0,2.933525E0,0E0,0E0,0E0,0E0,0E0,0E0,0E0,0E0,0E0,0E0,0E0,0E0,0E0,0E0,0E0,0E0],"parents":[2147483647,0,0,1,1,2,2,3,3,4,4,5,5,6,6,7,7,8,8,9,9,10,10,11,11,12,12,13,13,14,14],"right_children":[2,4,6,8,10,12,14,16,18,20,22,24,26,28,30,-1,-1,-1,-1,-1,-1,-1,-1,-1,-1,-1,-1,-1,-1,-1,-1],"split_conditions":[1.6900091E0,1.6313933E-2,1E0,-9.066085E0,1E0,1.1755164E0,2.043746E-2,2.5918367E0,1E0,1.6087526E2,7.8405935E-1,6.3938096E-2,5.3865224E-1,1.1514204E0,-2.564828E0,-3.4548026E-2,4.97964E-3,2.3967698E-2,-3.0698633E-2,-9.499932E-3,9.41387E-3,-9.340225E-3,-3.9569836E-2,-7.1071633E-3,1.3339373E-2,-2.9416097E-2,1.1530027E-2,-1.2408297E-2,1.2157426E-2,-6.0430374E-3,-6.078246E-2],"split_indices":[3180,3762,4251,2842,2517,3148,2856,2662,769,2699,3792,3045,2369,2310,2834,0,0,0,0,0,0,0,0,0,0,0,0,0,0,0,0],"split_type":[0,0,0,0,0,0,0,0,0,0,0,0,0,0,0,0,0,0,0,0,0,0,0,0,0,0,0,0,0,0,0],"sum_hessian":[2.733E3,2.085E3,6.48E2,4.73E2,1.612E3,5.75E2,7.3E1,2.1E1,4.52E2,1.395E3,2.17E2,2.79E2,2.96E2,1.7E1,5.6E1,1.2E1,9E0,4.44E2,8E0,3.6E2,1.035E3,1.25E2,9.2E1,1.84E2,9.5E1,2.58E2,3.8E1,1.4E1,3E0,4E0,5.2E1],"tree_param":{"num_deleted":"0","num_feature":"4336","num_nodes":"31","size_leaf_vector":"1"}},{"base_weights":[-8.172019E-3,-3.291464E-1,1.2671389E-1,-2.8024727E-1,-1.27277E0,2.2766571E-1,-4.355343E-1,-7.330911E-1,-2.0614146E-1,7.818125E-2,-1.3614591E0,2.5366765E-1,-5.6364363E-1,-1.724747E-1,-8.8136286E-1,-4.4173438E-2,-3.2586914E-3,-1.7893037E-3,-2.0709049E-2,8.132301E-3,-2.7383945E-3,-8.713036E-3,-7.013633E-2,2.8787661E-2,9.729346E-3,5.986463E-3,-4.8303843E-2,-3.4532283E-2,-1.6272148E-3,1.7577958E-3,-4.741385E-2],"categories":[],"categories_nodes":[],"categories_segments":[],"categories_sizes":[],"default_left":[0,0,0,0,0,0,0,0,0,0,0,0,0,0,0,0,0,0,0,0,0,0,0,0,0,0,0,0,0,0,0],"id":20,"left_children":[1,3,5,7,9,11,13,15,17,19,21,23,25,27,29,-1,-1,-1,-1,-1,-1,-1,-1,-1,-1,-1,-1,-1,-1,-1,-1],"loss_changes":[1.1734154E2,3.506742E1,1.0877303E2,2.4956856E1,5.2134895E0,3.403692E1,3.3380154E1,1.0263863E1,2.3555246E1,1.3393334E-1,3.8384247E-1,2.929551E1,1.5238607E1,1.3591793E1,6.8200912E0,0E0,0E0,0E0,0E0,0E0,0E0,0E0,0E0,0E0,0E0,0E0,0E0,0E0,0E0,0E0,0E0],"parents":[2147483647,0,0,1,1,2,2,3,3,4,4,5,5,6,6,7,7,8,8,9,9,10,10,11,11,12,12,13,13,14,14],"right_children":[2,4,6,8,10,12,14,16,18,20,22,24,26,28,30,-1,-1,-1,-1,-1,-1,-1,-1,-1,-1,-1,-1,-1,-1,-1,-1],"split_conditions":[2.5842E0,1E0,1E0,1.3285408E0,-1.8559337E-1,2.017653E1,3.682006E0,1.764706E-1,8.379312E-3,-5.657094E0,6.17034E-1,1.5820747E2,-1.0511719E1,3.6021E0,5.6863236E-1,-4.4173438E-2,-3.2586914E-3,-1.7893037E-3,-2.0709049E-2,8.132301E-3,-2.7383945E-3,-8.713036E-3,-7.013633E-2,2.8787661E-2,9.729346E-3,5.986463E-3,-4.8303843E-2,-3.4532283E-2,-1.6272148E-3,1.7577958E-3,-4.741385E-2],"split_indices":[4249,4260,4260,2273,3048,3518,3773,3764,3363,2489,3092,2747,2462,4249,3101,0,0,0,0,0,0,0,0,0,0,0,0,0,0,0,0],"split_type":[0,0,0,0,0,0,0,0,0,0,0,0,0,0,0,0,0,0,0,0,0,0,0,0,0,0,0,0,0,0,0],"sum_hessian":[2.7E3,7.97E2,1.903E3,7.64E2,3.3E1,1.616E3,2.87E2,1.01E2,6.63E2,2E0,3.1E1,1.568E3,4.8E1,1.85E2,1.02E2,8.1E1,2E1,3.68E2,2.95E2,1E0,1E0,2E0,2.9E1,2.36E2,1.332E3,1.9E1,2.9E1,3.5E1,1.5E2,7E0,9.5E1],"tree_param":{"num_deleted":"0","num_feature":"4336","num_nodes":"31","size_leaf_vector":"1"}},{"base_weights":[-2.0749366E-3,-4.437268E-1,9.9788025E-2,-5.806097E-1,-1.8361996E-1,2.3318884E-1,-2.0375682E-1,-8.3780485E-1,-3.625799E-1,8.272285E-3,-5.045786E-1,3.8927114E-1,7.6265626E-2,-5.8178025E-1,-8.4642984E-2,-7.7757947E-3,-4.758894E-2,-2.1683117E-2,8.896164E-3,6.91624E-3,-2.7731195E-2,-3.4170594E-2,1.0060527E-3,-3.8228344E-2,2.0652907E-2,-1.1688529E-2,8.432155E-3,-4.094077E-2,-4.2015994E-3,2.8673166E-3,-2.0350797E-2],"categories":[],"categories_nodes":[],"categories_segments":[],"categories_sizes":[],"default_left":[0,0,0,0,0,0,0,0,0,0,0,0,0,0,0,0,0,0,0,0,0,0,0,0,0,0,0,0,0,0,0],"id":21,"left_children":[1,3,5,7,9,11,13,15,17,19,21,23,25,27,29,-1,-1,-1,-1,-1,-1,-1,-1,-1,-1,-1,-1,-1,-1,-1,-1],"loss_changes":[1.20733574E2,1.7299423E1,8.8515526E1,1.669802E1,1.1218194E1,3.6960785E1,2.9765728E1,1.0502609E1,7.557537E0,8.980277E0,6.5157814E0,2.2375694E1,2.2043196E1,1.8325104E1,2.3679258E1,0E0,0E0,0E0,0E0,0E0,0E0,0E0,0E0,0E0,0E0,0E0,0E0,0E0,0E0,0E0,0E0],"parents":[2147483647,0,0,1,1,2,2,3,3,4,4,5,5,6,6,7,7,8,8,9,9,10,10,11,11,12,12,13,13,14,14],"right_children":[2,4,6,8,10,12,14,16,18,20,22,24,26,28,30,-1,-1,-1,-1,-1,-1,-1,-1,-1,-1,-1,-1,-1,-1,-1,-1],"split_conditions":[2.0868E0,1E0,4.7495714E-1,1E0,-1.0221387E0,-6.754896E0,-1.01347E0,-1.5414124E0,1.714625E-1,5.254067E-1,1.064312E1,-9.990758E0,7.062537E0,7.890625E0,7.025659E-2,-7.7757947E-3,-4.758894E-2,-2.1683117E-2,8.896164E-3,6.91624E-3,-2.7731195E-2,-3.4170594E-2,1.0060527E-3,-3.8228344E-2,2.0652907E-2,-1.1688529E-2,8.432155E-3,-4.094077E-2,-4.2015994E-3,2.8673166E-3,-2.0350797E-2],"split_indices":[4249,2022,3884,4278,2916,2472,3658,2431,3323,4092,4216,2330,4121,2765,2833,0,0,0,0,0,0,0,0,0,0,0,0,0,0,0,0],"split_type":[0,0,0,0,0,0,0,0,0,0,0,0,0,0,0,0,0,0,0,0,0,0,0,0,0,0,0,0,0,0,0],"sum_hessian":[2.673E3,4.98E2,2.175E3,3.22E2,1.76E2,1.512E3,6.63E2,1.41E2,1.81E2,1.13E2,6.3E1,7.54E2,7.58E2,1.54E2,5.09E2,2.2E1,1.19E2,1.61E2,2E1,9.5E1,1.8E1,4.6E1,1.7E1,1.2E1,7.42E2,1.72E2,5.86E2,1.02E2,5.2E1,3.56E2,1.53E2],"tree_param":{"num_deleted":"0","num_feature":"4336","num_nodes":"31","size_leaf_vector":"1"}},{"base_weights":[5.6722607E-3,-2.3201357E-1,1.7758998E-1,-1.7934258E-1,-1.2115798E0,-1.12924404E-1,3.00707E-1,-5.56356E-1,-8.599677E-2,-1.2948505E0,9.523477E-2,-2.8306788E-1,2.4243478E-1,1.229106E-1,4.217663E-1,-1.150068E-2,-4.579429E-2,-6.544208E-4,-2.0663656E-2,-1.1566917E-2,-6.888627E-2,9.890832E-3,-2.3215832E-3,-2.4933595E-2,-2.4953922E-3,-2.7107079E-2,1.7648334E-2,1.6573494E-2,-5.447469E-3,2.2279019E-2,-8.283252E-3],"categories":[],"categories_nodes":[],"categories_segments":[],"categories_sizes":[],"default_left":[0,0,0,0,0,0,0,0,0,0,0,0,0,0,0,0,0,0,0,0,0,0,0,0,0,0,0,0,0,0,0],"id":22,"left_children":[1,3,5,7,9,11,13,15,17,19,21,23,25,27,29,-1,-1,-1,-1,-1,-1,-1,-1,-1,-1,-1,-1,-1,-1,-1,-1],"loss_changes":[1.1061079E2,5.7386063E1,5.6378956E1,3.784535E1,6.9392395E0,2.8824816E1,2.3470253E1,2.3940659E1,2.080885E1,3.0049667E0,1.7732254E-1,1.5957449E1,1.437958E1,2.220505E1,9.559959E0,0E0,0E0,0E0,0E0,0E0,0E0,0E0,0E0,0E0,0E0,0E0,0E0,0E0,0E0,0E0,0E0],"parents":[2147483647,0,0,1,1,2,2,3,3,4,4,5,5,6,6,7,7,8,8,9,9,10,10,11,11,12,12,13,13,14,14],"right_children":[2,4,6,8,10,12,14,16,18,20,22,24,26,28,30,-1,-1,-1,-1,-1,-1,-1,-1,-1,-1,-1,-1,-1,-1,-1,-1],"split_conditions":[3.0212E0,1E0,-8.78703E-2,2.2921348E0,1.7008955E0,9.7554773E-1,3.2714286E0,1.6373418E2,6.014659E0,-3.2943149E0,1.46E2,3.9744E0,1.3955296E-2,2.3320159E-2,1.1410954E1,-1.150068E-2,-4.579429E-2,-6.544208E-4,-2.0663656E-2,-1.1566917E-2,-6.888627E-2,9.890832E-3,-2.3215832E-3,-2.4933595E-2,-2.4953922E-3,-2.7107079E-2,1.7648334E-2,1.6573494E-2,-5.447469E-3,2.2279019E-2,-8.283252E-3],"split_indices":[4068,4260,4226,2664,3074,3161,2658,2739,4177,2402,2562,4068,4087,3762,4225,0,0,0,0,0,0,0,0,0,0,0,0,0,0,0,0],"split_type":[0,0,0,0,0,0,0,0,0,0,0,0,0,0,0,0,0,0,0,0,0,0,0,0,0,0,0,0,0,0,0],"sum_hessian":[2.697E3,1.131E3,1.566E3,1.079E3,5.2E1,4.66E2,1.1E3,2.09E2,8.7E2,4.9E1,3E0,3.16E2,1.5E2,4.5E2,6.5E2,1.14E2,9.5E1,7.16E2,1.54E2,5E0,4.4E1,1E0,2E0,1.61E2,1.55E2,1.6E1,1.34E2,2.36E2,2.14E2,6.26E2,2.4E1],"tree_param":{"num_deleted":"0","num_feature":"4336","num_nodes":"31","size_leaf_vector":"1"}},{"base_weights":[1.1764579E-3,-2.23263E-1,1.5971339E-1,-1.7762722E-1,-9.501687E-1,-3.6742795E-1,2.4272083E-1,-6.727788E-1,-1.2255544E-1,-1.0726652E0,1.296615E-1,3.2038903E-1,-4.949123E-1,1.8280037E-1,5.2497077E-1,1.1019657E-2,-4.0047556E-2,-2.1749096E-2,-2.0336544E-3,7.064478E-3,-5.878077E-2,-4.78855E-3,1.4327779E-2,2.8674785E-2,-3.2526497E-3,-3.2896988E-2,6.158179E-4,-7.7804835E-3,1.3085002E-2,3.427794E-2,1.4950285E-2],"categories":[],"categories_nodes":[],"categories_segments":[],"categories_sizes":[],"default_left":[0,0,0,0,0,0,0,0,0,0,0,0,0,0,0,0,0,0,0,0,0,0,0,0,0,0,0,0,0,0,0],"id":23,"left_children":[1,3,5,7,9,11,13,15,17,19,21,23,25,27,29,-1,-1,-1,-1,-1,-1,-1,-1,-1,-1,-1,-1,-1,-1,-1,-1],"loss_changes":[9.6456665E1,3.6263344E1,6.996277E1,2.8467754E1,9.387619E0,1.9925806E1,2.2721062E1,1.2961075E1,2.4474068E1,8.307587E0,5.453563E-1,3.8470273E0,1.5485832E1,3.0732826E1,7.512985E0,0E0,0E0,0E0,0E0,0E0,0E0,0E0,0E0,0E0,0E0,0E0,0E0,0E0,0E0,0E0,0E0],"parents":[2147483647,0,0,1,1,2,2,3,3,4,4,5,5,6,6,7,7,8,8,9,9,10,10,11,11,12,12,13,13,14,14],"right_children":[2,4,6,8,10,12,14,16,18,20,22,24,26,28,30,-1,-1,-1,-1,-1,-1,-1,-1,-1,-1,-1,-1,-1,-1,-1,-1],"split_conditions":[2.99557E0,1E0,-8.8735867E-1,8.9332E-1,1E0,2.456152E-1,4.9396E0,-1.0042912E2,6.169697E0,-9.59314E-1,3.346973E0,5.51087E1,1.6270111E2,-8.16834E0,3.8718452E0,1.1019657E-2,-4.0047556E-2,-2.1749096E-2,-2.0336544E-3,7.064478E-3,-5.878077E-2,-4.78855E-3,1.4327779E-2,2.8674785E-2,-3.2526497E-3,-3.2896988E-2,6.158179E-4,-7.7804835E-3,1.3085002E-2,3.427794E-2,1.4950285E-2],"split_indices":[4068,2517,3658,4068,1958,3790,4068,2763,2650,2890,4168,4184,2744,2320,4228,0,0,0,0,0,0,0,0,0,0,0,0,0,0,0,0],"split_type":[0,0,0,0,0,0,0,0,0,0,0,0,0,0,0,0,0,0,0,0,0,0,0,0,0,0,0,0,0,0,0],"sum_hessian":[2.701E3,1.117E3,1.584E3,1.057E3,6E1,2.13E2,1.371E3,1E2,9.57E2,5.4E1,6E0,3.2E1,1.81E2,1.138E3,2.33E2,1.2E1,8.8E1,1.94E2,7.63E2,4E0,5E1,3E0,3E0,1.8E1,1.4E1,1.36E2,4.5E1,2.14E2,9.24E2,1.3E2,1.03E2],"tree_param":{"num_deleted":"0","num_feature":"4336","num_nodes":"31","size_leaf_vector":"1"}},{"base_weights":[-1.1617152E-3,-3.9459437E-1,7.783613E-2,-2.3515686E-1,-7.112983E-1,1.4600864E-1,-3.270158E-1,-3.8848615E-1,1.5766965E-1,-1.1372126E0,-5.0973123E-1,3.061929E-1,-9.001684E-2,-7.0705146E-1,-2.9595818E-2,-7.572302E-3,-2.9976055E-2,2.5740325E-2,-1.0246848E-3,-6.2754184E-2,-0E0,7.027658E-3,-3.0700639E-2,1.9491035E-2,-7.7610775E-3,-1.0621834E-2,1.9327404E-2,-9.615376E-3,-4.6864003E-2,1.5840372E-2,-1.2174476E-2],"categories":[],"categories_nodes":[],"categories_segments":[],"categories_sizes":[],"default_left":[0,0,0,0,0,0,0,0,0,0,0,0,0,0,0,0,0,0,0,0,0,0,0,0,0,0,0,0,0,0,0],"id":24,"left_children":[1,3,5,7,9,11,13,15,17,19,21,23,25,27,29,-1,-1,-1,-1,-1,-1,-1,-1,-1,-1,-1,-1,-1,-1,-1,-1],"loss_changes":[8.307649E1,2.1640053E1,6.163012E1,1.870005E1,9.556938E0,7.2296265E1,3.6217434E1,1.0526176E1,5.7651367E0,5.8243027E0,7.870432E0,4.423809E1,4.560745E1,1.5695541E1,1.415975E1,0E0,0E0,0E0,0E0,0E0,0E0,0E0,0E0,0E0,0E0,0E0,0E0,0E0,0E0,0E0,0E0],"parents":[2147483647,0,0,1,1,2,2,3,3,4,4,5,5,6,6,7,7,8,8,9,9,10,10,11,11,12,12,13,13,14,14],"right_children":[2,4,6,8,10,12,14,16,18,20,22,24,26,28,30,-1,-1,-1,-1,-1,-1,-1,-1,-1,-1,-1,-1,-1,-1,-1,-1],"split_conditions":[1.9571E0,1E0,1E0,1.3876562E4,4.2162957E0,1E0,3.9744E0,1.3807885E-1,5.2316356E0,1.693541E0,4.502013E0,1.0023292E1,4.62332E0,3.5133333E0,1.086362E0,-7.572302E-3,-2.9976055E-2,2.5740325E-2,-1.0246848E-3,-6.2754184E-2,-0E0,7.027658E-3,-3.0700639E-2,1.9491035E-2,-7.7610775E-3,-1.0621834E-2,1.9327404E-2,-9.615376E-3,-4.6864003E-2,1.5840372E-2,-1.2174476E-2],"split_indices":[4249,2518,2517,2647,2399,2518,4249,2937,2236,3120,2331,4177,4249,2654,3148,0,0,0,0,0,0,0,0,0,0,0,0,0,0,0,0],"split_type":[0,0,0,0,0,0,0,0,0,0,0,0,0,0,0,0,0,0,0,0,0,0,0,0,0,0,0,0,0,0,0],"sum_hessian":[2.662E3,4.42E2,2.22E3,3E2,1.42E2,1.903E3,3.17E2,2.16E2,8.4E1,3.8E1,1.04E2,1.133E3,7.7E2,1.36E2,1.81E2,1.06E2,1.1E2,2.5E1,5.9E1,3.4E1,4E0,1.4E1,9E1,9.6E2,1.73E2,6.15E2,1.55E2,4.5E1,9.1E1,6.8E1,1.13E2],"tree_param":{"num_deleted":"0","num_feature":"4336","num_nodes":"31","size_leaf_vector":"1"}},{"base_weights":[1.5290816E-3,-2.024474E-1,1.4374925E-1,-1.5005594E-1,-9.364885E-1,2.744329E-1,-1.4968233E-1,-1.4934879E-2,-4.286254E-1,-1.1134058E0,2.4411233E-2,4.739643E-1,3.8868304E-2,5.016507E-2,-4.159128E-1,3.0982818E-3,-2.1081757E-2,-3.672043E-2,-6.287519E-3,-4.8703724E-3,-5.872025E-2,-1.6993145E-2,2.538297E-2,2.6146738E-2,1.8334879E-3,-1.7548881E-2,1.0260745E-2,6.3669095E-3,-2.8596655E-2,-8.075345E-3,-3.3083778E-2],"categories":[],"categories_nodes":[],"categories_segments":[],"categories_sizes":[],"default_left":[0,0,0,0,0,0,0,0,0,0,0,0,0,0,0,0,0,0,0,0,0,0,0,0,0,0,0,0,0,0,0],"id":25,"left_children":[1,3,5,7,9,11,13,15,17,19,21,23,25,27,29,-1,-1,-1,-1,-1,-1,-1,-1,-1,-1,-1,-1,-1,-1,-1,-1],"loss_changes":[7.747915E1,4.137658E1,6.0575584E1,3.869346E1,1.2484791E1,5.1136375E1,2.610517E1,2.2028147E1,3.057056E1,3.0813217E0,3.6960092E0,1.2482712E1,3.315942E1,1.3906302E1,1.251329E1,0E0,0E0,0E0,0E0,0E0,0E0,0E0,0E0,0E0,0E0,0E0,0E0,0E0,0E0,0E0,0E0],"parents":[2147483647,0,0,1,1,2,2,3,3,4,4,5,5,6,6,7,7,8,8,9,9,10,10,11,11,12,12,13,13,14,14],"right_children":[2,4,6,8,10,12,14,16,18,20,22,24,26,28,30,-1,-1,-1,-1,-1,-1,-1,-1,-1,-1,-1,-1,-1,-1,-1,-1],"split_conditions":[3.0212E0,1E0,4.7495714E-1,1E0,1.0155954E0,1E0,3.67658E0,1.0023292E1,5.0707226E1,1.9065212E-2,8.778028E-1,4.206897E0,7.0654955E0,3.686414E-1,1E0,3.0982818E-3,-2.1081757E-2,-3.672043E-2,-6.287519E-3,-4.8703724E-3,-5.872025E-2,-1.6993145E-2,2.538297E-2,2.6146738E-2,1.8334879E-3,-1.7548881E-2,1.0260745E-2,6.3669095E-3,-2.8596655E-2,-8.075345E-3,-3.3083778E-2],"split_indices":[4249,2517,3884,2518,2773,2518,3773,3834,3845,3762,3063,2660,2238,2754,4259,0,0,0,0,0,0,0,0,0,0,0,0,0,0,0,0],"split_type":[0,0,0,0,0,0,0,0,0,0,0,0,0,0,0,0,0,0,0,0,0,0,0,0,0,0,0,0,0,0,0],"sum_hessian":[2.661E3,1.092E3,1.569E3,1.025E3,6.7E1,1.086E3,4.83E2,6.94E2,3.31E2,5.6E1,1.1E1,5.85E2,5.01E2,2.78E2,2.05E2,5.87E2,1.07E2,1.61E2,1.7E2,4E0,5.2E1,7E0,4E0,5.25E2,6E1,1.48E2,3.53E2,2.51E2,2.7E1,1.05E2,1E2],"tree_param":{"num_deleted":"0","num_feature":"4336","num_nodes":"31","size_leaf_vector":"1"}},{"base_weights":[-4.4399677E-3,-3.512879E-1,6.625396E-2,-4.6034297E-1,1.8087624E-2,-3.862577E-1,1.2625991E-1,-3.249372E-1,-6.975901E-1,-2.540296E-1,2.719183E-1,-5.550473E-1,-3.3776082E-2,2.6092172E-1,-7.46309E-2,1.54351415E-2,-2.007168E-2,-5.107994E-2,-1.911862E-2,1.2250108E-3,-3.4096904E-2,2.2976788E-2,-1.0190985E-2,-3.57333E-2,-8.542224E-3,2.5048181E-2,-1.0065607E-2,1.552749E-2,-1.4158676E-2,5.022245E-3,-2.0867083E-2],"categories":[],"categories_nodes":[],"categories_segments":[],"categories_sizes":[],"default_left":[0,0,0,0,0,0,0,0,0,0,0,0,0,0,0,0,0,0,0,0,0,0,0,0,0,0,0,0,0,0,0],"id":26,"left_children":[1,3,5,7,9,11,13,15,17,19,21,23,25,27,29,-1,-1,-1,-1,-1,-1,-1,-1,-1,-1,-1,-1,-1,-1,-1,-1],"loss_changes":[6.632447E1,1.8535137E1,6.1204357E1,1.01364975E1,7.8759804E0,1.5554115E1,5.3868958E1,1.2019617E1,1.0570969E1,6.704471E0,5.760033E0,1.0216984E1,8.626809E0,3.2602287E1,4.8301575E1,0E0,0E0,0E0,0E0,0E0,0E0,0E0,0E0,0E0,0E0,0E0,0E0,0E0,0E0,0E0,0E0],"parents":[2147483647,0,0,1,1,2,2,3,3,4,4,5,5,6,6,7,7,8,8,9,9,10,10,11,11,12,12,13,13,14,14],"right_children":[2,4,6,8,10,12,14,16,18,20,22,24,26,28,30,-1,-1,-1,-1,-1,-1,-1,-1,-1,-1,-1,-1,-1,-1,-1,-1],"split_conditions":[1.99478E0,5.603957E0,-8.7222874E-1,1E0,-8.043809E-2,3.5010647E1,1E0,-5.037389E0,5.2308838E1,4.8999095E0,8.9119315E-1,4.4492E0,6.302041E-1,4.043823E0,-6.0158443E0,1.54351415E-2,-2.007168E-2,-5.107994E-2,-1.911862E-2,1.2250108E-3,-3.4096904E-2,2.2976788E-2,-1.0190985E-2,-3.57333E-2,-8.542224E-3,2.5048181E-2,-1.0065607E-2,1.552749E-2,-1.4158676E-2,5.022245E-3,-2.0867083E-2],"split_indices":[4249,3505,3658,2518,3028,3810,2518,2277,4201,3823,2408,4249,4077,3160,2301,0,0,0,0,0,0,0,0,0,0,0,0,0,0,0,0],"split_type":[0,0,0,0,0,0,0,0,0,0,0,0,0,0,0,0,0,0,0,0,0,0,0,0,0,0,0,0,0,0,0],"sum_hessian":[2.694E3,4.53E2,2.241E3,3.49E2,1.04E2,2.59E2,1.982E3,2.3E2,1.19E2,5E1,5.4E1,1.73E2,8.6E1,1.186E3,7.96E2,2.3E1,2.07E2,5.3E1,6.6E1,3.3E1,1.7E1,3.9E1,1.5E1,1.19E2,5.4E1,1.8E1,6.8E1,1.089E3,9.7E1,5.29E2,2.67E2],"tree_param":{"num_deleted":"0","num_feature":"4336","num_nodes":"31","size_leaf_vector":"1"}},{"base_weights":[-1.9669928E-2,-2.4959867E-1,1.03356615E-1,-5.2411926E-1,-1.5399644E-1,-1.4120874E-1,2.0314547E-1,-7.1773076E-1,-2.2702548E-1,-2.5143132E-1,1.2823614E-1,-2.2805123E-1,2.919958E-1,3.740642E-1,-1.1676168E-2,9.227179E-3,-3.754076E-2,-1.7544102E-2,1.6769312E-2,-1.8140776E-2,1.1701513E-3,1.6851103E-2,-6.5270956E-3,-1.9605158E-2,1.9128725E-3,1.8719608E-2,-3.7673138E-2,2.391459E-2,1.0470639E-2,-1.7472837E-2,7.9899235E-3],"categories":[],"categories_nodes":[],"categories_segments":[],"categories_sizes":[],"default_left":[0,0,0,0,0,0,0,0,0,0,0,0,0,0,0,0,0,0,0,0,0,0,0,0,0,0,0,0,0,0,0],"id":27,"left_children":[1,3,5,7,9,11,13,15,17,19,21,23,25,27,29,-1,-1,-1,-1,-1,-1,-1,-1,-1,-1,-1,-1,-1,-1,-1,-1],"loss_changes":[7.677402E1,2.4356178E1,4.3297485E1,1.3010834E1,1.9670538E1,1.9701145E1,4.624812E1,5.047989E0,7.7647667E0,1.6270248E1,1.0236029E1,1.8983799E1,8.953039E0,1.1460449E1,3.2849667E1,0E0,0E0,0E0,0E0,0E0,0E0,0E0,0E0,0E0,0E0,0E0,0E0,0E0,0E0,0E0,0E0],"parents":[2147483647,0,0,1,1,2,2,3,3,4,4,5,5,6,6,7,7,8,8,9,9,10,10,11,11,12,12,13,13,14,14],"right_children":[2,4,6,8,10,12,14,16,18,20,22,24,26,28,30,-1,-1,-1,-1,-1,-1,-1,-1,-1,-1,-1,-1,-1,-1,-1,-1],"split_conditions":[2.7659E0,1.47082E0,-1.5007375E-1,-2.1458142E-2,1E0,1.2620436E0,1E0,3.3287604E0,1.1125159E1,5.922529E0,1E0,7.0040646E0,-3.755665E-1,8.251E1,1.9902949E0,9.227179E-3,-3.754076E-2,-1.7544102E-2,1.6769312E-2,-1.8140776E-2,1.1701513E-3,1.6851103E-2,-6.5270956E-3,-1.9605158E-2,1.9128725E-3,1.8719608E-2,-3.7673138E-2,2.391459E-2,1.0470639E-2,-1.7472837E-2,7.9899235E-3],"split_indices":[4249,4249,3869,3055,4017,3063,2518,3170,4203,4176,104,3158,2449,4209,3593,0,0,0,0,0,0,0,0,0,0,0,0,0,0,0,0],"split_type":[0,0,0,0,0,0,0,0,0,0,0,0,0,0,0,0,0,0,0,0,0,0,0,0,0,0,0,0,0,0,0],"sum_hessian":[2.704E3,9.41E2,1.763E3,2.37E2,7.04E2,5.1E2,1.253E3,1.39E2,9.8E1,5.24E2,1.8E2,4.27E2,8.3E1,6.96E2,5.57E2,4E0,1.35E2,8.2E1,1.6E1,3.72E2,1.52E2,9.9E1,8.1E1,2.63E2,1.64E2,8E1,3E0,4.2E2,2.76E2,1.86E2,3.71E2],"tree_param":{"num_deleted":"0","num_feature":"4336","num_nodes":"31","size_leaf_vector":"1"}},{"base_weights":[-8.411568E-3,-2.750379E-1,1.0378484E-1,-2.2629061E-1,-9.6776366E-1,1.7182666E-1,-2.8198075E-1,-1.0645242E-1,-4.7316906E-1,-1.065533E0,-2.4142798E-2,3.1920815E-1,-3.174282E-2,-4.9261463E-1,1.11375704E-1,4.8103926E-4,-1.949423E-2,6.352097E-3,-2.969349E-2,-5.502814E-2,-3.4982588E-3,1.0106251E-2,-8.634323E-3,-2.1855278E-2,1.7503968E-2,-1.0304074E-2,1.266394E-2,1.1728527E-3,-2.9598907E-2,1.3901745E-2,-1.1264106E-2],"categories":[],"categories_nodes":[],"categories_segments":[],"categories_sizes":[],"default_left":[0,0,0,0,0,0,0,0,0,0,0,0,0,0,0,0,0,0,0,0,0,0,0,0,0,0,0,0,0,0,0],"id":28,"left_children":[1,3,5,7,9,11,13,15,17,19,21,23,25,27,29,-1,-1,-1,-1,-1,-1,-1,-1,-1,-1,-1,-1,-1,-1,-1,-1],"loss_changes":[8.0899124E1,2.5834187E1,5.018156E1,2.202721E1,4.4675255E0,4.871325E1,2.4091602E1,1.6999702E1,1.8173168E1,1.1021729E0,5.076839E-1,2.2727188E1,3.42941E1,9.766678E0,6.153597E0,0E0,0E0,0E0,0E0,0E0,0E0,0E0,0E0,0E0,0E0,0E0,0E0,0E0,0E0,0E0,0E0],"parents":[2147483647,0,0,1,1,2,2,3,3,4,4,5,5,6,6,7,7,8,8,9,9,10,10,11,11,12,12,13,13,14,14],"right_children":[2,4,6,8,10,12,14,16,18,20,22,24,26,28,30,-1,-1,-1,-1,-1,-1,-1,-1,-1,-1,-1,-1,-1,-1,-1,-1],"split_conditions":[2.5842E0,1E0,1E0,1E0,1.4580075E-1,1E0,4.9396E0,4.137778E0,-3.5378478E0,7.0005465E0,6.8679743E0,-1.4085292E2,1E0,-1.5597144E-1,3.0235615E0,4.8103926E-4,-1.949423E-2,6.352097E-3,-2.969349E-2,-5.502814E-2,-3.4982588E-3,1.0106251E-2,-8.634323E-3,-2.1855278E-2,1.7503968E-2,-1.0304074E-2,1.266394E-2,1.1728527E-3,-2.9598907E-2,1.3901745E-2,-1.1264106E-2],"split_indices":[4249,2517,4260,2518,2886,2518,4249,2671,2217,2728,4103,2765,1958,2978,2849,0,0,0,0,0,0,0,0,0,0,0,0,0,0,0,0],"split_type":[0,0,0,0,0,0,0,0,0,0,0,0,0,0,0,0,0,0,0,0,0,0,0,0,0,0,0,0,0,0,0],"sum_hessian":[2.694E3,7.96E2,1.898E3,7.5E2,4.6E1,1.616E3,2.82E2,5.1E2,2.4E2,4.1E1,5E0,9.36E2,6.8E2,1.83E2,9.9E1,3.65E2,1.45E2,4E1,2E2,3.9E1,2E0,1E0,4E0,3.4E1,9.02E2,4.23E2,2.57E2,3E1,1.53E2,6.7E1,3.2E1],"tree_param":{"num_deleted":"0","num_feature":"4336","num_nodes":"31","size_leaf_vector":"1"}},{"base_weights":[-9.456319E-3,6.0926612E-2,-3.010091E-1,1.2409677E-1,-2.1627955E-1,-2.1676591E-1,-7.9068387E-1,4.854273E-2,3.8614413E-1,-5.1408075E-2,-5.258074E-1,-5.0794203E-2,-4.8029795E-1,-0E0,-1.0238906E0,-5.734801E-3,6.7065544E-3,-8.075527E-3,2.2425706E-2,1.0393536E-2,-1.270537E-2,9.220588E-3,-3.2288812E-2,-2.9716535E-2,3.2917398E-3,-2.9795041E-2,-2.0450312E-3,-1.876601E-2,1.5294026E-2,2.7803732E-3,-5.448229E-2],"categories":[],"categories_nodes":[],"categories_segments":[],"categories_sizes":[],"default_left":[0,0,0,0,0,0,0,0,0,0,0,0,0,0,0,0,0,0,0,0,0,0,0,0,0,0,0,0,0,0,0],"id":29,"left_children":[1,3,5,7,9,11,13,15,17,19,21,23,25,27,29,-1,-1,-1,-1,-1,-1,-1,-1,-1,-1,-1,-1,-1,-1,-1,-1],"loss_changes":[5.5397503E1,3.8194237E1,2.0699467E1,3.4985764E1,2.0475214E1,1.9726088E1,1.391584E1,1.9401226E1,1.391716E1,1.4458751E1,1.2570156E1,1.831524E1,8.703686E0,3.0938263E0,4.523346E0,0E0,0E0,0E0,0E0,0E0,0E0,0E0,0E0,0E0,0E0,0E0,0E0,0E0,0E0,0E0,0E0],"parents":[2147483647,0,0,1,1,2,2,3,3,4,4,5,5,6,6,7,7,8,8,9,9,10,10,11,11,12,12,13,13,14,14],"right_children":[2,4,6,8,10,12,14,16,18,20,22,24,26,28,30,-1,-1,-1,-1,-1,-1,-1,-1,-1,-1,-1,-1,-1,-1,-1,-1],"split_conditions":[1.7505875E0,5.2601635E-1,1.805968E0,1.3951065E1,7.1793892E-3,-3.3925335E0,2.50361E-1,9.8136437E-1,1.8682066E0,1.1699669E1,-2.4985905E0,7.931945E-1,2.3384816E2,-5.675662E0,-1.4378402E-1,-5.734801E-3,6.7065544E-3,-8.075527E-3,2.2425706E-2,1.0393536E-2,-1.270537E-2,9.220588E-3,-3.2288812E-2,-2.9716535E-2,3.2917398E-3,-2.9795041E-2,-2.0450312E-3,-1.876601E-2,1.5294026E-2,2.7803732E-3,-5.448229E-2],"split_indices":[3180,3884,2893,2351,3023,2850,4141,3071,2311,3167,2293,3088,3207,2904,4152,0,0,0,0,0,0,0,0,0,0,0,0,0,0,0,0],"split_type":[0,0,0,0,0,0,0,0,0,0,0,0,0,0,0,0,0,0,0,0,0,0,0,0,0,0,0,0,0,0,0],"sum_hessian":[2.689E3,2.169E3,5.2E2,1.769E3,4E2,4.5E2,7E1,1.378E3,3.91E2,2.65E2,1.35E2,2.8E2,1.7E2,1.7E1,5.3E1,4.73E2,9.05E2,3.9E1,3.52E2,1.16E2,1.49E2,1.9E1,1.16E2,4.6E1,2.34E2,1.33E2,3.7E1,7E0,1E1,3E0,5E1],"tree_param":{"num_deleted":"0","num_feature":"4336","num_nodes":"31","size_leaf_vector":"1"}},{"base_weights":[2.7571158E-3,-1.7322864E-1,1.4922887E-1,-1.3454118E-1,-8.3093095E-1,2.604338E-1,-9.166949E-2,-4.2976612E-1,-6.5197326E-2,-9.3852085E-1,1.2452804E-1,2.925144E-1,-4.815034E-1,3.850742E-2,-3.7261006E-1,6.5957406E-3,-2.5510106E-2,-2.3173026E-3,-4.349399E-2,-5.0886404E-2,3.2306898E-3,-7.710337E-3,1.689664E-2,1.0920995E-2,2.520713E-2,-3.8797017E-2,-4.1293306E-3,8.938551E-3,-1.2812977E-2,-3.173202E-2,-1.0028621E-3],"categories":[],"categories_nodes":[],"categories_segments":[],"categories_sizes":[],"default_left":[0,0,0,0,0,0,0,0,0,0,0,0,0,0,0,0,0,0,0,0,0,0,0,0,0,0,0,0,0,0,0],"id":30,"left_children":[1,3,5,7,9,11,13,15,17,19,21,23,25,27,29,-1,-1,-1,-1,-1,-1,-1,-1,-1,-1,-1,-1,-1,-1,-1,-1],"loss_changes":[6.8564644E1,3.0081825E1,3.9033997E1,2.329183E1,7.4504128E0,2.436811E1,1.7001404E1,1.0178268E1,1.3890083E1,5.1914444E0,9.3324673E-1,1.43834E1,4.6443367E0,1.3451735E1,1.345067E1,0E0,0E0,0E0,0E0,0E0,0E0,0E0,0E0,0E0,0E0,0E0,0E0,0E0,0E0,0E0,0E0],"parents":[2147483647,0,0,1,1,2,2,3,3,4,4,5,5,6,6,7,7,8,8,9,9,10,10,11,11,12,12,13,13,14,14],"right_children":[2,4,6,8,10,12,14,16,18,20,22,24,26,28,30,-1,-1,-1,-1,-1,-1,-1,-1,-1,-1,-1,-1,-1,-1,-1,-1],"split_conditions":[3.1618E0,1E0,4.7495714E-1,1.47082E0,1.4137931E0,1E0,1.4450988E1,-7.622706E0,1E0,6.905743E-2,6.940191E-1,4.6505904E0,-4.6981707E0,8.143253E-1,1.2370871E1,6.5957406E-3,-2.5510106E-2,-2.3173026E-3,-4.349399E-2,-5.0886404E-2,3.2306898E-3,-7.710337E-3,1.689664E-2,1.0920995E-2,2.520713E-2,-3.8797017E-2,-4.1293306E-3,8.938551E-3,-1.2812977E-2,-3.173202E-2,-1.0028621E-3],"split_indices":[4068,4259,3884,4068,3729,1475,4190,2433,949,3360,3100,2471,2512,3884,2396,0,0,0,0,0,0,0,0,0,0,0,0,0,0,0,0],"split_type":[0,0,0,0,0,0,0,0,0,0,0,0,0,0,0,0,0,0,0,0,0,0,0,0,0,0,0,0,0,0,0],"sum_hessian":[2.65E3,1.203E3,1.447E3,1.142E3,6.1E1,9.9E2,4.57E2,2.12E2,9.3E2,5.5E1,6E0,9.52E2,3.8E1,3.15E2,1.42E2,2.6E1,1.86E2,9.14E2,1.6E1,5.1E1,4E0,3E0,3E0,7.13E2,2.39E2,1.9E1,1.9E1,2.15E2,1E2,7.9E1,6.3E1],"tree_param":{"num_deleted":"0","num_feature":"4336","num_nodes":"31","size_leaf_vector":"1"}},{"base_weights":[-6.6679525E-3,6.972961E-2,-2.2724773E-1,1.2212248E-1,-3.4586132E-1,4.7170606E-2,-3.5730448E-1,1.434507E-1,-4.890327E-1,-1.2221935E-1,-7.582238E-1,-7.5241E-2,4.4815975E-1,-9.441004E-2,-5.025267E-1,-2.32221E-2,8.246721E-3,-2.824736E-2,8.530253E-3,1.6061546E-2,-9.346761E-3,-4.3893915E-2,-5.498243E-3,3.9326632E-3,-2.8493438E-2,-6.737008E-4,2.660412E-2,3.577087E-3,-2.1710258E-2,-1.6552778E-2,-3.757337E-2],"categories":[],"categories_nodes":[],"categories_segments":[],"categories_sizes":[],"default_left":[0,0,0,0,0,0,0,0,0,0,0,0,0,0,0,0,0,0,0,0,0,0,0,0,0,0,0,0,0,0,0],"id":31,"left_children":[1,3,5,7,9,11,13,15,17,19,21,23,25,27,29,-1,-1,-1,-1,-1,-1,-1,-1,-1,-1,-1,-1,-1,-1,-1,-1],"loss_changes":[4.5392506E1,4.3736816E1,2.4848427E1,2.3518244E1,2.0198458E1,1.13483515E1,1.7684978E1,2.2868141E1,3.5759916E0,4.6489544E0,5.468769E0,1.3822657E1,2.1797495E0,1.0003376E1,1.153907E1,0E0,0E0,0E0,0E0,0E0,0E0,0E0,0E0,0E0,0E0,0E0,0E0,0E0,0E0,0E0,0E0],"parents":[2147483647,0,0,1,1,2,2,3,3,4,4,5,5,6,6,7,7,8,8,9,9,10,10,11,11,12,12,13,13,14,14],"right_children":[2,4,6,8,10,12,14,16,18,20,22,24,26,28,30,-1,-1,-1,-1,-1,-1,-1,-1,-1,-1,-1,-1,-1,-1,-1,-1],"split_conditions":[-1.7655412E0,1E0,1.5070267E2,1E0,7.8885806E-1,-1.0030261E-1,-9.3361084E1,7.5956863E-1,9.428351E0,1.5687664E1,1.010143E1,7.9862255E-1,-2.6949644E-1,6.014659E0,9.557786E0,-2.32221E-2,8.246721E-3,-2.824736E-2,8.530253E-3,1.6061546E-2,-9.346761E-3,-4.3893915E-2,-5.498243E-3,3.9326632E-3,-2.8493438E-2,-6.737008E-4,2.660412E-2,3.577087E-3,-2.1710258E-2,-1.6552778E-2,-3.757337E-2],"split_indices":[2402,4259,2741,1475,3792,2884,2790,3112,3676,4201,4146,2275,2822,3834,4224,0,0,0,0,0,0,0,0,0,0,0,0,0,0,0,0],"split_type":[0,0,0,0,0,0,0,0,0,0,0,0,0,0,0,0,0,0,0,0,0,0,0,0,0,0,0,0,0,0,0],"sum_hessian":[2.683E3,1.995E3,6.88E2,1.775E3,2.2E2,2.22E2,4.66E2,1.719E3,5.6E1,1.47E2,7.3E1,1.73E2,4.9E1,1.69E2,2.97E2,5.5E1,1.664E3,5.1E1,5E0,1.6E1,1.31E2,6E1,1.3E1,1.35E2,3.8E1,8E0,4.1E1,1.16E2,5.3E1,1.83E2,1.14E2],"tree_param":{"num_deleted":"0","num_feature":"4336","num_nodes":"31","size_leaf_vector":"1"}},{"base_weights":[-3.954284E-3,-1.6875806E-1,1.10627435E-1,-1.24697536E-1,-7.6927894E-1,-1.1259713E-1,1.979106E-1,-3.3796138E-1,-4.734253E-2,-8.785655E-1,1.5310389E-1,2.5129554E-1,-1.8491855E-1,2.429571E-1,-1.2851593E-1,-2.1325799E-2,7.1611465E-3,-2.6635978E-2,-3.2094333E-4,4.9789795E-3,-4.750802E-2,-3.0340422E-3,1.552109E-2,-7.6689585E-3,2.0069791E-2,-1.2664919E-2,1.4760897E-2,1.4434464E-2,-1.2328135E-4,-1.6164815E-2,8.818387E-3],"categories":[],"categories_nodes":[],"categories_segments":[],"categories_sizes":[],"default_left":[0,0,0,0,0,0,0,0,0,0,0,0,0,0,0,0,0,0,0,0,0,0,0,0,0,0,0,0,0,0,0],"id":32,"left_children":[1,3,5,7,9,11,13,15,17,19,21,23,25,27,29,-1,-1,-1,-1,-1,-1,-1,-1,-1,-1,-1,-1,-1,-1,-1,-1],"loss_changes":[5.059364E1,2.8509695E1,3.0904274E1,1.6873405E1,8.204605E0,1.1989512E1,1.6901134E1,1.1966589E1,1.5064905E1,5.250168E0,5.2274334E-1,4.949005E0,1.2714398E1,1.1278343E1,8.673122E0,0E0,0E0,0E0,0E0,0E0,0E0,0E0,0E0,0E0,0E0,0E0,0E0,0E0,0E0,0E0,0E0],"parents":[2147483647,0,0,1,1,2,2,3,3,4,4,5,5,6,6,7,7,8,8,9,9,10,10,11,11,12,12,13,13,14,14],"right_children":[2,4,6,8,10,12,14,16,18,20,22,24,26,28,30,-1,-1,-1,-1,-1,-1,-1,-1,-1,-1,-1,-1,-1,-1,-1,-1],"split_conditions":[3.0212E0,1E0,-1.5007375E-1,1.64216E0,1E0,5.827724E-1,6.222031E0,5.6450925E0,-1.23103224E-1,2.2112658E0,1.0533122E0,-6.8360664E1,8.364774E0,2.455506E0,-1.9360819E0,-2.1325799E-2,7.1611465E-3,-2.6635978E-2,-3.2094333E-4,4.9789795E-3,-4.750802E-2,-3.0340422E-3,1.552109E-2,-7.6689585E-3,2.0069791E-2,-1.2664919E-2,1.4760897E-2,1.4434464E-2,-1.2328135E-4,-1.6164815E-2,8.818387E-3],"split_indices":[4249,2517,3869,4249,1958,3092,3508,3663,2379,3173,3113,2789,2311,3593,2424,0,0,0,0,0,0,0,0,0,0,0,0,0,0,0,0],"split_type":[0,0,0,0,0,0,0,0,0,0,0,0,0,0,0,0,0,0,0,0,0,0,0,0,0,0,0,0,0,0,0],"sum_hessian":[2.669E3,1.094E3,1.575E3,1.025E3,6.9E1,4.42E2,1.133E3,2.68E2,7.57E2,6.2E1,7E0,7.1E1,3.71E2,9.97E2,1.36E2,2.27E2,4.1E1,5.4E1,7.03E2,4E0,5.8E1,4E0,3E0,1.9E1,5.2E1,3.27E2,4.4E1,8.4E2,1.57E2,8.3E1,5.3E1],"tree_param":{"num_deleted":"0","num_feature":"4336","num_nodes":"31","size_leaf_vector":"1"}},{"base_weights":[4.119518E-3,5.0734393E-2,-3.764571E-1,-3.610554E-1,8.696646E-2,-2.7303226E-4,-4.7248137E-1,-5.0379515E-1,2.6963202E-2,3.1353686E-2,2.7638102E-1,-5.033599E-1,1.9898902E-1,1.6010198E-1,-5.663615E-1,-4.319711E-2,-1.46661205E-2,1.8949604E-2,-5.8919936E-3,-4.702301E-3,7.3108464E-3,3.3160725E-3,2.0385819E-2,-4.1055243E-2,-4.3823078E-4,-2.9357006E-3,1.7183576E-2,-1.1003457E-2,1.9705595E-2,-3.736784E-2,-1.7100109E-2],"categories":[],"categories_nodes":[],"categories_segments":[],"categories_sizes":[],"default_left":[0,0,0,0,0,0,0,0,0,0,0,0,0,0,0,0,0,0,0,0,0,0,0,0,0,0,0,0,0,0,0],"id":33,"left_children":[1,3,5,7,9,11,13,15,17,19,21,23,25,27,29,-1,-1,-1,-1,-1,-1,-1,-1,-1,-1,-1,-1,-1,-1,-1,-1],"loss_changes":[4.7802692E1,3.5967422E1,1.05721855E1,1.091581E1,2.3226818E1,7.0472507E0,1.4390568E1,9.456768E0,3.154984E0,2.479092E1,1.3639107E1,3.0241327E0,1.9936427E0,3.4758332E0,6.9377136E0,0E0,0E0,0E0,0E0,0E0,0E0,0E0,0E0,0E0,0E0,0E0,0E0,0E0,0E0,0E0,0E0],"parents":[2147483647,0,0,1,1,2,2,3,3,4,4,5,5,6,6,7,7,8,8,9,9,10,10,11,11,12,12,13,13,14,14],"right_children":[2,4,6,8,10,12,14,16,18,20,22,24,26,28,30,-1,-1,-1,-1,-1,-1,-1,-1,-1,-1,-1,-1,-1,-1,-1,-1],"split_conditions":[-3.0210636E0,-1.01347E0,8.1087565E-1,4.082483E-1,1.3764821E1,2.0093472E0,-9.728353E0,-6.708237E0,-2.5058465E0,1.0324386E0,-8.710626E-2,6.863987E-4,4.8109226E0,3.117726E-1,-1.6784755E0,-4.319711E-2,-1.46661205E-2,1.8949604E-2,-5.8919936E-3,-4.702301E-3,7.3108464E-3,3.3160725E-3,2.0385819E-2,-4.1055243E-2,-4.3823078E-4,-2.9357006E-3,1.7183576E-2,-1.1003457E-2,1.9705595E-2,-3.736784E-2,-1.7100109E-2],"split_indices":[3819,3658,3140,3877,2351,2419,2269,2453,4150,3071,2988,3058,4216,3357,2277,0,0,0,0,0,0,0,0,0,0,0,0,0,0,0,0],"split_type":[0,0,0,0,0,0,0,0,0,0,0,0,0,0,0,0,0,0,0,0,0,0,0,0,0,0,0,0,0,0,0],"sum_hessian":[2.686E3,2.397E3,2.89E2,1.9E2,2.207E3,6E1,2.29E2,1.38E2,5.2E1,1.711E3,4.96E2,1.5E1,4.5E1,2.9E1,2E2,4.5E1,9.3E1,1.3E1,3.9E1,8.18E2,8.93E2,1.94E2,3.02E2,7E0,8E0,1.7E1,2.8E1,1.1E1,1.8E1,1.04E2,9.6E1],"tree_param":{"num_deleted":"0","num_feature":"4336","num_nodes":"31","size_leaf_vector":"1"}},{"base_weights":[-5.1997188E-3,2.3240288E-1,-6.1223663E-2,-5.4331042E-2,3.1433433E-1,-1.913085E-1,3.869249E-2,-2.6007703E-1,3.189778E-1,6.751644E-1,2.479741E-1,-2.3885645E-2,-3.0712357E-1,1.4445281E-1,-1.1439583E-1,-2.2882095E-3,-3.421493E-2,-3.939177E-3,2.3326606E-2,4.8355227E-3,3.906535E-2,1.7859487E-2,-2.9165982E-3,1.2043727E-3,-3.5476137E-2,-2.4438916E-2,-8.07274E-3,-1.31804E-2,9.381658E-3,-2.9700002E-4,-2.7187884E-2],"categories":[],"categories_nodes":[],"categories_segments":[],"categories_sizes":[],"default_left":[0,0,0,0,0,0,0,0,0,0,0,0,0,0,0,0,0,0,0,0,0,0,0,0,0,0,0,0,0,0,0],"id":34,"left_children":[1,3,5,7,9,11,13,15,17,19,21,23,25,27,29,-1,-1,-1,-1,-1,-1,-1,-1,-1,-1,-1,-1,-1,-1,-1,-1],"loss_changes":[3.5795227E1,1.2163059E1,2.8347996E1,9.472105E0,8.648476E0,1.8292637E1,2.0081106E1,6.9527864E0,2.8049712E0,3.1569118E0,1.1708944E1,1.3080607E1,1.4332336E1,1.3155326E1,2.3538248E1,0E0,0E0,0E0,0E0,0E0,0E0,0E0,0E0,0E0,0E0,0E0,0E0,0E0,0E0,0E0,0E0],"parents":[2147483647,0,0,1,1,2,2,3,3,4,4,5,5,6,6,7,7,8,8,9,9,10,10,11,11,12,12,13,13,14,14],"right_children":[2,4,6,8,10,12,14,16,18,20,22,24,26,28,30,-1,-1,-1,-1,-1,-1,-1,-1,-1,-1,-1,-1,-1,-1,-1,-1],"split_conditions":[1.626824E-2,8.70001E0,1.0639559E1,1.2899191E0,-6.5404773E0,-8.335825E-2,1.0368419E1,8.5E1,4.7795437E-2,3.060222E-2,1.5514153E1,1.0319157E1,-4.600505E-1,-1.311151E0,1E0,-2.2882095E-3,-3.421493E-2,-3.939177E-3,2.3326606E-2,4.8355227E-3,3.906535E-2,1.7859487E-2,-2.9165982E-3,1.2043727E-3,-3.5476137E-2,-2.4438916E-2,-8.07274E-3,-1.31804E-2,9.381658E-3,-2.9700002E-4,-2.7187884E-2],"split_indices":[3762,2245,2245,2736,2357,3054,4211,3908,2973,2973,3837,4146,4139,2504,52,0,0,0,0,0,0,0,0,0,0,0,0,0,0,0,0],"split_type":[0,0,0,0,0,0,0,0,0,0,0,0,0,0,0,0,0,0,0,0,0,0,0,0,0,0,0,0,0,0,0],"sum_hessian":[2.68E3,5.08E2,2.172E3,1.13E2,3.95E2,9.42E2,1.23E3,7.4E1,3.9E1,5.4E1,3.41E2,3.88E2,5.54E2,7.28E2,5.02E2,5.3E1,2.1E1,1.1E1,2.8E1,1E1,4.4E1,2.51E2,9E1,3.67E2,2.1E1,2.41E2,3.13E2,6.7E1,6.61E2,4.05E2,9.7E1],"tree_param":{"num_deleted":"0","num_feature":"4336","num_nodes":"31","size_leaf_vector":"1"}},{"base_weights":[-5.498917E-3,-1.2057313E-1,1.376379E-1,9.34012E-2,-1.9804892E-1,2.2515546E-1,-1.6713014E-1,-2.551106E-1,1.7779978E-1,-1.0970348E-1,-3.955609E-1,2.7564186E-1,-1.700826E-1,-2.682553E-1,2.2564451E-1,-7.370247E-4,-3.0511877E-2,1.4481889E-2,-1.6751084E-3,-1.6727395E-3,-1.624567E-2,5.9551205E-3,-2.4366356E-2,1.5370022E-2,-1.2521883E-2,4.6697413E-3,-3.6005277E-2,3.6737479E-3,-2.199905E-2,2.2241337E-2,-8.66846E-3],"categories":[],"categories_nodes":[],"categories_segments":[],"categories_sizes":[],"default_left":[0,0,0,0,0,0,0,0,0,0,0,0,0,0,0,0,0,0,0,0,0,0,0,0,0,0,0,0,0,0,0],"id":35,"left_children":[1,3,5,7,9,11,13,15,17,19,21,23,25,27,29,-1,-1,-1,-1,-1,-1,-1,-1,-1,-1,-1,-1,-1,-1,-1,-1],"loss_changes":[4.4471573E1,2.4919964E1,3.2281033E1,1.2014034E1,1.8944157E1,1.8942001E1,1.1070866E1,6.721477E0,7.7780275E0,1.2512292E1,1.629034E1,1.4308002E1,1.6195072E1,1.2991371E1,5.4852314E0,0E0,0E0,0E0,0E0,0E0,0E0,0E0,0E0,0E0,0E0,0E0,0E0,0E0,0E0,0E0,0E0],"parents":[2147483647,0,0,1,1,2,2,3,3,4,4,5,5,6,6,7,7,8,8,9,9,10,10,11,11,12,12,13,13,14,14],"right_children":[2,4,6,8,10,12,14,16,18,20,22,24,26,28,30,-1,-1,-1,-1,-1,-1,-1,-1,-1,-1,-1,-1,-1,-1,-1,-1],"split_conditions":[3.46E0,-3.668038E0,5.0471723E-1,-1.940681E0,8.0796427E-1,7.3375607E0,-1.5553117E0,1.0107245E0,-1.273189E0,1.6697037E0,-6.951667E0,1E0,9.998591E0,7.148097E0,1.9998503E2,-7.370247E-4,-3.0511877E-2,1.4481889E-2,-1.6751084E-3,-1.6727395E-3,-1.624567E-2,5.9551205E-3,-2.4366356E-2,1.5370022E-2,-1.2521883E-2,4.6697413E-3,-3.6005277E-2,3.6737479E-3,-2.199905E-2,2.2241337E-2,-8.66846E-3],"split_indices":[4249,2402,3884,2446,3092,4225,2407,2286,2225,2850,2490,1475,4179,4224,2698,0,0,0,0,0,0,0,0,0,0,0,0,0,0,0,0],"split_type":[0,0,0,0,0,0,0,0,0,0,0,0,0,0,0,0,0,0,0,0,0,0,0,0,0,0,0,0,0,0,0],"sum_hessian":[2.69E3,1.492E3,1.198E3,3.96E2,1.096E3,9.32E2,2.66E2,7.5E1,3.21E2,7.63E2,3.33E2,8.28E2,1.04E2,2.13E2,5.3E1,4.8E1,2.7E1,2.09E2,1.12E2,5.68E2,1.95E2,5E1,2.83E2,7.83E2,4.5E1,7.3E1,3.1E1,7.2E1,1.41E2,3.4E1,1.9E1],"tree_param":{"num_deleted":"0","num_feature":"4336","num_nodes":"31","size_leaf_vector":"1"}},{"base_weights":[-5.800943E-3,2.4034521E-1,-6.547451E-2,4.6330255E-1,1.4352913E-1,3.1584695E-2,-2.397397E-1,-3.0193728E-1,5.999319E-1,-7.506868E-1,1.888822E-1,-1.2579356E-1,2.5759622E-1,-5.5607545E-1,-9.863338E-2,6.693156E-4,-2.3443654E-2,9.186818E-3,3.4263056E-2,-4.8732888E-2,1.4267579E-3,-1.2823339E-2,1.1451109E-2,4.1573476E-3,-1.2709391E-2,2.1476489E-2,6.468603E-3,-1.3422448E-3,-3.1546045E-2,9.259182E-3,-1.0500487E-2],"categories":[],"categories_nodes":[],"categories_segments":[],"categories_sizes":[],"default_left":[0,0,0,0,0,0,0,0,0,0,0,0,0,0,0,0,0,0,0,0,0,0,0,0,0,0,0,0,0,0,0],"id":36,"left_children":[1,3,5,7,9,11,13,15,17,19,21,23,25,27,29,-1,-1,-1,-1,-1,-1,-1,-1,-1,-1,-1,-1,-1,-1,-1,-1],"loss_changes":[3.9675865E1,1.0982578E1,3.6846718E1,1.7350521E1,1.5861063E1,5.0007786E1,3.443249E1,1.4981787E0,4.0779E0,3.5496101E0,6.7442837E0,2.2362164E1,1.2386829E1,9.316444E0,1.7424662E1,0E0,0E0,0E0,0E0,0E0,0E0,0E0,0E0,0E0,0E0,0E0,0E0,0E0,0E0,0E0,0E0],"parents":[2147483647,0,0,1,1,2,2,3,3,4,4,5,5,6,6,7,7,8,8,9,9,10,10,11,11,12,12,13,13,14,14],"right_children":[2,4,6,8,10,12,14,16,18,20,22,24,26,28,30,-1,-1,-1,-1,-1,-1,-1,-1,-1,-1,-1,-1,-1,-1,-1,-1],"split_conditions":[1.609543E-2,-3.1603644E0,1E0,-4.419547E0,2.4256876E0,2.6454198E0,9.147825E0,-1.1679107E1,8.9876574E-1,3.712317E-1,2.2697875E0,2.6169774E-1,1.2907848E0,-1.8075945E0,7.588419E-1,6.693156E-4,-2.3443654E-2,9.186818E-3,3.4263056E-2,-4.8732888E-2,1.4267579E-3,-1.2823339E-2,1.1451109E-2,4.1573476E-3,-1.2709391E-2,2.1476489E-2,6.468603E-3,-1.3422448E-3,-3.1546045E-2,9.259182E-3,-1.0500487E-2],"split_indices":[3762,2400,2518,2258,2419,3666,4160,2268,3081,2458,2455,4138,2883,2240,3093,0,0,0,0,0,0,0,0,0,0,0,0,0,0,0,0],"split_type":[0,0,0,0,0,0,0,0,0,0,0,0,0,0,0,0,0,0,0,0,0,0,0,0,0,0,0,0,0,0,0],"sum_hessian":[2.692E3,5.22E2,2.17E3,1.52E2,3.7E2,1.396E3,7.74E2,2.2E1,1.3E2,1.4E1,3.56E2,8.24E2,5.72E2,2.34E2,5.4E2,9E0,1.3E1,2.5E1,1.05E2,1E1,4E0,2.7E1,3.29E2,3.14E2,5.1E2,2.39E2,3.33E2,3E1,2.04E2,1.51E2,3.89E2],"tree_param":{"num_deleted":"0","num_feature":"4336","num_nodes":"31","size_leaf_vector":"1"}},{"base_weights":[4.9285965E-5,5.2641913E-2,-2.3614272E-1,1.0656709E-1,-1.06901474E-1,-1.3665797E-1,-5.9061784E-1,2.1014366E-1,-1.3010204E-2,-2.7344126E-1,2.3856303E-1,1.3946402E-1,-3.0175126E-1,-6.613696E-1,1.5676764E-1,1.2224117E-2,-9.218427E-3,7.7517563E-3,-6.502633E-3,-1.6183771E-2,2.6434258E-2,2.0381385E-2,-2.7714118E-3,1.0967747E-2,-2.1083834E-2,-8.327774E-3,-3.8008325E-2,1.8429533E-3,-3.7699185E-2,1.8938554E-2,-7.060893E-3],"categories":[],"categories_nodes":[],"categories_segments":[],"categories_sizes":[],"default_left":[0,0,0,0,0,0,0,0,0,0,0,0,0,0,0,0,0,0,0,0,0,0,0,0,0,0,0,0,0,0,0],"id":37,"left_children":[1,3,5,7,9,11,13,15,17,19,21,23,25,27,29,-1,-1,-1,-1,-1,-1,-1,-1,-1,-1,-1,-1,-1,-1,-1,-1],"loss_changes":[3.3222855E1,1.8889782E1,1.66977E1,2.0333063E1,3.226079E1,1.7868385E1,6.121151E0,1.2139229E1,1.51446705E1,1.6026005E1,9.243937E0,7.0771E0,1.4396376E1,6.483246E0,1.151201E0,0E0,0E0,0E0,0E0,0E0,0E0,0E0,0E0,0E0,0E0,0E0,0E0,0E0,0E0,0E0,0E0],"parents":[2147483647,0,0,1,1,2,2,3,3,4,4,5,5,6,6,7,7,8,8,9,9,10,10,11,11,12,12,13,13,14,14],"right_children":[2,4,6,8,10,12,14,16,18,20,22,24,26,28,30,-1,-1,-1,-1,-1,-1,-1,-1,-1,-1,-1,-1,-1,-1,-1,-1],"split_conditions":[1.7687957E0,1E0,2.496332E-2,1.0754007E0,2.9403808E0,7.263529E-1,1.0279025E0,1.6947383E0,2.7251668E0,1E0,1.967742E0,1.8537009E-1,1E0,9.1336316E-1,1.223E3,1.2224117E-2,-9.218427E-3,7.7517563E-3,-6.502633E-3,-1.6183771E-2,2.6434258E-2,2.0381385E-2,-2.7714118E-3,1.0967747E-2,-2.1083834E-2,-8.327774E-3,-3.8008325E-2,1.8429533E-3,-3.7699185E-2,1.8938554E-2,-7.060893E-3],"split_indices":[3180,1281,3054,3149,3588,3101,2446,2733,2299,1656,4143,3044,33,3070,2583,0,0,0,0,0,0,0,0,0,0,0,0,0,0,0,0],"split_type":[0,0,0,0,0,0,0,0,0,0,0,0,0,0,0,0,0,0,0,0,0,0,0,0,0,0,0,0,0,0,0],"sum_hessian":[2.666E3,2.184E3,4.82E2,1.634E3,5.5E2,3.82E2,1E2,8.74E2,7.6E2,3.72E2,1.78E2,1.43E2,2.39E2,9.2E1,8E0,8.06E2,6.8E1,3.11E2,4.49E2,3.53E2,1.9E1,1.12E2,6.6E1,1.28E2,1.5E1,1.9E2,4.9E1,1.1E1,8.1E1,4E0,4E0],"tree_param":{"num_deleted":"0","num_feature":"4336","num_nodes":"31","size_leaf_vector":"1"}},{"base_weights":[-7.017864E-4,-5.3498726E-2,2.1531208E-1,-1.0365025E-2,-3.422604E-1,3.644063E-1,-6.0433287E-2,8.283976E-2,-1.6933618E-1,-3.162858E-2,-5.133995E-1,4.5368236E-1,-8.386046E-2,-1.6545932E-1,3.244744E-1,7.33281E-3,-1.4298501E-2,-2.4515362E-3,-2.6075283E-2,8.442235E-3,-1.0196678E-2,-3.0207092E-2,2.9900344E-3,2.4781613E-2,-5.2554174E-3,-2.5698492E-2,3.5938767E-3,-2.1580853E-3,-2.499987E-2,-2.7171776E-3,2.1952627E-2],"categories":[],"categories_nodes":[],"categories_segments":[],"categories_sizes":[],"default_left":[0,0,0,0,0,0,0,0,0,0,0,0,0,0,0,0,0,0,0,0,0,0,0,0,0,0,0,0,0,0,0],"id":38,"left_children":[1,3,5,7,9,11,13,15,17,19,21,23,25,27,29,-1,-1,-1,-1,-1,-1,-1,-1,-1,-1,-1,-1,-1,-1,-1,-1],"loss_changes":[3.0606464E1,2.6825665E1,2.1806551E1,2.797896E1,1.4749451E1,1.3953903E1,7.892922E0,2.8203758E1,2.93879E1,3.8026419E0,9.597507E0,7.027153E0,4.3149695E0,6.056588E0,1.9807482E0,0E0,0E0,0E0,0E0,0E0,0E0,0E0,0E0,0E0,0E0,0E0,0E0,0E0,0E0,0E0,0E0],"parents":[2147483647,0,0,1,1,2,2,3,3,4,4,5,5,6,6,7,7,8,8,9,9,10,10,11,11,12,12,13,13,14,14],"right_children":[2,4,6,8,10,12,14,16,18,20,22,24,26,28,30,-1,-1,-1,-1,-1,-1,-1,-1,-1,-1,-1,-1,-1,-1,-1,-1],"split_conditions":[1.3951065E1,1E0,1.0009E2,1E0,6.179843E0,1E0,7.825755E-1,1.0023292E1,-5.836778E0,-5.155136E0,2.4375E0,8.727117E0,9.8964494E-1,1E0,4.4299886E-2,7.33281E-3,-1.4298501E-2,-2.4515362E-3,-2.6075283E-2,8.442235E-3,-1.0196678E-2,-3.0207092E-2,2.9900344E-3,2.4781613E-2,-5.2554174E-3,-2.5698492E-2,3.5938767E-3,-2.1580853E-3,-2.499987E-2,-2.7171776E-3,2.1952627E-2],"split_indices":[2351,4259,4071,2518,2721,1691,3581,4177,2316,2451,2773,4225,3070,69,4131,0,0,0,0,0,0,0,0,0,0,0,0,0,0,0,0],"split_type":[0,0,0,0,0,0,0,0,0,0,0,0,0,0,0,0,0,0,0,0,0,0,0,0,0,0,0,0,0,0,0],"sum_hessian":[2.675E3,2.153E3,5.22E2,1.878E3,2.75E2,3.38E2,1.84E2,1.185E3,6.93E2,1E2,1.75E2,2.82E2,5.6E1,1.47E2,3.7E1,1.013E3,1.72E2,5.21E2,1.72E2,4.6E1,5.4E1,1.51E2,2.4E1,2.63E2,1.9E1,1.2E1,4.4E1,1.12E2,3.5E1,9E0,2.8E1],"tree_param":{"num_deleted":"0","num_feature":"4336","num_nodes":"31","size_leaf_vector":"1"}},{"base_weights":[-1.2539316E-2,-1.4793546E-1,8.21619E-2,-6.13471E-1,-1.1189823E-1,1.3509251E-1,-1.4736108E-1,-6.845797E-1,4.8609562E-2,-6.2311426E-2,-4.251216E-1,6.9401935E-2,3.4763798E-1,-3.0984515E-1,1.0726958E-1,-4.1801304E-2,-1.614376E-2,-4.402293E-3,9.223296E-3,-1.0291795E-2,2.0823197E-3,-3.9695464E-3,-3.503131E-2,4.3450603E-3,-2.7902711E-2,6.7042015E-3,2.2189094E-2,2.3126274E-2,-1.8948196E-2,-7.729884E-3,1.2902145E-2],"categories":[],"categories_nodes":[],"categories_segments":[],"categories_sizes":[],"default_left":[0,0,0,0,0,0,0,0,0,0,0,0,0,0,0,0,0,0,0,0,0,0,0,0,0,0,0,0,0,0,0],"id":39,"left_children":[1,3,5,7,9,11,13,15,17,19,21,23,25,27,29,-1,-1,-1,-1,-1,-1,-1,-1,-1,-1,-1,-1,-1,-1,-1,-1],"loss_changes":[3.3956375E1,1.787074E1,1.9026129E1,3.8551197E0,1.5630124E1,1.7555742E1,1.2350228E1,2.368969E0,3.1363544E-1,1.3263917E1,1.2788431E1,1.0911867E1,5.763195E0,1.0530788E1,4.868755E0,0E0,0E0,0E0,0E0,0E0,0E0,0E0,0E0,0E0,0E0,0E0,0E0,0E0,0E0,0E0,0E0],"parents":[2147483647,0,0,1,1,2,2,3,3,4,4,5,5,6,6,7,7,8,8,9,9,10,10,11,11,12,12,13,13,14,14],"right_children":[2,4,6,8,10,12,14,16,18,20,22,24,26,28,30,-1,-1,-1,-1,-1,-1,-1,-1,-1,-1,-1,-1,-1,-1,-1,-1],"split_conditions":[2.99557E0,7.602E-1,1.0009E2,1.4358372E1,1.323359E0,6.373333E2,8.2840605E0,4.347482E0,1.2841076E0,1.544604E0,-8.4331554E-1,-1.5475404E0,8.813717E-1,1.1062996E0,-4.189415E0,-4.1801304E-2,-1.614376E-2,-4.402293E-3,9.223296E-3,-1.0291795E-2,2.0823197E-3,-3.9695464E-3,-3.503131E-2,4.3450603E-3,-2.7902711E-2,6.7042015E-3,2.2189094E-2,2.3126274E-2,-1.8948196E-2,-7.729884E-3,1.2902145E-2],"split_indices":[4068,4068,4209,4181,3078,2553,2264,3870,2735,3060,2833,2271,3144,2445,2392,0,0,0,0,0,0,0,0,0,0,0,0,0,0,0,0],"split_type":[0,0,0,0,0,0,0,0,0,0,0,0,0,0,0,0,0,0,0,0,0,0,0,0,0,0,0,0,0,0,0],"sum_hessian":[2.638E3,1.085E3,1.553E3,7.2E1,1.013E3,1.264E3,2.89E2,6.5E1,7E0,8.8E2,1.33E2,9.71E2,2.93E2,1.76E2,1.13E2,4.1E1,2.4E1,4E0,3E0,3.68E2,5.12E2,6.2E1,7.1E1,9.49E2,2.2E1,9.5E1,1.98E2,1.2E1,1.64E2,4.1E1,7.2E1],"tree_param":{"num_deleted":"0","num_feature":"4336","num_nodes":"31","size_leaf_vector":"1"}},{"base_weights":[-1.4380083E-3,-2.3807608E-1,4.7129255E-2,-2.9108638E-1,2.599605E-1,9.46725E-2,-2.2348085E-1,-5.398301E-1,-2.159739E-1,-6.816244E-2,4.2754352E-1,2.05778E-1,-7.0106894E-2,-5.5206317E-1,-6.313123E-2,1.0032784E-2,-3.0142752E-2,-1.4144899E-2,7.2489916E-3,4.969682E-3,-1.0215279E-2,2.4539942E-2,-6.732655E-3,1.2862066E-2,-3.618139E-3,-2.0485668E-2,2.156818E-3,1.917255E-3,-3.432532E-2,-8.991582E-3,1.3222985E-2],"categories":[],"categories_nodes":[],"categories_segments":[],"categories_sizes":[],"default_left":[0,0,0,0,0,0,0,0,0,0,0,0,0,0,0,0,0,0,0,0,0,0,0,0,0,0,0,0,0,0,0],"id":40,"left_children":[1,3,5,7,9,11,13,15,17,19,21,23,25,27,29,-1,-1,-1,-1,-1,-1,-1,-1,-1,-1,-1,-1,-1,-1,-1,-1],"loss_changes":[3.1243841E1,1.26051655E1,2.9092154E1,7.2073364E0,2.7660782E0,3.5255173E1,1.757278E1,5.0319424E0,8.238819E0,5.682568E-1,1.504034E0,1.655841E1,3.0007002E1,8.927841E0,9.136917E0,0E0,0E0,0E0,0E0,0E0,0E0,0E0,0E0,0E0,0E0,0E0,0E0,0E0,0E0,0E0,0E0],"parents":[2147483647,0,0,1,1,2,2,3,3,4,4,5,5,6,6,7,7,8,8,9,9,10,10,11,11,12,12,13,13,14,14],"right_children":[2,4,6,8,10,12,14,16,18,20,22,24,26,28,30,-1,-1,-1,-1,-1,-1,-1,-1,-1,-1,-1,-1,-1,-1,-1,-1],"split_conditions":[1.99478E0,1.5133291E1,1E0,8.9332E-1,-7.3624355E-1,1E0,3.7114E0,-4.2700046E-1,1.4366486E1,4.0954217E-1,2.1267155E1,1.0023292E1,2.5562248E1,-7.151919E0,-1.3670342E0,1.0032784E-2,-3.0142752E-2,-1.4144899E-2,7.2489916E-3,4.969682E-3,-1.0215279E-2,2.4539942E-2,-6.732655E-3,1.2862066E-2,-3.618139E-3,-2.0485668E-2,2.156818E-3,1.917255E-3,-3.432532E-2,-8.991582E-3,1.3222985E-2],"split_indices":[4249,4198,2517,4249,2749,2518,4249,2756,4220,2243,4173,3834,3811,2484,2356,0,0,0,0,0,0,0,0,0,0,0,0,0,0,0,0],"split_type":[0,0,0,0,0,0,0,0,0,0,0,0,0,0,0,0,0,0,0,0,0,0,0,0,0,0,0,0,0,0,0],"sum_hessian":[2.707E3,4.58E2,2.249E3,4.16E2,4.2E1,1.916E3,3.33E2,8.9E1,3.27E2,1.5E1,2.7E1,1.144E3,7.72E2,1.05E2,2.28E2,6E0,8.3E1,2.77E2,5E1,7E0,8E0,2.5E1,2E0,9.66E2,1.78E2,1.9E2,5.82E2,2E1,8.5E1,1.7E2,5.8E1],"tree_param":{"num_deleted":"0","num_feature":"4336","num_nodes":"31","size_leaf_vector":"1"}},{"base_weights":[-9.567213E-3,-1.2725098E-1,9.155796E-2,-3.7995216E-2,-3.0919152E-1,1.6910177E-1,-9.589047E-2,6.5614623E-3,-6.795957E-1,3.3919904E-2,-5.019937E-1,9.298765E-2,3.958383E-1,-3.2615793E-1,5.5846896E-2,2.0934648E-3,-2.1359673E-2,-4.075131E-2,-2.005289E-3,-9.212784E-3,1.3576527E-2,-3.3786793E-3,-2.9012606E-2,1.1286611E-2,-5.7565155E-3,2.1636808E-2,-1.4445799E-2,2.0663688E-2,-2.0823147E-2,1.1422223E-2,-7.853937E-3],"categories":[],"categories_nodes":[],"categories_segments":[],"categories_sizes":[],"default_left":[0,0,0,0,0,0,0,0,0,0,0,0,0,0,0,0,0,0,0,0,0,0,0,0,0,0,0,0,0,0,0],"id":41,"left_children":[1,3,5,7,9,11,13,15,17,19,21,23,25,27,29,-1,-1,-1,-1,-1,-1,-1,-1,-1,-1,-1,-1,-1,-1,-1,-1],"loss_changes":[3.215826E1,2.018936E1,2.1208431E1,2.421752E1,2.7254536E1,1.7542667E1,1.5072503E1,1.2210966E1,4.5144043E0,8.13869E0,8.680382E0,2.163444E1,7.132866E0,1.2279303E1,9.815172E0,0E0,0E0,0E0,0E0,0E0,0E0,0E0,0E0,0E0,0E0,0E0,0E0,0E0,0E0,0E0,0E0],"parents":[2147483647,0,0,1,1,2,2,3,3,4,4,5,5,6,6,7,7,8,8,9,9,10,10,11,11,12,12,13,13,14,14],"right_children":[2,4,6,8,10,12,14,16,18,20,22,24,26,28,30,-1,-1,-1,-1,-1,-1,-1,-1,-1,-1,-1,-1,-1,-1,-1,-1],"split_conditions":[3.1618E0,1E0,9.123E1,1E0,-3.1903167E0,9.8192E0,7.264371E-1,1.0310765E1,1E0,1E0,-6.753119E0,1E0,1.8986315E-1,4.035913E0,7.66999E0,2.0934648E-3,-2.1359673E-2,-4.075131E-2,-2.005289E-3,-9.212784E-3,1.3576527E-2,-3.3786793E-3,-2.9012606E-2,1.1286611E-2,-5.7565155E-3,2.1636808E-2,-1.4445799E-2,2.0663688E-2,-2.0823147E-2,1.1422223E-2,-7.853937E-3],"split_indices":[4068,2518,4209,2517,2300,2332,2475,4146,4033,107,2490,2518,3189,3899,2422,0,0,0,0,0,0,0,0,0,0,0,0,0,0,0,0],"split_type":[0,0,0,0,0,0,0,0,0,0,0,0,0,0,0,0,0,0,0,0,0,0,0,0,0,0,0,0,0,0,0],"sum_hessian":[2.692E3,1.244E3,1.448E3,8.39E2,4.05E2,1.025E3,4.23E2,7.89E2,5E1,1.47E2,2.58E2,7.73E2,2.52E2,1.66E2,2.57E2,7.34E2,5.5E1,4E1,1E1,7.7E1,7E1,4.1E1,2.17E2,4.72E2,3.01E2,2.41E2,1.1E1,1.6E1,1.5E2,1.42E2,1.15E2],"tree_param":{"num_deleted":"0","num_feature":"4336","num_nodes":"31","size_leaf_vector":"1"}},{"base_weights":[2.496668E-4,-3.5351536E-1,2.9457537E-2,-4.8440772E-1,1.1480687E-1,1.1290875E-1,-1.0743535E-1,-6.8171954E-1,-1.6110499E-1,-2.8861043E-1,3.2630375E-1,-3.123895E-1,1.4296189E-1,-2.8406784E-1,9.14164E-2,2.991497E-3,-3.6317986E-2,-1.660157E-2,9.422884E-3,-2.220852E-2,3.1739362E-3,-1.122361E-2,2.0951783E-2,-3.3247735E-2,5.1703267E-3,-5.998213E-4,1.1129017E-2,-1.7217299E-2,1.691218E-2,6.714225E-3,-2.9352909E-2],"categories":[],"categories_nodes":[],"categories_segments":[],"categories_sizes":[],"default_left":[0,0,0,0,0,0,0,0,0,0,0,0,0,0,0,0,0,0,0,0,0,0,0,0,0,0,0,0,0,0,0],"id":42,"left_children":[1,3,5,7,9,11,13,15,17,19,21,23,25,27,29,-1,-1,-1,-1,-1,-1,-1,-1,-1,-1,-1,-1,-1,-1,-1,-1],"loss_changes":[2.7370378E1,1.2697592E1,2.80497E1,9.509415E0,4.570075E0,1.9698214E1,3.281413E1,3.4949265E0,4.330443E0,1.2196945E0,2.2262983E0,1.5352669E1,1.7652412E1,1.9113785E1,1.3175333E1,0E0,0E0,0E0,0E0,0E0,0E0,0E0,0E0,0E0,0E0,0E0,0E0,0E0,0E0,0E0,0E0],"parents":[2147483647,0,0,1,1,2,2,3,3,4,4,5,5,6,6,7,7,8,8,9,9,10,10,11,11,12,12,13,13,14,14],"right_children":[2,4,6,8,10,12,14,16,18,20,22,24,26,28,30,-1,-1,-1,-1,-1,-1,-1,-1,-1,-1,-1,-1,-1,-1,-1,-1],"split_conditions":[-1.01347E0,2.624912E-1,1E0,3.0544808E0,-8.070983E0,-3.7460804E0,7.1316633E0,7.836852E-1,3.912107E1,4.223729E1,1.6284528E-1,9.396511E0,2.8535713E1,1.5477617E0,1E0,2.991497E-3,-3.6317986E-2,-1.660157E-2,9.422884E-3,-2.220852E-2,3.1739362E-3,-1.122361E-2,2.0951783E-2,-3.3247735E-2,5.1703267E-3,-5.998213E-4,1.1129017E-2,-1.7217299E-2,1.691218E-2,6.714225E-3,-2.9352909E-2],"split_indices":[3658,2873,2518,2329,2770,3616,2391,3140,3848,2766,2475,2399,3810,3061,1683,0,0,0,0,0,0,0,0,0,0,0,0,0,0,0,0],"split_type":[0,0,0,0,0,0,0,0,0,0,0,0,0,0,0,0,0,0,0,0,0,0,0,0,0,0,0,0,0,0,0],"sum_hessian":[2.642E3,1.97E2,2.445E3,1.54E2,4.3E1,1.52E3,9.25E2,9.2E1,6.2E1,1.4E1,2.9E1,9.7E1,1.423E3,4.89E2,4.36E2,5E0,8.7E1,4.2E1,2E1,9E0,5E0,3E0,2.6E1,5.1E1,4.6E1,4.84E2,9.39E2,4.48E2,4.1E1,4.14E2,2.2E1],"tree_param":{"num_deleted":"0","num_feature":"4336","num_nodes":"31","size_leaf_vector":"1"}},{"base_weights":[5.150703E-3,-1.4952877E-1,7.077688E-2,-9.58647E-2,-3.6323565E-1,-2.3971944E-1,1.072312E-1,-4.378022E-1,-5.9468243E-2,-5.920425E-2,-5.6602275E-1,-4.406167E-2,-4.930801E-1,1.9892141E-1,-2.57073E-2,9.809679E-3,-2.7694765E-2,-1.0808022E-2,1.4970575E-3,-1.0210143E-2,1.8542273E-2,-6.6456846E-3,-3.83502E-2,-7.6022795E-3,1.4014383E-2,-1.1499497E-2,-3.6355086E-2,7.0965113E-3,2.4330115E-2,-7.6257377E-3,7.639804E-3],"categories":[],"categories_nodes":[],"categories_segments":[],"categories_sizes":[],"default_left":[0,0,0,0,0,0,0,0,0,0,0,0,0,0,0,0,0,0,0,0,0,0,0,0,0,0,0,0,0,0,0],"id":43,"left_children":[1,3,5,7,9,11,13,15,17,19,21,23,25,27,29,-1,-1,-1,-1,-1,-1,-1,-1,-1,-1,-1,-1,-1,-1,-1,-1],"loss_changes":[2.719903E1,8.931751E0,2.1417505E1,7.8473234E0,9.511198E0,9.702482E0,2.0618196E1,5.068878E0,8.302727E0,4.6645803E0,7.5826797E0,4.333151E0,4.3630753E0,1.5987106E1,1.5802935E1,0E0,0E0,0E0,0E0,0E0,0E0,0E0,0E0,0E0,0E0,0E0,0E0,0E0,0E0,0E0,0E0],"parents":[2147483647,0,0,1,1,2,2,3,3,4,4,5,5,6,6,7,7,8,8,9,9,10,10,11,11,12,12,13,13,14,14],"right_children":[2,4,6,8,10,12,14,16,18,20,22,24,26,28,30,-1,-1,-1,-1,-1,-1,-1,-1,-1,-1,-1,-1,-1,-1,-1,-1],"split_conditions":[2.5842E0,1.185076E-2,-9.566101E-1,7.602E-1,1.9222223E0,-1.0167376E0,1E0,1.9847182E0,1.5103433E0,1.9048909E-2,-1.6606537E0,2.694641E-1,9.38282E0,5.167497E1,1E0,9.809679E-3,-2.7694765E-2,-1.0808022E-2,1.4970575E-3,-1.0210143E-2,1.8542273E-2,-6.6456846E-3,-3.83502E-2,-7.6022795E-3,1.4014383E-2,-1.1499497E-2,-3.6355086E-2,7.0965113E-3,2.4330115E-2,-7.6257377E-3,7.639804E-3],"split_indices":[4249,3363,3658,4249,2656,2841,2518,2365,3060,3363,2815,2873,4180,2910,1958,0,0,0,0,0,0,0,0,0,0,0,0,0,0,0,0],"split_type":[0,0,0,0,0,0,0,0,0,0,0,0,0,0,0,0,0,0,0,0,0,0,0,0,0,0,0,0,0,0,0],"sum_hessian":[2.67E3,7.93E2,1.877E3,6.4E2,1.53E2,1.94E2,1.683E3,5.6E1,5.84E2,6.4E1,8.9E1,1.13E2,8.1E1,9.95E2,6.88E2,8E0,4.8E1,2.1E2,3.74E2,5E1,1.4E1,3.1E1,5.8E1,8.7E1,2.6E1,4.3E1,3.8E1,8.37E2,1.58E2,4.03E2,2.85E2],"tree_param":{"num_deleted":"0","num_feature":"4336","num_nodes":"31","size_leaf_vector":"1"}},{"base_weights":[-5.7673813E-3,1.838577E-1,-5.1216435E-2,2.0610411E-1,-5.3565454E-1,2.4387717E-2,-1.891853E-1,-1.8435852E-1,2.4400133E-1,-4.046146E-2,5.0462224E-2,-1.2033186E-1,1.8025628E-1,-4.349473E-1,-7.843105E-2,7.660725E-3,-1.9870853E-2,-1.4522371E-2,1.3560201E-2,7.131421E-3,-2.4611044E-3,3.2058794E-3,-1.0633062E-2,1.1228196E-2,-1.3317011E-2,3.358362E-3,-2.5437668E-2,8.2889525E-3,-9.111932E-3],"categories":[],"categories_nodes":[],"categories_segments":[],"categories_sizes":[],"default_left":[0,0,0,0,0,0,0,0,0,0,0,0,0,0,0,0,0,0,0,0,0,0,0,0,0,0,0,0,0],"id":44,"left_children":[1,3,5,7,9,11,13,15,17,-1,19,21,23,25,27,-1,-1,-1,-1,-1,-1,-1,-1,-1,-1,-1,-1,-1,-1],"loss_changes":[2.3406593E1,8.9225025E0,2.2904345E1,7.821972E0,3.005948E0,3.2145718E1,2.0927406E1,3.7811656E0,7.2249985E0,0E0,1.3631822E-1,1.2668278E1,1.3869196E1,9.1092E0,1.3892869E1,0E0,0E0,0E0,0E0,0E0,0E0,0E0,0E0,0E0,0E0,0E0,0E0,0E0,0E0],"parents":[2147483647,0,0,1,1,2,2,3,3,4,4,5,5,6,6,7,7,8,8,10,10,11,11,12,12,13,13,14,14],"right_children":[2,4,6,8,10,12,14,16,18,-1,20,22,24,26,28,-1,-1,-1,-1,-1,-1,-1,-1,-1,-1,-1,-1,-1,-1],"split_conditions":[1.626824E-2,1E0,1E0,4.391358E0,4.1609142E1,9.771678E-1,9.147825E0,8.118381E-1,-1.3377753E1,-4.046146E-2,-6.158869E-2,2.6169774E-1,1.5320398E2,-3.2866151E0,6.979866E-1,7.660725E-3,-1.9870853E-2,-1.4522371E-2,1.3560201E-2,7.131421E-3,-2.4611044E-3,3.2058794E-3,-1.0633062E-2,1.1228196E-2,-1.3317011E-2,3.358362E-3,-2.5437668E-2,8.2889525E-3,-9.111932E-3],"split_indices":[3762,769,2518,3917,3804,3161,4160,3793,2472,0,3057,4138,2740,2300,3092,0,0,0,0,0,0,0,0,0,0,0,0,0,0],"split_type":[0,0,0,0,0,0,0,0,0,0,0,0,0,0,0,0,0,0,0,0,0,0,0,0,0,0,0,0,0],"sum_hessian":[2.707E3,5.2E2,2.187E3,5.08E2,1.2E1,1.415E3,7.72E2,4.3E1,4.65E2,7E0,5E0,7.34E2,6.81E2,2.35E2,5.37E2,1.7E1,2.6E1,2E1,4.45E2,2E0,3E0,2.45E2,4.89E2,6.22E2,5.9E1,3E1,2.05E2,1.59E2,3.78E2],"tree_param":{"num_deleted":"0","num_feature":"4336","num_nodes":"29","size_leaf_vector":"1"}},{"base_weights":[5.6543366E-5,-5.710148E-2,1.4630792E-1,-2.4907622E-2,-4.5586693E-1,4.3090713E-1,7.805829E-2,4.9888905E-2,-1.6949874E-1,-5.3563815E-1,3.016247E-2,-3.776084E-2,5.8128715E-1,2.9963717E-1,8.426553E-3,4.947025E-3,-1.1536591E-2,7.89041E-3,-1.3676971E-2,-4.1660448E-3,-3.246052E-2,2.0371346E-2,-1.12085035E-2,-1.5035199E-2,1.0880551E-2,3.1986095E-2,-7.950832E-3,1.6940445E-2,-1.6657101E-2,2.4780657E-3,-2.1105532E-2],"categories":[],"categories_nodes":[],"categories_segments":[],"categories_sizes":[],"default_left":[0,0,0,0,0,0,0,0,0,0,0,0,0,0,0,0,0,0,0,0,0,0,0,0,0,0,0,0,0,0,0],"id":45,"left_children":[1,3,5,7,9,11,13,15,17,19,21,23,25,27,29,-1,-1,-1,-1,-1,-1,-1,-1,-1,-1,-1,-1,-1,-1,-1,-1],"loss_changes":[2.2662977E1,2.4903181E1,1.4581856E1,1.9607607E1,5.753145E0,1.0453934E1,9.537929E0,1.6550009E1,2.1272308E1,6.07761E0,2.873756E0,3.021423E0,5.3584976E0,4.233407E0,8.532747E0,0E0,0E0,0E0,0E0,0E0,0E0,0E0,0E0,0E0,0E0,0E0,0E0,0E0,0E0,0E0,0E0],"parents":[2147483647,0,0,1,1,2,2,3,3,4,4,5,5,6,6,7,7,8,8,9,9,10,10,11,11,12,12,13,13,14,14],"right_children":[2,4,6,8,10,12,14,16,18,20,22,24,26,28,30,-1,-1,-1,-1,-1,-1,-1,-1,-1,-1,-1,-1,-1,-1,-1,-1],"split_conditions":[3.99E0,1E0,5.8015466E-1,1E0,4.673388E-1,-5.305803E0,1.03E2,1.0023292E1,6.9720656E-1,9.835862E-1,-7.1199894E-2,1.4580254E1,2.4728162E0,2.5096286E2,9.563358E-2,4.947025E-3,-1.1536591E-2,7.89041E-3,-1.3676971E-2,-4.1660448E-3,-3.246052E-2,2.0371346E-2,-1.12085035E-2,-1.5035199E-2,1.0880551E-2,3.1986095E-2,-7.950832E-3,1.6940445E-2,-1.6657101E-2,2.4780657E-3,-2.1105532E-2],"split_indices":[4068,4259,3084,2518,2773,2510,3911,3834,3100,3377,3028,4173,2438,2697,2293,0,0,0,0,0,0,0,0,0,0,0,0,0,0,0,0],"split_type":[0,0,0,0,0,0,0,0,0,0,0,0,0,0,0,0,0,0,0,0,0,0,0,0,0,0,0,0,0,0,0],"sum_hessian":[2.7E3,1.943E3,7.57E2,1.803E3,1.4E2,1.41E2,6.16E2,1.19E3,6.13E2,1.2E2,2E1,3.5E1,1.06E2,1.43E2,4.73E2,1.016E3,1.74E2,1.47E2,4.66E2,2.6E1,9.4E1,7E0,1.3E1,1.7E1,1.8E1,9.9E1,7E0,1.37E2,6E0,4.36E2,3.7E1],"tree_param":{"num_deleted":"0","num_feature":"4336","num_nodes":"31","size_leaf_vector":"1"}},{"base_weights":[4.2566927E-3,-7.6136544E-2,1.0990329E-1,-4.6116475E-2,-5.486224E-1,1.5882267E-1,-2.0433198E-1,-3.0271523E-2,-7.051436E-1,-6.000304E-1,3.536805E-1,1.7649697E-1,-7.6843536E-1,1.9027318E-1,-3.524394E-1,-1.0687897E-2,6.835228E-4,1.0378988E-3,-4.1866314E-2,-1.9098308E-3,-3.4615245E-2,1.9831676E-2,-0E0,9.693055E-3,-1.99958E-2,-4.797061E-2,-0E0,3.0082196E-2,-4.6719364E-3,-2.1650838E-2,9.017028E-3],"categories":[],"categories_nodes":[],"categories_segments":[],"categories_sizes":[],"default_left":[0,0,0,0,0,0,0,0,0,0,0,0,0,0,0,0,0,0,0,0,0,0,0,0,0,0,0,0,0,0,0],"id":46,"left_children":[1,3,5,7,9,11,13,15,17,19,21,23,25,27,29,-1,-1,-1,-1,-1,-1,-1,-1,-1,-1,-1,-1,-1,-1,-1,-1],"loss_changes":[2.3206367E1,2.1813503E1,1.8312271E1,1.5107185E1,5.353203E0,1.7417294E1,9.760994E0,1.1604673E1,3.4309177E0,4.408745E0,1.00507855E-1,1.0476044E1,2.9176903E0,5.8173122E0,5.5243893E0,0E0,0E0,0E0,0E0,0E0,0E0,0E0,0E0,0E0,0E0,0E0,0E0,0E0,0E0,0E0,0E0],"parents":[2147483647,0,0,1,1,2,2,3,3,4,4,5,5,6,6,7,7,8,8,9,9,10,10,11,11,12,12,13,13,14,14],"right_children":[2,4,6,8,10,12,14,16,18,20,22,24,26,28,30,-1,-1,-1,-1,-1,-1,-1,-1,-1,-1,-1,-1,-1,-1,-1,-1],"split_conditions":[3.46E0,1E0,6.873648E-1,1E0,1.3134749E-1,1E0,1.7114828E0,1.64216E0,-1.0363313E2,1.2397946E-1,3.32E2,2.1840133E-1,9.357093E0,-4.566882E0,-4.2935286E0,-1.0687897E-2,6.835228E-4,1.0378988E-3,-4.1866314E-2,-1.9098308E-3,-3.4615245E-2,1.9831676E-2,-0E0,9.693055E-3,-1.99958E-2,-4.797061E-2,-0E0,3.0082196E-2,-4.6719364E-3,-2.1650838E-2,9.017028E-3],"split_indices":[4249,4259,3884,949,2954,1265,2306,4249,2791,2937,2553,2887,3327,2511,2315,0,0,0,0,0,0,0,0,0,0,0,0,0,0,0,0],"split_type":[0,0,0,0,0,0,0,0,0,0,0,0,0,0,0,0,0,0,0,0,0,0,0,0,0,0,0,0,0,0,0],"sum_hessian":[2.722E3,1.546E3,1.176E3,1.459E3,8.7E1,1.02E3,1.56E2,1.43E3,2.9E1,8.4E1,3E0,1.005E3,1.5E1,4.2E1,1.14E2,2.73E2,1.157E3,5E0,2.4E1,1.3E1,7.1E1,2E0,1E0,9.79E2,2.6E1,1.1E1,4E0,1.5E1,2.7E1,1E2,1.4E1],"tree_param":{"num_deleted":"0","num_feature":"4336","num_nodes":"31","size_leaf_vector":"1"}},{"base_weights":[-8.17585E-3,1.6943303E-1,-4.835022E-2,4.1760248E-1,8.901264E-2,-1.4389285E-1,4.541689E-2,-3.8108486E-1,4.6282136E-1,2.0289637E-1,-9.899689E-2,-4.469259E-1,-1.0223239E-1,1.6182174E-1,-1.2280395E-1,-3.76708E-4,-2.0528493E-2,2.4988664E-2,-2.2499468E-2,4.5757466E-3,2.164891E-2,-1.9498268E-2,3.8339545E-3,-2.9270781E-2,2.081107E-3,-1.1778065E-2,-1.1163381E-3,-2.1697609E-2,