{"learner":{"attributes":{"scikit_learn":"{\"_estimator_type\": \"regressor\"}"},"feature_names":[],"feature_types":[],"gradient_booster":{"model":{"gbtree_model_param":{"num_parallel_tree":"1","num_trees":"1000"},"iteration_indptr":[0,1,2,3,4,5,6,7,8,9,10,11,12,13,14,15,16,17,18,19,20,21,22,23,24,25,26,27,28,29,30,31,32,33,34,35,36,37,38,39,40,41,42,43,44,45,46,47,48,49,50,51,52,53,54,55,56,57,58,59,60,61,62,63,64,65,66,67,68,69,70,71,72,73,74,75,76,77,78,79,80,81,82,83,84,85,86,87,88,89,90,91,92,93,94,95,96,97,98,99,100,101,102,103,104,105,106,107,108,109,110,111,112,113,114,115,116,117,118,119,120,121,122,123,124,125,126,127,128,129,130,131,132,133,134,135,136,137,138,139,140,141,142,143,144,145,146,147,148,149,150,151,152,153,154,155,156,157,158,159,160,161,162,163,164,165,166,167,168,169,170,171,172,173,174,175,176,177,178,179,180,181,182,183,184,185,186,187,188,189,190,191,192,193,194,195,196,197,198,199,200,201,202,203,204,205,206,207,208,209,210,211,212,213,214,215,216,217,218,219,220,221,222,223,224,225,226,227,228,229,230,231,232,233,234,235,236,237,238,239,240,241,242,243,244,245,246,247,248,249,250,251,252,253,254,255,256,257,258,259,260,261,262,263,264,265,266,267,268,269,270,271,272,273,274,275,276,277,278,279,280,281,282,283,284,285,286,287,288,289,290,291,292,293,294,295,296,297,298,299,300,301,302,303,304,305,306,307,308,309,310,311,312,313,314,315,316,317,318,319,320,321,322,323,324,325,326,327,328,329,330,331,332,333,334,335,336,337,338,339,340,341,342,343,344,345,346,347,348,349,350,351,352,353,354,355,356,357,358,359,360,361,362,363,364,365,366,367,368,369,370,371,372,373,374,375,376,377,378,379,380,381,382,383,384,385,386,387,388,389,390,391,392,393,394,395,396,397,398,399,400,401,402,403,404,405,406,407,408,409,410,411,412,413,414,415,416,417,418,419,420,421,422,423,424,425,426,427,428,429,430,431,432,433,434,435,436,437,438,439,440,441,442,443,444,445,446,447,448,449,450,451,452,453,454,455,456,457,458,459,460,461,462,463,464,465,466,467,468,469,470,471,472,473,474,475,476,477,478,479,480,481,482,483,484,485,486,487,488,489,490,491,492,493,494,495,496,497,498,499,500,501,502,503,504,505,506,507,508,509,510,511,512,513,514,515,516,517,518,519,520,521,522,523,524,525,526,527,528,529,530,531,532,533,534,535,536,537,538,539,540,541,542,543,544,545,546,547,548,549,550,551,552,553,554,555,556,557,558,559,560,561,562,563,564,565,566,567,568,569,570,571,572,573,574,575,576,577,578,579,580,581,582,583,584,585,586,587,588,589,590,591,592,593,594,595,596,597,598,599,600,601,602,603,604,605,606,607,608,609,610,611,612,613,614,615,616,617,618,619,620,621,622,623,624,625,626,627,628,629,630,631,632,633,634,635,636,637,638,639,640,641,642,643,644,645,646,647,648,649,650,651,652,653,654,655,656,657,658,659,660,661,662,663,664,665,666,667,668,669,670,671,672,673,674,675,676,677,678,679,680,681,682,683,684,685,686,687,688,689,690,691,692,693,694,695,696,697,698,699,700,701,702,703,704,705,706,707,708,709,710,711,712,713,714,715,716,717,718,719,720,721,722,723,724,725,726,727,728,729,730,731,732,733,734,735,736,737,738,739,740,741,742,743,744,745,746,747,748,749,750,751,752,753,754,755,756,757,758,759,760,761,762,763,764,765,766,767,768,769,770,771,772,773,774,775,776,777,778,779,780,781,782,783,784,785,786,787,788,789,790,791,792,793,794,795,796,797,798,799,800,801,802,803,804,805,806,807,808,809,810,811,812,813,814,815,816,817,818,819,820,821,822,823,824,825,826,827,828,829,830,831,832,833,834,835,836,837,838,839,840,841,842,843,844,845,846,847,848,849,850,851,852,853,854,855,856,857,858,859,860,861,862,863,864,865,866,867,868,869,870,871,872,873,874,875,876,877,878,879,880,881,882,883,884,885,886,887,888,889,890,891,892,893,894,895,896,897,898,899,900,901,902,903,904,905,906,907,908,909,910,911,912,913,914,915,916,917,918,919,920,921,922,923,924,925,926,927,928,929,930,931,932,933,934,935,936,937,938,939,940,941,942,943,944,945,946,947,948,949,950,951,952,953,954,955,956,957,958,959,960,961,962,963,964,965,966,967,968,969,970,971,972,973,974,975,976,977,978,979,980,981,982,983,984,985,986,987,988,989,990,991,992,993,994,995,996,997,998,999,1000],"tree_info":[0,0,0,0,0,0,0,0,0,0,0,0,0,0,0,0,0,0,0,0,0,0,0,0,0,0,0,0,0,0,0,0,0,0,0,0,0,0,0,0,0,0,0,0,0,0,0,0,0,0,0,0,0,0,0,0,0,0,0,0,0,0,0,0,0,0,0,0,0,0,0,0,0,0,0,0,0,0,0,0,0,0,0,0,0,0,0,0,0,0,0,0,0,0,0,0,0,0,0,0,0,0,0,0,0,0,0,0,0,0,0,0,0,0,0,0,0,0,0,0,0,0,0,0,0,0,0,0,0,0,0,0,0,0,0,0,0,0,0,0,0,0,0,0,0,0,0,0,0,0,0,0,0,0,0,0,0,0,0,0,0,0,0,0,0,0,0,0,0,0,0,0,0,0,0,0,0,0,0,0,0,0,0,0,0,0,0,0,0,0,0,0,0,0,0,0,0,0,0,0,0,0,0,0,0,0,0,0,0,0,0,0,0,0,0,0,0,0,0,0,0,0,0,0,0,0,0,0,0,0,0,0,0,0,0,0,0,0,0,0,0,0,0,0,0,0,0,0,0,0,0,0,0,0,0,0,0,0,0,0,0,0,0,0,0,0,0,0,0,0,0,0,0,0,0,0,0,0,0,0,0,0,0,0,0,0,0,0,0,0,0,0,0,0,0,0,0,0,0,0,0,0,0,0,0,0,0,0,0,0,0,0,0,0,0,0,0,0,0,0,0,0,0,0,0,0,0,0,0,0,0,0,0,0,0,0,0,0,0,0,0,0,0,0,0,0,0,0,0,0,0,0,0,0,0,0,0,0,0,0,0,0,0,0,0,0,0,0,0,0,0,0,0,0,0,0,0,0,0,0,0,0,0,0,0,0,0,0,0,0,0,0,0,0,0,0,0,0,0,0,0,0,0,0,0,0,0,0,0,0,0,0,0,0,0,0,0,0,0,0,0,0,0,0,0,0,0,0,0,0,0,0,0,0,0,0,0,0,0,0,0,0,0,0,0,0,0,0,0,0,0,0,0,0,0,0,0,0,0,0,0,0,0,0,0,0,0,0,0,0,0,0,0,0,0,0,0,0,0,0,0,0,0,0,0,0,0,0,0,0,0,0,0,0,0,0,0,0,0,0,0,0,0,0,0,0,0,0,0,0,0,0,0,0,0,0,0,0,0,0,0,0,0,0,0,0,0,0,0,0,0,0,0,0,0,0,0,0,0,0,0,0,0,0,0,0,0,0,0,0,0,0,0,0,0,0,0,0,0,0,0,0,0,0,0,0,0,0,0,0,0,0,0,0,0,0,0,0,0,0,0,0,0,0,0,0,0,0,0,0,0,0,0,0,0,0,0,0,0,0,0,0,0,0,0,0,0,0,0,0,0,0,0,0,0,0,0,0,0,0,0,0,0,0,0,0,0,0,0,0,0,0,0,0,0,0,0,0,0,0,0,0,0,0,0,0,0,0,0,0,0,0,0,0,0,0,0,0,0,0,0,0,0,0,0,0,0,0,0,0,0,0,0,0,0,0,0,0,0,0,0,0,0,0,0,0,0,0,0,0,0,0,0,0,0,0,0,0,0,0,0,0,0,0,0,0,0,0,0,0,0,0,0,0,0,0,0,0,0,0,0,0,0,0,0,0,0,0,0,0,0,0,0,0,0,0,0,0,0,0,0,0,0,0,0,0,0,0,0,0,0,0,0,0,0,0,0,0,0,0,0,0,0,0,0,0,0,0,0,0,0,0,0,0,0,0,0,0,0,0,0,0,0,0,0,0,0,0,0,0,0,0,0,0,0,0,0,0,0,0,0,0,0,0,0,0,0,0,0,0,0,0,0,0,0,0,0,0,0,0,0,0,0,0,0,0,0,0,0,0,0,0,0,0,0,0,0,0,0,0,0,0,0,0,0,0,0,0,0,0,0,0,0,0,0,0,0,0,0,0,0,0,0,0,0,0,0,0,0,0,0,0,0,0,0,0,0,0,0,0,0,0,0,0,0,0,0,0,0,0,0,0,0,0,0,0,0,0,0,0,0,0,0,0,0,0,0,0,0,0,0,0,0,0,0,0,0,0,0,0,0,0,0,0,0,0,0,0,0,0,0,0,0,0,0,0,0,0,0,0,0,0,0,0,0,0,0,0,0,0,0,0,0,0,0,0,0,0,0,0,0,0,0,0,0,0,0,0,0,0,0,0,0,0,0,0,0,0,0,0,0,0,0,0,0,0,0,0,0,0,0,0,0,0,0,0,0,0,0,0],"trees":[{"base_weights":[7.146092E-1,-1.3833098E1,4.937924E0,-3.906019E1,-7.526843E0,-5.480699E0,6.8601995E0,-2.629961E-1,-2.2434886E0,-7.5962013E-1,1.7120715E-2,-1.312318E0,-5.6729462E-2,1.9717747E-1,4.9091086E-1],"categories":[],"categories_nodes":[],"categories_segments":[],"categories_sizes":[],"default_left":[0,0,0,0,0,0,0,0,0,0,0,0,0,0,0],"id":0,"left_children":[1,3,5,7,9,11,13,-1,-1,-1,-1,-1,-1,-1,-1],"loss_changes":[6.98902E4,3.9251984E4,1.7832328E4,8.633211E3,1.275549E4,1.2483345E4,6.2411484E3,0E0,0E0,0E0,0E0,0E0,0E0,0E0,0E0],"parents":[2147483647,0,0,1,1,2,2,3,3,4,4,5,5,6,6],"right_children":[2,4,6,8,10,12,14,-1,-1,-1,-1,-1,-1,-1,-1],"split_conditions":[2.4427E0,2.2857144E0,3.866413E1,7.414874E-1,-4.649585E0,-4.9906313E-1,3.8201E0,-2.629961E-1,-2.2434886E0,-7.5962013E-1,1.7120715E-2,-1.312318E0,-5.6729462E-2,1.9717747E-1,4.9091086E-1],"split_indices":[4249,2664,3807,3177,2512,3582,4249,0,0,0,0,0,0,0,0],"split_type":[0,0,0,0,0,0,0,0,0,0,0,0,0,0,0],"sum_hessian":[1.127E3,2.51E2,8.76E2,4.5E1,2.06E2,1.35E2,7.41E2,8E0,3.7E1,1.02E2,1.04E2,1.9E1,1.16E2,3.79E2,3.62E2],"tree_param":{"num_deleted":"0","num_feature":"4336","num_nodes":"15","size_leaf_vector":"1"}},{"base_weights":[2.8816578E-1,-1.4856364E1,4.390435E0,-2.8748844E1,-7.0979257E0,-1.1142663E1,6.1604896E0,-1.3407981E-1,-1.6884661E0,-7.381436E-1,6.439081E-2,9.185926E-2,-9.455821E-1,1.7201501E-1,4.470469E-1],"categories":[],"categories_nodes":[],"categories_segments":[],"categories_sizes":[],"default_left":[0,0,0,0,0,0,0,0,0,0,0,0,0,0,0],"id":1,"left_children":[1,3,5,7,9,11,13,-1,-1,-1,-1,-1,-1,-1,-1],"loss_changes":[6.965875E4,2.4736492E4,2.4592805E4,1.0536656E4,1.0380608E4,9.452724E3,5.857826E3,0E0,0E0,0E0,0E0,0E0,0E0,0E0,0E0],"parents":[2147483647,0,0,1,1,2,2,3,3,4,4,5,5,6,6],"right_children":[2,4,6,8,10,12,14,-1,-1,-1,-1,-1,-1,-1,-1],"split_conditions":[2.4769E0,1.25E1,1.2602837E1,6.587484E-1,1.509828E0,2.2585778E0,3.86422E0,-1.3407981E-1,-1.6884661E0,-7.381436E-1,6.439081E-2,9.185926E-2,-9.455821E-1,1.7201501E-1,4.470469E-1],"split_indices":[4249,3732,2682,3069,2730,4147,4249,0,0,0,0,0,0,0,0],"split_type":[0,0,0,0,0,0,0,0,0,0,0,0,0,0,0],"sum_hessian":[1.111E3,2.34E2,8.77E2,7.9E1,1.55E2,8.7E1,7.9E2,1.4E1,6.5E1,7.9E1,7.6E1,3.4E1,5.3E1,4.05E2,3.85E2],"tree_param":{"num_deleted":"0","num_feature":"4336","num_nodes":"15","size_leaf_vector":"1"}},{"base_weights":[-5.909434E-1,-1.5366855E1,3.8399756E0,-1.3502903E0,-2.1169025E1,-7.9439244E0,5.444265E0,1.8516025E-1,-4.3674514E-1,-1.4711375E0,-5.932428E-1,4.600011E-2,-1.2776405E0,8.344691E-2,3.8912737E-1],"categories":[],"categories_nodes":[],"categories_segments":[],"categories_sizes":[],"default_left":[0,0,0,0,0,0,0,0,0,0,0,0,0,0,0],"id":2,"left_children":[1,3,5,7,9,11,13,-1,-1,-1,-1,-1,-1,-1,-1],"loss_changes":[7.237961E4,2.0593082E4,1.6303967E4,3.147687E3,1.207332E4,1.635273E4,6.5726035E3,0E0,0E0,0E0,0E0,0E0,0E0,0E0,0E0],"parents":[2147483647,0,0,1,1,2,2,3,3,4,4,5,5,6,6],"right_children":[2,4,6,8,10,12,14,-1,-1,-1,-1,-1,-1,-1,-1],"split_conditions":[2.4769E0,-4.171671E0,6.0932403E0,1.7383429E0,-1.307202E0,1.3291328E0,3.53704E0,1.8516025E-1,-4.3674514E-1,-1.4711375E0,-5.932428E-1,4.600011E-2,-1.2776405E0,8.344691E-2,3.8912737E-1],"split_indices":[4249,2411,4188,3570,2441,3061,4249,0,0,0,0,0,0,0,0],"split_type":[0,0,0,0,0,0,0,0,0,0,0,0,0,0,0],"sum_hessian":[1.096E3,2.5E2,8.46E2,7.5E1,1.75E2,9.9E1,7.47E2,4.6E1,2.9E1,8.7E1,8.8E1,6.9E1,3E1,2.89E2,4.58E2],"tree_param":{"num_deleted":"0","num_feature":"4336","num_nodes":"15","size_leaf_vector":"1"}},{"base_weights":[-2.355741E-1,-1.5219079E1,4.187569E0,-3.5705643E1,-9.365285E0,-8.792404E0,5.7385054E0,-2.0604427E0,-3.460289E-1,-5.8170952E-2,-8.639601E-1,-8.505885E-1,1.4261372E-1,-9.787596E-3,3.380716E-1],"categories":[],"categories_nodes":[],"categories_segments":[],"categories_sizes":[],"default_left":[0,0,0,0,0,0,0,0,0,0,0,0,0,0,0],"id":3,"left_children":[1,3,5,7,9,11,13,-1,-1,-1,-1,-1,-1,-1,-1],"loss_changes":[7.560724E4,2.9503797E4,1.7987479E4,7.4402188E3,1.34636E4,9.432367E3,4.8028203E3,0E0,0E0,0E0,0E0,0E0,0E0,0E0,0E0],"parents":[2147483647,0,0,1,1,2,2,3,3,4,4,5,5,6,6],"right_children":[2,4,6,8,10,12,14,-1,-1,-1,-1,-1,-1,-1,-1],"split_conditions":[2.4769E0,2.2857144E0,7.5623837E0,1.661191E0,-3.3035924E0,-6.95658E0,5.7714286E0,-2.0604427E0,-3.460289E-1,-5.8170952E-2,-8.639601E-1,-8.505885E-1,1.4261372E-1,-9.787596E-3,3.380716E-1],"split_indices":[4249,2664,2507,2261,2411,2848,2650,0,0,0,0,0,0,0,0],"split_type":[0,0,0,0,0,0,0,0,0,0,0,0,0,0,0],"sum_hessian":[1.131E3,2.55E2,8.76E2,5.1E1,2.04E2,9.1E1,7.85E2,4.1E1,1E1,1.03E2,1.01E2,5.2E1,3.9E1,1.16E2,6.69E2],"tree_param":{"num_deleted":"0","num_feature":"4336","num_nodes":"15","size_leaf_vector":"1"}},{"base_weights":[-1.7600295E-1,-2.1698744E1,2.741238E0,-3.1799938E1,-6.5903897E0,-6.8121715E0,4.7289243E0,-1.824506E0,-4.0607315E-1,-9.02993E-1,9.099199E-2,-1.1019218E0,-1.4617832E-1,2.891374E-1,-2.5667784E-1],"categories":[],"categories_nodes":[],"categories_segments":[],"categories_sizes":[],"default_left":[0,0,0,0,0,0,0,0,0,0,0,0,0,0,0],"id":4,"left_children":[1,3,5,7,9,11,13,-1,-1,-1,-1,-1,-1,-1,-1],"loss_changes":[6.785814E4,1.863529E4,1.8238564E4,6.9540547E3,5.7606846E3,9.504031E3,8.369607E3,0E0,0E0,0E0,0E0,0E0,0E0,0E0,0E0],"parents":[2147483647,0,0,1,1,2,2,3,3,4,4,5,5,6,6],"right_children":[2,4,6,8,10,12,14,-1,-1,-1,-1,-1,-1,-1,-1],"split_conditions":[6E0,2.9363286E0,2.4427E0,6.1725483E0,-3.49192E1,-2.712097E-1,-2.1724174E0,-1.824506E0,-4.0607315E-1,-9.02993E-1,9.099199E-2,-1.1019218E0,-1.4617832E-1,2.891374E-1,-2.5667784E-1],"split_indices":[3294,2435,4249,3923,2763,2373,2404,0,0,0,0,0,0,0,0],"split_type":[0,0,0,0,0,0,0,0,0,0,0,0,0,0,0],"sum_hessian":[1.071E3,1.24E2,9.47E2,7.1E1,5.3E1,1.61E2,7.86E2,5.7E1,1.4E1,2E1,3.3E1,2.8E1,1.33E2,7.12E2,7.4E1],"tree_param":{"num_deleted":"0","num_feature":"4336","num_nodes":"15","size_leaf_vector":"1"}},{"base_weights":[-4.3214473E-1,-1.3185407E1,3.5445237E0,-2.5295773E1,-7.165896E0,-1.2549497E1,4.615571E0,-1.5334463E0,-5.509166E-2,-1.1159499E-1,-9.067387E-1,1.978753E-1,-9.6184057E-1,-5.944099E-2,3.1182092E-1],"categories":[],"categories_nodes":[],"categories_segments":[],"categories_sizes":[],"default_left":[0,0,0,0,0,0,0,0,0,0,0,0,0,0,0],"id":5,"left_children":[1,3,5,7,9,11,13,-1,-1,-1,-1,-1,-1,-1,-1],"loss_changes":[5.7188145E4,1.862721E4,1.511304E4,1.1137656E4,9.861982E3,6.45349E3,7.658078E3,0E0,0E0,0E0,0E0,0E0,0E0,0E0,0E0],"parents":[2147483647,0,0,1,1,2,2,3,3,4,4,5,5,6,6],"right_children":[2,4,6,8,10,12,14,-1,-1,-1,-1,-1,-1,-1,-1],"split_conditions":[2.5217E0,3.0350077E0,2.7576404E0,8.749055E0,-1.3877552E0,-1.3681408E0,2.6130972E2,-1.5334463E0,-5.509166E-2,-1.1159499E-1,-9.067387E-1,1.978753E-1,-9.6184057E-1,-5.944099E-2,3.1182092E-1],"split_indices":[4249,2654,2308,2234,2772,2361,2695,0,0,0,0,0,0,0,0],"split_type":[0,0,0,0,0,0,0,0,0,0,0,0,0,0,0],"sum_hessian":[1.118E3,2.63E2,8.55E2,8.2E1,1.81E2,5E1,8.05E2,6.6E1,1.6E1,1.29E2,5.2E1,1.5E1,3.5E1,1.76E2,6.29E2],"tree_param":{"num_deleted":"0","num_feature":"4336","num_nodes":"15","size_leaf_vector":"1"}},{"base_weights":[-1.3975495E-1,-1.3182898E1,3.6093242E0,-3.232149E1,-8.093623E0,-8.200319E0,4.567173E0,-1.8294194E0,-2.7661646E-2,-8.480571E-1,-9.51228E-2,-5.441283E-2,-1.1588292E0,9.07081E-2,3.744937E-1],"categories":[],"categories_nodes":[],"categories_segments":[],"categories_sizes":[],"default_left":[0,0,0,0,0,0,0,0,0,0,0,0,0,0,0],"id":6,"left_children":[1,3,5,7,9,11,13,-1,-1,-1,-1,-1,-1,-1,-1],"loss_changes":[5.3881918E4,2.2648754E4,9.869847E3,6.672668E3,1.0871731E4,6.901264E3,6.327883E3,0E0,0E0,0E0,0E0,0E0,0E0,0E0,0E0],"parents":[2147483647,0,0,1,1,2,2,3,3,4,4,5,5,6,6],"right_children":[2,4,6,8,10,12,14,-1,-1,-1,-1,-1,-1,-1,-1],"split_conditions":[2.4769E0,2.2857144E0,4.1301033E1,2.4873543E-1,-1.6968334E0,1E0,3.8296E0,-1.8294194E0,-2.7661646E-2,-8.480571E-1,-9.51228E-2,-5.441283E-2,-1.1588292E0,9.07081E-2,3.744937E-1],"split_indices":[4249,2664,2691,2755,2244,4271,4249,0,0,0,0,0,0,0,0],"split_type":[0,0,0,0,0,0,0,0,0,0,0,0,0,0,0],"sum_hessian":[1.092E3,2.41E2,8.51E2,4.5E1,1.96E2,6.1E1,7.9E2,3.9E1,6E0,7.7E1,1.19E2,4.5E1,1.6E1,4.11E2,3.79E2],"tree_param":{"num_deleted":"0","num_feature":"4336","num_nodes":"15","size_leaf_vector":"1"}},{"base_weights":[3.8470736E-1,2.5587595E0,-1.4284062E1,-3.0232058E0,5.4068E0,6.044029E-1,-2.109586E1,-3.6156294E-1,1.6683498E-1,-1.0245558E-1,3.2356998E-1,2.3546126E-1,-5.95939E-1,3.0630955E-3,-1.3001536E0],"categories":[],"categories_nodes":[],"categories_segments":[],"categories_sizes":[],"default_left":[0,0,0,0,0,0,0,0,0,0,0,0,0,0,0],"id":7,"left_children":[1,3,5,7,9,11,13,-1,-1,-1,-1,-1,-1,-1,-1],"loss_changes":[3.6313703E4,1.5836551E4,1.4974125E4,9.166864E3,5.289662E3,2.9015977E3,1.0496629E4,0E0,0E0,0E0,0E0,0E0,0E0,0E0,0E0],"parents":[2147483647,0,0,1,1,2,2,3,3,4,4,5,5,6,6],"right_children":[2,4,6,8,10,12,14,-1,-1,-1,-1,-1,-1,-1,-1],"split_conditions":[-4.915808E0,1.8118187E0,8.1884104E-1,3.45952E0,2.345679E0,1.668165E2,-3.5676117E0,-3.6156294E-1,1.6683498E-1,-1.0245558E-1,3.2356998E-1,2.3546126E-1,-5.95939E-1,3.0630955E-3,-1.3001536E0],"split_indices":[2227,2731,3069,4249,2656,2745,2217,0,0,0,0,0,0,0,0],"split_type":[0,0,0,0,0,0,0,0,0,0,0,0,0,0,0],"sum_hessian":[1.128E3,9.86E2,1.42E2,3.33E2,6.53E2,4.6E1,9.6E1,2E2,1.33E2,8.1E1,5.72E2,3.7E1,9E0,1.9E1,7.7E1],"tree_param":{"num_deleted":"0","num_feature":"4336","num_nodes":"15","size_leaf_vector":"1"}},{"base_weights":[-4.1799676E-1,-1.2737361E1,2.77134E0,-2.3032793E1,-4.0473967E0,-7.5799274E0,4.195095E0,-2.9476398E-1,-1.476231E0,-1.2147355E0,-7.364129E-2,-6.716424E-2,-9.7586936E-1,2.2760227E-1,-9.043188E-1],"categories":[],"categories_nodes":[],"categories_segments":[],"categories_sizes":[],"default_left":[0,0,0,0,0,0,0,0,0,0,0,0,0,0,0],"id":8,"left_children":[1,3,5,7,9,11,13,-1,-1,-1,-1,-1,-1,-1,-1],"loss_changes":[4.2611344E4,1.9482305E4,1.2862525E4,1.03628125E4,6.438789E3,7.7584917E3,6.4628184E3,0E0,0E0,0E0,0E0,0E0,0E0,0E0,0E0],"parents":[2147483647,0,0,1,1,2,2,3,3,4,4,5,5,6,6],"right_children":[2,4,6,8,10,12,14,-1,-1,-1,-1,-1,-1,-1,-1],"split_conditions":[2.4427E0,7E0,1.9922091E0,1.6475719E2,-2.1534851E1,-4.2849708E0,-8.897987E0,-2.9476398E-1,-1.476231E0,-1.2147355E0,-7.364129E-2,-6.716424E-2,-9.7586936E-1,2.2760227E-1,-9.043188E-1],"split_indices":[4249,3294,3176,2746,2759,2472,2497,0,0,0,0,0,0,0,0],"split_type":[0,0,0,0,0,0,0,0,0,0,0,0,0,0,0],"sum_hessian":[1.075E3,2.18E2,8.57E2,9.6E1,1.22E2,1.01E2,7.56E2,2.9E1,6.7E1,9E0,1.13E2,7E1,3.1E1,7.48E2,8E0],"tree_param":{"num_deleted":"0","num_feature":"4336","num_nodes":"15","size_leaf_vector":"1"}},{"base_weights":[-2.1702054E-1,-2.0985964E1,1.4540725E0,-2.5918442E1,2.1264514E-1,-4.131958E0,4.818486E0,-8.769677E-2,-1.5425049E0,2.7681953E-1,-3.5672864E-1,-8.043297E-1,-8.504165E-2,2.8399947E-1,-1.6949682E-1],"categories":[],"categories_nodes":[],"categories_segments":[],"categories_sizes":[],"default_left":[0,0,0,0,0,0,0,0,0,0,0,0,0,0,0],"id":9,"left_children":[1,3,5,7,9,11,13,-1,-1,-1,-1,-1,-1,-1,-1],"loss_changes":[3.96162E4,8.917871E3,1.9964576E4,7.948996E3,1.0187481E3,1.1486706E4,4.7778906E3,0E0,0E0,0E0,0E0,0E0,0E0,0E0,0E0],"parents":[2147483647,0,0,1,1,2,2,3,3,4,4,5,5,6,6],"right_children":[2,4,6,8,10,12,14,-1,-1,-1,-1,-1,-1,-1,-1],"split_conditions":[1.0857149E0,1.0711298E0,3.2072E0,-2.176786E-1,1.8050628E0,-1.2361739E0,1.3962194E0,-8.769677E-2,-1.5425049E0,2.7681953E-1,-3.5672864E-1,-8.043297E-1,-8.504165E-2,2.8399947E-1,-1.6949682E-1],"split_indices":[2736,3063,4249,3042,3649,2442,3061,0,0,0,0,0,0,0,0],"split_type":[0,0,0,0,0,0,0,0,0,0,0,0,0,0,0],"sum_hessian":[1.132E3,8E1,1.052E3,6.4E1,1.6E1,3.95E2,6.57E2,1.2E1,5.2E1,1E1,6E0,6.2E1,3.33E2,5.96E2,6.1E1],"tree_param":{"num_deleted":"0","num_feature":"4336","num_nodes":"15","size_leaf_vector":"1"}},{"base_weights":[-3.626303E-1,-2.8024038E1,8.8357925E-1,2.5340805E-2,-3.2841896E1,-6.832857E0,3.7404053E0,-4.4353437E-1,-1.8587364E0,-1.2463667E-2,-7.284175E-1,2.268765E-1,-2.3054929E-1],"categories":[],"categories_nodes":[],"categories_segments":[],"categories_sizes":[],"default_left":[0,0,0,0,0,0,0,0,0,0,0,0,0],"id":10,"left_children":[1,3,5,-1,7,9,11,-1,-1,-1,-1,-1,-1],"loss_changes":[3.9183195E4,6.821883E3,2.4133957E4,0E0,2.7088242E3,1.5054828E4,5.4169717E3,0E0,0E0,0E0,0E0,0E0,0E0],"parents":[2147483647,0,0,1,1,2,2,4,4,5,5,6,6],"right_children":[2,4,6,-1,8,10,12,-1,-1,-1,-1,-1,-1],"split_conditions":[9.125582E0,1.4392306E0,1.7862276E0,2.5340805E-2,-1.273779E-2,-7.5973053E0,-2.4705174E0,-4.4353437E-1,-1.8587364E0,-1.2463667E-2,-7.284175E-1,2.268765E-1,-2.3054929E-1],"split_indices":[2237,2811,2731,0,2926,2371,2404,0,0,0,0,0,0],"split_type":[0,0,0,0,0,0,0,0,0,0,0,0,0],"sum_hessian":[1.128E3,4.4E1,1.084E3,7E0,3.7E1,2.91E2,7.93E2,8E0,2.9E1,1.6E2,1.31E2,7.26E2,6.7E1],"tree_param":{"num_deleted":"0","num_feature":"4336","num_nodes":"13","size_leaf_vector":"1"}},{"base_weights":[-3.7735346E-1,-9.959953E0,3.113712E0,-1.80936E1,-3.8185866E0,-6.500884E0,4.1349845E0,-1.3294756E0,-3.74291E-1,-4.463761E-2,-8.6311716E-1,-4.5438327E-2,-1.0078852E0,-3.1417534E-1,2.3727925E-1],"categories":[],"categories_nodes":[],"categories_segments":[],"categories_sizes":[],"default_left":[0,0,0,0,0,0,0,0,0,0,0,0,0,0,0],"id":11,"left_children":[1,3,5,7,9,11,13,-1,-1,-1,-1,-1,-1,-1,-1],"loss_changes":[3.708839E4,1.4438053E4,8.1171157E3,1.035684E4,6.804614E3,6.015944E3,4.843753E3,0E0,0E0,0E0,0E0,0E0,0E0,0E0,0E0],"parents":[2147483647,0,0,1,1,2,2,3,3,4,4,5,5,6,6],"right_children":[2,4,6,8,10,12,14,-1,-1,-1,-1,-1,-1,-1,-1],"split_conditions":[2.64178E0,1.6135976E2,4.37E1,1.9835154E1,6.5788555E0,1.2320087E0,-1.0061882E-1,-1.3294756E0,-3.74291E-1,-4.463761E-2,-8.6311716E-1,-4.5438327E-2,-1.0078852E0,-3.1417534E-1,2.3727925E-1],"split_indices":[4249,2699,4071,3866,2729,3087,3020,0,0,0,0,0,0,0,0],"split_type":[0,0,0,0,0,0,0,0,0,0,0,0,0,0,0],"sum_hessian":[1.099E3,2.91E2,8.08E2,1.21E2,1.7E2,7.5E1,7.33E2,6.3E1,5.8E1,1.44E2,2.6E1,5.7E1,1.8E1,3.8E1,6.95E2],"tree_param":{"num_deleted":"0","num_feature":"4336","num_nodes":"15","size_leaf_vector":"1"}},{"base_weights":[-1.5315312E-1,-1.0520813E1,2.8680952E0,-2.4016312E1,-5.6634398E0,-5.1960263E0,3.911675E0,-1.4257401E0,5.383576E-2,1.5639646E-1,-4.8142812E-1,7.350439E-2,-5.875582E-1,6.9504485E-2,3.188766E-1],"categories":[],"categories_nodes":[],"categories_segments":[],"categories_sizes":[],"default_left":[0,0,0,0,0,0,0,0,0,0,0,0,0,0,0],"id":12,"left_children":[1,3,5,7,9,11,13,-1,-1,-1,-1,-1,-1,-1,-1],"loss_changes":[3.595414E4,1.6295104E4,7.582927E3,7.7192617E3,7.0184307E3,4.631923E3,4.8670137E3,0E0,0E0,0E0,0E0,0E0,0E0,0E0,0E0],"parents":[2147483647,0,0,1,1,2,2,3,3,4,4,5,5,6,6],"right_children":[2,4,6,8,10,12,14,-1,-1,-1,-1,-1,-1,-1,-1],"split_conditions":[2.4769E0,3.9464245E0,1.30188675E1,5.8141027E-2,1.7678202E1,2.2585778E0,3.875E0,-1.4257401E0,5.383576E-2,1.5639646E-1,-4.8142812E-1,7.350439E-2,-5.875582E-1,6.9504485E-2,3.188766E-1],"split_indices":[4249,3916,2682,2998,3848,4147,4249,0,0,0,0,0,0,0,0],"split_type":[0,0,0,0,0,0,0,0,0,0,0,0,0,0,0],"sum_hessian":[1.138E3,2.54E2,8.84E2,6.2E1,1.92E2,9.9E1,7.85E2,5.2E1,1E1,6E1,1.32E2,5.1E1,4.8E1,3.92E2,3.93E2],"tree_param":{"num_deleted":"0","num_feature":"4336","num_nodes":"15","size_leaf_vector":"1"}},{"base_weights":[3.6474192E-1,-2.4510553E1,1.2996945E0,-2.3772155E-1,-2.9320957E1,-3.601596E0,4.1601624E0,-3.208674E-1,-1.6185133E0,-4.3960172E-1,-6.2014875E-3,-2.509096E-1,2.4351151E-1],"categories":[],"categories_nodes":[],"categories_segments":[],"categories_sizes":[],"default_left":[0,0,0,0,0,0,0,0,0,0,0,0,0],"id":13,"left_children":[1,3,5,-1,7,9,11,-1,-1,-1,-1,-1,-1],"loss_changes":[2.6321332E4,3.196002E3,1.5342736E4,0E0,1.1923516E3,7.285893E3,4.61909E3,0E0,0E0,0E0,0E0,0E0,0E0],"parents":[2147483647,0,0,1,1,2,2,4,4,5,5,6,6],"right_children":[2,4,6,-1,8,10,12,-1,-1,-1,-1,-1,-1],"split_conditions":[8.491756E0,-2.105872E-1,1.8122658E0,-2.3772155E-1,7.5700316E0,2.6498E0,3.5814848E0,-3.208674E-1,-1.6185133E0,-4.3960172E-1,-6.2014875E-3,-2.509096E-1,2.4351151E-1],"split_indices":[2237,2994,2731,0,2705,4249,2236,0,0,0,0,0,0],"split_type":[0,0,0,0,0,0,0,0,0,0,0,0,0],"sum_hessian":[1.12E3,3.6E1,1.084E3,9E0,2.7E1,3.99E2,6.85E2,5E0,2.2E1,1.57E2,2.42E2,4.7E1,6.38E2],"tree_param":{"num_deleted":"0","num_feature":"4336","num_nodes":"13","size_leaf_vector":"1"}},{"base_weights":[7.775597E-1,-2.4934048E1,1.6279565E0,3.595571E-2,-2.9190866E1,-3.3900526E0,3.7241223E0,-3.9747506E-1,-1.5871575E0,-1.12684846E-1,-1.2944783E0,2.2473876E-1,-1.8976448E-1],"categories":[],"categories_nodes":[],"categories_segments":[],"categories_sizes":[],"default_left":[0,0,0,0,0,0,0,0,0,0,0,0,0],"id":14,"left_children":[1,3,5,-1,7,9,11,-1,-1,-1,-1,-1,-1],"loss_changes":[2.4580178E4,4.0390352E3,1.1465298E4,0E0,4.1495117E2,7.938167E3,4.5300215E3,0E0,0E0,0E0,0E0,0E0,0E0],"parents":[2147483647,0,0,1,1,2,2,4,4,5,5,6,6],"right_children":[2,4,6,-1,8,10,12,-1,-1,-1,-1,-1,-1],"split_conditions":[8.491756E0,-2.7411861E0,1.2252119E0,3.595571E-2,4.3783784E0,1.2538749E0,1.5146658E2,-3.9747506E-1,-1.5871575E0,-1.12684846E-1,-1.2944783E0,2.2473876E-1,-1.8976448E-1],"split_indices":[2237,2217,2736,0,2649,3153,2740,0,0,0,0,0,0],"split_type":[0,0,0,0,0,0,0,0,0,0,0,0,0],"sum_hessian":[1.11E3,3.1E1,1.079E3,5E0,2.6E1,3.17E2,7.62E2,5E0,2.1E1,3.07E2,1E1,6.93E2,6.9E1],"tree_param":{"num_deleted":"0","num_feature":"4336","num_nodes":"13","size_leaf_vector":"1"}},{"base_weights":[2.457709E-1,-1.3703085E1,1.9899788E0,-1.6261698E1,3.2007303E0,-1.186419E1,2.9610553E0,-1.6632944E-1,-1.0502796E0,-2.0399629E-1,3.378581E-1,1.4617281E-3,-1.122148E0,1.6714261E-1,-5.99136E-1],"categories":[],"categories_nodes":[],"categories_segments":[],"categories_sizes":[],"default_left":[0,0,0,0,0,0,0,0,0,0,0,0,0,0,0],"id":15,"left_children":[1,3,5,7,9,11,13,-1,-1,-1,-1,-1,-1,-1,-1],"loss_changes":[2.8017012E4,5.7975977E3,1.3937652E4,6.5208145E3,6.8186755E2,8.561132E3,5.6766855E3,0E0,0E0,0E0,0E0,0E0,0E0,0E0,0E0],"parents":[2147483647,0,0,1,1,2,2,3,3,4,4,5,5,6,6],"right_children":[2,4,6,8,10,12,14,-1,-1,-1,-1,-1,-1,-1,-1],"split_conditions":[1.8907E0,1.8430575E0,4.752512E0,-3.95644E0,1.083861E0,-6.961283E-2,1.5448637E2,-1.6632944E-1,-1.0502796E0,-2.0399629E-1,3.378581E-1,1.4617281E-3,-1.122148E0,1.6714261E-1,-5.99136E-1],"split_indices":[4249,2832,3918,2411,2327,2876,2740,0,0,0,0,0,0,0,0],"split_type":[0,0,0,0,0,0,0,0,0,0,0,0,0,0,0],"sum_hessian":[1.141E3,1.23E2,1.018E3,1.07E2,1.6E1,6.3E1,9.55E2,3.1E1,7.6E1,5E0,1.1E1,3.2E1,3.1E1,9.35E2,2E1],"tree_param":{"num_deleted":"0","num_feature":"4336","num_nodes":"15","size_leaf_vector":"1"}},{"base_weights":[-5.6719605E-2,-1.8900015E1,1.4320012E0,2.9220276E0,-2.3410137E1,-8.047664E0,2.8464403E0,3.5616815E-1,-1.6811453E-1,-1.5047253E0,-1.4567596E-1,-2.581976E-1,-1.2599964E0,-7.00514E-1,1.6258083E-1],"categories":[],"categories_nodes":[],"categories_segments":[],"categories_sizes":[],"default_left":[0,0,0,0,0,0,0,0,0,0,0,0,0,0,0],"id":16,"left_children":[1,3,5,7,9,11,13,-1,-1,-1,-1,-1,-1,-1,-1],"loss_changes":[3.2565654E4,8.709779E3,1.4541464E4,6.217782E2,9.285785E3,6.3204756E3,6.646848E3,0E0,0E0,0E0,0E0,0E0,0E0,0E0,0E0],"parents":[2147483647,0,0,1,1,2,2,3,3,4,4,5,5,6,6],"right_children":[2,4,6,8,10,12,14,-1,-1,-1,-1,-1,-1,-1,-1],"split_conditions":[1.0857149E0,-4.767913E0,2.06102E0,5.900615E0,-8.035714E-2,-1.631296E0,3.8830576E0,3.5616815E-1,-1.6811453E-1,-1.5047253E0,-1.4567596E-1,-2.581976E-1,-1.2599964E0,-7.00514E-1,1.6258083E-1],"split_indices":[2736,2368,4249,2470,3764,2374,2234,0,0,0,0,0,0,0,0],"split_type":[0,0,0,0,0,0,0,0,0,0,0,0,0,0,0],"sum_hessian":[1.151E3,8E1,1.071E3,1.4E1,6.6E1,1.36E2,9.35E2,8E0,6E0,4.8E1,1.8E1,1.22E2,1.4E1,1.8E1,9.17E2],"tree_param":{"num_deleted":"0","num_feature":"4336","num_nodes":"15","size_leaf_vector":"1"}},{"base_weights":[3.964763E-1,-1.3850091E1,1.8979559E0,-1.9057512E1,1.3294151E0,-1.3998034E0,4.4688954E0,-1.0770041E0,3.1484124E-1,-2.368877E-1,4.0410694E-1,1.2355246E-1,-3.6161342E-1,2.5071493E-1,-1.4975725E-1],"categories":[],"categories_nodes":[],"categories_segments":[],"categories_sizes":[],"default_left":[0,0,0,0,0,0,0,0,0,0,0,0,0,0,0],"id":17,"left_children":[1,3,5,7,9,11,13,-1,-1,-1,-1,-1,-1,-1,-1],"loss_changes":[2.4002516E4,8.586383E3,8.628621E3,5.715203E3,1.5028276E3,1.0204156E4,2.3997852E3,0E0,0E0,0E0,0E0,0E0,0E0,0E0,0E0],"parents":[2147483647,0,0,1,1,2,2,3,3,4,4,5,5,6,6],"right_children":[2,4,6,8,10,12,14,-1,-1,-1,-1,-1,-1,-1,-1],"split_conditions":[1.5947E0,9.8000807E-1,3.469E0,2.0332063E-2,1.3586969E0,1E0,1.457448E0,-1.0770041E0,3.1484124E-1,-2.368877E-1,4.0410694E-1,1.2355246E-1,-3.6161342E-1,2.5071493E-1,-1.4975725E-1],"split_indices":[4249,3745,4249,2931,2250,2518,3061,0,0,0,0,0,0,0,0],"split_type":[0,0,0,0,0,0,0,0,0,0,0,0,0,0,0],"sum_hessian":[1.111E3,1.02E2,1.009E3,7.5E1,2.7E1,4.43E2,5.66E2,6.9E1,6E0,1.5E1,1.2E1,2.68E2,1.75E2,5.29E2,3.7E1],"tree_param":{"num_deleted":"0","num_feature":"4336","num_nodes":"15","size_leaf_vector":"1"}},{"base_weights":[1.4954048E-1,-6.2781167E0,3.310804E0,-1.1458147E1,-7.174113E-2,-4.476505E0,4.2147245E0,1.7726818E-1,-7.105345E-1,-6.901173E-1,9.903068E-2,1.09519064E-1,-5.385795E-1,-6.947931E-2,2.4035132E-1],"categories":[],"categories_nodes":[],"categories_segments":[],"categories_sizes":[],"default_left":[0,0,0,0,0,0,0,0,0,0,0,0,0,0,0],"id":18,"left_children":[1,3,5,7,9,11,13,-1,-1,-1,-1,-1,-1,-1,-1],"loss_changes":[2.2617658E4,1.1793497E4,5.3454854E3,8.512535E3,4.98484E3,3.476317E3,2.261088E3,0E0,0E0,0E0,0E0,0E0,0E0,0E0,0E0],"parents":[2147483647,0,0,1,1,2,2,3,3,4,4,5,5,6,6],"right_children":[2,4,6,8,10,12,14,-1,-1,-1,-1,-1,-1,-1,-1],"split_conditions":[2.9401E0,-7.857143E-2,2.3039305E0,-9.945247E0,4.5454547E-1,1.2346544E0,2.263416E0,1.7726818E-1,-7.105345E-1,-6.901173E-1,9.903068E-2,1.09519064E-1,-5.385795E-1,-6.947931E-2,2.4035132E-1],"split_indices":[4249,3764,2273,2229,4096,3593,2671,0,0,0,0,0,0,0,0],"split_type":[0,0,0,0,0,0,0,0,0,0,0,0,0,0,0],"sum_hessian":[1.103E3,3.62E2,7.41E2,1.95E2,1.67E2,7.5E1,6.66E2,3E1,1.65E2,1.8E1,1.49E2,3.8E1,3.7E1,6.3E1,6.03E2],"tree_param":{"num_deleted":"0","num_feature":"4336","num_nodes":"15","size_leaf_vector":"1"}},{"base_weights":[-3.4299254E-1,-7.460149E0,2.1453164E0,-1.7699093E1,-3.4272711E0,3.1568985E0,-5.1314416E0,-1.1406752E0,8.310568E-2,-1.0983468E0,-8.659295E-2,1.7734152E-1,-3.983304E-1,-3.2700174E-2,-8.180976E-1],"categories":[],"categories_nodes":[],"categories_segments":[],"categories_sizes":[],"default_left":[0,0,0,0,0,0,0,0,0,0,0,0,0,0,0],"id":19,"left_children":[1,3,5,7,9,11,13,-1,-1,-1,-1,-1,-1,-1,-1],"loss_changes":[2.0375852E4,1.1999729E4,6.3597656E3,8.410463E3,6.722534E3,3.4025703E3,5.2748896E3,0E0,0E0,0E0,0E0,0E0,0E0,0E0,0E0],"parents":[2147483647,0,0,1,1,2,2,3,3,4,4,5,5,6,6],"right_children":[2,4,6,8,10,12,14,-1,-1,-1,-1,-1,-1,-1,-1],"split_conditions":[2.66418E0,6.4729533E0,1.3371872E0,2.6337349E1,-1.0333522E3,2.4499094E0,2.914662E0,-1.1406752E0,8.310568E-2,-1.0983468E0,-8.659295E-2,1.7734152E-1,-3.983304E-1,-3.2700174E-2,-8.180976E-1],"split_indices":[4249,2351,3061,2678,2799,2267,2370,0,0,0,0,0,0,0,0],"split_type":[0,0,0,0,0,0,0,0,0,0,0,0,0,0,0],"sum_hessian":[1.141E3,2.93E2,8.48E2,7.8E1,2.15E2,7.47E2,1.01E2,6.1E1,1.7E1,1.3E1,2.02E2,7.25E2,2.2E1,7.6E1,2.5E1],"tree_param":{"num_deleted":"0","num_feature":"4336","num_nodes":"15","size_leaf_vector":"1"}},{"base_weights":[-1.9158356E-1,-1.2217815E1,8.5156417E-1,2.9926665E0,-1.6863419E1,-3.0845003E0,2.7063737E0,-3.371711E-1,3.4605607E-1,-1.0745589E0,2.6827237E-2,-7.9726595E-1,-4.4829108E-2,1.5584937E-1,-6.75872E-1],"categories":[],"categories_nodes":[],"categories_segments":[],"categories_sizes":[],"default_left":[0,0,0,0,0,0,0,0,0,0,0,0,0,0,0],"id":20,"left_children":[1,3,5,7,9,11,13,-1,-1,-1,-1,-1,-1,-1,-1],"loss_changes":[1.4618062E4,6.8252744E3,7.8752983E3,1.2278204E3,5.8573926E3,9.662727E3,5.0860063E3,0E0,0E0,0E0,0E0,0E0,0E0,0E0,0E0],"parents":[2147483647,0,0,1,1,2,2,3,3,4,4,5,5,6,6],"right_children":[2,4,6,8,10,12,14,-1,-1,-1,-1,-1,-1,-1,-1],"split_conditions":[2.7202778E0,-1.7635126E-2,2.9618E0,2.5327228E2,3.6835456E0,-1.672026E0,4.590461E0,-3.371711E-1,3.4605607E-1,-1.0745589E0,2.6827237E-2,-7.9726595E-1,-4.4829108E-2,1.5584937E-1,-6.75872E-1],"split_indices":[2308,2953,4249,2695,2470,2442,2414,0,0,0,0,0,0,0,0],"split_type":[0,0,0,0,0,0,0,0,0,0,0,0,0,0,0],"sum_hessian":[1.156E3,8.8E1,1.068E3,2.1E1,6.7E1,3.41E2,7.27E2,5E0,1.6E1,5.2E1,1.5E1,4.5E1,2.96E2,7.13E2,1.4E1],"tree_param":{"num_deleted":"0","num_feature":"4336","num_nodes":"15","size_leaf_vector":"1"}},{"base_weights":[-6.9507554E-2,-5.8978004E0,2.101697E0,2.9450598E0,-9.371696E0,-6.677848E0,2.77667E0,2.6671693E-1,-3.1938043E-1,-7.4216324E-1,-1.344376E-1,-9.94783E-3,-9.0204525E-1,1.7889355E-1,-1.5992686E-1],"categories":[],"categories_nodes":[],"categories_segments":[],"categories_sizes":[],"default_left":[0,0,0,0,0,0,0,0,0,0,0,0,0,0,0],"id":21,"left_children":[1,3,5,7,9,11,13,-1,-1,-1,-1,-1,-1,-1,-1],"loss_changes":[1.3754435E4,9.200801E3,4.7856787E3,2.1102192E3,7.587297E3,4.2501895E3,3.5951025E3,0E0,0E0,0E0,0E0,0E0,0E0,0E0,0E0],"parents":[2147483647,0,0,1,1,2,2,3,3,4,4,5,5,6,6],"right_children":[2,4,6,8,10,12,14,-1,-1,-1,-1,-1,-1,-1,-1],"split_conditions":[2.66418E0,-4.171671E0,6.132653E0,1.13711E0,2.2130742E0,1.4547718E1,4.871057E1,2.6671693E-1,-3.1938043E-1,-7.4216324E-1,-1.344376E-1,-9.94783E-3,-9.0204525E-1,1.7889355E-1,-1.5992686E-1],"split_indices":[4249,2411,2722,3379,2409,3178,2762,0,0,0,0,0,0,0,0],"split_type":[0,0,0,0,0,0,0,0,0,0,0,0,0,0,0],"sum_hessian":[1.077E3,2.9E2,7.87E2,8.2E1,2.08E2,5.3E1,7.34E2,6.7E1,1.5E1,1.11E2,9.7E1,3.7E1,1.6E1,6.49E2,8.5E1],"tree_param":{"num_deleted":"0","num_feature":"4336","num_nodes":"15","size_leaf_vector":"1"}},{"base_weights":[-3.8438657E-1,-1.3934284E1,8.029814E-1,-2.655959E1,-6.213547E0,-3.89196E0,2.6097624E0,-2.0085302E-1,-1.4932069E0,1.9144814E-1,-6.6634524E-1,1.519766E-1,-3.4860513E-1,1.4696796E-1,-5.1081383E-1],"categories":[],"categories_nodes":[],"categories_segments":[],"categories_sizes":[],"default_left":[0,0,0,0,0,0,0,0,0,0,0,0,0,0,0],"id":22,"left_children":[1,3,5,7,9,11,13,-1,-1,-1,-1,-1,-1,-1,-1],"loss_changes":[1.8173152E4,8.041951E3,8.872697E3,1.8550469E3,4.7565566E3,6.3191978E3,3.3368936E3,0E0,0E0,0E0,0E0,0E0,0E0,0E0,0E0],"parents":[2147483647,0,0,1,1,2,2,3,3,4,4,5,5,6,6],"right_children":[2,4,6,8,10,12,14,-1,-1,-1,-1,-1,-1,-1,-1],"split_conditions":[5.998282E0,3.7625637E0,1.2136956E0,8.7251323E-1,3.958934E1,7.146774E-1,4.555578E1,-2.0085302E-1,-1.4932069E0,1.9144814E-1,-6.6634524E-1,1.519766E-1,-3.4860513E-1,1.4696796E-1,-5.1081383E-1],"split_indices":[2351,2313,2735,3143,3845,3133,3866,0,0,0,0,0,0,0,0],"split_type":[0,0,0,0,0,0,0,0,0,0,0,0,0,0,0],"sum_hessian":[1.121E3,8.6E1,1.035E3,2.8E1,5.8E1,2.86E2,7.49E2,5E0,2.3E1,2.5E1,3.3E1,8.8E1,1.98E2,7.34E2,1.5E1],"tree_param":{"num_deleted":"0","num_feature":"4336","num_nodes":"15","size_leaf_vector":"1"}},{"base_weights":[6.656737E-2,-4.1922417E0,2.79358E0,-1.6468386E1,-2.038649E0,3.1473682E0,-1.0672686E1,-1.0152631E0,-2.9540544E-2,1.7123549E-1,-2.4728422E-1,1.7731881E-1,-3.0693686E-1,-6.499192E-1,-1.03518285E-1],"categories":[],"categories_nodes":[],"categories_segments":[],"categories_sizes":[],"default_left":[0,0,0,0,0,0,0,0,0,0,0,0,0,0,0],"id":23,"left_children":[1,3,5,7,9,11,13,-1,-1,-1,-1,-1,-1,-1,-1],"loss_changes":[1.3298179E4,1.1647982E4,3.4926187E3,3.958666E3,6.21536E3,2.6429692E3,2.4405786E2,0E0,0E0,0E0,0E0,0E0,0E0,0E0,0E0],"parents":[2147483647,0,0,1,1,2,2,3,3,4,4,5,5,6,6],"right_children":[2,4,6,8,10,12,14,-1,-1,-1,-1,-1,-1,-1,-1],"split_conditions":[3.0356E0,2.2560976E0,-5.635095E-1,3.849002E-2,-6.8731E-2,2.2576149E0,6.365983E0,-1.0152631E0,-2.9540544E-2,1.7123549E-1,-2.4728422E-1,1.7731881E-1,-3.0693686E-1,-6.499192E-1,-1.03518285E-1],"split_indices":[4249,2664,2510,3315,3022,2267,2305,0,0,0,0,0,0,0,0],"split_type":[0,0,0,0,0,0,0,0,0,0,0,0,0,0,0],"sum_hessian":[1.135E3,4.42E2,6.93E2,6.1E1,3.81E2,6.79E2,1.4E1,4.8E1,1.3E1,1.32E2,2.49E2,6.54E2,2.5E1,9E0,5E0],"tree_param":{"num_deleted":"0","num_feature":"4336","num_nodes":"15","size_leaf_vector":"1"}},{"base_weights":[-2.5489304E-2,-1.8949364E1,5.884794E-1,-2.4767479E1,-8.6125743E-4,2.732195E0,-2.5240257E0,-1.3913236E0,-2.974927E-1,-3.3368796E-1,1.7001958E-1,-7.152346E-3,-5.818746E-1],"categories":[],"categories_nodes":[],"categories_segments":[],"categories_sizes":[],"default_left":[0,0,0,0,0,0,0,0,0,0,0,0,0],"id":24,"left_children":[1,3,5,7,-1,9,11,-1,-1,-1,-1,-1,-1],"loss_changes":[1.25708955E4,3.7404668E3,7.0270986E3,6.654424E2,0E0,4.028711E3,9.321056E3,0E0,0E0,0E0,0E0,0E0,0E0],"parents":[2147483647,0,0,1,1,2,2,3,3,5,5,6,6],"right_children":[2,4,6,8,-1,10,12,-1,-1,-1,-1,-1,-1],"split_conditions":[8.491756E0,-7.5E-1,1E0,4.5495835E-1,-8.6125743E-4,1.38499E0,-4.8037386E0,-1.3913236E0,-2.974927E-1,-3.3368796E-1,1.7001958E-1,-7.152346E-3,-5.818746E-1],"split_indices":[2237,3763,2518,2846,0,4249,3819,0,0,0,0,0,0],"split_type":[0,0,0,0,0,0,0,0,0,0,0,0,0],"sum_hessian":[1.072E3,2.9E1,1.043E3,2.1E1,8E0,6.18E2,4.25E2,1.6E1,5E0,3.8E1,5.8E2,3.41E2,8.4E1],"tree_param":{"num_deleted":"0","num_feature":"4336","num_nodes":"13","size_leaf_vector":"1"}},{"base_weights":[-1.1199717E-1,-9.542417E0,1.2217773E0,-1.306571E0,-1.6885431E1,-1.5786112E1,1.7003455E0,-4.232369E-1,2.3931842E-1,-1.0969461E0,-2.1982418E-1,-1.0130008E0,9.697652E-2,1.3052009E-1,-1.9347076E-1],"categories":[],"categories_nodes":[],"categories_segments":[],"categories_sizes":[],"default_left":[0,0,0,0,0,0,0,0,0,0,0,0,0,0,0],"id":25,"left_children":[1,3,5,7,9,11,13,-1,-1,-1,-1,-1,-1,-1,-1],"loss_changes":[1.3907562E4,8.173074E3,8.019914E3,3.2559438E3,4.0592148E3,2.339484E3,4.8505273E3,0E0,0E0,0E0,0E0,0E0,0E0,0E0,0E0],"parents":[2147483647,0,0,1,1,2,2,3,3,4,4,5,5,6,6],"right_children":[2,4,6,8,10,12,14,-1,-1,-1,-1,-1,-1,-1,-1],"split_conditions":[1.7301513E0,-7.626189E0,3.7E1,1.1401162E0,4.070291E0,1.8569113E-1,9.399236E-1,-4.232369E-1,2.3931842E-1,-1.0969461E0,-2.1982418E-1,-1.0130008E0,9.697652E-2,1.3052009E-1,-1.9347076E-1],"split_indices":[2731,2371,2557,3072,3592,2956,3093,0,0,0,0,0,0,0,0],"split_type":[0,0,0,0,0,0,0,0,0,0,0,0,0,0,0],"sum_hessian":[1.096E3,1.32E2,9.64E2,6.5E1,6.7E1,2.2E1,9.42E2,2.9E1,3.6E1,4.5E1,2.2E1,1.7E1,5E0,8.12E2,1.3E2],"tree_param":{"num_deleted":"0","num_feature":"4336","num_nodes":"15","size_leaf_vector":"1"}},{"base_weights":[6.479992E-2,-1.7792341E1,7.954885E-1,-5.9826384E0,-1.1151547E0,1.1396171E0,-8.818602E-1,1.2509347E-1,-4.9567437E-1,-2.2031419E-1,1.01429895E-1],"categories":[],"categories_nodes":[],"categories_segments":[],"categories_sizes":[],"default_left":[0,0,0,0,0,0,0,0,0,0,0],"id":26,"left_children":[1,3,5,7,-1,9,-1,-1,-1,-1,-1],"loss_changes":[1.4604549E4,1.6739248E3,6.9178066E3,7.584276E2,0E0,5.2704653E3,0E0,0E0,0E0,0E0,0E0],"parents":[2147483647,0,0,1,1,2,2,3,3,5,5],"right_children":[2,4,6,8,-1,10,-1,-1,-1,-1,-1],"split_conditions":[9.044578E0,-1.9769229E-1,1E0,-8.3400893E-1,-1.1151547E0,-2.4836466E-1,-8.818602E-1,1.2509347E-1,-4.9567437E-1,-2.2031419E-1,1.01429895E-1],"split_indices":[2237,2958,2032,2895,0,2373,0,0,0,0,0],"split_type":[0,0,0,0,0,0,0,0,0,0,0],"sum_hessian":[1.109E3,3.9E1,1.07E3,1.4E1,2.5E1,1.055E3,1.5E1,5E0,9E0,1.43E2,9.12E2],"tree_param":{"num_deleted":"0","num_feature":"4336","num_nodes":"11","size_leaf_vector":"1"}},{"base_weights":[2.605918E-1,-1.2512769E1,1.1278996E0,-2.085651E1,-2.300406E0,-3.0253685E0,2.5969727E0,-1.2604207E0,8.3517246E-2,2.2269733E-1,-4.1147342E-1,-7.0294607E-1,-4.144275E-2,1.7481627E-1,-1.16866566E-1],"categories":[],"categories_nodes":[],"categories_segments":[],"categories_sizes":[],"default_left":[0,0,0,0,0,0,0,0,0,0,0,0,0,0,0],"id":27,"left_children":[1,3,5,7,9,11,13,-1,-1,-1,-1,-1,-1,-1,-1],"loss_changes":[1.2543745E4,5.8928623E3,6.500681E3,4.0362441E3,1.7054308E3,6.701908E3,3.5245542E3,0E0,0E0,0E0,0E0,0E0,0E0,0E0,0E0],"parents":[2147483647,0,0,1,1,2,2,3,3,4,4,5,5,6,6],"right_children":[2,4,6,8,10,12,14,-1,-1,-1,-1,-1,-1,-1,-1],"split_conditions":[1.4104007E0,2.2927202E2,2.2048976E0,1.1518084E0,4.244074E2,2.471178E0,7.1428575E-2,-1.2604207E0,8.3517246E-2,2.2269733E-1,-4.1147342E-1,-7.0294607E-1,-4.144275E-2,1.7481627E-1,-1.16866566E-1],"split_indices":[2732,3396,2292,3114,2576,2455,3889,0,0,0,0,0,0,0,0],"split_type":[0,0,0,0,0,0,0,0,0,0,0,0,0,0,0],"sum_hessian":[1.121E3,6.7E1,1.054E3,3.4E1,3.3E1,2.74E2,7.8E2,2.8E1,6E0,1.6E1,1.7E1,4.1E1,2.33E2,6.61E2,1.19E2],"tree_param":{"num_deleted":"0","num_feature":"4336","num_nodes":"15","size_leaf_vector":"1"}},{"base_weights":[-1.757886E-1,-5.144869E0,1.8568593E0,-1.9529118E1,-2.7069263E0,-7.5786643E0,2.2793055E0,-6.786277E-2,-1.2521762E0,-5.5641145E-1,-2.1048354E-2,2.077409E-1,-7.304025E-1,1.7427887E-1,-1.7133957E-2],"categories":[],"categories_nodes":[],"categories_segments":[],"categories_sizes":[],"default_left":[0,0,0,0,0,0,0,0,0,0,0,0,0,0,0],"id":28,"left_children":[1,3,5,7,9,11,13,-1,-1,-1,-1,-1,-1,-1,-1],"loss_changes":[1.1239328E4,1.1060412E4,3.2347805E3,4.4369316E3,5.4041353E3,3.191286E3,2.410035E3,0E0,0E0,0E0,0E0,0E0,0E0,0E0,0E0],"parents":[2147483647,0,0,1,1,2,2,3,3,4,4,5,5,6,6],"right_children":[2,4,6,8,10,12,14,-1,-1,-1,-1,-1,-1,-1,-1],"split_conditions":[1.2152684E0,3.7457404E0,1.7739566E-2,-9.9289936E-1,4.056212E0,5.747069E-1,4.315779E1,-6.786277E-2,-1.2521762E0,-5.5641145E-1,-2.1048354E-2,2.077409E-1,-7.304025E-1,1.7427887E-1,-1.7133957E-2],"split_indices":[2736,2432,3751,2267,2355,3356,3845,0,0,0,0,0,0,0,0],"split_type":[0,0,0,0,0,0,0,0,0,0,0,0,0,0,0],"sum_hessian":[1.103E3,3.18E2,7.85E2,4.1E1,2.77E2,3E1,7.55E2,1.1E1,3E1,5.5E1,2.22E2,1.2E1,1.8E1,5.16E2,2.39E2],"tree_param":{"num_deleted":"0","num_feature":"4336","num_nodes":"15","size_leaf_vector":"1"}},{"base_weights":[-1.1908256E-1,-6.7283783E0,1.6130021E0,4.7436163E-1,-1.0826409E1,-7.088808E0,2.3810804E0,-1.9613175E-1,3.105059E-1,-2.908535E-1,-1.059168E0,-8.4769696E-1,7.808644E-2,1.4135523E-1,-2.9426226E-1],"categories":[],"categories_nodes":[],"categories_segments":[],"categories_sizes":[],"default_left":[0,0,0,0,0,0,0,0,0,0,0,0,0,0,0],"id":29,"left_children":[1,3,5,7,9,11,13,-1,-1,-1,-1,-1,-1,-1,-1],"loss_changes":[1.2956514E4,6.9632197E3,6.0791777E3,2.3918376E3,7.1633945E3,6.4489883E3,3.135704E3,0E0,0E0,0E0,0E0,0E0,0E0,0E0,0E0],"parents":[2147483647,0,0,1,1,2,2,3,3,4,4,5,5,6,6],"right_children":[2,4,6,8,10,12,14,-1,-1,-1,-1,-1,-1,-1,-1],"split_conditions":[2.4427E0,-3.1405556E0,7.123133E0,-4.7404504E0,1.5986998E2,-1.4097728E-3,2.583061E1,-1.9613175E-1,3.105059E-1,-2.908535E-1,-1.059168E0,-8.4769696E-1,7.808644E-2,1.4135523E-1,-2.9426226E-1],"split_indices":[4249,2217,2507,2512,2741,2947,4173,0,0,0,0,0,0,0,0],"split_type":[0,0,0,0,0,0,0,0,0,0,0,0,0,0,0],"sum_hessian":[1.122E3,2.3E2,8.92E2,8.5E1,1.45E2,6.9E1,8.23E2,4.9E1,3.6E1,1.03E2,4.2E1,3E1,3.9E1,7.84E2,3.9E1],"tree_param":{"num_deleted":"0","num_feature":"4336","num_nodes":"15","size_leaf_vector":"1"}},{"base_weights":[-4.1121492E-1,-3.958025E0,2.2477875E0,-8.598232E0,1.1323494E-1,-7.0237217E0,2.7159011E0,-2.4112275E-1,-9.114391E-1,-6.62811E-1,8.805495E-2,-7.5183845E-1,-8.843576E-2,-4.866468E-1,1.4706425E-1],"categories":[],"categories_nodes":[],"categories_segments":[],"categories_sizes":[],"default_left":[0,0,0,0,0,0,0,0,0,0,0,0,0,0,0],"id":30,"left_children":[1,3,5,7,9,11,13,-1,-1,-1,-1,-1,-1,-1,-1],"loss_changes":[1.0503607E4,9.016957E3,2.859605E3,7.6670664E3,5.821618E3,1.2128163E3,1.8539761E3,0E0,0E0,0E0,0E0,0E0,0E0,0E0,0E0],"parents":[2147483647,0,0,1,1,2,2,3,3,4,4,5,5,6,6],"right_children":[2,4,6,8,10,12,14,-1,-1,-1,-1,-1,-1,-1,-1],"split_conditions":[3.2341E0,-1.4676293E0,1.9142857E0,-6.83225E0,6.038222E0,2.594316E0,-1.4360095E0,-2.4112275E-1,-9.114391E-1,-6.62811E-1,8.805495E-2,-7.5183845E-1,-8.843576E-2,-4.866468E-1,1.4706425E-1],"split_indices":[4249,2352,2666,2385,2716,4168,2327,0,0,0,0,0,0,0,0],"split_type":[0,0,0,0,0,0,0,0,0,0,0,0,0,0,0],"sum_hessian":[1.104E3,4.72E2,6.32E2,2.18E2,2.54E2,2.7E1,6.05E2,1.62E2,5.6E1,2.4E1,2.3E2,7E0,2E1,7E0,5.98E2],"tree_param":{"num_deleted":"0","num_feature":"4336","num_nodes":"15","size_leaf_vector":"1"}},{"base_weights":[-3.4435606E-1,-1.4511068E1,3.3179384E-1,-1.8697363E1,1.4620869E-1,6.950405E-1,-1.854417E1,-9.8559104E-2,-1.0371945E0,-1.05895296E-1,1.6071868E-1,-1.0838064E0,-2.282075E-1],"categories":[],"categories_nodes":[],"categories_segments":[],"categories_sizes":[],"default_left":[0,0,0,0,0,0,0,0,0,0,0,0,0],"id":31,"left_children":[1,3,5,7,-1,9,11,-1,-1,-1,-1,-1,-1],"loss_changes":[1.05143E4,3.9244014E3,7.262124E3,1.1967324E3,0E0,7.3689336E3,3.7840723E2,0E0,0E0,0E0,0E0,0E0,0E0],"parents":[2147483647,0,0,1,1,2,2,3,3,5,5,6,6],"right_children":[2,4,6,8,-1,10,12,-1,-1,-1,-1,-1,-1],"split_conditions":[9.044578E0,8.8792974E-1,1E0,3.075662E-1,1.4620869E-1,5.045927E-1,-1.6337951E0,-9.8559104E-2,-1.0371945E0,-1.05895296E-1,1.6071868E-1,-1.0838064E0,-2.282075E-1],"split_indices":[2237,3067,757,3896,0,2813,2358,0,0,0,0,0,0],"split_type":[0,0,0,0,0,0,0,0,0,0,0,0,0],"sum_hessian":[1.09E3,4.5E1,1.045E3,3.6E1,9E0,1.03E3,1.5E1,5E0,3.1E1,4.87E2,5.43E2,1E1,5E0],"tree_param":{"num_deleted":"0","num_feature":"4336","num_nodes":"13","size_leaf_vector":"1"}},{"base_weights":[-3.6189467E-1,-5.2593455E0,1.7235924E0,-1.0553409E1,-2.1635923E0,2.2418764E0,-1.0447468E1,-2.082601E-1,-1.079358E0,-2.8954897E-2,-7.328174E-1,1.2939563E-1,-5.45461E-1,1.8650115E-1,-8.150684E-1],"categories":[],"categories_nodes":[],"categories_segments":[],"categories_sizes":[],"default_left":[0,0,0,0,0,0,0,0,0,0,0,0,0,0,0],"id":32,"left_children":[1,3,5,7,9,11,13,-1,-1,-1,-1,-1,-1,-1,-1],"loss_changes":[1.1801497E4,5.5388066E3,5.23213E3,8.429071E3,4.3900527E3,3.6990183E3,3.1270627E3,0E0,0E0,0E0,0E0,0E0,0E0,0E0,0E0],"parents":[2147483647,0,0,1,1,2,2,3,3,4,4,5,5,6,6],"right_children":[2,4,6,8,10,12,14,-1,-1,-1,-1,-1,-1,-1,-1],"split_conditions":[1.2186376E0,6.865624E3,1.4847847E0,1.1656692E1,2.581989E-1,4.27629E0,-7.54858E-2,-2.082601E-1,-1.079358E0,-2.8954897E-2,-7.328174E-1,1.2939563E-1,-5.45461E-1,1.8650115E-1,-8.150684E-1],"split_indices":[2736,2588,3145,3856,3889,3873,2992,0,0,0,0,0,0,0,0],"split_type":[0,0,0,0,0,0,0,0,0,0,0,0,0,0,0],"sum_hessian":[1.146E3,3.4E2,8.06E2,1.21E2,2.19E2,7.77E2,2.9E1,8.1E1,4E1,1.99E2,2E1,7.61E2,1.6E1,9E0,2E1],"tree_param":{"num_deleted":"0","num_feature":"4336","num_nodes":"15","size_leaf_vector":"1"}},{"base_weights":[1.8878467E-2,-8.957443E0,1.1131234E0,-1.4599995E1,1.3777945E0,-1.6445817E0,2.520862E0,4.1594263E-2,-9.113364E-1,3.6750343E-1,-2.5426483E-1,-5.245306E-1,-3.3879348E-3,-1.080815E-1,1.71508E-1],"categories":[],"categories_nodes":[],"categories_segments":[],"categories_sizes":[],"default_left":[0,0,0,0,0,0,0,0,0,0,0,0,0,0,0],"id":33,"left_children":[1,3,5,7,9,11,13,-1,-1,-1,-1,-1,-1,-1,-1],"loss_changes":[1.1118796E4,7.274907E3,3.937884E3,4.5549355E3,2.0398817E3,4.7937163E3,2.8899136E3,0E0,0E0,0E0,0E0,0E0,0E0,0E0,0E0],"parents":[2147483647,0,0,1,1,2,2,3,3,4,4,5,5,6,6],"right_children":[2,4,6,8,10,12,14,-1,-1,-1,-1,-1,-1,-1,-1],"split_conditions":[3.1614742E0,2.7517565E1,3.00854E0,-2.7922112E-3,1.2458468E3,-8.031431E0,-1.4175781E1,4.1594263E-2,-9.113364E-1,3.6750343E-1,-2.5426483E-1,-5.245306E-1,-3.3879348E-3,-1.080815E-1,1.71508E-1],"split_indices":[2308,3811,4249,2861,2609,2315,2772,0,0,0,0,0,0,0,0],"split_type":[0,0,0,0,0,0,0,0,0,0,0,0,0,0,0],"sum_hessian":[1.122E3,1.18E2,1.004E3,7.5E1,4.3E1,3.39E2,6.65E2,1.5E1,6E1,2.2E1,2.1E1,4.7E1,2.92E2,1.07E2,5.58E2],"tree_param":{"num_deleted":"0","num_feature":"4336","num_nodes":"15","size_leaf_vector":"1"}},{"base_weights":[-4.0064093E-1,-5.955385E0,1.1679145E0,-2.0957558E1,-3.340912E0,-3.3149538E0,2.0640008E0,-1.2489995E0,9.9037886E-2,-4.8592567E-1,5.094361E-2,-3.8265795E-1,1.2820648E-1,1.4258535E-1,-1.4686774E-1],"categories":[],"categories_nodes":[],"categories_segments":[],"categories_sizes":[],"default_left":[0,0,0,0,0,0,0,0,0,0,0,0,0,0,0],"id":34,"left_children":[1,3,5,7,9,11,13,-1,-1,-1,-1,-1,-1,-1,-1],"loss_changes":[9.854722E3,9.413954E3,3.5811294E3,3.571338E3,6.1118623E3,3.8988223E3,2.9532368E3,0E0,0E0,0E0,0E0,0E0,0E0,0E0,0E0],"parents":[2147483647,0,0,1,1,2,2,3,3,4,4,5,5,6,6],"right_children":[2,4,6,8,10,12,14,-1,-1,-1,-1,-1,-1,-1,-1],"split_conditions":[6.251211E0,-1.9503734E-1,-2.6132435E-1,6.2861495E0,1.146E3,3.475E0,-2.4274557E0,-1.2489995E0,9.9037886E-2,-4.8592567E-1,5.094361E-2,-3.8265795E-1,1.2820648E-1,1.4258535E-1,-1.4686774E-1],"split_indices":[3924,2750,2752,2460,2577,4249,2374,0,0,0,0,0,0,0,0],"split_type":[0,0,0,0,0,0,0,0,0,0,0,0,0,0,0],"sum_hessian":[1.122E3,2.44E2,8.78E2,3.1E1,2.13E2,1.44E2,7.34E2,2.6E1,5E0,8.4E1,1.29E2,8.2E1,6.2E1,6.36E2,9.8E1],"tree_param":{"num_deleted":"0","num_feature":"4336","num_nodes":"15","size_leaf_vector":"1"}},{"base_weights":[-3.6887342E-1,-7.477338E0,6.1237836E-1,-1.1895728E1,5.6237984E-1,-1.5171792E1,8.845517E-1,-4.023176E-2,-7.995232E-1,-4.288826E-1,2.6507786E-1,-9.030067E-1,-2.0549433E-1,5.5642523E-2,-7.5884134E-1],"categories":[],"categories_nodes":[],"categories_segments":[],"categories_sizes":[],"default_left":[0,0,0,0,0,0,0,0,0,0,0,0,0,0,0],"id":35,"left_children":[1,3,5,7,9,11,13,-1,-1,-1,-1,-1,-1,-1,-1],"loss_changes":[7.8218477E3,4.865658E3,4.3058545E3,3.9305156E3,2.522807E3,1.6981714E2,3.6581636E3,0E0,0E0,0E0,0E0,0E0,0E0,0E0,0E0],"parents":[2147483647,0,0,1,1,2,2,3,3,4,4,5,5,6,6],"right_children":[2,4,6,8,10,12,14,-1,-1,-1,-1,-1,-1,-1,-1],"split_conditions":[3.3183823E0,5.045927E-1,-1.4360095E0,-7.745747E0,-2.460916E0,3.4866912E0,1.721667E2,-4.023176E-2,-7.995232E-1,-4.288826E-1,2.6507786E-1,-9.030067E-1,-2.0549433E-1,5.5642523E-2,-7.5884134E-1],"split_indices":[2308,2813,2327,2428,2300,2322,2742,0,0,0,0,0,0,0,0],"split_type":[0,0,0,0,0,0,0,0,0,0,0,0,0,0,0],"sum_hessian":[1.113E3,1.31E2,9.82E2,8.3E1,4.8E1,1.2E1,9.7E2,2.4E1,5.9E1,1.5E1,3.3E1,7E0,5E0,9.61E2,9E0],"tree_param":{"num_deleted":"0","num_feature":"4336","num_nodes":"15","size_leaf_vector":"1"}},{"base_weights":[-3.388793E-1,-4.1066537E0,1.7477667E0,-1.6566087E0,-1.20847025E1,2.0871534E0,-1.1949399E1,-3.7317133E-1,8.7868325E-2,-2.5510755E-1,-1.0666655E0,1.1678272E-1,-5.4670775E-1,-1.0173053E0,3.590825E-2],"categories":[],"categories_nodes":[],"categories_segments":[],"categories_sizes":[],"default_left":[0,0,0,0,0,0,0,0,0,0,0,0,0,0,0],"id":36,"left_children":[1,3,5,7,9,11,13,-1,-1,-1,-1,-1,-1,-1,-1],"loss_changes":[8.715784E3,7.6194263E3,3.442842E3,6.1720444E3,5.394385E3,2.3951318E3,1.9896069E3,0E0,0E0,0E0,0E0,0E0,0E0,0E0,0E0],"parents":[2147483647,0,0,1,1,2,2,3,3,4,4,5,5,6,6],"right_children":[2,4,6,8,10,12,14,-1,-1,-1,-1,-1,-1,-1,-1],"split_conditions":[3.0356E0,-2.8106089E0,4.590461E0,9.461436E-1,7.325655E-1,1E0,5.98965E0,-3.7317133E-1,8.7868325E-2,-2.5510755E-1,-1.0666655E0,1.1678272E-1,-5.4670775E-1,-1.0173053E0,3.590825E-2],"split_indices":[4249,2374,2414,3136,2431,1893,2820,0,0,0,0,0,0,0,0],"split_type":[0,0,0,0,0,0,0,0,0,0,0,0,0,0,0],"sum_hessian":[1.099E3,3.9E2,7.09E2,3.03E2,8.7E1,6.96E2,1.3E1,1.1E2,1.93E2,5.4E1,3.3E1,6.87E2,9E0,6E0,7E0],"tree_param":{"num_deleted":"0","num_feature":"4336","num_nodes":"15","size_leaf_vector":"1"}},{"base_weights":[-1.8665676E-1,-4.756901E0,1.017301E0,-8.4120455E0,1.0463352E0,1.7859558E0,-4.240908E0,1.2415806E-1,-5.842786E-1,1.976325E-1,-6.9029844E-1,1.1048545E-1,-2.9835004E-1,-5.811283E-2,-6.979982E-1],"categories":[],"categories_nodes":[],"categories_segments":[],"categories_sizes":[],"default_left":[0,0,0,0,0,0,0,0,0,0,0,0,0,0,0],"id":37,"left_children":[1,3,5,7,9,11,13,-1,-1,-1,-1,-1,-1,-1,-1],"loss_changes":[5.912117E3,4.7961597E3,3.477152E3,5.067878E3,4.1999233E3,2.5164143E3,3.2087368E3,0E0,0E0,0E0,0E0,0E0,0E0,0E0,0E0],"parents":[2147483647,0,0,1,1,2,2,3,3,4,4,5,5,6,6],"right_children":[2,4,6,8,10,12,14,-1,-1,-1,-1,-1,-1,-1,-1],"split_conditions":[2.4427E0,1.9967065E0,-5.2632065E-3,-1.1809826E-2,1.9968711E0,3.2048578E0,-3.2551892E0,1.2415806E-1,-5.842786E-1,1.976325E-1,-6.9029844E-1,1.1048545E-1,-2.9835004E-1,-5.811283E-2,-6.979982E-1],"split_indices":[4249,2379,2857,2924,2275,2363,2285,0,0,0,0,0,0,0,0],"split_type":[0,0,0,0,0,0,0,0,0,0,0,0,0,0,0],"sum_hessian":[1.065E3,2.19E2,8.46E2,1.33E2,8.6E1,7.41E2,1.05E2,3.1E1,1.02E2,7.5E1,1.1E1,7.06E2,3.5E1,8.4E1,2.1E1],"tree_param":{"num_deleted":"0","num_feature":"4336","num_nodes":"15","size_leaf_vector":"1"}},{"base_weights":[-5.3062344E-1,1.8806434E-1,-1.1234491E1,2.0940661E0,-2.5046628E0,-1.4316797E1,5.0383844E0,-3.19419E-1,1.3964033E-1,6.777263E-2,-3.233343E-1,-1.499648E-1,-9.00266E-1,2.2619622E-2,3.5475922E-1],"categories":[],"categories_nodes":[],"categories_segments":[],"categories_sizes":[],"default_left":[0,0,0,0,0,0,0,0,0,0,0,0,0,0,0],"id":38,"left_children":[1,3,5,7,9,11,13,-1,-1,-1,-1,-1,-1,-1,-1],"loss_changes":[8.681385E3,5.471599E3,3.9228145E3,3.7873137E3,6.8042266E3,2.2743203E3,1.2468329E2,0E0,0E0,0E0,0E0,0E0,0E0,0E0,0E0],"parents":[2147483647,0,0,1,1,2,2,3,3,4,4,5,5,6,6],"right_children":[2,4,6,8,10,12,14,-1,-1,-1,-1,-1,-1,-1,-1],"split_conditions":[-2.7351563E0,1E0,1.0057515E1,-7.733292E-1,-1.2233063E1,2.934725E3,-4.392356E0,-3.19419E-1,1.3964033E-1,6.777263E-2,-3.233343E-1,-1.499648E-1,-9.00266E-1,2.2619622E-2,3.5475922E-1],"split_indices":[3819,2518,2851,2326,2318,2590,2310,0,0,0,0,0,0,0,0],"split_type":[0,0,0,0,0,0,0,0,0,0,0,0,0,0,0],"sum_hessian":[1.122E3,1.056E3,6.6E1,6.19E2,4.37E2,5.6E1,1E1,4.4E1,5.75E2,2.23E2,2.14E2,1.6E1,4E1,5E0,5E0],"tree_param":{"num_deleted":"0","num_feature":"4336","num_nodes":"15","size_leaf_vector":"1"}},{"base_weights":[-4.144931E-1,-8.245343E0,3.166918E-1,-3.6455786E0,-1.0257174E0,-4.454202E0,1.4072016E0,5.682637E-2,-5.7688147E-1,-1.090746E-2,-5.3256017E-1,9.134343E-2,-5.7812834E-1],"categories":[],"categories_nodes":[],"categories_segments":[],"categories_sizes":[],"default_left":[0,0,0,0,0,0,0,0,0,0,0,0,0],"id":39,"left_children":[1,3,5,7,-1,9,11,-1,-1,-1,-1,-1,-1],"loss_changes":[6.169084E3,4.8156274E3,5.171309E3,2.8216697E3,0E0,4.8436973E3,4.502574E3,0E0,0E0,0E0,0E0,0E0,0E0],"parents":[2147483647,0,0,1,1,2,2,3,3,5,5,6,6],"right_children":[2,4,6,8,-1,10,12,-1,-1,-1,-1,-1,-1],"split_conditions":[1.5947E0,1.093598E0,7.0599265E0,-2.0601118E-2,-1.0257174E0,6.0832796E0,4.083006E0,5.682637E-2,-5.7688147E-1,-1.090746E-2,-5.3256017E-1,9.134343E-2,-5.7812834E-1],"split_indices":[4249,3099,4121,2985,0,2723,3873,0,0,0,0,0,0],"split_type":[0,0,0,0,0,0,0,0,0,0,0,0,0],"sum_hessian":[1.07E3,8.7E1,9.83E2,6.8E1,1.9E1,1.8E2,8.03E2,4.5E1,2.3E1,1.1E2,7E1,7.82E2,2.1E1],"tree_param":{"num_deleted":"0","num_feature":"4336","num_nodes":"13","size_leaf_vector":"1"}},{"base_weights":[4.4008635E-2,1.904211E0,-2.4442124E0,-1.0339144E1,2.3174586E0,-1.0967227E1,-1.2433293E0,-8.131151E-1,2.4448991E-1,-5.83914E-1,1.2730679E-1,2.7176252E-1,-7.4356645E-1,-1.0940745E-2,-4.8737836E-1],"categories":[],"categories_nodes":[],"categories_segments":[],"categories_sizes":[],"default_left":[0,0,0,0,0,0,0,0,0,0,0,0,0,0,0],"id":40,"left_children":[1,3,5,7,9,11,13,-1,-1,-1,-1,-1,-1,-1,-1],"loss_changes":[5.2257583E3,3.3874614E3,4.8741743E3,2.3832097E3,2.1608765E3,4.1832695E3,3.7260938E3,0E0,0E0,0E0,0E0,0E0,0E0,0E0,0E0],"parents":[2147483647,0,0,1,1,2,2,3,3,4,4,5,5,6,6],"right_children":[2,4,6,8,10,12,14,-1,-1,-1,-1,-1,-1,-1,-1],"split_conditions":[-2.9180703E0,5.7278485E0,1.5594E0,-1.7046288E0,-8.5760695E-1,-5.7330246E1,1.1856314E0,-8.131151E-1,2.4448991E-1,-5.83914E-1,1.2730679E-1,2.7176252E-1,-7.4356645E-1,-1.0940745E-2,-4.8737836E-1],"split_indices":[2217,2351,4249,2356,2379,2763,2499,0,0,0,0,0,0,0,0],"split_type":[0,0,0,0,0,0,0,0,0,0,0,0,0,0,0],"sum_hessian":[1.119E3,6.41E2,4.78E2,1.7E1,6.24E2,5.4E1,4.24E2,1.2E1,5E0,6E0,6.18E2,1E1,4.4E1,3.83E2,4.1E1],"tree_param":{"num_deleted":"0","num_feature":"4336","num_nodes":"15","size_leaf_vector":"1"}},{"base_weights":[-4.3806133E-1,-5.8485155E0,3.6954254E-1,3.7788603E-1,-1.1222341E1,9.776333E-1,-8.652505E0,-5.1135135E-1,1.9105285E-1,-1.6386284E-2,-8.8173455E-1,-4.1147548E-1,6.785771E-2,-7.1983504E-1,-2.9151706E-2],"categories":[],"categories_nodes":[],"categories_segments":[],"categories_sizes":[],"default_left":[0,0,0,0,0,0,0,0,0,0,0,0,0,0,0],"id":41,"left_children":[1,3,5,7,9,11,13,-1,-1,-1,-1,-1,-1,-1,-1],"loss_changes":[4.8789814E3,4.873928E3,5.3851084E3,2.823796E3,5.4183945E3,3.2594329E3,2.830396E3,0E0,0E0,0E0,0E0,0E0,0E0,0E0,0E0],"parents":[2147483647,0,0,1,1,2,2,3,3,4,4,5,5,6,6],"right_children":[2,4,6,8,10,12,14,-1,-1,-1,-1,-1,-1,-1,-1],"split_conditions":[1.118346E0,4.2927704E0,1E0,4.347826E-1,-5.806323E0,1.0884354E-2,2.0010395E-1,-5.1135135E-1,1.9105285E-1,-1.6386284E-2,-8.8173455E-1,-4.1147548E-1,6.785771E-2,-7.1983504E-1,-2.9151706E-2],"split_indices":[2737,3774,2176,4096,2490,4087,3869,0,0,0,0,0,0,0,0],"split_type":[0,0,0,0,0,0,0,0,0,0,0,0,0,0,0],"sum_hessian":[1.109E3,1.4E2,9.69E2,6.7E1,7.3E1,9.12E2,5.7E1,1.4E1,5.3E1,2.9E1,4.4E1,3.2E1,8.8E2,3.1E1,2.6E1],"tree_param":{"num_deleted":"0","num_feature":"4336","num_nodes":"15","size_leaf_vector":"1"}},{"base_weights":[-5.4829564E-2,-8.882347E0,5.4603124E-1,-1.7512882E1,-8.501666E-1,8.297979E-1,-1.5380668E1,-1.0660084E-1,-1.0620018E0,1.3929494E-1,-6.0210586E-1,-1.2855703E-1,8.44913E-2,-5.403922E-2,-1.0228623E0],"categories":[],"categories_nodes":[],"categories_segments":[],"categories_sizes":[],"default_left":[0,0,0,0,0,0,0,0,0,0,0,0,0,0,0],"id":42,"left_children":[1,3,5,7,9,11,13,-1,-1,-1,-1,-1,-1,-1,-1],"loss_changes":[5.7429136E3,4.7069375E3,4.645098E3,1.6630283E3,1.8371475E3,2.9494631E3,1.1939976E3,0E0,0E0,0E0,0E0,0E0,0E0,0E0,0E0],"parents":[2147483647,0,0,1,1,2,2,3,3,4,4,5,5,6,6],"right_children":[2,4,6,8,10,12,14,-1,-1,-1,-1,-1,-1,-1,-1],"split_conditions":[1.4104007E0,-6.1111577E-2,1E0,-4.015511E0,1.3414801E0,-7.260828E-3,4.0141354E0,-1.0660084E-1,-1.0620018E0,1.3929494E-1,-6.0210586E-1,-1.2855703E-1,8.44913E-2,-5.403922E-2,-1.0228623E0],"split_indices":[2732,2987,757,2217,3078,2920,2235,0,0,0,0,0,0,0,0],"split_type":[0,0,0,0,0,0,0,0,0,0,0,0,0,0,0],"sum_hessian":[1.073E3,6.4E1,1.009E3,2.8E1,3.6E1,9.96E2,1.3E1,7E0,2.1E1,3E1,6E0,1.99E2,7.97E2,5E0,8E0],"tree_param":{"num_deleted":"0","num_feature":"4336","num_nodes":"15","size_leaf_vector":"1"}},{"base_weights":[-2.872405E-1,-7.15159E0,5.391504E-1,-9.242092E0,5.09847E0,7.411341E-1,-1.3166805E1,2.1856394E-1,-5.4444325E-1,4.5664927E-1,-1.9479941E-1,-1.0703631E-1,8.599644E-2,2.4556935E-2,-1.0125674E0],"categories":[],"categories_nodes":[],"categories_segments":[],"categories_sizes":[],"default_left":[0,0,0,0,0,0,0,0,0,0,0,0,0,0,0],"id":43,"left_children":[1,3,5,7,9,11,13,-1,-1,-1,-1,-1,-1,-1,-1],"loss_changes":[6.4413647E3,3.360289E3,2.857454E3,2.6149639E3,9.404875E2,2.8532205E3,1.5031111E3,0E0,0E0,0E0,0E0,0E0,0E0,0E0,0E0],"parents":[2147483647,0,0,1,1,2,2,3,3,4,4,5,5,6,6],"right_children":[2,4,6,8,10,12,14,-1,-1,-1,-1,-1,-1,-1,-1],"split_conditions":[6.092697E2,1.1876485E1,5.4092836E0,2.1783E0,4.218929E0,2.2048976E0,4.992405E0,2.1856394E-1,-5.4444325E-1,4.5664927E-1,-1.9479941E-1,-1.0703631E-1,8.599644E-2,2.4556935E-2,-1.0125674E0],"split_indices":[4154,3855,4189,3175,2224,2292,4180,0,0,0,0,0,0,0,0],"split_type":[0,0,0,0,0,0,0,0,0,0,0,0,0,0,0],"sum_hessian":[1.127E3,1.17E2,1.01E3,1.01E2,1.6E1,1E3,1E1,1E1,9.1E1,1.1E1,5E0,2.52E2,7.48E2,5E0,5E0],"tree_param":{"num_deleted":"0","num_feature":"4336","num_nodes":"15","size_leaf_vector":"1"}},{"base_weights":[-4.0407324E-1,-3.9372382E0,1.1561918E0,-1.4670109E0,-1.0050181E1,2.2374685E0,-1.4465147E0,-9.3946485E-3,-7.4252504E-1,1.5073858E-1,-7.101852E-1,1.3157491E-1,-4.2301112E-1,-1.5355189E-2,-5.453285E-1],"categories":[],"categories_nodes":[],"categories_segments":[],"categories_sizes":[],"default_left":[0,0,0,0,0,0,0,0,0,0,0,0,0,0,0],"id":44,"left_children":[1,3,5,7,9,11,13,-1,-1,-1,-1,-1,-1,-1,-1],"loss_changes":[6.2468477E3,5.1649546E3,2.2310732E3,4.315667E3,5.5875156E3,2.4628193E3,2.5043914E3,0E0,0E0,0E0,0E0,0E0,0E0,0E0,0E0],"parents":[2147483647,0,0,1,1,2,2,3,3,4,4,5,5,6,6],"right_children":[2,4,6,8,10,12,14,-1,-1,-1,-1,-1,-1,-1,-1],"split_conditions":[1.7934469E0,-1.0970285E0,2.5918908E0,1.19729206E-1,1.7757706E-1,-5.0999374E0,2.8100188E0,-9.3946485E-3,-7.4252504E-1,1.5073858E-1,-7.101852E-1,1.3157491E-1,-4.2301112E-1,-1.5355189E-2,-5.453285E-1],"split_indices":[2731,2424,2250,2975,3343,2318,2430,0,0,0,0,0,0,0,0],"split_type":[0,0,0,0,0,0,0,0,0,0,0,0,0,0,0],"sum_hessian":[1.124E3,3.42E2,7.82E2,2.48E2,9.4E1,5.53E2,2.29E2,2.31E2,1.7E1,2.3E1,7.1E1,5.37E2,1.6E1,2.09E2,2E1],"tree_param":{"num_deleted":"0","num_feature":"4336","num_nodes":"15","size_leaf_vector":"1"}},{"base_weights":[-8.089117E-1,-1.3436194E1,-3.8218915E-1,-2.0096188E1,1.1626054E0,2.0206344E-1,-6.153309E0,-2.0487042E-1,-1.1533265E0,-1.5924516E-1,2.2977601E-1,5.123607E-2,-1.9484E-1,-8.178495E-3,-6.249142E-1],"categories":[],"categories_nodes":[],"categories_segments":[],"categories_sizes":[],"default_left":[0,0,0,0,0,0,0,0,0,0,0,0,0,0,0],"id":45,"left_children":[1,3,5,7,9,11,13,-1,-1,-1,-1,-1,-1,-1,-1],"loss_changes":[5.9324536E3,3.6189175E3,3.631488E3,7.127656E2,3.1211652E2,3.3275737E3,3.750982E3,0E0,0E0,0E0,0E0,0E0,0E0,0E0,0E0],"parents":[2147483647,0,0,1,1,2,2,3,3,4,4,5,5,6,6],"right_children":[2,4,6,8,10,12,14,-1,-1,-1,-1,-1,-1,-1,-1],"split_conditions":[5.539074E0,-3.1170459E-4,1.7726092E-1,1.0165867E0,2.0771212E1,8.823531E-2,3.6363637E-1,-2.0487042E-1,-1.1533265E0,-1.5924516E-1,2.2977601E-1,5.123607E-2,-1.9484E-1,-8.178495E-3,-6.249142E-1],"split_indices":[4151,2861,2888,3078,3861,2958,4231,0,0,0,0,0,0,0,0],"split_type":[0,0,0,0,0,0,0,0,0,0,0,0,0,0,0],"sum_hessian":[1.101E3,3.1E1,1.07E3,2E1,1.1E1,9.76E2,9.4E1,5E0,1.5E1,5E0,6E0,8.16E2,1.6E2,5.1E1,4.3E1],"tree_param":{"num_deleted":"0","num_feature":"4336","num_nodes":"15","size_leaf_vector":"1"}},{"base_weights":[-2.2224505E-1,-6.583327E0,6.014501E-1,-2.6294332E0,-1.7444504E1,2.4123614E0,-1.0774568E0,-5.4308003E-1,1.15399204E-1,-1.0751142E-1,-1.022067E0,1.4924626E-1,-1.5524301E-1,1.3761081E-2,-3.052298E-1],"categories":[],"categories_nodes":[],"categories_segments":[],"categories_sizes":[],"default_left":[0,0,0,0,0,0,0,0,0,0,0,0,0,0,0],"id":46,"left_children":[1,3,5,7,9,11,13,-1,-1,-1,-1,-1,-1,-1,-1],"loss_changes":[5.8049053E3,5.2225264E3,2.998755E3,4.1501167E3,1.2905088E3,1.5436748E3,3.497436E3,0E0,0E0,0E0,0E0,0E0,0E0,0E0,0E0],"parents":[2147483647,0,0,1,1,2,2,3,3,4,4,5,5,6,6],"right_children":[2,4,6,8,10,12,14,-1,-1,-1,-1,-1,-1,-1,-1],"split_conditions":[4.863681E0,2.023381E-2,7.146774E-1,-3.5835556E1,9.078452E-1,-1.4619385E0,-4.144493E-1,-5.4308003E-1,1.15399204E-1,-1.0751142E-1,-1.022067E0,1.4924626E-1,-1.5524301E-1,1.3761081E-2,-3.052298E-1],"split_indices":[3918,3054,3133,2763,3070,2343,3157,0,0,0,0,0,0,0,0],"split_type":[0,0,0,0,0,0,0,0,0,0,0,0,0,0,0],"sum_hessian":[1.099E3,1.22E2,9.77E2,9.4E1,2.8E1,4.69E2,5.08E2,3.3E1,6.1E1,6E0,2.2E1,4.27E2,4.2E1,4.04E2,1.04E2],"tree_param":{"num_deleted":"0","num_feature":"4336","num_nodes":"15","size_leaf_vector":"1"}},{"base_weights":[-1.7798305E-1,1.253002E-1,-1.4070826E1,4.2886388E-1,-1.0790186E1,-8.5793114E-1,-5.792999E-2,4.294113E-2,-3.8184038E-1,9.469176E-2,-8.340935E-1],"categories":[],"categories_nodes":[],"categories_segments":[],"categories_sizes":[],"default_left":[0,0,0,0,0,0,0,0,0,0,0],"id":47,"left_children":[1,3,5,7,9,-1,-1,-1,-1,-1,-1],"loss_changes":[4.733506E3,3.6736284E3,8.5565576E2,3.7670498E3,2.40135E3,0E0,0E0,0E0,0E0,0E0,0E0],"parents":[2147483647,0,0,1,1,2,2,3,3,4,4],"right_children":[2,4,6,8,10,-1,-1,-1,-1,-1,-1],"split_conditions":[-2.853561E-1,4.27629E0,1.0374136E0,1E0,-2.037151E0,-8.5793114E-1,-5.792999E-2,4.294113E-2,-3.8184038E-1,9.469176E-2,-8.340935E-1],"split_indices":[2440,3873,3129,2176,2289,0,0,0,0,0,0],"split_type":[0,0,0,0,0,0,0,0,0,0,0],"sum_hessian":[1.116E3,1.097E3,1.9E1,1.072E3,2.5E1,1.4E1,5E0,1.022E3,5E1,9E0,1.6E1],"tree_param":{"num_deleted":"0","num_feature":"4336","num_nodes":"11","size_leaf_vector":"1"}},{"base_weights":[-1.8432815E-2,-7.0600376E0,6.294724E-1,5.669582E0,-1.1285322E1,1.0923756E0,-6.378161E0,4.61344E-1,-2.312768E-1,-7.221239E-1,4.922692E-2,1.1226956E-1,-5.1739115E-2,1.0299518E-1,-7.054283E-1],"categories":[],"categories_nodes":[],"categories_segments":[],"categories_sizes":[],"default_left":[0,0,0,0,0,0,0,0,0,0,0,0,0,0,0],"id":48,"left_children":[1,3,5,7,9,11,13,-1,-1,-1,-1,-1,-1,-1,-1],"loss_changes":[4.9273276E3,5.215027E3,3.2424824E3,1.1660496E3,2.7840928E3,2.2976045E3,4.190755E3,0E0,0E0,0E0,0E0,0E0,0E0,0E0,0E0],"parents":[2147483647,0,0,1,1,2,2,3,3,4,4,5,5,6,6],"right_children":[2,4,6,8,10,12,14,-1,-1,-1,-1,-1,-1,-1,-1],"split_conditions":[2.6363184E0,-1.7402349E-2,1E0,7.271772E0,1.0367647E-2,1.1351125E0,-7.2551074E0,4.61344E-1,-2.312768E-1,-7.221239E-1,4.922692E-2,1.1226956E-1,-5.1739115E-2,1.0299518E-1,-7.054283E-1],"split_indices":[2308,2953,2176,2650,4090,3379,2301,0,0,0,0,0,0,0,0],"split_type":[0,0,0,0,0,0,0,0,0,0,0,0,0,0,0],"sum_hessian":[1.07E3,8.6E1,9.84E2,2.1E1,6.5E1,9.27E2,5.7E1,1.6E1,5E0,5.1E1,1.4E1,6.01E2,3.26E2,2.9E1,2.8E1],"tree_param":{"num_deleted":"0","num_feature":"4336","num_nodes":"15","size_leaf_vector":"1"}},{"base_weights":[-4.015314E-1,-5.065962E0,4.8407778E-1,-9.997733E0,-7.478752E-2,7.9325044E-1,-1.0411454E1,2.0421147E-1,-6.394178E-1,1.551836E-1,-4.8631737E-1,2.6587546E-1,2.2197664E-3,-7.90607E-1,-4.067633E-2],"categories":[],"categories_nodes":[],"categories_segments":[],"categories_sizes":[],"default_left":[0,0,0,0,0,0,0,0,0,0,0,0,0,0,0],"id":49,"left_children":[1,3,5,7,9,11,13,-1,-1,-1,-1,-1,-1,-1,-1],"loss_changes":[4.738427E3,4.4998604E3,3.294401E3,3.8773887E3,3.0965999E3,3.1965688E3,1.3335747E3,0E0,0E0,0E0,0E0,0E0,0E0,0E0,0E0],"parents":[2147483647,0,0,1,1,2,2,3,3,4,4,5,5,6,6],"right_children":[2,4,6,8,10,12,14,-1,-1,-1,-1,-1,-1,-1,-1],"split_conditions":[5.8388233E0,2E0,4.413793E-1,5.875E-1,1.399678E0,9.104387E-1,1.125184E0,2.0421147E-1,-6.394178E-1,1.551836E-1,-4.8631737E-1,2.6587546E-1,2.2197664E-3,-7.90607E-1,-4.067633E-2],"split_indices":[3922,3440,3726,3731,2226,3115,3119,0,0,0,0,0,0,0,0],"split_type":[0,0,0,0,0,0,0,0,0,0,0,0,0,0,0],"sum_hessian":[1.139E3,1.78E2,9.61E2,8.7E1,9.1E1,9.39E2,2.2E1,1.4E1,7.3E1,7.1E1,2E1,1.29E2,8.1E2,1.2E1,1E1],"tree_param":{"num_deleted":"0","num_feature":"4336","num_nodes":"15","size_leaf_vector":"1"}},{"base_weights":[-1.0252559E-1,-3.1412559E0,1.2035449E0,-5.642462E0,3.836564E0,-1.0147984E1,1.5884022E0,1.6150746E-1,-4.250667E-1,-4.1503462E-1,2.8883776E-1,9.163105E-2,-7.4021757E-1,1.07999586E-1,-2.7938294E-1],"categories":[],"categories_nodes":[],"categories_segments":[],"categories_sizes":[],"default_left":[0,0,0,0,0,0,0,0,0,0,0,0,0,0,0],"id":50,"left_children":[1,3,5,7,9,11,13,-1,-1,-1,-1,-1,-1,-1,-1],"loss_changes":[4.5554307E3,6.1296924E3,3.5878208E3,6.631438E3,2.4530708E3,1.6431755E3,3.2634795E3,0E0,0E0,0E0,0E0,0E0,0E0,0E0,0E0],"parents":[2147483647,0,0,1,1,2,2,3,3,4,4,5,5,6,6],"right_children":[2,4,6,8,10,12,14,-1,-1,-1,-1,-1,-1,-1,-1],"split_conditions":[1.7934469E0,1.999644E0,9.125582E0,-8.124407E-2,6.938362E-1,7.745098E-1,-1.8186748E-1,1.6150746E-1,-4.250667E-1,-4.1503462E-1,2.8883776E-1,9.163105E-2,-7.4021757E-1,1.07999586E-1,-2.7938294E-1],"split_indices":[2731,2765,2237,3040,3065,3758,2749,0,0,0,0,0,0,0,0],"split_type":[0,0,0,0,0,0,0,0,0,0,0,0,0,0,0],"sum_hessian":[1.138E3,3.4E2,7.98E2,2.51E2,8.9E1,2.2E1,7.76E2,6.1E1,1.9E2,1E1,7.9E1,7E0,1.5E1,7.22E2,5.4E1],"tree_param":{"num_deleted":"0","num_feature":"4336","num_nodes":"15","size_leaf_vector":"1"}},{"base_weights":[-2.480637E-1,-4.233008E0,8.6990976E-1,-8.992401E-1,-1.0459453E1,1.3427757E0,-4.730085E0,9.540781E-2,-5.0268716E-1,-4.892569E-3,-7.348175E-1,8.835024E-2,-2.9101452E-1,-6.357082E-1,2.6373023E-2],"categories":[],"categories_nodes":[],"categories_segments":[],"categories_sizes":[],"default_left":[0,0,0,0,0,0,0,0,0,0,0,0,0,0,0],"id":51,"left_children":[1,3,5,7,9,11,13,-1,-1,-1,-1,-1,-1,-1,-1],"loss_changes":[5.0440576E3,5.0997017E3,2.3749397E3,4.388688E3,3.7668203E3,2.542817E3,2.9731157E3,0E0,0E0,0E0,0E0,0E0,0E0,0E0,0E0],"parents":[2147483647,0,0,1,1,2,2,3,3,4,4,5,5,6,6],"right_children":[2,4,6,8,10,12,14,-1,-1,-1,-1,-1,-1,-1,-1],"split_conditions":[2.4769E0,-8.110911E-1,1.8750246E-1,1.3512313E0,8.4754574E-1,1.4014901E0,4.5296764E1,9.540781E-2,-5.0268716E-1,-4.892569E-3,-7.348175E-1,8.835024E-2,-2.9101452E-1,-6.357082E-1,2.6373023E-2],"split_indices":[4249,2382,2888,2252,3128,3078,3806,0,0,0,0,0,0,0,0],"split_type":[0,0,0,0,0,0,0,0,0,0,0,0,0,0,0],"sum_hessian":[1.123E3,2.43E2,8.8E2,1.62E2,8.1E1,8.15E2,6.5E1,1.27E2,3.5E1,2.5E1,5.6E1,7.73E2,4.2E1,2.3E1,4.2E1],"tree_param":{"num_deleted":"0","num_feature":"4336","num_nodes":"15","size_leaf_vector":"1"}},{"base_weights":[-9.7918406E-2,1.2704E-1,-7.0618385E-1,-5.9774737E0,6.425655E-1,-4.5806652E-1,2.5038132E-1,4.8163258E-2,-3.750426E-1],"categories":[],"categories_nodes":[],"categories_segments":[],"categories_sizes":[],"default_left":[0,0,0,0,0,0,0,0,0],"id":52,"left_children":[1,3,-1,5,7,-1,-1,-1,-1],"loss_changes":[3.5978474E3,3.5559353E3,0E0,3.3075962E3,2.7541392E3,0E0,0E0,0E0,0E0],"parents":[2147483647,0,0,1,1,3,3,4,4],"right_children":[2,4,-1,6,8,-1,-1,-1,-1],"split_conditions":[1E0,2.7202778E0,-7.0618385E-1,1.7331122E-1,1.2943336E0,-4.5806652E-1,2.5038132E-1,4.8163258E-2,-3.750426E-1],"split_indices":[2032,2308,0,2833,3153,0,0,0,0],"split_type":[0,0,0,0,0,0,0,0,0],"sum_hessian":[1.132E3,1.119E3,1.3E1,8.3E1,1.036E3,6.5E1,1.8E1,1.001E3,3.5E1],"tree_param":{"num_deleted":"0","num_feature":"4336","num_nodes":"9","size_leaf_vector":"1"}},{"base_weights":[-2.2552963E-1,7.074468E-1,-3.6199117E0,-8.740454E-1,3.0902886E0,3.5041091E0,-6.2296267E0,8.008462E-2,-1.9583748E-1,1.7617947E-1,-3.8339818E-1,2.2096173E-1,-1.9558631E-1,-7.872245E-1,-2.1792631E-1],"categories":[],"categories_nodes":[],"categories_segments":[],"categories_sizes":[],"default_left":[0,0,0,0,0,0,0,0,0,0,0,0,0,0,0],"id":53,"left_children":[1,3,5,7,9,11,13,-1,-1,-1,-1,-1,-1,-1,-1],"loss_changes":[3.496662E3,3.2809692E3,4.534235E3,3.986391E3,1.75224E3,5.4117523E2,2.7882505E3,0E0,0E0,0E0,0E0,0E0,0E0,0E0,0E0],"parents":[2147483647,0,0,1,1,2,2,3,3,4,4,5,5,6,6],"right_children":[2,4,6,8,10,12,14,-1,-1,-1,-1,-1,-1,-1,-1],"split_conditions":[6.243873E0,2.4001932E-1,7.2157675E-1,6.485837E-1,3.3895978E-1,-7.8288293E0,7.8307486E0,8.008462E-2,-1.9583748E-1,1.7617947E-1,-3.8339818E-1,2.2096173E-1,-1.9558631E-1,-7.872245E-1,-2.1792631E-1],"split_indices":[2850,3869,3119,3125,2402,2341,3925,0,0,0,0,0,0,0,0],"split_type":[0,0,0,0,0,0,0,0,0,0,0,0,0,0,0],"sum_hessian":[1.095E3,8.62E2,2.33E2,5.2E2,3.42E2,6.2E1,1.71E2,2.88E2,2.32E2,3.32E2,1E1,5.7E1,5E0,2.2E1,1.49E2],"tree_param":{"num_deleted":"0","num_feature":"4336","num_nodes":"15","size_leaf_vector":"1"}},{"base_weights":[-3.879841E-1,-9.36128E0,9.3552314E-2,1.5758912E-1,-1.17278805E1,5.796891E-1,-6.5575747E0,-7.111297E-1,1.6729723E-1,1.0337205E-1,-5.9129436E-2,-6.6452116E-1,1.3240753E-1],"categories":[],"categories_nodes":[],"categories_segments":[],"categories_sizes":[],"default_left":[0,0,0,0,0,0,0,0,0,0,0,0,0],"id":54,"left_children":[1,3,5,-1,7,9,11,-1,-1,-1,-1,-1,-1],"loss_changes":[4.8361484E3,1.8736406E3,3.4651682E3,0E0,2.081667E3,2.6289016E3,4.7016343E3,0E0,0E0,0E0,0E0,0E0,0E0],"parents":[2147483647,0,0,1,1,2,2,4,4,5,5,6,6],"right_children":[2,4,6,-1,8,10,12,-1,-1,-1,-1,-1,-1],"split_conditions":[-5.328256E-1,-3.87428E-1,3.2237484E0,1.5758912E-1,2.882157E-1,-3.080082E0,-1.3555551E-3,-7.111297E-1,1.6729723E-1,1.0337205E-1,-5.9129436E-2,-6.6452116E-1,1.3240753E-1],"split_indices":[2956,2751,3873,0,2963,2217,2858,0,0,0,0,0,0],"split_type":[0,0,0,0,0,0,0,0,0,0,0,0,0],"sum_hessian":[1.113E3,5.2E1,1.061E3,8E0,4.4E1,9.93E2,6.8E1,3.8E1,6E0,5.38E2,4.55E2,3.8E1,3E1],"tree_param":{"num_deleted":"0","num_feature":"4336","num_nodes":"13","size_leaf_vector":"1"}},{"base_weights":[-6.6211306E-2,-9.051092E0,3.384312E-1,-1.3718838E1,4.3134694E0,-4.590773E0,1.005876E0,-8.62747E-1,1.558107E-1,3.4372568E-1,-4.53259E-2,2.6565114E-1,-4.0113592E-1,7.4273676E-2,-2.3451374E-1],"categories":[],"categories_nodes":[],"categories_segments":[],"categories_sizes":[],"default_left":[0,0,0,0,0,0,0,0,0,0,0,0,0,0,0],"id":55,"left_children":[1,3,5,7,9,11,13,-1,-1,-1,-1,-1,-1,-1,-1],"loss_changes":[4.3026357E3,3.4783208E3,3.750268E3,2.5919521E3,2.5902267E2,4.835938E3,2.7718394E3,0E0,0E0,0E0,0E0,0E0,0E0,0E0,0E0],"parents":[2147483647,0,0,1,1,2,2,3,3,4,4,5,5,6,6],"right_children":[2,4,6,8,10,12,14,-1,-1,-1,-1,-1,-1,-1,-1],"split_conditions":[5.6873865E0,4.194323E0,6.500996E-1,5.7776537E0,8.95892E-1,1.6811015E-1,2E0,-8.62747E-1,1.558107E-1,3.4372568E-1,-4.53259E-2,2.6565114E-1,-4.0113592E-1,7.4273676E-2,-2.3451374E-1],"split_indices":[4188,2254,3378,3851,2866,3747,4324,0,0,0,0,0,0,0,0],"split_type":[0,0,0,0,0,0,0,0,0,0,0,0,0,0,0],"sum_hessian":[1.174E3,4.6E1,1.128E3,3.4E1,1.2E1,1.31E2,9.97E2,2.8E1,6E0,7E0,5E0,3.3E1,9.8E1,9.23E2,7.4E1],"tree_param":{"num_deleted":"0","num_feature":"4336","num_nodes":"15","size_leaf_vector":"1"}},{"base_weights":[-4.2286128E-1,-1.327723E-1,-1.3678382E1,-1.0232206E1,1.9264638E-1,-3.2948993E-2,-1.0394807E0,-8.1367826E-1,6.5018035E-2,-7.827896E-2,9.2601866E-2],"categories":[],"categories_nodes":[],"categories_segments":[],"categories_sizes":[],"default_left":[0,0,0,0,0,0,0,0,0,0,0],"id":56,"left_children":[1,3,5,7,9,-1,-1,-1,-1,-1,-1],"loss_changes":[4.4885166E3,3.7903865E3,2.2439556E3,2.6155107E3,3.279302E3,0E0,0E0,0E0,0E0,0E0,0E0],"parents":[2147483647,0,0,1,1,2,2,3,3,4,4],"right_children":[2,4,6,8,10,-1,-1,-1,-1,-1,-1],"split_conditions":[1E0,-1.6283701E3,8.332991E0,-1.5051422E-1,5.045927E-1,-3.2948993E-2,-1.0394807E0,-8.1367826E-1,6.5018035E-2,-7.827896E-2,9.2601866E-2],"split_indices":[790,2808,3899,2984,2813,0,0,0,0,0,0],"split_type":[0,0,0,0,0,0,0,0,0,0,0],"sum_hessian":[1.165E3,1.145E3,2E1,3.1E1,1.114E3,9E0,1.1E1,1.9E1,1.2E1,5.41E2,5.73E2],"tree_param":{"num_deleted":"0","num_feature":"4336","num_nodes":"11","size_leaf_vector":"1"}},{"base_weights":[-5.2766967E-1,-3.5149235E-1,-9.044327E-1,-1.1690915E-1,-1.3125508E1,-1.6570354E-1,3.7277836E-2,-8.4538555E-1,-4.3972503E-2],"categories":[],"categories_nodes":[],"categories_segments":[],"categories_sizes":[],"default_left":[0,0,0,0,0,0,0,0,0],"id":57,"left_children":[1,3,-1,5,7,-1,-1,-1,-1],"loss_changes":[3.4252869E3,3.3231887E3,0E0,3.037526E3,8.502158E2,0E0,0E0,0E0,0E0],"parents":[2147483647,0,0,1,1,3,3,4,4],"right_children":[2,4,-1,6,8,-1,-1,-1,-1],"split_conditions":[5.4092836E0,1E0,-9.044327E-1,6.923737E0,5.3674912E0,-1.6570354E-1,3.7277836E-2,-8.4538555E-1,-4.3972503E-2],"split_indices":[4189,757,0,4183,2305,0,0,0,0],"split_type":[0,0,0,0,0,0,0,0,0],"sum_hessian":[1.113E3,1.107E3,6E0,1.092E3,1.5E1,2.29E2,8.63E2,1E1,5E0],"tree_param":{"num_deleted":"0","num_feature":"4336","num_nodes":"9","size_leaf_vector":"1"}},{"base_weights":[-2.4835116E-1,1.3393867E0,-2.6939747E0,-5.94779E0,1.9275957E0,-6.798855E0,-3.0467734E-1,-5.232012E-1,1.6028516E-1,3.4658235E-2,2.6478514E-1,-7.081356E-2,-5.736026E-1,-6.907142E-1,1.9413019E-2],"categories":[],"categories_nodes":[],"categories_segments":[],"categories_sizes":[],"default_left":[0,0,0,0,0,0,0,0,0,0,0,0,0,0,0],"id":58,"left_children":[1,3,5,7,9,11,13,-1,-1,-1,-1,-1,-1,-1,-1],"loss_changes":[4.351615E3,2.971663E3,4.314163E3,2.3180933E3,2.6128687E3,3.9924023E3,2.686774E3,0E0,0E0,0E0,0E0,0E0,0E0,0E0,0E0],"parents":[2147483647,0,0,1,1,2,2,3,3,4,4,5,5,6,6],"right_children":[2,4,6,8,10,12,14,-1,-1,-1,-1,-1,-1,-1,-1],"split_conditions":[1E0,-2.1510543E-1,2.7177832E1,3.715229E0,-1.0952845E1,-7.289863E0,-2.0590325E-1,-5.232012E-1,1.6028516E-1,3.4658235E-2,2.6478514E-1,-7.081356E-2,-5.736026E-1,-6.907142E-1,1.9413019E-2],"split_indices":[2518,2983,3811,3170,2325,2428,3041,0,0,0,0,0,0,0,0],"split_type":[0,0,0,0,0,0,0,0,0,0,0,0,0,0,0],"sum_hessian":[1.111E3,6.75E2,4.36E2,4.7E1,6.28E2,1.57E2,2.79E2,3.1E1,1.6E1,4.64E2,1.64E2,7.6E1,8.1E1,9E0,2.7E2],"tree_param":{"num_deleted":"0","num_feature":"4336","num_nodes":"15","size_leaf_vector":"1"}},{"base_weights":[-3.6688545E-1,-6.5571656E0,2.9397154E-1,-1.1773075E1,8.7723315E-1,-7.0236754E0,7.8943944E-1,-8.386038E-1,1.3448045E-1,-2.6203266E-1,1.6386168E-1,-6.475701E-1,8.773144E-2,7.935204E-2,-1.1258514E-1],"categories":[],"categories_nodes":[],"categories_segments":[],"categories_sizes":[],"default_left":[0,0,0,0,0,0,0,0,0,0,0,0,0,0,0],"id":59,"left_children":[1,3,5,7,9,11,13,-1,-1,-1,-1,-1,-1,-1,-1],"loss_changes":[4.6656973E3,4.318215E3,3.7724065E3,4.9263916E3,8.1982434E2,3.5490798E3,2.375503E3,0E0,0E0,0E0,0E0,0E0,0E0,0E0,0E0],"parents":[2147483647,0,0,1,1,2,2,3,3,4,4,5,5,6,6],"right_children":[2,4,6,8,10,12,14,-1,-1,-1,-1,-1,-1,-1,-1],"split_conditions":[5.9483395E0,3.8337E0,1.1699E0,1.6152913E-2,-2.1956859E-3,1.0584149E0,-5.386232E-1,-8.386038E-1,1.3448045E-1,-2.6203266E-1,1.6386168E-1,-6.475701E-1,8.773144E-2,7.935204E-2,-1.1258514E-1],"split_indices":[4188,4249,4249,4129,2858,3098,2382,0,0,0,0,0,0,0,0],"split_type":[0,0,0,0,0,0,0,0,0,0,0,0,0,0,0],"sum_hessian":[1.133E3,1.05E2,1.028E3,6E1,4.5E1,6.1E1,9.67E2,4.4E1,1.6E1,1.1E1,3.4E1,3.5E1,2.6E1,7.68E2,1.99E2],"tree_param":{"num_deleted":"0","num_feature":"4336","num_nodes":"15","size_leaf_vector":"1"}},{"base_weights":[-5.1343285E-2,-1.3708732E0,2.1874657E0,-6.7147164E0,-2.5937757E-1,-5.200157E0,2.7483373E0,-1.2752628E-1,-7.910594E-1,-5.867458E-1,1.4507838E-2,-5.5084705E-1,3.541722E-1,9.9820204E-2,4.4423476E-1],"categories":[],"categories_nodes":[],"categories_segments":[],"categories_sizes":[],"default_left":[0,0,0,0,0,0,0,0,0,0,0,0,0,0,0],"id":60,"left_children":[1,3,5,7,9,11,13,-1,-1,-1,-1,-1,-1,-1,-1],"loss_changes":[3.3058635E3,4.1721133E3,1.7907692E3,4.384852E3,3.7262163E3,2.6055657E3,1.7051213E3,0E0,0E0,0E0,0E0,0E0,0E0,0E0,0E0],"parents":[2147483647,0,0,1,1,2,2,3,3,4,4,5,5,6,6],"right_children":[2,4,6,8,10,12,14,-1,-1,-1,-1,-1,-1,-1,-1],"split_conditions":[-1.3363919E-1,9.20065E1,1.2E1,1.9995033E2,2.4425339E-2,-1.4105983E0,-3.0882647E0,-1.2752628E-1,-7.910594E-1,-5.867458E-1,1.4507838E-2,-5.5084705E-1,3.541722E-1,9.9820204E-2,4.4423476E-1],"split_indices":[2956,4250,2558,3781,3347,2257,2496,0,0,0,0,0,0,0,0],"split_type":[0,0,0,0,0,0,0,0,0,0,0,0,0,0,0],"sum_hessian":[1.109E3,6.99E2,4.1E2,1.16E2,5.83E2,2.6E1,3.84E2,8.4E1,3.2E1,2.2E1,5.61E2,1.8E1,8E0,3.48E2,3.6E1],"tree_param":{"num_deleted":"0","num_feature":"4336","num_nodes":"15","size_leaf_vector":"1"}},{"base_weights":[-2.4292688E-1,4.4829962E-1,-5.229432E0,6.229743E-1,-6.6974014E-1,-9.924941E0,1.4446939E0,1.3923146E-2,3.4971187E-1,-7.158581E-1,-5.1608644E-3,1.7276858E-1,-2.7676126E-1],"categories":[],"categories_nodes":[],"categories_segments":[],"categories_sizes":[],"default_left":[0,0,0,0,0,0,0,0,0,0,0,0,0],"id":61,"left_children":[1,3,5,7,-1,9,11,-1,-1,-1,-1,-1,-1],"loss_changes":[4.0208335E3,2.5213545E3,4.5225967E3,2.2240168E3,0E0,3.6148594E3,9.795885E2,0E0,0E0,0E0,0E0,0E0,0E0],"parents":[2147483647,0,0,1,1,2,2,3,3,5,5,6,6],"right_children":[2,4,6,8,-1,10,12,-1,-1,-1,-1,-1,-1],"split_conditions":[6.97865E-2,9.3572545E-1,1.3862595E-1,5.580576E-1,-6.6974014E-1,1.0969244E1,3.381034E0,1.3923146E-2,3.4971187E-1,-7.158581E-1,-5.1608644E-3,1.7276858E-1,-2.7676126E-1],"split_indices":[3054,3596,3316,2420,0,3851,2674,0,0,0,0,0,0],"split_type":[0,0,0,0,0,0,0,0,0,0,0,0,0],"sum_hessian":[1.158E3,1.021E3,1.37E2,1.013E3,8E0,7.9E1,5.8E1,9.66E2,4.7E1,5.3E1,2.6E1,4.7E1,1.1E1],"tree_param":{"num_deleted":"0","num_feature":"4336","num_nodes":"13","size_leaf_vector":"1"}},{"base_weights":[-1.9744721E-1,1.3213345E-1,-1.1705045E1,8.577327E-1,-3.605982E0,7.511049E-2,-1.642459E1,-2.2192256E-1,6.674665E-2,-6.5297127E-1,-7.381731E-2,-1.281463E-1,-9.69634E-1],"categories":[],"categories_nodes":[],"categories_segments":[],"categories_sizes":[],"default_left":[0,0,0,0,0,0,0,0,0,0,0,0,0],"id":62,"left_children":[1,3,5,7,9,-1,11,-1,-1,-1,-1,-1,-1],"loss_changes":[4.359096E3,3.0530483E3,2.1194897E3,2.4100696E3,3.5863728E3,0E0,7.3671826E2,0E0,0E0,0E0,0E0,0E0,0E0],"parents":[2147483647,0,0,1,1,2,2,3,3,4,4,6,6],"right_children":[2,4,6,8,10,-1,12,-1,-1,-1,-1,-1,-1],"split_conditions":[1.25E-1,1E0,-8.303747E0,1.5947E0,2.3439612E2,7.511049E-2,-2.5180535E0,-2.2192256E-1,6.674665E-2,-6.5297127E-1,-7.381731E-2,-1.281463E-1,-9.69634E-1],"split_indices":[3887,4271,2771,4249,3209,0,2841,0,0,0,0,0,0],"split_type":[0,0,0,0,0,0,0,0,0,0,0,0,0],"sum_hessian":[1.142E3,1.115E3,2.7E1,9.37E2,1.78E2,8E0,1.9E1,7.4E1,8.63E2,2.8E1,1.5E2,5E0,1.4E1],"tree_param":{"num_deleted":"0","num_feature":"4336","num_nodes":"13","size_leaf_vector":"1"}},{"base_weights":[-4.2622995E-1,3.7561846E-1,-4.1728745E0,9.24703E-1,-4.3767853E0,-1.1515962E1,-6.9670093E-1,-3.1836835E-1,6.1640646E-2,1.1950673E-1,-4.0026155E-1,1.4265768E-1,-7.2777593E-1,1.8958585E-1,-2.275009E-1],"categories":[],"categories_nodes":[],"categories_segments":[],"categories_sizes":[],"default_left":[0,0,0,0,0,0,0,0,0,0,0,0,0,0,0],"id":63,"left_children":[1,3,5,7,9,11,13,-1,-1,-1,-1,-1,-1,-1,-1],"loss_changes":[3.3068733E3,2.3919004E3,4.9106777E3,1.8788313E3,2.428803E3,2.916712E3,2.4557932E3,0E0,0E0,0E0,0E0,0E0,0E0,0E0,0E0],"parents":[2147483647,0,0,1,1,2,2,3,3,4,4,5,5,6,6],"right_children":[2,4,6,8,10,12,14,-1,-1,-1,-1,-1,-1,-1,-1],"split_conditions":[8.65441E-2,9.7524184E-1,3.405952E0,2.4341207E-2,3.55894E0,1.3909069E-1,1.6175658E2,-3.1836835E-1,6.1640646E-2,1.1950673E-1,-4.0026155E-1,1.4265768E-1,-7.2777593E-1,1.8958585E-1,-2.275009E-1],"split_indices":[2958,3101,2419,3347,2322,3900,2746,0,0,0,0,0,0,0,0],"split_type":[0,0,0,0,0,0,0,0,0,0,0,0,0,0,0],"sum_hessian":[1.093E3,9.04E2,1.89E2,8.14E2,9E1,5.7E1,1.32E2,2.9E1,7.85E2,3.2E1,5.8E1,1E1,4.7E1,6.1E1,7.1E1],"tree_param":{"num_deleted":"0","num_feature":"4336","num_nodes":"15","size_leaf_vector":"1"}},{"base_weights":[2.2118768E-1,-1.1278494E1,5.164673E-1,-8.589727E-1,5.8616932E-2,2.6957934E0,-5.33657E-1,1.6128908E-1,-2.4358504E-1,-2.439885E-1,3.7081175E-2],"categories":[],"categories_nodes":[],"categories_segments":[],"categories_sizes":[],"default_left":[0,0,0,0,0,0,0,0,0,0,0],"id":64,"left_children":[1,3,5,-1,-1,7,9,-1,-1,-1,-1],"loss_changes":[3.9330137E3,2.2329854E3,2.5843318E3,0E0,0E0,1.5503306E3,4.2529883E3,0E0,0E0,0E0,0E0],"parents":[2147483647,0,0,1,1,2,2,5,5,6,6],"right_children":[2,4,6,-1,-1,8,10,-1,-1,-1,-1],"split_conditions":[2.4425339E-2,7.4087667E0,-7.886871E-2,-8.589727E-1,5.8616932E-2,-8.897133E-1,4.417151E0,1.6128908E-1,-2.4358504E-1,-2.439885E-1,3.7081175E-2],"split_indices":[3347,2417,2968,0,0,2297,3863,0,0,0,0],"split_type":[0,0,0,0,0,0,0,0,0,0,0],"sum_hessian":[1.145E3,2.4E1,1.121E3,1.5E1,9E0,3.62E2,7.59E2,3.41E2,2.1E1,1.69E2,5.9E2],"tree_param":{"num_deleted":"0","num_feature":"4336","num_nodes":"11","size_leaf_vector":"1"}},{"base_weights":[-3.176558E-1,-5.708599E0,4.174914E-1,-1.8112572E1,-2.820649E0,7.1049136E-1,-1.0796006E1,-1.0896102E0,-1.0274916E-1,2.568911E-2,-5.863426E-1,-4.3272812E-2,1.1152899E-1,-9.25099E-1,9.296973E-2],"categories":[],"categories_nodes":[],"categories_segments":[],"categories_sizes":[],"default_left":[0,0,0,0,0,0,0,0,0,0,0,0,0,0,0],"id":65,"left_children":[1,3,5,7,9,11,13,-1,-1,-1,-1,-1,-1,-1,-1],"loss_changes":[4.3600063E3,4.470972E3,3.2243313E3,1.1917666E3,3.3870208E3,2.2855896E3,2.6117312E3,0E0,0E0,0E0,0E0,0E0,0E0,0E0,0E0],"parents":[2147483647,0,0,1,1,2,2,3,3,4,4,5,5,6,6],"right_children":[2,4,6,8,10,12,14,-1,-1,-1,-1,-1,-1,-1,-1],"split_conditions":[6.0932403E0,-1.9193472E1,3.4615386E-1,3.7049355E1,1.0970429E0,-2.610463E2,1.4E0,-1.0896102E0,-1.0274916E-1,2.568911E-2,-5.863426E-1,-4.3272812E-2,1.1152899E-1,-9.25099E-1,9.296973E-2],"split_indices":[4188,2781,4067,4183,3143,2810,4075,0,0,0,0,0,0,0,0],"split_type":[0,0,0,0,0,0,0,0,0,0,0,0,0,0,0],"sum_hessian":[1.092E3,1.27E2,9.65E2,1.9E1,1.08E2,9.45E2,2E1,1.4E1,5E0,8.2E1,2.6E1,4.65E2,4.8E2,1.1E1,9E0],"tree_param":{"num_deleted":"0","num_feature":"4336","num_nodes":"15","size_leaf_vector":"1"}},{"base_weights":[-2.8004965E-1,-1.1409663E1,-1.32653825E-2,1.19645655E-1,-7.96388E-1,-6.5470057E0,3.8287213E-1,-7.1813476E-1,-8.777247E-2,2.9639572E-2,-6.034088E-1],"categories":[],"categories_nodes":[],"categories_segments":[],"categories_sizes":[],"default_left":[0,0,0,0,0,0,0,0,0,0,0],"id":66,"left_children":[1,3,5,-1,-1,7,9,-1,-1,-1,-1],"loss_changes":[3.4245647E3,1.875679E3,2.9430598E3,0E0,0E0,2.3065288E3,2.8365244E3,0E0,0E0,0E0,0E0],"parents":[2147483647,0,0,1,1,2,2,5,5,6,6],"right_children":[2,4,6,-1,-1,8,10,-1,-1,-1,-1],"split_conditions":[0E0,-2.065875E0,6.2252436E0,1.19645655E-1,-7.96388E-1,-1.2573992E0,1E0,-7.1813476E-1,-8.777247E-2,2.9639572E-2,-6.034088E-1],"split_indices":[3580,2816,2348,0,0,2900,2032,0,0,0,0],"split_type":[0,0,0,0,0,0,0,0,0,0,0],"sum_hessian":[1.149E3,2.2E1,1.127E3,6E0,1.6E1,6E1,1.067E3,1.9E1,4.1E1,1.054E3,1.3E1],"tree_param":{"num_deleted":"0","num_feature":"4336","num_nodes":"11","size_leaf_vector":"1"}},{"base_weights":[-9.111179E-3,1.2979304E0,-1.9294881E0,2.6215866E0,-1.7700149E0,-8.197219E-1,-9.585253E0,3.235407E-1,8.350243E-2,-2.8418435E-2,-5.1280636E-1,-5.202984E-1,-1.040274E-2,-6.388066E-1,1.800626E-1],"categories":[],"categories_nodes":[],"categories_segments":[],"categories_sizes":[],"default_left":[0,0,0,0,0,0,0,0,0,0,0,0,0,0,0],"id":67,"left_children":[1,3,5,7,9,11,13,-1,-1,-1,-1,-1,-1,-1,-1],"loss_changes":[2.8137585E3,2.7319102E3,3.8169067E3,1.6592903E3,2.0500212E3,2.345277E3,2.6293306E3,0E0,0E0,0E0,0E0,0E0,0E0,0E0,0E0],"parents":[2147483647,0,0,1,1,2,2,3,3,4,4,5,5,6,6],"right_children":[2,4,6,8,10,12,14,-1,-1,-1,-1,-1,-1,-1,-1],"split_conditions":[1E0,1.4374737E0,2.018403E0,2.4353635E0,1.1369252E-1,5.1964843E-1,4.8550243E1,3.235407E-1,8.350243E-2,-2.8418435E-2,-5.1280636E-1,-5.202984E-1,-1.040274E-2,-6.388066E-1,1.800626E-1],"split_indices":[2518,3516,4153,2339,3058,3084,4183,0,0,0,0,0,0,0,0],"split_type":[0,0,0,0,0,0,0,0,0,0,0,0,0,0,0],"sum_hessian":[1.111E3,6.62E2,4.49E2,4.63E2,1.99E2,3.97E2,5.2E1,8.6E1,3.77E2,1.79E2,2E1,1.9E1,3.78E2,4.2E1,1E1],"tree_param":{"num_deleted":"0","num_feature":"4336","num_nodes":"15","size_leaf_vector":"1"}},{"base_weights":[-3.1509832E-1,-2.0851743E0,1.2815852E0,-8.894844E0,-8.669328E-1,-8.584439E0,1.5713999E0,9.507771E-3,-6.448964E-1,-6.451337E-3,-4.7112295E-1,1.4380474E-1,-7.05311E-1,3.8487723E-1,5.4032814E-2],"categories":[],"categories_nodes":[],"categories_segments":[],"categories_sizes":[],"default_left":[0,0,0,0,0,0,0,0,0,0,0,0,0,0,0],"id":68,"left_children":[1,3,5,7,9,11,13,-1,-1,-1,-1,-1,-1,-1,-1],"loss_changes":[3.2438472E3,4.4733945E3,1.7937756E3,2.995711E3,2.9412185E3,1.3430634E3,1.7342927E3,0E0,0E0,0E0,0E0,0E0,0E0,0E0,0E0],"parents":[2147483647,0,0,1,1,2,2,3,3,4,4,5,5,6,6],"right_children":[2,4,6,8,10,12,14,-1,-1,-1,-1,-1,-1,-1,-1],"split_conditions":[3.274533E1,3.0499115E0,1.3000457E0,-1.5497827E-3,1E0,-9.852396E-1,9.066667E-1,9.507771E-3,-6.448964E-1,-6.451337E-3,-4.7112295E-1,1.4380474E-1,-7.05311E-1,3.8487723E-1,5.4032814E-2],"split_indices":[2803,2482,2319,2861,472,2816,4075,0,0,0,0,0,0,0,0],"split_type":[0,0,0,0,0,0,0,0,0,0,0,0,0,0,0],"sum_hessian":[1.138E3,5.39E2,5.99E2,7.7E1,4.62E2,1.3E1,5.86E2,2.5E1,5.2E1,4.3E2,3.2E1,5E0,8E0,3.8E1,5.48E2],"tree_param":{"num_deleted":"0","num_feature":"4336","num_nodes":"15","size_leaf_vector":"1"}},{"base_weights":[2.7551211E-2,-9.96113E0,2.8194425E-1,-1.3768145E1,1.6924344E-1,6.0639244E-1,-5.699918E0,-6.286546E-2,-8.5360616E-1,4.4389978E-2,-3.455562E-1,-8.524252E-2,-7.44944E-1],"categories":[],"categories_nodes":[],"categories_segments":[],"categories_sizes":[],"default_left":[0,0,0,0,0,0,0,0,0,0,0,0,0],"id":69,"left_children":[1,3,5,7,-1,9,11,-1,-1,-1,-1,-1,-1],"loss_changes":[2.762492E3,1.6058828E3,2.0740251E3,8.002241E2,0E0,2.1667131E3,1.8926138E3,0E0,0E0,0E0,0E0,0E0,0E0],"parents":[2147483647,0,0,1,1,2,2,3,3,5,5,6,6],"right_children":[2,4,6,8,-1,10,12,-1,-1,-1,-1,-1,-1],"split_conditions":[-1.4769078E-2,-5.8111787E0,1E0,9.6643436E-1,1.6924344E-1,1.25E-1,5.15311E0,-6.286546E-2,-8.5360616E-1,4.4389978E-2,-3.455562E-1,-8.524252E-2,-7.44944E-1],"split_indices":[2930,2316,19,3074,0,3887,4175,0,0,0,0,0,0],"split_type":[0,0,0,0,0,0,0,0,0,0,0,0,0],"sum_hessian":[1.077E3,2.2E1,1.055E3,1.7E1,5E0,1.005E3,5E1,5E0,1.2E1,9.73E2,3.2E1,3.9E1,1.1E1],"tree_param":{"num_deleted":"0","num_feature":"4336","num_nodes":"13","size_leaf_vector":"1"}},{"base_weights":[1.425845E-1,3.5288775E-1,-8.971055E-1,6.045672E-1,-7.2716956E0,3.8223237E-2,-5.5194753E-1,1.120955E-1,-7.302839E-1],"categories":[],"categories_nodes":[],"categories_segments":[],"categories_sizes":[],"default_left":[0,0,0,0,0,0,0,0,0],"id":70,"left_children":[1,3,-1,5,7,-1,-1,-1,-1],"loss_changes":[4.300971E3,2.160945E3,0E0,2.0593254E3,2.6767742E3,0E0,0E0,0E0,0E0],"parents":[2147483647,0,0,1,1,3,3,4,4],"right_children":[2,4,-1,6,8,-1,-1,-1,-1],"split_conditions":[6.839607E0,8.876547E-1,-8.971055E-1,-7.551989E-2,2.906111E2,3.8223237E-2,-5.5194753E-1,1.120955E-1,-7.302839E-1],"split_indices":[3586,4132,0,2440,2573,0,0,0,0],"split_type":[0,0,0,0,0,0,0,0,0],"sum_hessian":[1.118E3,1.11E3,8E0,1.079E3,3.1E1,1.069E3,1E1,1.5E1,1.6E1],"tree_param":{"num_deleted":"0","num_feature":"4336","num_nodes":"9","size_leaf_vector":"1"}},{"base_weights":[-3.255868E-1,-1.3707772E1,-1.0974396E-1,-8.0561876E-1,-1.9791812E-1,1.4973449E0,-1.4737384E0,-3.6122575E-1,1.0022328E-1,-4.3846246E-2,-5.158973E-1],"categories":[],"categories_nodes":[],"categories_segments":[],"categories_sizes":[],"default_left":[0,0,0,0,0,0,0,0,0,0,0],"id":71,"left_children":[1,3,5,-1,-1,7,9,-1,-1,-1,-1],"loss_changes":[3.0932905E3,7.763867E1,2.338999E3,0E0,0E0,2.2391714E3,2.9992434E3,0E0,0E0,0E0,0E0],"parents":[2147483647,0,0,1,1,2,2,5,5,6,6],"right_children":[2,4,6,-1,-1,8,10,-1,-1,-1,-1],"split_conditions":[-1.7391605E0,1.2721055E1,1.2646285E1,-8.0561876E-1,-1.9791812E-1,3.3430314E0,-1.162106E1,-3.6122575E-1,1.0022328E-1,-4.3846246E-2,-5.158973E-1],"split_indices":[2381,3846,4128,0,0,2399,2497,0,0,0,0],"split_type":[0,0,0,0,0,0,0,0,0,0,0],"sum_hessian":[1.069E3,1.2E1,1.057E3,7E0,5E0,4.85E2,5.72E2,2.3E1,4.62E2,5.41E2,3.1E1],"tree_param":{"num_deleted":"0","num_feature":"4336","num_nodes":"11","size_leaf_vector":"1"}},{"base_weights":[4.594416E-2,-1.0593262E1,2.6392278E-1,-6.819694E-1,8.819859E-3,1.4077653E-2,9.051363E0,-2.0416556E-1,2.321623E-2,5.4770607E-1,1.0979799E-1],"categories":[],"categories_nodes":[],"categories_segments":[],"categories_sizes":[],"default_left":[0,0,0,0,0,0,0,0,0,0,0],"id":72,"left_children":[1,3,5,-1,-1,7,9,-1,-1,-1,-1],"loss_changes":[2.656742E3,7.679082E2,2.4618064E3,0E0,0E0,2.0310591E3,2.8278052E2,0E0,0E0,0E0,0E0],"parents":[2147483647,0,0,1,1,2,2,5,5,6,6],"right_children":[2,4,6,-1,-1,8,10,-1,-1,-1,-1],"split_conditions":[-3.984E-1,3.3218965E-1,1.2033645E0,-6.819694E-1,8.819859E-3,3.1614742E0,3.2183993E0,-2.0416556E-1,2.321623E-2,5.4770607E-1,1.0979799E-1],"split_indices":[4249,3357,3141,0,0,2308,2419,0,0,0,0],"split_type":[0,0,0,0,0,0,0,0,0,0,0],"sum_hessian":[1.135E3,1.8E1,1.117E3,1.3E1,5E0,1.091E3,2.6E1,1.04E2,9.87E2,1.8E1,8E0],"tree_param":{"num_deleted":"0","num_feature":"4336","num_nodes":"11","size_leaf_vector":"1"}},{"base_weights":[-4.287839E-2,-4.1624765E0,5.6614923E-1,-4.207491E-1,-1.0812033E1,1.03711E0,-5.1089163E0,-1.5202957E-1,3.5139176E-1,1.6712849E-1,-7.9806656E-1,6.3557446E-2,-3.580411E-1,-4.6735063E-1,2.1548338E-1],"categories":[],"categories_nodes":[],"categories_segments":[],"categories_sizes":[],"default_left":[0,0,0,0,0,0,0,0,0,0,0,0,0,0,0],"id":73,"left_children":[1,3,5,7,9,11,13,-1,-1,-1,-1,-1,-1,-1,-1],"loss_changes":[2.8246746E3,3.5838513E3,2.6480364E3,2.0188286E3,4.058109E3,1.7908822E3,3.235598E3,0E0,0E0,0E0,0E0,0E0,0E0,0E0,0E0],"parents":[2147483647,0,0,1,1,2,2,3,3,4,4,5,5,6,6],"right_children":[2,4,6,8,10,12,14,-1,-1,-1,-1,-1,-1,-1,-1],"split_conditions":[1.9879894E0,1.9843744E0,1.8750246E-1,-6.6803986E-1,1.0550816E0,6.1804193E2,3.8278306E0,-1.5202957E-1,3.5139176E-1,1.6712849E-1,-7.9806656E-1,6.3557446E-2,-3.580411E-1,-4.6735063E-1,2.1548338E-1],"split_indices":[3176,3176,2888,2449,3061,2805,3773,0,0,0,0,0,0,0,0],"split_type":[0,0,0,0,0,0,0,0,0,0,0,0,0,0,0],"sum_hessian":[1.116E3,1.4E2,9.76E2,9.3E1,4.7E1,9.05E2,7.1E1,7.1E1,2.2E1,1.3E1,3.4E1,8.84E2,2.1E1,4.9E1,2.2E1],"tree_param":{"num_deleted":"0","num_feature":"4336","num_nodes":"15","size_leaf_vector":"1"}},{"base_weights":[-4.664928E-1,-1.9479198E0,8.397156E-1,-1.0326542E0,-9.072246E0,1.2349536E0,-7.097344E0,9.6797414E-2,-1.5320666E-1,-5.561561E-1,-3.914709E-3,9.051906E-2,-1.6179174E-1,5.7514934E-3,-6.114073E-1],"categories":[],"categories_nodes":[],"categories_segments":[],"categories_sizes":[],"default_left":[0,0,0,0,0,0,0,0,0,0,0,0,0,0,0],"id":74,"left_children":[1,3,5,7,9,11,13,-1,-1,-1,-1,-1,-1,-1,-1],"loss_changes":[2.1658728E3,3.3689683E3,1.9129067E3,2.8641802E3,1.0828086E3,1.5006836E3,1.0813967E3,0E0,0E0,0E0,0E0,0E0,0E0,0E0,0E0],"parents":[2147483647,0,0,1,1,2,2,3,3,4,4,5,5,6,6],"right_children":[2,4,6,8,10,12,14,-1,-1,-1,-1,-1,-1,-1,-1],"split_conditions":[4.8575947E-1,1.736196E0,-2.7418528E0,-4.81036E0,1.1168162E0,1.923421E-2,-5.131393E-1,9.6797414E-2,-1.5320666E-1,-5.561561E-1,-3.914709E-3,9.051906E-2,-1.6179174E-1,5.7514934E-3,-6.114073E-1],"split_indices":[2813,2430,2495,2297,3070,2952,2363,0,0,0,0,0,0,0,0],"split_type":[0,0,0,0,0,0,0,0,0,0,0,0,0,0,0],"sum_hessian":[1.11E3,5.19E2,5.91E2,4.65E2,5.4E1,5.67E2,2.4E1,1.89E2,2.76E2,4.3E1,1.1E1,5.05E2,6.2E1,1.2E1,1.2E1],"tree_param":{"num_deleted":"0","num_feature":"4336","num_nodes":"15","size_leaf_vector":"1"}},{"base_weights":[-2.0360024E-1,5.8669275E-1,-3.930317E0,1.325378E0,-3.0153527E0,4.9458376E-1,-8.796853E0,7.377833E-2,-4.9929938E-1,-5.4039854E-1,-2.7089799E-2,-5.9071374E-1,9.527938E-2,-7.4888223E-1,-1.7272346E-1],"categories":[],"categories_nodes":[],"categories_segments":[],"categories_sizes":[],"default_left":[0,0,0,0,0,0,0,0,0,0,0,0,0,0,0],"id":75,"left_children":[1,3,5,7,9,11,13,-1,-1,-1,-1,-1,-1,-1,-1],"loss_changes":[3.3841155E3,2.544891E3,4.3509062E3,1.416606E3,3.1114902E3,2.0220378E3,2.909393E3,0E0,0E0,0E0,0E0,0E0,0E0,0E0,0E0],"parents":[2147483647,0,0,1,1,2,2,3,3,4,4,5,5,6,6],"right_children":[2,4,6,8,10,12,14,-1,-1,-1,-1,-1,-1,-1,-1],"split_conditions":[1E0,8.430571E-2,9.9425083E-1,1E0,2.3039305E0,8.907483E0,5.3062897E0,7.377833E-2,-4.9929938E-1,-5.4039854E-1,-2.7089799E-2,-5.9071374E-1,9.527938E-2,-7.4888223E-1,-1.7272346E-1],"split_indices":[4271,2958,3095,962,2273,2398,2434,0,0,0,0,0,0,0,0],"split_type":[0,0,0,0,0,0,0,0,0,0,0,0,0,0,0],"sum_hessian":[1.14E3,9.44E2,1.96E2,7.86E2,1.58E2,1.05E2,9.1E1,7.8E2,6E0,3.4E1,1.24E2,7E0,9.8E1,3.8E1,5.3E1],"tree_param":{"num_deleted":"0","num_feature":"4336","num_nodes":"15","size_leaf_vector":"1"}},{"base_weights":[-3.1205004E-1,-8.251431E0,-2.5582623E-5,-1.3912754E1,3.1560965E0,4.1874063E-1,-5.092828E0,-4.1077364E-2,-8.5724527E-1,3.0899853E-1,-7.840867E-2,-3.8228872E-1,3.3707693E-2,2.18219E-1,-3.9517558E-1],"categories":[],"categories_nodes":[],"categories_segments":[],"categories_sizes":[],"default_left":[0,0,0,0,0,0,0,0,0,0,0,0,0,0,0],"id":76,"left_children":[1,3,5,7,9,11,13,-1,-1,-1,-1,-1,-1,-1,-1],"loss_changes":[2.751433E3,2.9330562E3,2.301643E3,1.1548472E3,3.0605823E2,2.0786794E3,2.3524836E3,0E0,0E0,0E0,0E0,0E0,0E0,0E0,0E0],"parents":[2147483647,0,0,1,1,2,2,3,3,4,4,5,5,6,6],"right_children":[2,4,6,8,10,12,14,-1,-1,-1,-1,-1,-1,-1,-1],"split_conditions":[5.539074E0,5.0642315E1,6.800449E0,8.162804E-1,-4.8373714E-3,4.5444443E1,-1.1131344E1,-4.1077364E-2,-8.5724527E-1,3.0899853E-1,-7.840867E-2,-3.8228872E-1,3.3707693E-2,2.18219E-1,-3.9517558E-1],"split_indices":[4151,3809,2299,3063,2824,2557,2246,0,0,0,0,0,0,0,0],"split_type":[0,0,0,0,0,0,0,0,0,0,0,0,0,0,0],"sum_hessian":[1.106E3,3.7E1,1.069E3,2.4E1,1.3E1,9.92E2,7.7E1,6E0,1.8E1,7E0,6E0,2.6E1,9.66E2,1.7E1,6E1],"tree_param":{"num_deleted":"0","num_feature":"4336","num_nodes":"15","size_leaf_vector":"1"}},{"base_weights":[3.235046E-1,1.3761895E0,-1.4573482E0,1.9534692E0,-2.4217594E0,-8.8017845E0,-6.949073E-1,2.1109882E-1,3.5535574E-2,-4.7264338E-1,9.3674265E-2,-6.6407585E-1,1.03101924E-1,1.2500647E-1,-1.1103799E-1],"categories":[],"categories_nodes":[],"categories_segments":[],"categories_sizes":[],"default_left":[0,0,0,0,0,0,0,0,0,0,0,0,0,0,0],"id":77,"left_children":[1,3,5,7,9,11,13,-1,-1,-1,-1,-1,-1,-1,-1],"loss_changes":[2.167773E3,1.6153469E3,2.3763386E3,1.7690603E3,3.0489395E3,2.0847378E3,1.9534191E3,0E0,0E0,0E0,0E0,0E0,0E0,0E0,0E0],"parents":[2147483647,0,0,1,1,2,2,3,3,4,4,5,5,6,6],"right_children":[2,4,6,8,10,12,14,-1,-1,-1,-1,-1,-1,-1,-1],"split_conditions":[1.7981655E1,3.8663942E-2,-1.5456423E-1,4.9089637E0,1.5E1,1.5128062E1,-6.410843E-2,2.1109882E-1,3.5535574E-2,-4.7264338E-1,9.3674265E-2,-6.6407585E-1,1.03101924E-1,1.2500647E-1,-1.1103799E-1],"split_indices":[4186,3046,2965,2290,3292,3802,3024,0,0,0,0,0,0,0,0],"split_type":[0,0,0,0,0,0,0,0,0,0,0,0,0,0,0],"sum_hessian":[1.146E3,7.21E2,4.25E2,6.28E2,9.3E1,3.5E1,3.9E2,2.18E2,4.1E2,3.3E1,6E1,2.4E1,1.1E1,1.25E2,2.65E2],"tree_param":{"num_deleted":"0","num_feature":"4336","num_nodes":"15","size_leaf_vector":"1"}},{"base_weights":[-6.3253987E-1,-3.2855585E-1,-9.318816E0,7.263694E-1,-2.1066933E0,-1.4238446E1,2.6361225E0,-3.059822E-1,6.44254E-2,1.6747436E-2,-2.5895593E-1,-9.0001605E-2,-8.679469E-1,1.819215E-1,1.5287697E-2],"categories":[],"categories_nodes":[],"categories_segments":[],"categories_sizes":[],"default_left":[0,0,0,0,0,0,0,0,0,0,0,0,0,0,0],"id":78,"left_children":[1,3,5,7,9,11,13,-1,-1,-1,-1,-1,-1,-1,-1],"loss_changes":[2.8882646E3,2.0111456E3,2.364945E3,2.6327703E3,3.0023616E3,8.898281E2,2.9079445E1,0E0,0E0,0E0,0E0,0E0,0E0,0E0,0E0],"parents":[2147483647,0,0,1,1,2,2,3,3,4,4,5,5,6,6],"right_children":[2,4,6,8,10,12,14,-1,-1,-1,-1,-1,-1,-1,-1],"split_conditions":[7.130957E-1,-3.0624837E-1,2.064075E-1,-1.0333522E3,1.0220338E0,-7.7596503E-1,3.094095E-1,-3.059822E-1,6.44254E-2,1.6747436E-2,-2.5895593E-1,-9.0001605E-2,-8.679469E-1,1.819215E-1,1.5287697E-2],"split_indices":[2382,2240,4081,2799,3143,2378,3357,0,0,0,0,0,0,0,0],"split_type":[0,0,0,0,0,0,0,0,0,0,0,0,0,0,0],"sum_hessian":[1.095E3,1.063E3,3.2E1,6.69E2,3.94E2,2.2E1,1E1,4.7E1,6.22E2,2.22E2,1.72E2,6E0,1.6E1,5E0,5E0],"tree_param":{"num_deleted":"0","num_feature":"4336","num_nodes":"15","size_leaf_vector":"1"}},{"base_weights":[-5.14774E-1,-1.9270794E-1,-8.496753E0,-4.4790287E0,2.653853E-1,2.4326482E0,-1.3123077E1,-5.8859414E-1,3.0509038E-2,2.9611263E-2,-2.8561434E-1,2.8517008E-1,-1.34929E-1,4.3983E-2,-8.331833E-1],"categories":[],"categories_nodes":[],"categories_segments":[],"categories_sizes":[],"default_left":[0,0,0,0,0,0,0,0,0,0,0,0,0,0,0],"id":79,"left_children":[1,3,5,7,9,11,13,-1,-1,-1,-1,-1,-1,-1,-1],"loss_changes":[2.8495898E3,2.115201E3,2.3348953E3,3.896976E3,1.9213014E3,3.625666E2,1.6117866E3,0E0,0E0,0E0,0E0,0E0,0E0,0E0,0E0],"parents":[2147483647,0,0,1,1,2,2,3,3,4,4,5,5,6,6],"right_children":[2,4,6,8,10,12,14,-1,-1,-1,-1,-1,-1,-1,-1],"split_conditions":[8.3333336E-2,2.3E0,2.0894592E1,-1.1160261E-1,1.024321E2,-7.898459E-1,9.134943E-1,-5.8859414E-1,3.0509038E-2,2.9611263E-2,-2.8561434E-1,2.8517008E-1,-1.34929E-1,4.3983E-2,-8.331833E-1],"split_indices":[3887,2663,3168,2261,2761,2818,3144,0,0,0,0,0,0,0,0],"split_type":[0,0,0,0,0,0,0,0,0,0,0,0,0,0,0],"sum_hessian":[1.107E3,1.069E3,3.8E1,9.9E1,9.7E2,1.2E1,2.6E1,3.8E1,6.1E1,9.24E2,4.6E1,7E0,5E0,6E0,2E1],"tree_param":{"num_deleted":"0","num_feature":"4336","num_nodes":"15","size_leaf_vector":"1"}},{"base_weights":[-8.251841E-2,-1.0808062E1,1.5008594E-1,-1.5816222E1,2.0507374E-1,4.8364383E-1,-4.906216E0,-9.0773964E-1,-2.3120569E-1,1.0003288E-1,-2.3891354E-2,-7.810781E-1,-2.4071937E-2],"categories":[],"categories_nodes":[],"categories_segments":[],"categories_sizes":[],"default_left":[0,0,0,0,0,0,0,0,0,0,0,0,0],"id":80,"left_children":[1,3,5,7,-1,9,11,-1,-1,-1,-1,-1,-1],"loss_changes":[2.8208252E3,2.1175857E3,1.8801411E3,7.527051E1,0E0,1.5276735E3,3.2322837E3,0E0,0E0,0E0,0E0,0E0,0E0],"parents":[2147483647,0,0,1,1,2,2,3,3,5,5,6,6],"right_children":[2,4,6,8,-1,10,12,-1,-1,-1,-1,-1,-1],"split_conditions":[-1.4769078E-2,1.16295E1,1E0,4.6256277E-1,2.0507374E-1,-5.365408E-2,-2.6374678E1,-9.0773964E-1,-2.3120569E-1,1.0003288E-1,-2.3891354E-2,-7.810781E-1,-2.4071937E-2],"split_indices":[2930,3854,2176,2818,0,3032,2781,0,0,0,0,0,0],"split_type":[0,0,0,0,0,0,0,0,0,0,0,0,0],"sum_hessian":[1.122E3,1.9E1,1.103E3,1.4E1,5E0,1.039E3,6.4E1,9E0,5E0,4.01E2,6.38E2,1.5E1,4.9E1],"tree_param":{"num_deleted":"0","num_feature":"4336","num_nodes":"13","size_leaf_vector":"1"}},{"base_weights":[-4.805278E-1,-8.194195E0,-1.8537688E-1,-1.1495921E1,1.6655162E-1,1.9958043E0,-1.1501461E0,-1.992638E-1,-6.7389905E-1,-3.4393388E-1,1.2030461E-1,6.065304E-2,-1.24720864E-1],"categories":[],"categories_nodes":[],"categories_segments":[],"categories_sizes":[],"default_left":[0,0,0,0,0,0,0,0,0,0,0,0,0],"id":81,"left_children":[1,3,5,7,-1,9,11,-1,-1,-1,-1,-1,-1],"loss_changes":[2.5323594E3,1.7524619E3,2.2840762E3,2.2094287E2,0E0,1.2947903E3,2.4042043E3,0E0,0E0,0E0,0E0,0E0,0E0],"parents":[2147483647,0,0,1,1,2,2,3,3,5,5,6,6],"right_children":[2,4,6,8,-1,10,12,-1,-1,-1,-1,-1,-1],"split_conditions":[1.1963668E2,1.7331122E-1,-1.6186217E0,-2.4692987E-1,1.6655162E-1,-2.353522E-1,1.2360001E1,-1.992638E-1,-6.7389905E-1,-3.4393388E-1,1.2030461E-1,6.065304E-2,-1.24720864E-1],"split_indices":[2701,2833,2405,2960,0,2968,4128,0,0,0,0,0,0],"split_type":[0,0,0,0,0,0,0,0,0,0,0,0,0],"sum_hessian":[1.111E3,3.6E1,1.075E3,2.8E1,8E0,3.28E2,7.47E2,9E0,1.9E1,1.1E1,3.17E2,2.71E2,4.76E2],"tree_param":{"num_deleted":"0","num_feature":"4336","num_nodes":"13","size_leaf_vector":"1"}},{"base_weights":[-2.3420645E-1,-5.1412854E0,2.6638547E-1,-7.8698134E0,3.891628E0,-9.634275E-2,5.1795325E0,-5.9068763E-1,-5.244086E-3,3.3533782E-1,-1.6212691E-1,5.6383368E-3,-4.416538E-1,3.8804144E-1,-6.3653536E-2],"categories":[],"categories_nodes":[],"categories_segments":[],"categories_sizes":[],"default_left":[0,0,0,0,0,0,0,0,0,0,0,0,0,0,0],"id":82,"left_children":[1,3,5,7,9,11,13,-1,-1,-1,-1,-1,-1,-1,-1],"loss_changes":[2.7069675E3,2.6674785E3,1.7887046E3,2.4425664E3,6.51338E2,1.7195162E3,1.1993186E3,0E0,0E0,0E0,0E0,0E0,0E0,0E0,0E0],"parents":[2147483647,0,0,1,1,2,2,3,3,4,4,5,5,6,6],"right_children":[2,4,6,8,10,12,14,-1,-1,-1,-1,-1,-1,-1,-1],"split_conditions":[1.675E0,8.826588E0,-3.0882647E0,-4.4032307E0,1.1072261E0,3.8856614E-1,1.164667E1,-5.9068763E-1,-5.244086E-3,3.3533782E-1,-1.6212691E-1,5.6383368E-3,-4.416538E-1,3.8804144E-1,-6.3653536E-2],"split_indices":[4249,4116,2496,2316,3154,2402,3677,0,0,0,0,0,0,0,0],"split_type":[0,0,0,0,0,0,0,0,0,0,0,0,0,0,0],"sum_hessian":[1.094E3,9.7E1,9.97E2,7.5E1,2.2E1,9.33E2,6.4E1,4.8E1,2.7E1,1.6E1,6E0,9.16E2,1.7E1,4.5E1,1.9E1],"tree_param":{"num_deleted":"0","num_feature":"4336","num_nodes":"15","size_leaf_vector":"1"}},{"base_weights":[-2.601882E-1,5.104755E-2,